5.759342014789581299e-02
-9.511435776948928833e-02
-2.027232199907302856e-02
-7.455588132143020630e-02
-7.993080019950866699e-01
-2.128359824419021606e-01
6.557068973779678345e-02
-9.653367102146148682e-02
-1.211061142385005951e-02
-0.000000000000000000e+00
1.426595542579889297e-02
0.000000000000000000e+00
4.123804718255996704e-02
-1.612532585859298706e-01
-2.320779487490653992e-02
0.000000000000000000e+00
0.000000000000000000e+00
7.168635725975036621e-02
-0.000000000000000000e+00
-0.000000000000000000e+00
-0.000000000000000000e+00
0.000000000000000000e+00
0.000000000000000000e+00
0.000000000000000000e+00
0.000000000000000000e+00
0.000000000000000000e+00
0.000000000000000000e+00
0.000000000000000000e+00
-0.000000000000000000e+00
0.000000000000000000e+00
-2.127145230770111084e-02
-6.826751679182052612e-02
-1.572043076157569885e-02
2.588840015232563019e-02
-1.460732519626617432e-02
-0.000000000000000000e+00
-0.000000000000000000e+00
-0.000000000000000000e+00
0.000000000000000000e+00
-0.000000000000000000e+00
-0.000000000000000000e+00
-0.000000000000000000e+00
-0.000000000000000000e+00
0.000000000000000000e+00
0.000000000000000000e+00
4.414838552474975586e-02
1.470870990306138992e-02
-1.617959327995777130e-02
5.081755667924880981e-02
9.993240237236022949e-02
4.973555356264114380e-02
-1.305796485394239426e-02
0.000000000000000000e+00
0.000000000000000000e+00
-0.000000000000000000e+00
-3.726282343268394470e-02
-5.950719118118286133e-02
0.000000000000000000e+00
-3.114194609224796295e-02
-1.203963905572891235e-02
-0.000000000000000000e+00
2.991923876106739044e-02
0.000000000000000000e+00
-0.000000000000000000e+00
-0.000000000000000000e+00
0.000000000000000000e+00
-0.000000000000000000e+00
-0.000000000000000000e+00
0.000000000000000000e+00
-0.000000000000000000e+00
0.000000000000000000e+00
0.000000000000000000e+00
2.617016434669494629e-02
0.000000000000000000e+00
-0.000000000000000000e+00
6.941275298595428467e-02
0.000000000000000000e+00
0.000000000000000000e+00
5.591695755720138550e-02
2.877683192491531372e-02
2.349298819899559021e-02
0.000000000000000000e+00
-0.000000000000000000e+00
-0.000000000000000000e+00
-0.000000000000000000e+00
-0.000000000000000000e+00
0.000000000000000000e+00
0.000000000000000000e+00
0.000000000000000000e+00
0.000000000000000000e+00
1.461220160126686096e-02
6.391624361276626587e-02
-4.621217399835586548e-02
1.006927639245986938e-01
-2.613398134708404541e-01
-1.337732523679733276e-01
1.350255496799945831e-02
6.762774288654327393e-02
-5.028935894370079041e-02
-0.000000000000000000e+00
8.398071676492691040e-02
4.015071690082550049e-02
4.228854179382324219e-02
4.400056973099708557e-02
4.424124956130981445e-02
5.519387125968933105e-02
2.556692995131015778e-02
3.765990212559700012e-02
-2.994691953063011169e-02
-6.688009947538375854e-02
-1.836056634783744812e-02
-3.045750595629215240e-02
-1.581542789936065674e-01
-5.185133963823318481e-02
0.000000000000000000e+00
-3.267648816108703613e-02
2.458605542778968811e-02
-0.000000000000000000e+00
-0.000000000000000000e+00
0.000000000000000000e+00
-0.000000000000000000e+00
-0.000000000000000000e+00
0.000000000000000000e+00
0.000000000000000000e+00
0.000000000000000000e+00
0.000000000000000000e+00
0.000000000000000000e+00
-1.337694749236106873e-02
-4.192017763853073120e-02
-2.667290158569812775e-02
8.231517672538757324e-02
-1.927232928574085236e-02
-4.679349064826965332e-02
3.666660562157630920e-02
-5.998835340142250061e-02
2.559912949800491333e-02
1.917616464197635651e-02
4.707916453480720520e-02
0.000000000000000000e+00
-6.893977522850036621e-02
-0.000000000000000000e+00
0.000000000000000000e+00
0.000000000000000000e+00
1.665377058088779449e-02
0.000000000000000000e+00
2.499500662088394165e-02
-2.763970568776130676e-02
-1.413072086870670319e-02
-1.457980554550886154e-02
0.000000000000000000e+00
0.000000000000000000e+00
7.335003465414047241e-02
5.654105916619300842e-02
0.000000000000000000e+00
0.000000000000000000e+00
-0.000000000000000000e+00
0.000000000000000000e+00
-1.506447698920965195e-02
-0.000000000000000000e+00
1.594169437885284424e-02
0.000000000000000000e+00
1.916390657424926758e-02
1.607586070895195007e-02
-1.212918199598789215e-02
-2.242799662053585052e-02
-0.000000000000000000e+00
-6.353057920932769775e-02
-0.000000000000000000e+00
0.000000000000000000e+00
-0.000000000000000000e+00
0.000000000000000000e+00
1.325197517871856689e-02
1.207008492201566696e-02
6.644160300493240356e-02
6.252455711364746094e-02
-1.037074252963066101e-01
-0.000000000000000000e+00
-0.000000000000000000e+00
-7.831967622041702271e-02
-0.000000000000000000e+00
-4.372625425457954407e-02
-8.382623642683029175e-02
1.231571380048990250e-02
-5.026042833924293518e-02
0.000000000000000000e+00
-0.000000000000000000e+00
-4.535816609859466553e-02
-1.368835754692554474e-02
-4.872220009565353394e-02
1.684774644672870636e-02
1.120445430278778076e-01
4.799116030335426331e-02
-3.591866046190261841e-02
-0.000000000000000000e+00
3.799923136830329895e-02
-4.530088230967521667e-02
-0.000000000000000000e+00
2.740454301238059998e-02
-0.000000000000000000e+00
-0.000000000000000000e+00
-5.439058318734169006e-02
-4.877585545182228088e-02
2.232866734266281128e-02
-4.663427919149398804e-02
-2.648741565644741058e-02
-2.776198089122772217e-02
-6.342739611864089966e-02
7.786416262388229370e-02
2.898484282195568085e-02
6.826902925968170166e-02
2.072612196207046509e-02
-5.437117815017700195e-02
1.894302479922771454e-02
4.182722046971321106e-02
3.936851024627685547e-02
1.490772701799869537e-02
2.495655603706836700e-02
-3.773038089275360107e-02
-7.479167729616165161e-02
8.984260261058807373e-02
-4.121850430965423584e-01
-4.327489435672760010e-02
-2.475409023463726044e-02
4.657998308539390564e-02
2.933369018137454987e-02
-4.314651340246200562e-02
4.373633116483688354e-02
-6.901779025793075562e-02
-0.000000000000000000e+00
2.939359098672866821e-02
-2.820036187767982483e-02
4.938319325447082520e-02
-3.911454230546951294e-02
-0.000000000000000000e+00
-0.000000000000000000e+00
3.628487884998321533e-02
6.233432516455650330e-02
-4.344779625535011292e-02
-1.218438744544982910e-01
3.606387600302696228e-02
0.000000000000000000e+00
4.309438169002532959e-02
0.000000000000000000e+00
3.660028427839279175e-02
-0.000000000000000000e+00
-0.000000000000000000e+00
-0.000000000000000000e+00
-8.077806234359741211e-02
-0.000000000000000000e+00
3.863849490880966187e-02
4.096377640962600708e-02
4.870996624231338501e-02
-3.144403174519538879e-02
3.880629688501358032e-02
-0.000000000000000000e+00
-6.277579069137573242e-02
-4.434648156166076660e-02
0.000000000000000000e+00
-1.457043830305337906e-02
1.262208670377731323e-01
5.877044796943664551e-02
-0.000000000000000000e+00
1.680396869778633118e-02
1.314515247941017151e-02
-0.000000000000000000e+00
-1.181508973240852356e-01
0.000000000000000000e+00
1.883384212851524353e-02
-7.637968659400939941e-02
-0.000000000000000000e+00
-2.721841447055339813e-02
-2.770217694342136383e-02
-6.241845339536666870e-02
2.462545968592166901e-02
-2.524834275245666504e-01
-3.818390071392059326e-01
-3.006102330982685089e-02
0.000000000000000000e+00
-5.674051493406295776e-02
0.000000000000000000e+00
-4.404607415199279785e-02
-1.334525179117918015e-02
-3.163954988121986389e-02
-1.395368725061416626e-01
-5.421842262148857117e-02
3.638642653822898865e-02
-3.992770612239837646e-02
2.795614115893840790e-02
2.302634343504905701e-02
0.000000000000000000e+00
-0.000000000000000000e+00
-0.000000000000000000e+00
-5.810284614562988281e-02
-1.593351550400257111e-02
1.796256378293037415e-02
6.354435533285140991e-02
4.460441321134567261e-02
0.000000000000000000e+00
-1.274782791733741760e-02
-1.797206141054630280e-02
-1.634349860250949860e-02
-4.373773932456970215e-02
-2.158267237246036530e-02
2.798916026949882507e-02
6.573569774627685547e-02
-0.000000000000000000e+00
0.000000000000000000e+00
-1.451371796429157257e-02
-0.000000000000000000e+00
-2.131469175219535828e-02
-4.886043816804885864e-02
1.475589442998170853e-02
1.925363764166831970e-02
5.403739586472511292e-02
3.740435466170310974e-02
-0.000000000000000000e+00
2.640822529792785645e-02
3.302705660462379456e-02
-0.000000000000000000e+00
1.358327362686395645e-02
2.230805903673171997e-02
3.526939451694488525e-02
7.819300889968872070e-02
6.057603657245635986e-02
-0.000000000000000000e+00
-0.000000000000000000e+00
0.000000000000000000e+00
-0.000000000000000000e+00
-0.000000000000000000e+00
0.000000000000000000e+00
-0.000000000000000000e+00
0.000000000000000000e+00
0.000000000000000000e+00
-0.000000000000000000e+00
7.836571335792541504e-02
-0.000000000000000000e+00
-1.853256300091743469e-02
1.957129314541816711e-02
-0.000000000000000000e+00
-1.383042056113481522e-02
6.224047392606735229e-02
4.609638080000877380e-02
-0.000000000000000000e+00
-0.000000000000000000e+00
0.000000000000000000e+00
-0.000000000000000000e+00
-0.000000000000000000e+00
0.000000000000000000e+00
-0.000000000000000000e+00
0.000000000000000000e+00
0.000000000000000000e+00
-1.514535583555698395e-02
-0.000000000000000000e+00
3.233028575778007507e-02
8.688339591026306152e-02
-2.960585355758666992e-01
-2.822324633598327637e-02
3.631509467959403992e-02
-5.156236514449119568e-02
-3.836102411150932312e-02
5.395594239234924316e-02
5.754414573311805725e-02
3.848049044609069824e-02
6.774716824293136597e-02
-1.612688601016998291e-02
5.631480365991592407e-02
0.000000000000000000e+00
6.758963316679000854e-02
3.647018224000930786e-02
-0.000000000000000000e+00
-1.402985304594039917e-02
0.000000000000000000e+00
-0.000000000000000000e+00
-0.000000000000000000e+00
-2.945542894303798676e-02
-3.709859400987625122e-02
1.628616452217102051e-02
-5.621536076068878174e-02
0.000000000000000000e+00
-3.174831345677375793e-02
-0.000000000000000000e+00
5.175211280584335327e-02
-4.875943660736083984e-01
-3.807758167386054993e-02
5.448741465806961060e-02
-1.568865589797496796e-02
-0.000000000000000000e+00
-6.843163818120956421e-02
3.318864852190017700e-02
-0.000000000000000000e+00
5.041595548391342163e-02
-3.528320416808128357e-02
2.767415344715118408e-02
-0.000000000000000000e+00
8.687487244606018066e-02
6.858007609844207764e-02
-8.345837891101837158e-02
-3.247553855180740356e-02
-3.383347392082214355e-02
1.725291088223457336e-02
-9.032467752695083618e-02
-3.651652485132217407e-02
0.000000000000000000e+00
1.531572360545396805e-02
-3.032392822206020355e-02
5.174958333373069763e-02
7.358381897211074829e-02
1.582305878400802612e-02
-3.476275503635406494e-02
-5.199636891484260559e-02
-5.199206992983818054e-02
0.000000000000000000e+00
8.664810657501220703e-02
1.830184459686279297e-02
-0.000000000000000000e+00
4.959076270461082458e-02
0.000000000000000000e+00
-2.732983231544494629e-02
-5.299407243728637695e-02
-3.952888026833534241e-02
-0.000000000000000000e+00
1.930586807429790497e-02
-1.409336086362600327e-02
1.465756259858608246e-02
2.538503520190715790e-02
1.166857127100229263e-02
1.414326727390289307e-01
-1.224782317876815796e-01
1.335568875074386597e-01
-0.000000000000000000e+00
8.761511743068695068e-02
-2.561921998858451843e-02
-0.000000000000000000e+00
0.000000000000000000e+00
0.000000000000000000e+00
-0.000000000000000000e+00
0.000000000000000000e+00
0.000000000000000000e+00
-0.000000000000000000e+00
0.000000000000000000e+00
0.000000000000000000e+00
3.048214875161647797e-02
7.055070996284484863e-02
-3.205876797437667847e-02
8.867882192134857178e-02
-8.581778407096862793e-02
4.659881442785263062e-02
-4.696447029709815979e-02
3.043781593441963196e-02
2.730217203497886658e-02
-2.295175008475780487e-02
1.124612465500831604e-01
2.224051021039485931e-02
-3.197178989648818970e-02
6.994777172803878784e-02
1.240395847707986832e-02
3.892454877495765686e-02
8.656442910432815552e-02
0.000000000000000000e+00
2.349706366658210754e-02
9.212915599346160889e-02
6.959279626607894897e-02
6.792686879634857178e-02
-8.045271784067153931e-02
5.505204573273658752e-02
-3.800789266824722290e-02
4.659230634570121765e-02
2.583608590066432953e-02
-2.938364446163177490e-02
0.000000000000000000e+00
0.000000000000000000e+00
-3.525090590119361877e-02
-7.498281449079513550e-02
0.000000000000000000e+00
-0.000000000000000000e+00
8.264073729515075684e-02
0.000000000000000000e+00
-3.967792168259620667e-02
3.931791335344314575e-02
1.775551028549671173e-02
3.979016840457916260e-02
-4.408586770296096802e-02
1.723326370120048523e-02
0.000000000000000000e+00
2.193526178598403931e-02
2.438178472220897675e-02
-2.126301638782024384e-02
-0.000000000000000000e+00
-0.000000000000000000e+00
-2.485133148729801178e-02
-1.735075935721397400e-02
-1.697366684675216675e-02
-0.000000000000000000e+00
-0.000000000000000000e+00
-0.000000000000000000e+00
0.000000000000000000e+00
4.029071331024169922e-02
2.560852840542793274e-02
2.627893723547458649e-02
-1.465721428394317627e-02
6.775244325399398804e-02
2.571639977395534515e-02
2.197016216814517975e-02
8.504416793584823608e-02
3.940391540527343750e-02
5.474195629358291626e-02
-2.976978756487369537e-02
0.000000000000000000e+00
-1.487428974360227585e-02
0.000000000000000000e+00
3.896641358733177185e-02
-3.583213314414024353e-02
4.629114270210266113e-02
4.582590609788894653e-02
5.835522338747978210e-02
2.768456563353538513e-02
6.002045422792434692e-02
-2.987897582352161407e-02
8.215580135583877563e-02
-0.000000000000000000e+00
4.042522236704826355e-02
1.177886277437210083e-01
0.000000000000000000e+00
-1.575784198939800262e-02
0.000000000000000000e+00
0.000000000000000000e+00
-6.324779987335205078e-02
-5.774947628378868103e-02
0.000000000000000000e+00
3.944532200694084167e-02
0.000000000000000000e+00
-5.370525270700454712e-02
2.929687686264514923e-02
-3.100175596773624420e-02
-3.245627135038375854e-02
-2.950570173561573029e-02
-0.000000000000000000e+00
3.830843418836593628e-02
-3.885329142212867737e-02
2.276486530900001526e-02
1.353512611240148544e-02
4.412794858217239380e-02
2.925268746912479401e-02
5.197250470519065857e-02
-2.106429450213909149e-02
2.839286252856254578e-02
-1.360032893717288971e-02
5.117007717490196228e-02
2.354269847273826599e-02
-3.692056238651275635e-02
1.829396933317184448e-02
-2.935818582773208618e-02
-9.861465543508529663e-02
-4.364522919058799744e-02
-5.271685495972633362e-02
-7.963508367538452148e-02
2.939565666019916534e-02
0.000000000000000000e+00
1.694762706756591797e-02
1.397819165140390396e-02
0.000000000000000000e+00
1.429728232324123383e-02
-0.000000000000000000e+00
-2.207683958113193512e-02
1.239805482327938080e-02
3.545407950878143311e-02
-2.231981232762336731e-02
-2.260005846619606018e-02
-2.533054538071155548e-02
-2.354757487773895264e-02
6.086033955216407776e-02
-9.677916765213012695e-02
2.405744604766368866e-02
-1.275026239454746246e-02
9.223683178424835205e-02
0.000000000000000000e+00
2.216004207730293274e-02
4.217678308486938477e-02
-1.642816886305809021e-02
-2.966666966676712036e-02
5.686464160680770874e-02
2.548643760383129120e-02
0.000000000000000000e+00
5.118835344910621643e-02
0.000000000000000000e+00
2.534185908734798431e-02
5.437379702925682068e-02
5.388828739523887634e-02
-2.833435684442520142e-02
-2.013885080814361572e-01
-5.635822936892509460e-02
5.677428096532821655e-02
7.418768107891082764e-02
2.158525399863719940e-02
-0.000000000000000000e+00
0.000000000000000000e+00
0.000000000000000000e+00
-0.000000000000000000e+00
0.000000000000000000e+00
0.000000000000000000e+00
-0.000000000000000000e+00
-0.000000000000000000e+00
-0.000000000000000000e+00
4.463808238506317139e-02
0.000000000000000000e+00
-1.200778782367706299e-02
0.000000000000000000e+00
-6.403884291648864746e-02
0.000000000000000000e+00
2.176213823258876801e-02
0.000000000000000000e+00
0.000000000000000000e+00
-0.000000000000000000e+00
-0.000000000000000000e+00
-0.000000000000000000e+00
-0.000000000000000000e+00
0.000000000000000000e+00
0.000000000000000000e+00
0.000000000000000000e+00
-0.000000000000000000e+00
0.000000000000000000e+00
-0.000000000000000000e+00
2.817389369010925293e-02
1.203013490885496140e-02
-2.229201421141624451e-02
0.000000000000000000e+00
-0.000000000000000000e+00
0.000000000000000000e+00
-0.000000000000000000e+00
-3.492885455489158630e-02
-2.602971531450748444e-02
-3.869981318712234497e-02
-2.182204648852348328e-02
1.419373136013746262e-02
-3.716393560171127319e-02
1.738381572067737579e-02
4.270057007670402527e-02
0.000000000000000000e+00
-1.987274736166000366e-02
-0.000000000000000000e+00
0.000000000000000000e+00
0.000000000000000000e+00
0.000000000000000000e+00
0.000000000000000000e+00
0.000000000000000000e+00
0.000000000000000000e+00
0.000000000000000000e+00
0.000000000000000000e+00
2.985041774809360504e-02
-1.277685258537530899e-02
-1.769566349685192108e-02
5.427256599068641663e-02
-4.066281020641326904e-02
-0.000000000000000000e+00
-2.690967358648777008e-02
-0.000000000000000000e+00
-2.912616916000843048e-02
-0.000000000000000000e+00
0.000000000000000000e+00
0.000000000000000000e+00
0.000000000000000000e+00
0.000000000000000000e+00
0.000000000000000000e+00
0.000000000000000000e+00
0.000000000000000000e+00
0.000000000000000000e+00
2.128988876938819885e-02
-9.902156889438629150e-02
-0.000000000000000000e+00
-9.136092662811279297e-02
1.213700473308563232e-01
7.173892855644226074e-02
-5.300626531243324280e-02
-1.052638888359069824e-01
-1.886433549225330353e-02
4.272217303514480591e-02
-4.970536753535270691e-02
6.903710961341857910e-02
6.845136731863021851e-02
-8.562248945236206055e-02
1.472347788512706757e-02
-8.563856035470962524e-02
7.607036828994750977e-02
4.926156252622604370e-02
0.000000000000000000e+00
3.510424494743347168e-02
-0.000000000000000000e+00
-5.174383521080017090e-02
-9.696421027183532715e-02
-5.168623104691505432e-02
4.229015856981277466e-02
1.052047759294509888e-01
2.689851075410842896e-02
-0.000000000000000000e+00
0.000000000000000000e+00
0.000000000000000000e+00
0.000000000000000000e+00
0.000000000000000000e+00
0.000000000000000000e+00
0.000000000000000000e+00
0.000000000000000000e+00
0.000000000000000000e+00
-5.541668459773063660e-02
-2.421678975224494934e-02
-5.354092270135879517e-02
8.659692853689193726e-02
-3.948606550693511963e-02
-1.974868625402450562e-01
-2.759765833616256714e-02
-8.901370316743850708e-02
-1.102179214358329773e-01
0.000000000000000000e+00
0.000000000000000000e+00
4.767224937677383423e-02
-0.000000000000000000e+00
1.699807681143283844e-02
3.099480271339416504e-02
2.786822989583015442e-02
1.677623018622398376e-02
-0.000000000000000000e+00
-4.023449495434761047e-02
-0.000000000000000000e+00
0.000000000000000000e+00
1.205426733940839767e-02
9.867681562900543213e-02
8.267665654420852661e-02
0.000000000000000000e+00
5.859409645199775696e-02
0.000000000000000000e+00
-2.943530119955539703e-02
0.000000000000000000e+00
0.000000000000000000e+00
-0.000000000000000000e+00
8.519478887319564819e-02
5.954291298985481262e-02
-2.228209562599658966e-02
3.393701836466789246e-02
2.155882306396961212e-02
-1.016599461436271667e-01
-6.307701021432876587e-02
-5.005728453397750854e-02
-2.069368585944175720e-02
9.228309988975524902e-02
-4.372652992606163025e-02
-6.045147776603698730e-02
-0.000000000000000000e+00
-6.697524338960647583e-02
-6.692671030759811401e-02
-8.797452598810195923e-02
-1.270206570625305176e-01
-2.135414928197860718e-01
-1.244480013847351074e-01
-1.338466852903366089e-01
-7.798044383525848389e-02
1.067316457629203796e-01
-3.278303518891334534e-02
0.000000000000000000e+00
2.726776339113712311e-02
2.700887061655521393e-02
1.671742796897888184e-01
-1.348079741001129150e-01
9.787896275520324707e-02
-2.268615737557411194e-02
-8.528843522071838379e-02
6.606580317020416260e-02
-8.041373640298843384e-02
-1.377967000007629395e-02
-4.366477578878402710e-02
1.189039461314678192e-02
1.572840064764022827e-01
9.217239916324615479e-02
-1.166919171810150146e-01
-0.000000000000000000e+00
-2.840922400355339050e-02
6.776569038629531860e-02
-4.315583780407905579e-02
-0.000000000000000000e+00
5.143810063600540161e-02
-1.797619909048080444e-01
8.854737132787704468e-02
-1.438740827143192291e-02
-1.098752617835998535e-01
2.289448864758014679e-02
-1.593576371669769287e-02
3.745136782526969910e-02
-0.000000000000000000e+00
3.857164084911346436e-02
1.028863787651062012e-01
0.000000000000000000e+00
-0.000000000000000000e+00
2.122844196856021881e-02
-1.173523813486099243e-02
0.000000000000000000e+00
1.478247810155153275e-02
-0.000000000000000000e+00
-8.198475092649459839e-02
7.919961214065551758e-02
4.516013711690902710e-02
1.494150795042514801e-02
-3.308657184243202209e-02
-3.329943865537643433e-02
-0.000000000000000000e+00
3.352654725313186646e-02
3.746979683637619019e-02
-2.161926478147506714e-01
9.447565674781799316e-02
-1.444062590599060059e-02
-7.963465154170989990e-02
2.909858338534832001e-02
-4.330877959728240967e-02
-9.438149631023406982e-02
0.000000000000000000e+00
-4.719159379601478577e-02
-6.905604153871536255e-02
3.230771794915199280e-02
-2.865937538444995880e-02
-1.204999461770057678e-01
-2.507759928703308105e-01
-8.150149136781692505e-02
0.000000000000000000e+00
1.700344309210777283e-02
2.484972961246967316e-02
1.839403249323368073e-02
6.990886479616165161e-02
5.076891556382179260e-02
0.000000000000000000e+00
1.548783201724290848e-02
0.000000000000000000e+00
2.588485181331634521e-02
1.556358858942985535e-02
0.000000000000000000e+00
7.077912241220474243e-02
3.155049681663513184e-02
7.581859081983566284e-02
6.703498214483261108e-02
4.846916347742080688e-02
0.000000000000000000e+00
1.181138306856155396e-02
4.978051409125328064e-02
-0.000000000000000000e+00
7.857815921306610107e-02
2.352954633533954620e-02
-0.000000000000000000e+00
0.000000000000000000e+00
-7.072132825851440430e-02
1.958857290446758270e-02
0.000000000000000000e+00
3.412861004471778870e-02
2.454411424696445465e-02
-2.352774329483509064e-02
3.172693401575088501e-02
1.034979522228240967e-01
-2.047543972730636597e-02
1.307827606797218323e-02
4.773498326539993286e-02
-4.060729593038558960e-02
2.670873887836933136e-02
0.000000000000000000e+00
-1.409456599503755569e-02
8.508674800395965576e-02
4.838109388947486877e-02
-2.836908586323261261e-02
-0.000000000000000000e+00
3.486777096986770630e-02
-0.000000000000000000e+00
0.000000000000000000e+00
3.649925813078880310e-02
-0.000000000000000000e+00
3.098156489431858063e-02
5.112619325518608093e-02
1.540221087634563446e-02
2.589166536927223206e-02
1.865945197641849518e-02
0.000000000000000000e+00
2.251423336565494537e-02
3.385738655924797058e-02
-0.000000000000000000e+00
3.516128286719322205e-02
1.383226271718740463e-02
5.187166109681129456e-02
4.586345702409744263e-02
3.935632854700088501e-02
-5.784433335065841675e-02
3.011399507522583008e-02
-4.012889415025711060e-02
2.146831713616847992e-02
1.455844342708587646e-01
-0.000000000000000000e+00
-6.587147712707519531e-02
-1.893473975360393524e-02
-3.966736420989036560e-02
-0.000000000000000000e+00
0.000000000000000000e+00
-2.387567795813083649e-02
2.334839478135108948e-02
-5.755016580224037170e-02
-1.626428402960300446e-02
3.450606390833854675e-02
1.439198758453130722e-02
-0.000000000000000000e+00
-0.000000000000000000e+00
0.000000000000000000e+00
0.000000000000000000e+00
0.000000000000000000e+00
0.000000000000000000e+00
0.000000000000000000e+00
-0.000000000000000000e+00
0.000000000000000000e+00
0.000000000000000000e+00
-6.571546941995620728e-02
-2.065338194370269775e-02
-4.651093482971191406e-02
-4.676254093647003174e-02
8.778080344200134277e-02
3.353870287537574768e-02
-6.545905768871307373e-02
3.252370655536651611e-02
-3.004302270710468292e-02
-0.000000000000000000e+00
-0.000000000000000000e+00
0.000000000000000000e+00
-0.000000000000000000e+00
0.000000000000000000e+00
-0.000000000000000000e+00
-0.000000000000000000e+00
-0.000000000000000000e+00
0.000000000000000000e+00
0.000000000000000000e+00
1.820424385368824005e-02
-0.000000000000000000e+00
-4.065760597586631775e-02
2.313549071550369263e-02
-1.608459465205669403e-02
1.273570023477077484e-02
0.000000000000000000e+00
-1.498508732765913010e-02
-0.000000000000000000e+00
-1.252991426736116409e-02
0.000000000000000000e+00
4.885111004114151001e-02
3.897795081138610840e-02
-0.000000000000000000e+00
-0.000000000000000000e+00
0.000000000000000000e+00
-4.222160950303077698e-02
-2.449965290725231171e-02
-3.890404477715492249e-02
5.094496905803680420e-02
3.834048286080360413e-02
-6.230849400162696838e-02
5.273253098130226135e-02
0.000000000000000000e+00
-8.445521444082260132e-02
9.217860549688339233e-02
1.939661055803298950e-02
2.267028950154781342e-02
-6.078523397445678711e-02
-4.545891657471656799e-02
1.269159000366926193e-02
1.251012086868286133e-02
3.918398171663284302e-02
3.629010543227195740e-02
0.000000000000000000e+00
4.376297071576118469e-02
-0.000000000000000000e+00
-0.000000000000000000e+00
-1.387843936681747437e-01
1.260574609041213989e-01
1.098421812057495117e-01
-2.974653057754039764e-02
9.427476674318313599e-02
-8.164290338754653931e-02
-0.000000000000000000e+00
-1.187830325216054916e-02
2.367491088807582855e-02
-8.501616120338439941e-02
1.091054007411003113e-01
-6.500010937452316284e-02
-5.731804296374320984e-02
4.438123479485511780e-02
0.000000000000000000e+00
3.971230238676071167e-02
-0.000000000000000000e+00
0.000000000000000000e+00
1.327033899724483490e-02
-7.716515660285949707e-02
-0.000000000000000000e+00
7.474496960639953613e-02
0.000000000000000000e+00
3.181473910808563232e-02
-7.166170328855514526e-02
8.252338320016860962e-02
6.589002162218093872e-02
-4.822984710335731506e-02
1.047735214233398438e-01
6.202731281518936157e-02
-1.752169057726860046e-02
-0.000000000000000000e+00
-4.110318049788475037e-02
-2.554424852132797241e-02
-1.760925352573394775e-02
1.334373559802770615e-02
-8.545970916748046875e-02
1.332313418388366699e-01
-5.674583837389945984e-02
-0.000000000000000000e+00
-8.522497862577438354e-02
1.772910170257091522e-02
-0.000000000000000000e+00
-0.000000000000000000e+00
0.000000000000000000e+00
-0.000000000000000000e+00
0.000000000000000000e+00
0.000000000000000000e+00
-0.000000000000000000e+00
0.000000000000000000e+00
0.000000000000000000e+00
0.000000000000000000e+00
1.311200857162475586e-02
-2.583091333508491516e-02
6.091224774718284607e-02
-4.895735532045364380e-02
4.032637923955917358e-02
1.193499118089675903e-01
3.586051613092422485e-02
4.506738111376762390e-02
2.907889708876609802e-02
-6.592429429292678833e-02
3.271736204624176025e-02
4.604586586356163025e-02
-7.711653411388397217e-02
-0.000000000000000000e+00
-3.930322825908660889e-02
1.568963192403316498e-02
-5.787920579314231873e-02
0.000000000000000000e+00
5.746811628341674805e-02
1.583971455693244934e-02
6.980525702238082886e-02
-1.335418671369552612e-01
0.000000000000000000e+00
-0.000000000000000000e+00
5.972440168261528015e-02
-0.000000000000000000e+00
-0.000000000000000000e+00
-2.325409650802612305e-02
-0.000000000000000000e+00
-2.406455390155315399e-02
-5.283790454268455505e-02
-0.000000000000000000e+00
2.044875919818878174e-02
-4.222147166728973389e-02
-2.200365625321865082e-02
1.317392662167549133e-02
-2.554350160062313080e-02
6.574211269617080688e-02
-5.452417209744453430e-02
2.925582602620124817e-02
-0.000000000000000000e+00
-2.787529118359088898e-02
-1.596914790570735931e-02
0.000000000000000000e+00
0.000000000000000000e+00
-0.000000000000000000e+00
-2.055164054036140442e-02
0.000000000000000000e+00
-2.777701430022716522e-02
-0.000000000000000000e+00
0.000000000000000000e+00
-0.000000000000000000e+00
-0.000000000000000000e+00
3.796967491507530212e-02
-4.993091523647308350e-02
0.000000000000000000e+00
6.134774535894393921e-02
1.300015579909086227e-02
-0.000000000000000000e+00
-6.661599874496459961e-02
4.749207943677902222e-02
-5.749924853444099426e-02
-3.988624364137649536e-02
-1.268531568348407745e-02
-4.344668239355087280e-02
-1.633076816797256470e-01
1.409770399332046509e-01
-1.923955790698528290e-02
-2.054991126060485840e-01
-0.000000000000000000e+00
-4.287785664200782776e-02
-6.359269469976425171e-02
-1.133843287825584412e-01
-3.446538746356964111e-02
-1.164864674210548401e-01
2.419525943696498871e-02
-0.000000000000000000e+00
-0.000000000000000000e+00
9.128641337156295776e-02
-0.000000000000000000e+00
1.388845685869455338e-02
3.107133880257606506e-02
-0.000000000000000000e+00
4.113579168915748596e-02
-9.197905659675598145e-02
-4.392340779304504395e-02
1.912252232432365417e-02
4.130363464355468750e-02
0.000000000000000000e+00
3.458126261830329895e-02
2.729644253849983215e-02
3.157623112201690674e-02
1.653735525906085968e-02
6.041982397437095642e-02
1.357927918434143066e-02
0.000000000000000000e+00
4.332970082759857178e-02
4.079369455575942993e-02
1.470998022705316544e-02
6.091705709695816040e-02
-5.525273829698562622e-02
1.340688206255435944e-02
-5.385784432291984558e-02
4.635520651936531067e-02
-4.911205172538757324e-02
7.328820973634719849e-02
-3.232884779572486877e-02
-1.275385171175003052e-01
4.355211928486824036e-02
-6.560653448104858398e-02
-6.046222522854804993e-02
1.598875671625137329e-01
-0.000000000000000000e+00
-9.420202672481536865e-02
5.075008794665336609e-02
-7.815382629632949829e-02
-3.330857679247856140e-02
0.000000000000000000e+00
-0.000000000000000000e+00
1.555277314037084579e-02
-5.827662721276283264e-02
-2.743698842823505402e-02
1.312577817589044571e-02
-3.026754409074783325e-02
-0.000000000000000000e+00
-0.000000000000000000e+00
3.451704978942871094e-02
0.000000000000000000e+00
5.431744828820228577e-02
-1.245677750557661057e-02
3.289977088570594788e-02
0.000000000000000000e+00
1.603981852531433105e-02
1.276410371065139771e-01
-3.524700552225112915e-02
0.000000000000000000e+00
2.035316824913024902e-02
1.734356954693794250e-02
-2.432044595479965210e-02
-0.000000000000000000e+00
-0.000000000000000000e+00
2.802420780062675476e-02
-0.000000000000000000e+00
-2.374146506190299988e-02
-0.000000000000000000e+00
-0.000000000000000000e+00
-0.000000000000000000e+00
0.000000000000000000e+00
2.106746099889278412e-02
0.000000000000000000e+00
-4.645892605185508728e-02
-7.295405119657516479e-02
0.000000000000000000e+00
0.000000000000000000e+00
0.000000000000000000e+00
-0.000000000000000000e+00
-0.000000000000000000e+00
-0.000000000000000000e+00
-0.000000000000000000e+00
-0.000000000000000000e+00
-0.000000000000000000e+00
-0.000000000000000000e+00
-1.596396788954734802e-02
-0.000000000000000000e+00
-2.838035300374031067e-02
-1.279729511588811874e-02
-0.000000000000000000e+00
-4.057767242193222046e-02
-3.581064194440841675e-02
-2.709101885557174683e-02
0.000000000000000000e+00
-0.000000000000000000e+00
-0.000000000000000000e+00
0.000000000000000000e+00
-0.000000000000000000e+00
-0.000000000000000000e+00
0.000000000000000000e+00
0.000000000000000000e+00
0.000000000000000000e+00
-6.577016413211822510e-02
0.000000000000000000e+00
-5.380567908287048340e-02
1.422133762389421463e-02
1.084635108709335327e-01
2.372463792562484741e-02
-1.780404523015022278e-02
-2.675586752593517303e-02
-3.805579245090484619e-02
-3.078303635120391846e-01
7.194237411022186279e-02
2.885047793388366699e-01
-5.222361683845520020e-01
1.085857823491096497e-01
5.480880141258239746e-01
-2.093319743871688843e-01
-8.795610815286636353e-02
1.012864485383033752e-01
0.000000000000000000e+00
0.000000000000000000e+00
-0.000000000000000000e+00
0.000000000000000000e+00
-0.000000000000000000e+00
-0.000000000000000000e+00
0.000000000000000000e+00
0.000000000000000000e+00
-0.000000000000000000e+00
-4.839236289262771606e-02
-2.461772225797176361e-02
-0.000000000000000000e+00
1.658520661294460297e-02
3.961340337991714478e-02
0.000000000000000000e+00
-0.000000000000000000e+00
0.000000000000000000e+00
-2.129104547202587128e-02
-0.000000000000000000e+00
-0.000000000000000000e+00
-0.000000000000000000e+00
-0.000000000000000000e+00
-0.000000000000000000e+00
-0.000000000000000000e+00
-0.000000000000000000e+00
-0.000000000000000000e+00
-0.000000000000000000e+00
-1.400059275329113007e-02
3.266599029302597046e-02
2.357502095401287079e-02
3.733543306589126587e-02
-2.547293156385421753e-02
-4.124805703759193420e-02
1.276404224336147308e-02
0.000000000000000000e+00
2.878564409911632538e-02
1.217278558760881424e-02
-2.287260442972183228e-02
-3.547730296850204468e-02
-3.445479646325111389e-02
5.684985965490341187e-02
5.227476358413696289e-02
0.000000000000000000e+00
1.636263169348239899e-02
-3.882163763046264648e-02
1.744378544390201569e-02
0.000000000000000000e+00
0.000000000000000000e+00
-0.000000000000000000e+00
-2.659775875508785248e-02
-3.824128210544586182e-02
5.692112445831298828e-02
-3.172016143798828125e-02
-3.593320772051811218e-02
-0.000000000000000000e+00
-0.000000000000000000e+00
-0.000000000000000000e+00
-0.000000000000000000e+00
-0.000000000000000000e+00
-0.000000000000000000e+00
-0.000000000000000000e+00
-0.000000000000000000e+00
-0.000000000000000000e+00
0.000000000000000000e+00
-2.409417741000652313e-02
-2.342524193227291107e-02
3.134452179074287415e-02
1.642817817628383636e-02
2.514643035829067230e-02
0.000000000000000000e+00
-1.481496263295412064e-02
-3.666976094245910645e-02
0.000000000000000000e+00
-7.788600027561187744e-02
0.000000000000000000e+00
0.000000000000000000e+00
2.264722809195518494e-02
3.127644583582878113e-02
-3.096450306475162506e-02
-6.885779649019241333e-02
2.986717410385608673e-02
-1.530583649873733521e-01
9.666164964437484741e-02
2.725404798984527588e-01
-2.800635695457458496e-01
7.666677236557006836e-02
4.095854461193084717e-01
-2.274326235055923462e-01
-5.155369639396667480e-02
1.854323595762252808e-01
-2.568948641419410706e-02
-1.571170799434185028e-02
-0.000000000000000000e+00
-3.106794133782386780e-02
-4.239644855260848999e-02
-1.848847046494483948e-02
-3.590684384107589722e-02
-3.372885659337043762e-02
-0.000000000000000000e+00
0.000000000000000000e+00
2.171908505260944366e-02
-0.000000000000000000e+00
0.000000000000000000e+00
-3.761174157261848450e-02
-2.201898209750652313e-02
0.000000000000000000e+00
-0.000000000000000000e+00
-0.000000000000000000e+00
-0.000000000000000000e+00
-0.000000000000000000e+00
3.825511038303375244e-02
1.535188779234886169e-02
-0.000000000000000000e+00
4.552743956446647644e-02
-0.000000000000000000e+00
-2.044636383652687073e-02
-0.000000000000000000e+00
-3.752667829394340515e-02
-1.489753555506467819e-02
1.893943175673484802e-02
-1.915854029357433319e-02
3.621007129549980164e-02
6.145858019590377808e-02
-2.740905806422233582e-02
-3.069930151104927063e-02
-1.219965051859617233e-02
1.485757064074277878e-02
-2.475674822926521301e-02
-6.670359522104263306e-02
3.395161405205726624e-02
-5.614830181002616882e-02
-1.014892384409904480e-01
0.000000000000000000e+00
-4.825184866786003113e-02
-5.388475954532623291e-02
1.908426173031330109e-02
-1.608217693865299225e-02
4.402347281575202942e-02
-0.000000000000000000e+00
7.508065551519393921e-02
9.374757856130599976e-02
0.000000000000000000e+00
1.346327923238277435e-02
1.775984466075897217e-02
1.017279252409934998e-01
-9.242036938667297363e-02
-1.480177696794271469e-02
-2.891467884182929993e-02
-1.552111506462097168e-01
6.609785556793212891e-02
3.448212146759033203e-02
-2.188877016305923462e-02
5.523183569312095642e-02
-3.027801215648651123e-02
3.762651607394218445e-02
-0.000000000000000000e+00
2.319068647921085358e-02
-4.039514064788818359e-02
-1.164852827787399292e-02
-1.232571154832839966e-02
2.019297890365123749e-02
2.099006623029708862e-02
-0.000000000000000000e+00
-2.235447429120540619e-02
-2.334282919764518738e-02
-1.234337221831083298e-02
1.957116648554801941e-02
-4.246044531464576721e-02
-0.000000000000000000e+00
-4.313699156045913696e-02
-0.000000000000000000e+00
3.776196017861366272e-02
0.000000000000000000e+00
-2.524174377322196960e-02
0.000000000000000000e+00
-3.189623355865478516e-02
-1.752076856791973114e-02
1.495373714715242386e-02
0.000000000000000000e+00
-0.000000000000000000e+00
5.288818478584289551e-02
-6.274823844432830811e-02
-1.910680681467056274e-01
1.760946661233901978e-01
0.000000000000000000e+00
-2.388688623905181885e-01
1.270192861557006836e-01
6.802357733249664307e-02
-8.863461017608642578e-02
-1.961294710636138916e-01
0.000000000000000000e+00
2.800255715847015381e-01
-3.860331475734710693e-01
-6.872178614139556885e-02
4.574515521526336670e-01
-3.144619762897491455e-01
-1.509661376476287842e-01
2.688088417053222656e-01
1.335612498223781586e-02
0.000000000000000000e+00
-3.318929299712181091e-02
0.000000000000000000e+00
2.775301970541477203e-02
2.604092657566070557e-02
-8.845075219869613647e-02
-1.750234700739383698e-02
4.659892618656158447e-02
0.000000000000000000e+00
-0.000000000000000000e+00
4.071769118309020996e-02
-3.201511502265930176e-02
-2.237916179001331329e-02
-5.159739032387733459e-02
-0.000000000000000000e+00
0.000000000000000000e+00
0.000000000000000000e+00
6.341974437236785889e-02
2.465094439685344696e-02
-0.000000000000000000e+00
-5.893108248710632324e-02
-2.159876376390457153e-02
5.881381034851074219e-02
3.648136556148529053e-02
5.136853456497192383e-02
-2.363645285367965698e-02
-4.612300172448158264e-02
1.605157367885112762e-02
0.000000000000000000e+00
-4.510045796632766724e-02
3.973381221294403076e-02
3.961816430091857910e-02
-2.707313187420368195e-02
3.169246390461921692e-02
3.597249090671539307e-02
3.630704283714294434e-01
-8.056285232305526733e-02
-4.174316525459289551e-01
5.557452440261840820e-01
1.986052468419075012e-02
-4.960997402667999268e-01
2.443994730710983276e-01
1.762404739856719971e-01
0.000000000000000000e+00
-3.846577182412147522e-02
-0.000000000000000000e+00
2.923087216913700104e-02
-7.213409245014190674e-02
-4.614376649260520935e-02
3.424962610006332397e-02
-7.131838798522949219e-02
-2.404478937387466431e-02
3.043961152434349060e-02
0.000000000000000000e+00
-0.000000000000000000e+00
-0.000000000000000000e+00
4.569123312830924988e-02
-0.000000000000000000e+00
-3.817901015281677246e-02
4.152196645736694336e-02
-0.000000000000000000e+00
0.000000000000000000e+00
0.000000000000000000e+00
0.000000000000000000e+00
-0.000000000000000000e+00
0.000000000000000000e+00
-0.000000000000000000e+00
-0.000000000000000000e+00
-0.000000000000000000e+00
-0.000000000000000000e+00
-0.000000000000000000e+00
0.000000000000000000e+00
5.910812690854072571e-02
1.354353725910186768e-01
-3.405557572841644287e-02
5.212084576487541199e-02
1.642898470163345337e-01
-0.000000000000000000e+00
2.604259550571441650e-02
1.100906580686569214e-01
0.000000000000000000e+00
0.000000000000000000e+00
0.000000000000000000e+00
0.000000000000000000e+00
-0.000000000000000000e+00
0.000000000000000000e+00
-0.000000000000000000e+00
-0.000000000000000000e+00
-0.000000000000000000e+00
1.416003052145242691e-02
-1.808515749871730804e-02
3.102386929094791412e-02
2.873084321618080139e-02
2.387896180152893066e-02
0.000000000000000000e+00
-2.640016563236713409e-02
0.000000000000000000e+00
-0.000000000000000000e+00
-3.406711667776107788e-02
5.779494345188140869e-02
-1.443322282284498215e-02
-0.000000000000000000e+00
-1.720825396478176117e-02
0.000000000000000000e+00
-1.681827194988727570e-02
0.000000000000000000e+00
0.000000000000000000e+00
-4.236327111721038818e-02
-0.000000000000000000e+00
-2.955931983888149261e-02
3.619628772139549255e-02
3.046929463744163513e-02
4.196972399950027466e-02
3.067990206182003021e-02
-2.674578875303268433e-02
-2.556219696998596191e-02
-1.589255034923553467e-02
0.000000000000000000e+00
2.266559563577175140e-02
2.141394652426242828e-02
-0.000000000000000000e+00
-2.224216982722282410e-02
-0.000000000000000000e+00
1.537477038800716400e-02
-1.335617154836654663e-02
-2.455713599920272827e-02
-0.000000000000000000e+00
0.000000000000000000e+00
3.789939731359481812e-02
5.347336083650588989e-02
-6.558180600404739380e-02
0.000000000000000000e+00
-1.319227926433086395e-02
-0.000000000000000000e+00
-4.719692468643188477e-02
-3.357612714171409607e-02
-1.570084504783153534e-02
2.130476571619510651e-02
2.234920114278793335e-02
2.632609009742736816e-02
1.898579113185405731e-02
-2.522275410592556000e-02
-1.511466316878795624e-02
1.013452261686325073e-01
-6.458486616611480713e-02
-2.015818357467651367e-01
2.414604276418685913e-01
-1.175361033529043198e-02
-3.022423088550567627e-01
1.544152945280075073e-01
6.237568333745002747e-02
-8.999474346637725830e-02
0.000000000000000000e+00
-1.806974038481712341e-02
-6.722116470336914062e-02
3.361487016081809998e-02
-2.249073982238769531e-02
-6.086551398038864136e-02
2.672988176345825195e-02
-0.000000000000000000e+00
-0.000000000000000000e+00
-5.017788335680961609e-02
8.354967087507247925e-02
-2.216570824384689331e-02
3.517389297485351562e-02
-8.290553838014602661e-02
0.000000000000000000e+00
-1.431935932487249374e-02
3.987353295087814331e-02
0.000000000000000000e+00
0.000000000000000000e+00
0.000000000000000000e+00
0.000000000000000000e+00
-0.000000000000000000e+00
-0.000000000000000000e+00
-0.000000000000000000e+00
-0.000000000000000000e+00
-0.000000000000000000e+00
0.000000000000000000e+00
0.000000000000000000e+00
-3.901403397321701050e-02
-0.000000000000000000e+00
-0.000000000000000000e+00
6.168888136744499207e-02
-0.000000000000000000e+00
-0.000000000000000000e+00
-4.140146076679229736e-02
3.975068405270576477e-02
-1.406188774853944778e-02
-2.370717935264110565e-02
-0.000000000000000000e+00
-0.000000000000000000e+00
2.177993208169937134e-02
0.000000000000000000e+00
1.716184988617897034e-02
-3.974262252449989319e-02
1.789910532534122467e-02
0.000000000000000000e+00
-7.730825990438461304e-02
-0.000000000000000000e+00
0.000000000000000000e+00
6.293028593063354492e-02
-2.330133877694606781e-02
1.528509426862001419e-02
-5.181548744440078735e-02
0.000000000000000000e+00
1.789875328540802002e-01
-8.384891599416732788e-02
-1.987012922763824463e-01
4.074160754680633545e-01
-7.705897837877273560e-02
-4.495418965816497803e-01
1.792399585247039795e-01
9.035527706146240234e-02
-2.795382402837276459e-02
0.000000000000000000e+00
-5.899604782462120056e-02
1.996441558003425598e-02
-1.527707464993000031e-02
7.011184096336364746e-02
-0.000000000000000000e+00
-1.502319425344467163e-02
-1.630421355366706848e-02
0.000000000000000000e+00
1.547240931540727615e-02
-0.000000000000000000e+00
-0.000000000000000000e+00
-0.000000000000000000e+00
-0.000000000000000000e+00
-2.523969486355781555e-02
-2.913220971822738647e-02
-3.146246075630187988e-02
-2.046321518719196320e-02
-0.000000000000000000e+00
-0.000000000000000000e+00
-2.824363484978675842e-02
2.338962815701961517e-02
-1.526564452797174454e-02
2.538328804075717926e-02
1.613001711666584015e-02
-2.713376656174659729e-02
-0.000000000000000000e+00
-1.432073954492807388e-02
-2.424496412277221680e-02
-0.000000000000000000e+00
5.119082331657409668e-02
7.030638307332992554e-02
3.338069468736648560e-02
1.684624515473842621e-02
1.706025376915931702e-02
-2.635872177779674530e-02
-0.000000000000000000e+00
-2.059859596192836761e-02
-0.000000000000000000e+00
5.437077954411506653e-02
-0.000000000000000000e+00
-0.000000000000000000e+00
0.000000000000000000e+00
-0.000000000000000000e+00
-2.875862084329128265e-02
0.000000000000000000e+00
2.184115909039974213e-02
1.479873340576887131e-02
-4.863243177533149719e-02
-0.000000000000000000e+00
7.979080826044082642e-02
0.000000000000000000e+00
-3.898249566555023193e-02
0.000000000000000000e+00
1.725422404706478119e-02
-0.000000000000000000e+00
-0.000000000000000000e+00
0.000000000000000000e+00
5.469259619712829590e-02
-3.817313164472579956e-02
-1.490950211882591248e-02
-3.280270844697952271e-02
-0.000000000000000000e+00
-0.000000000000000000e+00
4.223160818219184875e-02
1.348549779504537582e-02
2.700091153383255005e-02
-4.012751579284667969e-02
-3.246870636940002441e-02
0.000000000000000000e+00
3.376676887273788452e-02
3.424773365259170532e-02
-0.000000000000000000e+00
-2.680875174701213837e-02
-4.376032203435897827e-02
2.451759763062000275e-02
-2.839609794318675995e-02
-3.589557856321334839e-02
-0.000000000000000000e+00
-2.466113120317459106e-02
-2.008476108312606812e-02
2.155089937150478363e-02
0.000000000000000000e+00
-2.582320943474769592e-02
2.327188849449157715e-02
-0.000000000000000000e+00
-0.000000000000000000e+00
-0.000000000000000000e+00
-2.693364769220352173e-02
-1.442054845392704010e-02
-1.967387273907661438e-02
2.791446447372436523e-02
-2.002485655248165131e-02
6.322244554758071899e-02
-3.907727822661399841e-02
-0.000000000000000000e+00
-2.743358723819255829e-02
0.000000000000000000e+00
-0.000000000000000000e+00
-4.350199550390243530e-02
-2.103312127292156219e-02
-2.167377434670925140e-02
-3.054543435573577881e-01
-3.183350563049316406e-01
-4.179535806179046631e-02
-1.386335957795381546e-02
0.000000000000000000e+00
-1.494305394589900970e-02
5.093806982040405273e-02
3.632865846157073975e-02
2.846816554665565491e-02
-2.430910915136337280e-01
-2.334149181842803955e-01
-5.825189873576164246e-02
-5.923986434936523438e-02
-3.976691141724586487e-02
-2.825492620468139648e-02
0.000000000000000000e+00
0.000000000000000000e+00
0.000000000000000000e+00
0.000000000000000000e+00
0.000000000000000000e+00
0.000000000000000000e+00
0.000000000000000000e+00
0.000000000000000000e+00
0.000000000000000000e+00
-0.000000000000000000e+00
0.000000000000000000e+00
-0.000000000000000000e+00
-4.332515969872474670e-02
-2.789613418281078339e-02
-0.000000000000000000e+00
-1.762389391660690308e-02
1.170142460614442825e-02
-0.000000000000000000e+00
-0.000000000000000000e+00
-0.000000000000000000e+00
-0.000000000000000000e+00
-0.000000000000000000e+00
-0.000000000000000000e+00
-0.000000000000000000e+00
-0.000000000000000000e+00
-0.000000000000000000e+00
-0.000000000000000000e+00
1.503726653754711151e-02
0.000000000000000000e+00
-2.008333615958690643e-02
-0.000000000000000000e+00
0.000000000000000000e+00
2.652236074209213257e-02
-2.195960283279418945e-02
-0.000000000000000000e+00
-1.506506651639938354e-02
-0.000000000000000000e+00
1.563701964914798737e-02
4.031399637460708618e-02
-1.447865646332502365e-02
-0.000000000000000000e+00
1.507093477994203568e-02
-3.665879741311073303e-02
1.245465502142906189e-02
1.372974459081888199e-02
0.000000000000000000e+00
0.000000000000000000e+00
0.000000000000000000e+00
-0.000000000000000000e+00
-0.000000000000000000e+00
0.000000000000000000e+00
-0.000000000000000000e+00
-0.000000000000000000e+00
-0.000000000000000000e+00
-0.000000000000000000e+00
0.000000000000000000e+00
3.901416808366775513e-02
-2.089802362024784088e-02
3.654065355658531189e-02
0.000000000000000000e+00
-8.146665990352630615e-02
-2.086103893816471100e-02
0.000000000000000000e+00
0.000000000000000000e+00
0.000000000000000000e+00
0.000000000000000000e+00
0.000000000000000000e+00
0.000000000000000000e+00
0.000000000000000000e+00
-0.000000000000000000e+00
-0.000000000000000000e+00
0.000000000000000000e+00
-6.265605241060256958e-02
-1.069864183664321899e-01
2.638301253318786621e-02
-2.442895807325839996e-02
-2.537783682346343994e-01
5.917327851057052612e-02
3.225846588611602783e-02
-8.419762551784515381e-02
0.000000000000000000e+00
1.176187768578529358e-02
1.922841370105743408e-02
-6.110946089029312134e-02
2.176223322749137878e-02
-7.865030318498611450e-02
5.335281789302825928e-02
4.401359707117080688e-02
1.185161713510751724e-02
4.523286968469619751e-02
-0.000000000000000000e+00
-0.000000000000000000e+00
0.000000000000000000e+00
-7.863322645425796509e-02
-9.803280979394912720e-02
-5.247543752193450928e-02
0.000000000000000000e+00
1.276914495974779129e-02
-0.000000000000000000e+00
0.000000000000000000e+00
0.000000000000000000e+00
0.000000000000000000e+00
0.000000000000000000e+00
0.000000000000000000e+00
0.000000000000000000e+00
-0.000000000000000000e+00
-0.000000000000000000e+00
-0.000000000000000000e+00
2.183683402836322784e-02
5.782854184508323669e-02
0.000000000000000000e+00
6.077156960964202881e-02
2.503723837435245514e-02
-4.404133930802345276e-02
0.000000000000000000e+00
0.000000000000000000e+00
1.659046672284603119e-02
3.764966502785682678e-02
-1.480578165501356125e-02
-2.383051998913288116e-02
-7.395227998495101929e-02
-2.939428575336933136e-02
-0.000000000000000000e+00
-0.000000000000000000e+00
0.000000000000000000e+00
-0.000000000000000000e+00
-0.000000000000000000e+00
3.163840994238853455e-02
2.912575937807559967e-02
-3.466266021132469177e-02
-0.000000000000000000e+00
0.000000000000000000e+00
-1.682603918015956879e-02
0.000000000000000000e+00
-4.506818205118179321e-02
-0.000000000000000000e+00
0.000000000000000000e+00
0.000000000000000000e+00
0.000000000000000000e+00
-0.000000000000000000e+00
0.000000000000000000e+00
-2.658374980092048645e-02
-3.088999353349208832e-02
-1.488131750375032425e-02
-0.000000000000000000e+00
0.000000000000000000e+00
0.000000000000000000e+00
0.000000000000000000e+00
-0.000000000000000000e+00
0.000000000000000000e+00
-0.000000000000000000e+00
-1.649936847388744354e-02
-2.003669366240501404e-02
-2.106125280261039734e-02
-6.024972721934318542e-02
5.976149812340736389e-02
-4.462527483701705933e-02
-6.866399943828582764e-02
7.865427434444427490e-02
5.124663934111595154e-02
1.481246110051870346e-02
2.140188775956630707e-02
-0.000000000000000000e+00
4.396928474307060242e-02
1.367920450866222382e-02
3.433840349316596985e-02
7.081002742052078247e-02
-2.693447843194007874e-02
-0.000000000000000000e+00
2.580001205205917358e-02
0.000000000000000000e+00
3.656788542866706848e-02
7.588762789964675903e-02
7.023936510086059570e-02
2.484918944537639618e-02
-0.000000000000000000e+00
3.052092529833316803e-02
-3.409416973590850830e-02
-8.183478564023971558e-02
-4.950353875756263733e-02
1.787531375885009766e-02
-0.000000000000000000e+00
4.029221460223197937e-02
-1.185757108032703400e-02
0.000000000000000000e+00
2.064421400427818298e-02
-2.051267586648464203e-02
3.163435682654380798e-02
-1.750397495925426483e-02
0.000000000000000000e+00
-0.000000000000000000e+00
3.614955767989158630e-02
-0.000000000000000000e+00
-2.965868636965751648e-02
2.522453479468822479e-02
-2.953967824578285217e-02
-4.806866869330406189e-02
-2.313883043825626373e-02
3.836783766746520996e-02
-5.872134491801261902e-02
-0.000000000000000000e+00
-2.099394425749778748e-02
-2.843873500823974609e-01
5.810216069221496582e-02
-6.426660716533660889e-02
-4.793015122413635254e-02
0.000000000000000000e+00
2.230614423751831055e-02
-0.000000000000000000e+00
6.315698474645614624e-02
0.000000000000000000e+00
1.309500727802515030e-02
1.591224223375320435e-02
0.000000000000000000e+00
1.265592407435178757e-02
-0.000000000000000000e+00
2.199283801019191742e-02
3.410842642188072205e-02
9.510263055562973022e-02
-8.455640822649002075e-02
-2.129483222961425781e-01
-1.250082720071077347e-02
0.000000000000000000e+00
-2.499058656394481659e-02
7.510963827371597290e-02
0.000000000000000000e+00
3.220931813120841980e-02
4.016449302434921265e-02
-3.340807929635047913e-02
-2.975457161664962769e-02
2.766120247542858124e-02
-3.892290964722633362e-02
-2.130944840610027313e-02
-0.000000000000000000e+00
5.879332125186920166e-02
3.002885729074478149e-02
6.187801808118820190e-02
0.000000000000000000e+00
-8.619297295808792114e-02
4.259540885686874390e-02
1.535662449896335602e-02
-2.862060256302356720e-02
-0.000000000000000000e+00
0.000000000000000000e+00
4.623841121792793274e-02
-1.177377346903085709e-02
-0.000000000000000000e+00
-3.856073319911956787e-02
-1.956218108534812927e-02
-2.765292674303054810e-02
-1.966745220124721527e-02
-3.320532664656639099e-02
-1.955439336597919464e-02
-1.871815323829650879e-01
-0.000000000000000000e+00
4.710198938846588135e-02
-3.661268353462219238e-01
1.568977683782577515e-01
6.852260231971740723e-02
-8.054479211568832397e-02
1.967678591609001160e-02
-2.696694061160087585e-02
-5.711838230490684509e-02
3.105532564222812653e-02
-6.426241248846054077e-02
-1.308474540710449219e-01
2.971905283629894257e-02
0.000000000000000000e+00
-2.195425517857074738e-02
4.941029846668243408e-02
-0.000000000000000000e+00
3.041167184710502625e-02
3.596426174044609070e-02
-3.342544659972190857e-02
-2.873667515814304352e-02
-0.000000000000000000e+00
-2.994672209024429321e-02
0.000000000000000000e+00
-0.000000000000000000e+00
-1.216538157314062119e-02
0.000000000000000000e+00
0.000000000000000000e+00
-0.000000000000000000e+00
-0.000000000000000000e+00
3.633097186684608459e-02
-0.000000000000000000e+00
-2.054536715149879456e-02
-1.209686882793903351e-02
1.487211510539054871e-02
3.246079385280609131e-02
0.000000000000000000e+00
1.244859118014574051e-02
1.603683456778526306e-02
1.201419625431299210e-02
0.000000000000000000e+00
1.674864254891872406e-02
-0.000000000000000000e+00
3.465100005269050598e-02
0.000000000000000000e+00
0.000000000000000000e+00
-0.000000000000000000e+00
-0.000000000000000000e+00
-0.000000000000000000e+00
0.000000000000000000e+00
0.000000000000000000e+00
-2.926896698772907257e-02
0.000000000000000000e+00
0.000000000000000000e+00
0.000000000000000000e+00
-0.000000000000000000e+00
-0.000000000000000000e+00
-0.000000000000000000e+00
0.000000000000000000e+00
-0.000000000000000000e+00
0.000000000000000000e+00
1.793868280947208405e-02
5.016020312905311584e-02
2.608447708189487457e-02
1.557924970984458923e-02
-1.681209541857242584e-02
-1.255635917186737061e-02
1.234430167824029922e-02
-0.000000000000000000e+00
-4.124074056744575500e-02
0.000000000000000000e+00
-0.000000000000000000e+00
-0.000000000000000000e+00
-0.000000000000000000e+00
-0.000000000000000000e+00
0.000000000000000000e+00
-0.000000000000000000e+00
-0.000000000000000000e+00
0.000000000000000000e+00
-6.004513427615165710e-02
-2.358240447938442230e-02
-4.399019107222557068e-02
-4.445232450962066650e-02
-1.301249116659164429e-01
1.088525429368019104e-01
0.000000000000000000e+00
0.000000000000000000e+00
7.202348113059997559e-02
-0.000000000000000000e+00
-2.566151507198810577e-02
2.974593266844749451e-02
-3.450438007712364197e-02
-7.659036666154861450e-02
3.912398964166641235e-02
-7.191849499940872192e-02
-2.689880691468715668e-02
-2.598312497138977051e-02
1.450518798083066940e-02
2.732671797275543213e-02
1.895433291792869568e-02
1.771047711372375488e-02
3.413479402661323547e-02
-2.828023768961429596e-02
-1.992327347397804260e-02
-0.000000000000000000e+00
-5.093979835510253906e-02
-2.460719086229801178e-02
2.177578955888748169e-02
-1.970679126679897308e-02
-2.185447663068771362e-01
-3.278793990612030029e-01
3.509154543280601501e-02
-1.847493089735507965e-02
0.000000000000000000e+00
0.000000000000000000e+00
3.984088078141212463e-02
-3.876253962516784668e-02
6.583902984857559204e-02
2.100181579589843750e-02
-7.408398389816284180e-02
1.507935523986816406e-01
1.798147521913051605e-02
-5.549742281436920166e-02
-3.013070672750473022e-02
2.659393660724163055e-02
2.077127248048782349e-02
2.993804216384887695e-02
1.447725109755992889e-02
0.000000000000000000e+00
-0.000000000000000000e+00
-2.221346646547317505e-02
1.207777671515941620e-02
-7.276520878076553345e-02
3.714792430400848389e-02
3.686838969588279724e-02
1.366438530385494232e-02
-1.997413858771324158e-02
-4.124800488352775574e-02
-0.000000000000000000e+00
5.601109191775321960e-02
7.535245269536972046e-02
5.192132294178009033e-02
4.500333219766616821e-02
1.736129075288772583e-02
7.018866389989852905e-02
2.741326764225959778e-02
-7.314968109130859375e-02
-0.000000000000000000e+00
0.000000000000000000e+00
-0.000000000000000000e+00
0.000000000000000000e+00
6.260658800601959229e-02
-7.123803347349166870e-02
9.710319340229034424e-02
9.394560754299163818e-02
-6.894006580114364624e-02
8.350214362144470215e-02
-1.649458892643451691e-02
2.398796565830707550e-02
-0.000000000000000000e+00
-0.000000000000000000e+00
0.000000000000000000e+00
-0.000000000000000000e+00
-0.000000000000000000e+00
-0.000000000000000000e+00
-0.000000000000000000e+00
0.000000000000000000e+00
-0.000000000000000000e+00
0.000000000000000000e+00
-1.238961797207593918e-02
-0.000000000000000000e+00
0.000000000000000000e+00
0.000000000000000000e+00
-1.791110187768936157e-01
7.921867817640304565e-02
0.000000000000000000e+00
1.661393046379089355e-02
4.914000630378723145e-02
3.522152826189994812e-02
3.223459050059318542e-02
-3.401686996221542358e-02
3.250402957201004028e-02
-2.532598562538623810e-02
6.116965413093566895e-02
-1.642788201570510864e-02
1.789086684584617615e-02
4.680847004055976868e-02
0.000000000000000000e+00
0.000000000000000000e+00
1.979921571910381317e-02
1.753301173448562622e-02
-1.023554801940917969e-01
5.470085144042968750e-02
8.162071555852890015e-02
4.130492359399795532e-02
7.351855188608169556e-02
6.323602050542831421e-02
0.000000000000000000e+00
0.000000000000000000e+00
0.000000000000000000e+00
-6.771474331617355347e-02
4.282683134078979492e-02
0.000000000000000000e+00
-5.180967599153518677e-02
-2.898885682225227356e-02
-0.000000000000000000e+00
-0.000000000000000000e+00
-0.000000000000000000e+00
6.004147976636886597e-02
-9.234739094972610474e-02
9.122303128242492676e-02
3.442480415105819702e-02
4.850858449935913086e-02
7.584798336029052734e-02
1.437650527805089951e-02
1.619629189372062683e-02
1.196970604360103607e-02
-0.000000000000000000e+00
-0.000000000000000000e+00
-0.000000000000000000e+00
0.000000000000000000e+00
0.000000000000000000e+00
-0.000000000000000000e+00
3.629219159483909607e-02
5.058971419930458069e-02
8.123324811458587646e-02
-1.364796981215476990e-02
5.495519191026687622e-02
1.386685296893119812e-02
-2.723773568868637085e-02
3.612028062343597412e-02
-6.873992085456848145e-02
5.710744485259056091e-02
-1.284145470708608627e-02
-4.737696424126625061e-02
-5.280841141939163208e-02
-6.776917725801467896e-02
-4.429397732019424438e-02
1.435191091150045395e-02
0.000000000000000000e+00
-0.000000000000000000e+00
-3.554180264472961426e-02
-2.407906390726566315e-02
2.972728013992309570e-02
-1.108709201216697693e-01
-4.428452625870704651e-02
7.086134701967239380e-02
-1.600893400609493256e-02
-3.337606415152549744e-02
-3.615067154169082642e-02
0.000000000000000000e+00
-0.000000000000000000e+00
4.178998246788978577e-02
-3.771018609404563904e-02
-6.545382738113403320e-02
-0.000000000000000000e+00
-0.000000000000000000e+00
4.470488429069519043e-02
5.051273852586746216e-02
0.000000000000000000e+00
3.845888003706932068e-02
-1.742786914110183716e-02
0.000000000000000000e+00
3.696322441101074219e-02
-5.583587288856506348e-02
-3.128384798765182495e-02
-0.000000000000000000e+00
-1.973189041018486023e-02
1.065613627433776855e-01
3.703226149082183838e-02
8.912590891122817993e-02
-4.502595961093902588e-02
-2.246230244636535645e-01
1.002328842878341675e-01
5.125226825475692749e-02
2.973716519773006439e-02
2.045627683401107788e-02
5.067120492458343506e-02
7.658690214157104492e-02
4.866079986095428467e-02
2.993521280586719513e-02
0.000000000000000000e+00
-2.092311531305313110e-02
0.000000000000000000e+00
-2.774035744369029999e-02
-6.259433925151824951e-02
0.000000000000000000e+00
1.945589296519756317e-02
0.000000000000000000e+00
-0.000000000000000000e+00
-0.000000000000000000e+00
-1.476974412798881531e-02
-1.580810546875000000e-02
0.000000000000000000e+00
-0.000000000000000000e+00
1.301066577434539795e-02
2.143108658492565155e-02
6.675115972757339478e-02
0.000000000000000000e+00
-2.233923822641372681e-01
5.914839357137680054e-02
-0.000000000000000000e+00
2.559470571577548981e-02
0.000000000000000000e+00
-5.569151416420936584e-02
-0.000000000000000000e+00
-0.000000000000000000e+00
-4.840951412916183472e-02
0.000000000000000000e+00
3.671533986926078796e-02
-1.943348161876201630e-02
1.206465624272823334e-02
2.279532514512538910e-02
-0.000000000000000000e+00
-1.224150042980909348e-02
2.675787359476089478e-02
0.000000000000000000e+00
2.700209245085716248e-02
2.332595922052860260e-02
-2.156358212232589722e-02
1.441937964409589767e-02
2.313748933374881744e-02
0.000000000000000000e+00
0.000000000000000000e+00
0.000000000000000000e+00
-0.000000000000000000e+00
0.000000000000000000e+00
0.000000000000000000e+00
-0.000000000000000000e+00
-0.000000000000000000e+00
-0.000000000000000000e+00
3.142378479242324829e-02
2.287734672427177429e-02
1.624781638383865356e-02
3.455959632992744446e-02
0.000000000000000000e+00
-0.000000000000000000e+00
0.000000000000000000e+00
-3.396831452846527100e-02
-2.751019224524497986e-02
-0.000000000000000000e+00
0.000000000000000000e+00
-0.000000000000000000e+00
-0.000000000000000000e+00
-0.000000000000000000e+00
-0.000000000000000000e+00
-0.000000000000000000e+00
-0.000000000000000000e+00
0.000000000000000000e+00
-0.000000000000000000e+00
-4.493526369333267212e-02
-0.000000000000000000e+00
-0.000000000000000000e+00
-1.112130582332611084e-01
-1.950501278042793274e-02
2.311501465737819672e-02
0.000000000000000000e+00
2.614004164934158325e-02
-1.257985178381204605e-02
2.597143128514289856e-02
0.000000000000000000e+00
-0.000000000000000000e+00
-1.360634434968233109e-02
-1.724832877516746521e-02
0.000000000000000000e+00
-1.348002627491950989e-02
0.000000000000000000e+00
-0.000000000000000000e+00
0.000000000000000000e+00
0.000000000000000000e+00
-0.000000000000000000e+00
0.000000000000000000e+00
0.000000000000000000e+00
-0.000000000000000000e+00
0.000000000000000000e+00
0.000000000000000000e+00
4.003783315420150757e-02
-1.480917930603027344e-01
3.311498835682868958e-02
3.342323377728462219e-02
-2.378028333187103271e-01
2.090273983776569366e-02
1.432689279317855835e-02
-9.882790595293045044e-02
-0.000000000000000000e+00
0.000000000000000000e+00
0.000000000000000000e+00
0.000000000000000000e+00
-0.000000000000000000e+00
0.000000000000000000e+00
0.000000000000000000e+00
-0.000000000000000000e+00
0.000000000000000000e+00
0.000000000000000000e+00
-0.000000000000000000e+00
2.696002088487148285e-02
2.399525232613086700e-02
-0.000000000000000000e+00
6.097845360636711121e-02
7.949461787939071655e-02
-2.403371594846248627e-02
-0.000000000000000000e+00
0.000000000000000000e+00
0.000000000000000000e+00
-5.077699944376945496e-02
0.000000000000000000e+00
-1.259389072656631470e-01
-8.483928442001342773e-02
0.000000000000000000e+00
1.432918105274438858e-02
1.526276022195816040e-02
3.834127262234687805e-02
-3.395729139447212219e-02
0.000000000000000000e+00
2.337101474404335022e-02
0.000000000000000000e+00
3.454999253153800964e-02
3.218727931380271912e-02
-0.000000000000000000e+00
-1.470214314758777618e-02
0.000000000000000000e+00
0.000000000000000000e+00
0.000000000000000000e+00
0.000000000000000000e+00
-0.000000000000000000e+00
0.000000000000000000e+00
0.000000000000000000e+00
-0.000000000000000000e+00
0.000000000000000000e+00
0.000000000000000000e+00
-0.000000000000000000e+00
-9.946706891059875488e-02
-3.134682402014732361e-02
0.000000000000000000e+00
-8.120471984148025513e-02
-4.961242899298667908e-02
6.791017949581146240e-02
1.057872548699378967e-01
0.000000000000000000e+00
-2.409032359719276428e-02
0.000000000000000000e+00
-2.074908651411533356e-02
-1.460354775190353394e-02
-2.075487188994884491e-02
2.142496779561042786e-02
3.812196105718612671e-02
0.000000000000000000e+00
2.773308195173740387e-02
0.000000000000000000e+00
0.000000000000000000e+00
3.037929348647594452e-02
-1.193085592240095139e-02
-2.115131355822086334e-02
3.608915954828262329e-02
-3.935521095991134644e-02
-2.106024883687496185e-02
3.685975074768066406e-02
-1.558935549110174179e-02
0.000000000000000000e+00
0.000000000000000000e+00
-1.201272103935480118e-02
2.503549680113792419e-02
3.413394466042518616e-02
-2.794390358030796051e-02
-0.000000000000000000e+00
2.165398187935352325e-02
0.000000000000000000e+00
0.000000000000000000e+00
0.000000000000000000e+00
-1.374070718884468079e-02
3.276632353663444519e-02
3.372717276215553284e-02
-4.548066109418869019e-02
-0.000000000000000000e+00
0.000000000000000000e+00
0.000000000000000000e+00
-3.013644367456436157e-02
4.168045520782470703e-02
1.061772778630256653e-01
-1.896223798394203186e-02
1.797064207494258881e-02
3.542696312069892883e-02
-3.757402300834655762e-02
0.000000000000000000e+00
-3.855821490287780762e-02
-2.172871232032775879e-01
7.989585399627685547e-02
-6.063625961542129517e-02
-3.063327670097351074e-01
-2.824962325394153595e-02
2.450641430914402008e-02
-8.463224768638610840e-02
2.451335638761520386e-02
-1.551327761262655258e-02
-0.000000000000000000e+00
3.449713066220283508e-02
-4.530506953597068787e-02
-0.000000000000000000e+00
8.479196578264236450e-02
-4.407723993062973022e-02
-2.055010944604873657e-02
6.047490611672401428e-02
7.005187124013900757e-02
-4.173044115304946899e-02
0.000000000000000000e+00
3.597911447286605835e-02
-2.743290364742279053e-01
-1.129342839121818542e-01
5.845554545521736145e-02
-1.653528362512588501e-01
-2.481904067099094391e-02
0.000000000000000000e+00
0.000000000000000000e+00
1.576734147965908051e-02
2.688833698630332947e-02
-1.825760491192340851e-02
2.302259206771850586e-02
0.000000000000000000e+00
-0.000000000000000000e+00
0.000000000000000000e+00
-2.103383839130401611e-02
-2.288329042494297028e-02
-2.215733379125595093e-02
2.496924810111522675e-02
-6.846304982900619507e-02
-1.454481855034828186e-02
-2.369720488786697388e-02
-0.000000000000000000e+00
1.683450303971767426e-02
-4.874581471085548401e-02
-1.779228746891021729e-01
-0.000000000000000000e+00
-0.000000000000000000e+00
-3.500033318996429443e-01
4.254650697112083435e-02
5.267992243170738220e-02
-5.686733499169349670e-02
8.602069318294525146e-02
-0.000000000000000000e+00
4.701946303248405457e-02
2.725855074822902679e-02
2.284600585699081421e-02
4.266164079308509827e-02
9.130512923002243042e-02
0.000000000000000000e+00
0.000000000000000000e+00
-2.897121757268905640e-02
-0.000000000000000000e+00
2.009779773652553558e-02
-0.000000000000000000e+00
-2.927968651056289673e-02
-1.607406698167324066e-02
-0.000000000000000000e+00
-0.000000000000000000e+00
1.714491099119186401e-02
0.000000000000000000e+00
1.468745525926351547e-02
2.772728167474269867e-02
3.677031397819519043e-02
-0.000000000000000000e+00
-3.352698311209678650e-02
-0.000000000000000000e+00
1.209376659244298935e-02
-0.000000000000000000e+00
1.504165586084127426e-02
-2.624896168708801270e-02
-1.449235901236534119e-02
3.869304805994033813e-02
-0.000000000000000000e+00
-2.480497211217880249e-02
0.000000000000000000e+00
-0.000000000000000000e+00
1.312114391475915909e-02
3.175045549869537354e-02
-2.952223829925060272e-02
1.191029790788888931e-02
5.255158618092536926e-02
3.187274560332298279e-02
8.614137023687362671e-02
1.122332140803337097e-01
-4.793696850538253784e-02
-0.000000000000000000e+00
2.125713229179382324e-02
-0.000000000000000000e+00
-1.599785499274730682e-02
-0.000000000000000000e+00
-3.728711232542991638e-02
-1.878705993294715881e-02
2.144373767077922821e-02
-0.000000000000000000e+00
0.000000000000000000e+00
1.656227558851242065e-02
0.000000000000000000e+00
1.979150064289569855e-02
2.662001550197601318e-02
-0.000000000000000000e+00
-0.000000000000000000e+00
2.157573029398918152e-02
0.000000000000000000e+00
0.000000000000000000e+00
0.000000000000000000e+00
0.000000000000000000e+00
-0.000000000000000000e+00
-2.586307749152183533e-02
-0.000000000000000000e+00
-0.000000000000000000e+00
1.451257150620222092e-02
-2.739096619188785553e-02
0.000000000000000000e+00
0.000000000000000000e+00
-0.000000000000000000e+00
0.000000000000000000e+00
0.000000000000000000e+00
-2.749432437121868134e-02
1.270787511020898819e-02
3.506254777312278748e-02
-3.374639898538589478e-02
-1.518713030964136124e-02
2.524148114025592804e-02
-0.000000000000000000e+00
-0.000000000000000000e+00
2.445017918944358826e-02
0.000000000000000000e+00
-1.193857751786708832e-02
1.473378017544746399e-02
0.000000000000000000e+00
-1.166195515543222427e-02
2.929257601499557495e-02
-0.000000000000000000e+00
-0.000000000000000000e+00
0.000000000000000000e+00
-0.000000000000000000e+00
0.000000000000000000e+00
0.000000000000000000e+00
-0.000000000000000000e+00
0.000000000000000000e+00
0.000000000000000000e+00
2.299693226814270020e-02
2.797910384833812714e-02
4.372775554656982422e-02
-1.271100901067256927e-02
-0.000000000000000000e+00
2.709033153951168060e-02
-2.828652411699295044e-02
-2.541053295135498047e-02
1.998534053564071655e-02
-0.000000000000000000e+00
-0.000000000000000000e+00
0.000000000000000000e+00
-0.000000000000000000e+00
0.000000000000000000e+00
0.000000000000000000e+00
-0.000000000000000000e+00
-0.000000000000000000e+00
0.000000000000000000e+00
-8.617638051509857178e-02
-3.229368478059768677e-02
4.139200598001480103e-02
-1.400422304868698120e-01
-9.406992793083190918e-02
7.620900124311447144e-02
2.893843501806259155e-02
2.080615982413291931e-02
4.618406668305397034e-02
-1.615789160132408142e-02
-1.818597130477428436e-02
-2.165116555988788605e-02
1.401457563042640686e-02
-9.256333112716674805e-02
-4.086629673838615417e-02
-0.000000000000000000e+00
0.000000000000000000e+00
0.000000000000000000e+00
5.578551813960075378e-02
-4.061672464013099670e-02
0.000000000000000000e+00
-8.348155021667480469e-02
-2.501313984394073486e-01
-8.967851102352142334e-02
3.574782609939575195e-02
2.844577096402645111e-02
0.000000000000000000e+00
-2.314195595681667328e-02
1.503954734653234482e-02
4.369077458977699280e-02
-2.004060335457324982e-02
2.043298259377479553e-02
9.397121518850326538e-02
-2.020732127130031586e-02
-1.540205907076597214e-02
0.000000000000000000e+00
2.368481084704399109e-02
2.770007029175758362e-02
-3.704282641410827637e-02
1.012680009007453918e-01
-1.374939680099487305e-01
-9.284905344247817993e-02
-3.852144256234169006e-02
-0.000000000000000000e+00
8.937763422727584839e-02
5.768587440252304077e-02
-2.048669755458831787e-02
-2.403482794761657715e-02
-1.118324846029281616e-01
-3.348688185214996338e-01
-1.143038645386695862e-01
-0.000000000000000000e+00
-0.000000000000000000e+00
2.200882881879806519e-02
6.709630042314529419e-02
2.727289311587810516e-02
3.917542099952697754e-02
3.508253023028373718e-02
-4.142387211322784424e-02
-0.000000000000000000e+00
2.078311517834663391e-02
-5.384522676467895508e-02
-2.610772289335727692e-02
-0.000000000000000000e+00
-0.000000000000000000e+00
3.339495882391929626e-02
-2.919988147914409637e-02
-3.335255756974220276e-02
4.921671003103256226e-02
-2.507071197032928467e-02
0.000000000000000000e+00
2.750817313790321350e-02
3.822614252567291260e-02
-9.570419043302536011e-02
-8.708647638559341431e-02
0.000000000000000000e+00
-1.351434439420700073e-01
2.339643053710460663e-02
-3.709462285041809082e-02
3.904978185892105103e-02
-0.000000000000000000e+00
-0.000000000000000000e+00
0.000000000000000000e+00
0.000000000000000000e+00
0.000000000000000000e+00
0.000000000000000000e+00
0.000000000000000000e+00
-0.000000000000000000e+00
0.000000000000000000e+00
0.000000000000000000e+00
-4.447794705629348755e-02
-0.000000000000000000e+00
5.505503341555595398e-02
-5.332474410533905029e-02
-2.075518518686294556e-01
9.532612562179565430e-02
3.545014932751655579e-02
2.930334769189357758e-02
1.791544631123542786e-02
0.000000000000000000e+00
-7.501634210348129272e-02
-1.872813142836093903e-02
4.333043098449707031e-02
-4.745256528258323669e-02
-5.138947069644927979e-02
-0.000000000000000000e+00
5.778028815984725952e-02
-1.751704700291156769e-02
-0.000000000000000000e+00
-1.204987615346908569e-02
9.981557726860046387e-02
-2.358077839016914368e-02
-1.580321937799453735e-01
1.827517710626125336e-02
3.168250620365142822e-02
2.679703757166862488e-02
0.000000000000000000e+00
3.073013201355934143e-02
1.879395358264446259e-02
-0.000000000000000000e+00
-0.000000000000000000e+00
-1.666270196437835693e-02
0.000000000000000000e+00
-1.250949501991271973e-02
0.000000000000000000e+00
0.000000000000000000e+00
-9.912594407796859741e-02
-7.103705406188964844e-02
1.568962261080741882e-02
-6.236187368631362915e-02
-1.030119210481643677e-01
0.000000000000000000e+00
3.473997861146926880e-02
5.111195519566535950e-02
3.922884538769721985e-02
-0.000000000000000000e+00
-0.000000000000000000e+00
-0.000000000000000000e+00
1.328963972628116608e-02
-0.000000000000000000e+00
-0.000000000000000000e+00
1.404186617583036423e-02
-0.000000000000000000e+00
0.000000000000000000e+00
0.000000000000000000e+00
-7.166157662868499756e-02
-0.000000000000000000e+00
-2.963710017502307892e-02
-1.857329607009887695e-01
-1.599249988794326782e-02
-0.000000000000000000e+00
-0.000000000000000000e+00
0.000000000000000000e+00
-8.345755189657211304e-02
-4.745097458362579346e-02
1.741153560578823090e-02
-1.653026193380355835e-01
-1.224315911531448364e-01
9.885557740926742554e-02
-0.000000000000000000e+00
-7.641487568616867065e-02
4.832873493432998657e-02
-1.819482445716857910e-02
-0.000000000000000000e+00
0.000000000000000000e+00
0.000000000000000000e+00
1.979268155992031097e-02
2.846050262451171875e-02
-5.688719078898429871e-02
-0.000000000000000000e+00
4.648510366678237915e-02
-1.951728202402591705e-02
0.000000000000000000e+00
0.000000000000000000e+00
-0.000000000000000000e+00
2.727318368852138519e-02
-0.000000000000000000e+00
0.000000000000000000e+00
-0.000000000000000000e+00
-2.024490572512149811e-02
-4.905623570084571838e-02
-1.061552315950393677e-01
-5.366852879524230957e-02
-1.507630199193954468e-02
-2.214714437723159790e-01
-1.500114984810352325e-02
2.726981043815612793e-02
-3.474615514278411865e-02
-1.252281107008457184e-02
6.227211654186248779e-02
1.881058141589164734e-02
-1.486236043274402618e-02
8.701110631227493286e-02
0.000000000000000000e+00
-3.801491856575012207e-02
-0.000000000000000000e+00
-0.000000000000000000e+00
6.299351900815963745e-02
0.000000000000000000e+00
2.915109321475028992e-02
6.173362582921981812e-02
-4.058585688471794128e-02
1.852863468229770660e-02
8.727336674928665161e-02
-4.316125810146331787e-02
1.937890797853469849e-02
7.846114784479141235e-02
-0.000000000000000000e+00
-2.202425897121429443e-02
1.292524859309196472e-02
-0.000000000000000000e+00
-1.664049737155437469e-02
-0.000000000000000000e+00
1.389683317393064499e-02
-0.000000000000000000e+00
-2.159634791314601898e-02
5.641848221421241760e-02
-0.000000000000000000e+00
-3.873958438634872437e-02
1.136386543512344360e-01
-0.000000000000000000e+00
-3.142187744379043579e-02
-0.000000000000000000e+00
-2.622649259865283966e-02
-0.000000000000000000e+00
1.590812765061855316e-02
2.199128083884716034e-02
0.000000000000000000e+00
1.471945643424987793e-01
-3.300819918513298035e-02
1.183421537280082703e-02
6.579410284757614136e-02
-1.360885798931121826e-02
3.384994342923164368e-02
1.571261882781982422e-02
2.540717646479606628e-02
3.519242256879806519e-02
1.335800737142562866e-01
0.000000000000000000e+00
-0.000000000000000000e+00
9.250078350305557251e-02
0.000000000000000000e+00
-0.000000000000000000e+00
-0.000000000000000000e+00
-0.000000000000000000e+00
-0.000000000000000000e+00
0.000000000000000000e+00
-0.000000000000000000e+00
-0.000000000000000000e+00
-0.000000000000000000e+00
-0.000000000000000000e+00
-0.000000000000000000e+00
0.000000000000000000e+00
1.324333716183900833e-02
0.000000000000000000e+00
-1.245369017124176025e-02
-2.461617439985275269e-02
-0.000000000000000000e+00
-0.000000000000000000e+00
-1.901083998382091522e-02
0.000000000000000000e+00
0.000000000000000000e+00
-0.000000000000000000e+00
-0.000000000000000000e+00
0.000000000000000000e+00
-0.000000000000000000e+00
-0.000000000000000000e+00
-0.000000000000000000e+00
-0.000000000000000000e+00
-0.000000000000000000e+00
1.167653594166040421e-02
5.354528874158859253e-02
2.865143492817878723e-02
-1.396981626749038696e-02
-7.993721216917037964e-02
-1.337256282567977905e-02
-0.000000000000000000e+00
-4.779579490423202515e-02
-1.689572073519229889e-02
-0.000000000000000000e+00
-0.000000000000000000e+00
-0.000000000000000000e+00
2.008116990327835083e-02
0.000000000000000000e+00
4.538695886731147766e-02
-2.993174456059932709e-02
-1.691955700516700745e-02
2.040053158998489380e-02
-0.000000000000000000e+00
-0.000000000000000000e+00
-0.000000000000000000e+00
0.000000000000000000e+00
-0.000000000000000000e+00
-0.000000000000000000e+00
0.000000000000000000e+00
0.000000000000000000e+00
0.000000000000000000e+00
-0.000000000000000000e+00
5.686809867620468140e-02
1.815023273229598999e-02
6.542312353849411011e-02
-7.239205390214920044e-02
-4.236163571476936340e-02
4.929488524794578552e-02
-3.235883265733718872e-02
-1.838760450482368469e-02
0.000000000000000000e+00
0.000000000000000000e+00
0.000000000000000000e+00
0.000000000000000000e+00
-0.000000000000000000e+00
-0.000000000000000000e+00
0.000000000000000000e+00
0.000000000000000000e+00
0.000000000000000000e+00
-2.007520571351051331e-02
2.179747819900512695e-02
0.000000000000000000e+00
9.567873179912567139e-02
1.841249130666255951e-02
-0.000000000000000000e+00
-2.243109233677387238e-02
2.520473860204219818e-02
4.820852726697921753e-02
-0.000000000000000000e+00
-3.084247745573520660e-02
-3.118898347020149231e-02
4.286839440464973450e-02
-1.258681416511535645e-01
-8.805423974990844727e-02
-0.000000000000000000e+00
-1.181467026472091675e-01
-6.543581187725067139e-02
1.281954627484083176e-02
-2.681338414549827576e-02
-0.000000000000000000e+00
3.154578432440757751e-02
-0.000000000000000000e+00
0.000000000000000000e+00
-0.000000000000000000e+00
0.000000000000000000e+00
0.000000000000000000e+00
0.000000000000000000e+00
-0.000000000000000000e+00
-0.000000000000000000e+00
0.000000000000000000e+00
-0.000000000000000000e+00
-0.000000000000000000e+00
0.000000000000000000e+00
-0.000000000000000000e+00
-0.000000000000000000e+00
-2.741283923387527466e-02
3.156220167875289917e-02
2.093764394521713257e-02
-4.129337146878242493e-02
-0.000000000000000000e+00
0.000000000000000000e+00
-4.738983139395713806e-02
-1.897840015590190887e-02
0.000000000000000000e+00
2.456180378794670105e-02
-1.535237580537796021e-02
0.000000000000000000e+00
1.065844073891639709e-01
-7.830888032913208008e-02
-0.000000000000000000e+00
2.185879647731781006e-02
-7.778058946132659912e-02
-3.282685577869415283e-02
-3.489597886800765991e-02
0.000000000000000000e+00
0.000000000000000000e+00
-0.000000000000000000e+00
0.000000000000000000e+00
3.862945362925529480e-02
0.000000000000000000e+00
-0.000000000000000000e+00
0.000000000000000000e+00
0.000000000000000000e+00
0.000000000000000000e+00
2.901926450431346893e-02
1.854827068746089935e-02
0.000000000000000000e+00
2.188466303050518036e-02
1.572118327021598816e-02
0.000000000000000000e+00
0.000000000000000000e+00
2.065099962055683136e-02
1.487474702298641205e-02
2.757166698575019836e-02
0.000000000000000000e+00
-0.000000000000000000e+00
1.774337328970432281e-02
0.000000000000000000e+00
2.153078280389308929e-02
2.212850190699100494e-02
0.000000000000000000e+00
-4.057673364877700806e-02
-1.833493262529373169e-02
-3.163597360253334045e-02
-2.543448843061923981e-02
3.705718740820884705e-02
-0.000000000000000000e+00
5.668479576706886292e-02
4.701432213187217712e-02
-0.000000000000000000e+00
4.397888481616973877e-02
3.637041151523590088e-02
3.614520654082298279e-02
4.704776778817176819e-02
5.818297341465950012e-02
5.446669459342956543e-02
3.412333503365516663e-02
0.000000000000000000e+00
-8.660190552473068237e-02
-3.747571259737014771e-02
-0.000000000000000000e+00
-3.343034908175468445e-02
-3.406013175845146179e-02
-0.000000000000000000e+00
-3.955746814608573914e-02
-4.083781689405441284e-02
-4.804473742842674255e-02
-4.078114405274391174e-02
3.301849588751792908e-02
5.565598234534263611e-02
0.000000000000000000e+00
0.000000000000000000e+00
1.144164875149726868e-01
0.000000000000000000e+00
-1.398206129670143127e-02
8.705029636621475220e-02
1.580444164574146271e-02
0.000000000000000000e+00
-2.051042392849922180e-02
0.000000000000000000e+00
5.011870712041854858e-02
6.807972490787506104e-02
-7.675427943468093872e-02
4.114598780870437622e-02
7.052917778491973877e-02
-3.183810412883758545e-02
2.442000433802604675e-02
-1.274998206645250320e-02
0.000000000000000000e+00
3.758051618933677673e-02
1.899302750825881958e-02
-0.000000000000000000e+00
3.889976441860198975e-02
3.971192985773086548e-02
-1.317141670733690262e-02
7.059904932975769043e-02
2.276667393743991852e-02
-1.941980607807636261e-02
-3.978497162461280823e-02
-0.000000000000000000e+00
-2.008476853370666504e-02
3.412995859980583191e-02
0.000000000000000000e+00
-3.773252293467521667e-02
-7.568330317735671997e-02
-6.223566085100173950e-02
6.278419494628906250e-02
0.000000000000000000e+00
-1.695288904011249542e-02
-1.589792780578136444e-02
-1.763995178043842316e-02
-0.000000000000000000e+00
-0.000000000000000000e+00
0.000000000000000000e+00
2.239739708602428436e-02
1.532681845128536224e-02
-0.000000000000000000e+00
2.918198145925998688e-02
0.000000000000000000e+00
-0.000000000000000000e+00
0.000000000000000000e+00
-4.358763620257377625e-02
-0.000000000000000000e+00
1.193032972514629364e-02
0.000000000000000000e+00
-3.344921395182609558e-02
3.319195285439491272e-02
0.000000000000000000e+00
-0.000000000000000000e+00
5.218542739748954773e-02
1.574653387069702148e-02
-1.353817339986562729e-02
-0.000000000000000000e+00
4.664683341979980469e-02
-0.000000000000000000e+00
-0.000000000000000000e+00
-1.611847430467605591e-02
-5.407348647713661194e-02
-1.809721253812313080e-02
3.737162053585052490e-02
6.498929858207702637e-02
6.331513822078704834e-02
6.870114803314208984e-02
3.626485168933868408e-02
-4.304784163832664490e-02
0.000000000000000000e+00
7.916320115327835083e-02
-0.000000000000000000e+00
0.000000000000000000e+00
0.000000000000000000e+00
-4.065706953406333923e-02
6.396833062171936035e-02
0.000000000000000000e+00
-0.000000000000000000e+00
-0.000000000000000000e+00
-5.111936852335929871e-02
-3.398561477661132812e-02
-3.214632719755172729e-02
-1.516079250723123550e-02
1.338414754718542099e-02
-2.098828926682472229e-02
-4.424002021551132202e-02
3.150615096092224121e-02
0.000000000000000000e+00
1.410246081650257111e-02
5.133023858070373535e-02
-1.839289069175720215e-02
0.000000000000000000e+00
1.325139403343200684e-02
0.000000000000000000e+00
-0.000000000000000000e+00
1.883235201239585876e-02
-0.000000000000000000e+00
-0.000000000000000000e+00
2.084513194859027863e-02
4.252793639898300171e-02
2.990049682557582855e-02
4.535873234272003174e-02
2.167392335832118988e-02
-0.000000000000000000e+00
2.396191470324993134e-02
2.109000831842422485e-02
1.682712137699127197e-02
2.828284353017807007e-02
0.000000000000000000e+00
0.000000000000000000e+00
2.444613352417945862e-02
1.516602374613285065e-02
-1.673368737101554871e-02
3.512073308229446411e-02
3.012971207499504089e-02
-2.098987065255641937e-02
2.949495986104011536e-02
-0.000000000000000000e+00
-0.000000000000000000e+00
0.000000000000000000e+00
-0.000000000000000000e+00
-0.000000000000000000e+00
0.000000000000000000e+00
0.000000000000000000e+00
0.000000000000000000e+00
0.000000000000000000e+00
-4.350890219211578369e-02
0.000000000000000000e+00
2.856376953423023224e-02
-0.000000000000000000e+00
-0.000000000000000000e+00
2.501963078975677490e-02
0.000000000000000000e+00
-0.000000000000000000e+00
-0.000000000000000000e+00
0.000000000000000000e+00
-0.000000000000000000e+00
-0.000000000000000000e+00
-0.000000000000000000e+00
-0.000000000000000000e+00
-0.000000000000000000e+00
-0.000000000000000000e+00
-0.000000000000000000e+00
-0.000000000000000000e+00
0.000000000000000000e+00
1.833412051200866699e-02
2.862758748233318329e-02
4.218250513076782227e-02
-2.794789969921112061e-01
-1.705022454261779785e-01
5.302792415022850037e-02
-1.269452571868896484e-01
-1.043741777539253235e-01
-0.000000000000000000e+00
-0.000000000000000000e+00
0.000000000000000000e+00
-3.857291117310523987e-02
-4.280072450637817383e-02
-0.000000000000000000e+00
-0.000000000000000000e+00
-0.000000000000000000e+00
3.941284492611885071e-02
0.000000000000000000e+00
6.354862451553344727e-02
4.873426258563995361e-02
6.523775309324264526e-02
-0.000000000000000000e+00
3.580249845981597900e-02
3.656885772943496704e-02
-7.888909429311752319e-02
2.555112354457378387e-02
1.466261688619852066e-02
0.000000000000000000e+00
5.349512025713920593e-02
1.142782941460609436e-01
-3.457837551832199097e-02
0.000000000000000000e+00
8.373802155256271362e-02
-2.371853590011596680e-02
3.006799146533012390e-02
-4.845726862549781799e-02
-2.422797866165637970e-02
-2.927730791270732880e-02
-2.079603075981140137e-02
-9.951856732368469238e-02
-1.885789446532726288e-02
1.466170139610767365e-02
-4.500364139676094055e-02
-2.121778763830661774e-02
1.647617295384407043e-02
4.651519656181335449e-02
-1.263683848083019257e-02
3.066838532686233521e-02
2.885550633072853088e-02
7.256499677896499634e-02
3.615435585379600525e-02
-0.000000000000000000e+00
3.852820023894309998e-02
-0.000000000000000000e+00
0.000000000000000000e+00
4.936392232775688171e-02
0.000000000000000000e+00
-6.314872205257415771e-02
4.357155784964561462e-02
3.029676340520381927e-02
-2.482703328132629395e-02
5.906020104885101318e-02
-2.974321879446506500e-02
-0.000000000000000000e+00
-0.000000000000000000e+00
0.000000000000000000e+00
0.000000000000000000e+00
-1.402067113667726517e-02
-3.131820634007453918e-02
1.908318884670734406e-02
1.171233877539634705e-02
2.680974267423152924e-02
0.000000000000000000e+00
-3.195494785904884338e-02
-4.030762240290641785e-02
-1.813520118594169617e-02
-2.927291207015514374e-02
-1.668730750679969788e-02
0.000000000000000000e+00
-1.355693954974412918e-02
0.000000000000000000e+00
-0.000000000000000000e+00
-0.000000000000000000e+00
-0.000000000000000000e+00
-0.000000000000000000e+00
-0.000000000000000000e+00
-0.000000000000000000e+00
-0.000000000000000000e+00
-0.000000000000000000e+00
-0.000000000000000000e+00
0.000000000000000000e+00
2.781916968524456024e-02
1.817612536251544952e-02
-2.968191802501678467e-01
-2.287761121988296509e-01
2.158574014902114868e-02
-1.638038456439971924e-01
-1.083938404917716980e-01
-0.000000000000000000e+00
-2.094295434653759003e-02
0.000000000000000000e+00
-3.471644595265388489e-02
-2.512166202068328857e-01
-3.015371263027191162e-01
-0.000000000000000000e+00
-9.693340957164764404e-02
-1.479472070932388306e-01
4.596057161688804626e-02
4.404668509960174561e-02
1.145281866192817688e-01
5.724180489778518677e-02
-3.151043653488159180e-01
-1.439965516328811646e-01
7.345894724130630493e-02
-8.847280591726303101e-02
-1.782404072582721710e-02
-0.000000000000000000e+00
2.951687946915626526e-02
2.197772264480590820e-02
-0.000000000000000000e+00
-4.418059065937995911e-02
-0.000000000000000000e+00
-0.000000000000000000e+00
-5.141633749008178711e-02
-0.000000000000000000e+00
5.990821495652198792e-02
5.286918953061103821e-02
4.715497791767120361e-02
1.253169775009155273e-01
-3.276419639587402344e-01
-2.825433611869812012e-01
1.003994420170783997e-01
-7.406620681285858154e-02
-1.082649528980255127e-01
-0.000000000000000000e+00
-0.000000000000000000e+00
-0.000000000000000000e+00
-2.780901826918125153e-02
-1.549486070871353149e-02
-0.000000000000000000e+00
-2.172963507473468781e-02
1.206818316131830215e-02
2.614635229110717773e-02
0.000000000000000000e+00
5.723259598016738892e-02
2.882638946175575256e-02
1.174132898449897766e-02
2.921381965279579163e-02
2.730606310069561005e-02
0.000000000000000000e+00
3.881503269076347351e-02
2.485772036015987396e-02
7.116462290287017822e-02
6.226322427392005920e-02
-0.000000000000000000e+00
1.633351296186447144e-01
-5.252731963992118835e-02
0.000000000000000000e+00
9.256316721439361572e-02
-7.431027293205261230e-02
1.575974933803081512e-02
0.000000000000000000e+00
-3.425450250506401062e-02
-2.115601114928722382e-02
4.221863672137260437e-02
-4.430193454027175903e-02
-2.102884091436862946e-02
2.876708656549453735e-02
-5.039929971098899841e-02
-7.521898299455642700e-02
3.523297980427742004e-02
-1.642691716551780701e-02
1.170601136982440948e-02
1.967890746891498566e-02
-4.956513643264770508e-02
-5.512130260467529297e-02
0.000000000000000000e+00
-0.000000000000000000e+00
1.494411844760179520e-02
-0.000000000000000000e+00
6.323270499706268311e-02
1.274036057293415070e-02
9.804084151983261108e-02
-1.069618165493011475e-01
0.000000000000000000e+00
1.105046719312667847e-01
-2.038488723337650299e-02
4.467466846108436584e-02
-6.077994033694267273e-02
-6.221204623579978943e-02
-3.218427672982215881e-02
-4.980779066681861877e-02
-6.431661546230316162e-02
-0.000000000000000000e+00
-0.000000000000000000e+00
0.000000000000000000e+00
1.650653220713138580e-02
-4.948643967509269714e-02
-1.169775519520044327e-02
0.000000000000000000e+00
-2.415663003921508789e-02
-0.000000000000000000e+00
3.407577797770500183e-02
-3.834391385316848755e-02
-0.000000000000000000e+00
1.788609288632869720e-02
4.883910715579986572e-02
1.828070357441902161e-02
4.045120254158973694e-02
0.000000000000000000e+00
-3.893984481692314148e-02
-1.920326612889766693e-02
1.655281335115432739e-02
-4.994200170040130615e-02
-2.870586887001991272e-02
-1.264720037579536438e-02
-0.000000000000000000e+00
-1.863413490355014801e-02
0.000000000000000000e+00
2.821763977408409119e-02
0.000000000000000000e+00
1.466272585093975067e-02
4.873692244291305542e-02
3.223152086138725281e-02
0.000000000000000000e+00
8.318784832954406738e-02
-0.000000000000000000e+00
-1.454781088978052139e-02
-1.855149418115615845e-01
1.271823644638061523e-01
3.593523055315017700e-02
-6.445799767971038818e-02
-0.000000000000000000e+00
-4.599571600556373596e-02
-8.689787238836288452e-02
-1.109800711274147034e-01
-0.000000000000000000e+00
-6.478457897901535034e-02
7.087220996618270874e-02
-0.000000000000000000e+00
-7.066417485475540161e-02
-0.000000000000000000e+00
-0.000000000000000000e+00
-0.000000000000000000e+00
-0.000000000000000000e+00
-0.000000000000000000e+00
-0.000000000000000000e+00
-0.000000000000000000e+00
-0.000000000000000000e+00
-0.000000000000000000e+00
-0.000000000000000000e+00
1.455894391983747482e-02
6.975436955690383911e-02
-4.357225447893142700e-02
2.561874315142631531e-02
-7.361035048961639404e-02
0.000000000000000000e+00
2.094634436070919037e-02
-9.783007204532623291e-02
-0.000000000000000000e+00
0.000000000000000000e+00
0.000000000000000000e+00
0.000000000000000000e+00
-0.000000000000000000e+00
-0.000000000000000000e+00
0.000000000000000000e+00
-0.000000000000000000e+00
-0.000000000000000000e+00
-0.000000000000000000e+00
1.369824167340993881e-02
3.253721073269844055e-02
0.000000000000000000e+00
-2.228235267102718353e-02
4.691759124398231506e-02
-5.855112895369529724e-02
0.000000000000000000e+00
3.320552781224250793e-02
-3.371520712971687317e-02
5.694726109504699707e-02
2.742217183113098145e-01
7.070569694042205811e-02
3.984527662396430969e-02
-1.342856138944625854e-01
-1.204179450869560242e-01
-0.000000000000000000e+00
-1.084085926413536072e-01
-1.201291382312774658e-01
0.000000000000000000e+00
0.000000000000000000e+00
0.000000000000000000e+00
-0.000000000000000000e+00
-0.000000000000000000e+00
0.000000000000000000e+00
-0.000000000000000000e+00
-0.000000000000000000e+00
-0.000000000000000000e+00
2.918070740997791290e-02
6.590319424867630005e-02
2.005580998957157135e-02
6.198312714695930481e-02
-6.372116506099700928e-02
6.011857092380523682e-02
-0.000000000000000000e+00
5.262479186058044434e-02
-0.000000000000000000e+00
0.000000000000000000e+00
0.000000000000000000e+00
0.000000000000000000e+00
-0.000000000000000000e+00
-0.000000000000000000e+00
-0.000000000000000000e+00
-0.000000000000000000e+00
-0.000000000000000000e+00
-0.000000000000000000e+00
-1.969333738088607788e-02
3.704758733510971069e-02
-2.469426020979881287e-02
4.765357449650764465e-02
-7.121483236551284790e-02
2.539487741887569427e-02
2.185120061039924622e-02
6.190275028347969055e-02
0.000000000000000000e+00
1.359880063682794571e-02
-3.786362707614898682e-02
2.350303530693054199e-02
4.313885420560836792e-02
-3.093930333852767944e-02
1.172054633498191833e-01
-5.095252767205238342e-02
0.000000000000000000e+00
4.068891704082489014e-02
-0.000000000000000000e+00
2.913705632090568542e-02
3.720135241746902466e-02
-0.000000000000000000e+00
-1.572163999080657959e-01
4.958130791783332825e-02
4.529354721307754517e-02
0.000000000000000000e+00
4.823372885584831238e-02
0.000000000000000000e+00
0.000000000000000000e+00
0.000000000000000000e+00
-0.000000000000000000e+00
-0.000000000000000000e+00
-0.000000000000000000e+00
-0.000000000000000000e+00
-0.000000000000000000e+00
-0.000000000000000000e+00
1.757985725998878479e-02
-0.000000000000000000e+00
2.078306302428245544e-02
5.722390487790107727e-02
0.000000000000000000e+00
-7.184499502182006836e-02
0.000000000000000000e+00
2.629509568214416504e-02
-3.318982198834419250e-02
2.896854281425476074e-02
-2.159780077636241913e-02
-5.946380645036697388e-02
1.447400171309709549e-02
-9.580843895673751831e-02
1.673612743616104126e-02
2.826350368559360504e-02
-4.364055022597312927e-02
2.134047076106071472e-02
-5.246070027351379395e-02
9.292839467525482178e-02
0.000000000000000000e+00
1.436427235603332520e-02
-6.285977363586425781e-02
-6.529881060123443604e-02
0.000000000000000000e+00
-6.698461621999740601e-02
-2.624593675136566162e-02
-0.000000000000000000e+00
2.816560678184032440e-02
1.739864982664585114e-02
-1.641827262938022614e-02
-3.278373926877975464e-02
-2.964214608073234558e-02
-2.925179153680801392e-02
-6.558527797460556030e-02
-4.905810579657554626e-02
-1.675859838724136353e-02
4.516051337122917175e-02
-1.688458956778049469e-02
-1.531688123941421509e-02
-8.505190908908843994e-02
1.382793579250574112e-02
1.303543802350759506e-02
-7.999745756387710571e-02
-2.408136799931526184e-02
-7.783578336238861084e-02
7.927177101373672485e-02
4.741654917597770691e-02
4.213494434952735901e-02
-7.344479858875274658e-02
4.864596202969551086e-02
5.492290109395980835e-02
-4.268216341733932495e-02
4.291152209043502808e-02
0.000000000000000000e+00
0.000000000000000000e+00
2.008556760847568512e-02
-3.098673000931739807e-02
3.020036593079566956e-02
5.936065316200256348e-02
0.000000000000000000e+00
2.188473567366600037e-02
0.000000000000000000e+00
-7.070729136466979980e-02
3.177655860781669617e-02
-7.586904615163803101e-02
2.027647569775581360e-02
8.666563779115676880e-02
3.158388659358024597e-02
-0.000000000000000000e+00
-5.269097536802291870e-02
-2.769361995160579681e-02
-8.816857635974884033e-02
-0.000000000000000000e+00
-5.583461746573448181e-02
-2.528942562639713287e-02
-0.000000000000000000e+00
-6.686256080865859985e-02
-0.000000000000000000e+00
8.002187311649322510e-02
-5.410697311162948608e-02
-1.261203885078430176e-01
1.100964471697807312e-01
3.733636066317558289e-02
5.038557201623916626e-02
3.205081447958946228e-02
-4.567823931574821472e-02
6.860532611608505249e-02
-3.503758087754249573e-02
-4.877169430255889893e-02
-7.858970016241073608e-02
7.342526316642761230e-02
4.598944634199142456e-02
1.764155179262161255e-02
-7.868217676877975464e-02
-0.000000000000000000e+00
-2.125463075935840607e-02
-7.927078753709793091e-02
4.095719009637832642e-02
2.448461204767227173e-02
2.882801741361618042e-02
-1.963788829743862152e-02
-0.000000000000000000e+00
2.366270124912261963e-02
-2.735971473157405853e-02
-1.685168780386447906e-02
4.403664171695709229e-02
0.000000000000000000e+00
-0.000000000000000000e+00
4.530997946858406067e-02
3.359952569007873535e-02
0.000000000000000000e+00
-2.438629046082496643e-02
1.308175921440124512e-02
0.000000000000000000e+00
-2.701869979500770569e-02
-2.379257045686244965e-02
8.693534880876541138e-02
1.705947816371917725e-01
6.882175803184509277e-02
5.615162476897239685e-02
-1.081673726439476013e-01
-8.835328370332717896e-02
-2.178011834621429443e-02
-1.638527065515518188e-01
-1.324336528778076172e-01
2.138533256947994232e-02
3.735627233982086182e-01
8.236102759838104248e-02
-0.000000000000000000e+00
-1.177565231919288635e-01
-1.384407281875610352e-01
-3.234652802348136902e-02
-7.215675711631774902e-02
-7.696873694658279419e-02
-8.995371311902999878e-02
-6.340713798999786377e-02
-9.350354969501495361e-02
-3.363877534866333008e-02
2.572010830044746399e-02
5.806427448987960815e-02
5.074936151504516602e-02
-2.027541100978851318e-01
1.267717033624649048e-01
5.887403339147567749e-02
3.628599271178245544e-02
0.000000000000000000e+00
4.560589790344238281e-02
-1.037832200527191162e-01
0.000000000000000000e+00
0.000000000000000000e+00
6.848121434450149536e-02
-1.462015137076377869e-02
-0.000000000000000000e+00
1.872440241277217865e-02
-1.979640498757362366e-02
-6.412559747695922852e-02
-5.405684933066368103e-02
0.000000000000000000e+00
-0.000000000000000000e+00
-7.973463088274002075e-02
4.705767333507537842e-02
5.394105240702629089e-02
1.701296567916870117e-01
2.187908999621868134e-02
3.789112716913223267e-02
-1.288658827543258667e-01
-8.531224727630615234e-02
0.000000000000000000e+00
-6.360101699829101562e-02
-8.949030935764312744e-02
1.117807924747467041e-01
2.045812159776687622e-01
4.126098379492759705e-02
8.189245313405990601e-02
-1.020931527018547058e-01
-9.691477566957473755e-02
2.813077904284000397e-02
-8.010335266590118408e-02
-7.117179781198501587e-02
4.928255453705787659e-02
9.488414227962493896e-02
3.965037316083908081e-02
-2.327204123139381409e-02
-1.194441616535186768e-01
-0.000000000000000000e+00
-2.284239977598190308e-02
-2.121969126164913177e-02
-2.237883582711219788e-02
0.000000000000000000e+00
3.400273621082305908e-02
1.779987476766109467e-02
-2.917840704321861267e-02
-4.540669918060302734e-02
0.000000000000000000e+00
-4.083377495408058167e-02
-2.647659741342067719e-02
-4.034243896603584290e-02
0.000000000000000000e+00
0.000000000000000000e+00
0.000000000000000000e+00
-0.000000000000000000e+00
0.000000000000000000e+00
0.000000000000000000e+00
-0.000000000000000000e+00
-0.000000000000000000e+00
-0.000000000000000000e+00
-2.746050246059894562e-02
8.085950464010238647e-02
-3.193080052733421326e-02
-0.000000000000000000e+00
3.007171303033828735e-02
-5.137601494789123535e-02
0.000000000000000000e+00
3.810970857739448547e-02
-4.989797249436378479e-02
-0.000000000000000000e+00
0.000000000000000000e+00
0.000000000000000000e+00
-0.000000000000000000e+00
0.000000000000000000e+00
0.000000000000000000e+00
-0.000000000000000000e+00
0.000000000000000000e+00
-0.000000000000000000e+00
1.896903291344642639e-02
-0.000000000000000000e+00
-7.264012098312377930e-02
-1.677533425390720367e-02
-9.239778667688369751e-02
8.897521346807479858e-02
4.319429025053977966e-02
-0.000000000000000000e+00
-1.411040965467691422e-02
-1.306370645761489868e-01
1.744413673877716064e-01
1.868566125631332397e-02
3.781484812498092651e-02
-2.903610281646251678e-02
-1.281755268573760986e-01
2.041278220713138580e-02
-1.335002928972244263e-01
-0.000000000000000000e+00
-2.738675661385059357e-02
3.841556608676910400e-02
-1.018589362502098083e-01
-3.093623928725719452e-02
0.000000000000000000e+00
1.786069944500923157e-02
2.038140408694744110e-02
-0.000000000000000000e+00
2.346582524478435516e-02
-0.000000000000000000e+00
4.489021375775337219e-02
-8.679324388504028320e-02
0.000000000000000000e+00
-1.100929751992225647e-01
1.439294219017028809e-01
4.015427082777023315e-02
-6.025042384862899780e-02
2.811045758426189423e-02
-1.945065148174762726e-02
-1.452409382909536362e-02
0.000000000000000000e+00
1.684137620031833649e-02
0.000000000000000000e+00
2.684933878481388092e-02
-0.000000000000000000e+00
0.000000000000000000e+00
-7.361598312854766846e-02
-1.539690792560577393e-02
0.000000000000000000e+00
-1.668325066566467285e-02
-6.604941189289093018e-02
3.228885307908058167e-02
-4.018099606037139893e-02
1.382429897785186768e-02
-0.000000000000000000e+00
-0.000000000000000000e+00
2.833279408514499664e-02
1.138924807310104370e-01
4.038776829838752747e-02
-0.000000000000000000e+00
-5.571393668651580811e-02
-6.397939473390579224e-02
2.970947138965129852e-02
-3.561839833855628967e-02
-7.531235367059707642e-02
-1.707965135574340820e-02
1.041366308927536011e-01
3.623253479599952698e-02
-0.000000000000000000e+00
-5.417304486036300659e-02
-4.258495196700096130e-02
5.694096535444259644e-02
1.950834132730960846e-02
0.000000000000000000e+00
-7.847224175930023193e-02
1.368090361356735229e-01
8.200640231370925903e-02
6.660883128643035889e-02
-9.762218594551086426e-02
-6.156788393855094910e-02
0.000000000000000000e+00
0.000000000000000000e+00
7.753015309572219849e-02
0.000000000000000000e+00
0.000000000000000000e+00
-0.000000000000000000e+00
-0.000000000000000000e+00
-0.000000000000000000e+00
0.000000000000000000e+00
-0.000000000000000000e+00
-0.000000000000000000e+00
-0.000000000000000000e+00
3.695536777377128601e-02
-1.597007922828197479e-02
-2.034528926014900208e-02
0.000000000000000000e+00
-3.044493496417999268e-02
1.233071610331535339e-01
0.000000000000000000e+00
7.532981038093566895e-02
-0.000000000000000000e+00
0.000000000000000000e+00
1.080738082528114319e-01
-3.062620759010314941e-02
-4.834916815161705017e-02
3.280250728130340576e-02
7.332258671522140503e-02
-4.343500733375549316e-02
2.556314878165721893e-02
-0.000000000000000000e+00
4.877813160419464111e-02
6.913405656814575195e-02
-1.304954569786787033e-02
0.000000000000000000e+00
-1.842187941074371338e-01
1.204652637243270874e-01
