2.594677172601222992e-02 -1.045756265521049500e-01 -0.000000000000000000e+00 -8.622317016124725342e-02 -3.302076756954193115e-01 -1.027526482939720154e-01 -5.742571130394935608e-02 -1.907445639371871948e-01 -5.464622750878334045e-02 -1.695125550031661987e-02 2.138442359864711761e-02 -0.000000000000000000e+00 -0.000000000000000000e+00 4.501407220959663391e-02 -0.000000000000000000e+00 -5.960180237889289856e-02 0.000000000000000000e+00 0.000000000000000000e+00 -0.000000000000000000e+00 1.963699422776699066e-02 1.316724717617034912e-02 1.304996944963932037e-02 -0.000000000000000000e+00 1.193142775446176529e-02 1.345366053283214569e-02 0.000000000000000000e+00 0.000000000000000000e+00 3.230902552604675293e-02 -6.757149845361709595e-02 -5.116951465606689453e-02 1.379154250025749207e-02 -1.624533236026763916e-01 -7.548501342535018921e-02 -0.000000000000000000e+00 -1.020265668630599976e-01 -4.992100968956947327e-02 1.534088235348463058e-02 -0.000000000000000000e+00 -0.000000000000000000e+00 1.178560778498649597e-02 1.699169166386127472e-02 -0.000000000000000000e+00 0.000000000000000000e+00 2.337780594825744629e-02 0.000000000000000000e+00 6.539563089609146118e-02 6.473004072904586792e-02 7.820641994476318359e-02 8.064556866884231567e-02 6.094055995345115662e-02 9.296534210443496704e-02 7.954309880733489990e-02 6.802271306514739990e-02 8.163347095251083374e-02 1.740919426083564758e-02 2.078375779092311859e-02 1.557666342705488205e-02 3.105366043746471405e-02 -3.689873591065406799e-02 -1.218904368579387665e-02 -0.000000000000000000e+00 -0.000000000000000000e+00 -0.000000000000000000e+00 -0.000000000000000000e+00 1.630870811641216278e-02 -1.934641599655151367e-02 -2.670983783900737762e-02 -1.364027988165616989e-02 -2.985168434679508209e-02 2.145138196647167206e-02 1.678798906505107880e-02 -0.000000000000000000e+00 3.920070827007293701e-02 4.796151071786880493e-02 7.149238139390945435e-02 2.330254018306732178e-02 5.400327593088150024e-02 5.086699128150939941e-02 7.167183607816696167e-02 6.069666147232055664e-02 3.725315630435943604e-02 4.527791216969490051e-02 5.135144293308258057e-02 3.818408772349357605e-02 2.660358883440494537e-02 2.871426194906234741e-02 2.353699877858161926e-02 2.983472496271133423e-02 5.307143181562423706e-02 4.635881632566452026e-02 0.000000000000000000e+00 2.108094468712806702e-02 0.000000000000000000e+00 -0.000000000000000000e+00 5.592977628111839294e-02 3.159502148628234863e-02 0.000000000000000000e+00 -0.000000000000000000e+00 1.541167870163917542e-02 3.792605921626091003e-02 4.048706591129302979e-02 4.575652256608009338e-02 -1.494694221764802933e-02 -0.000000000000000000e+00 2.666142582893371582e-02 2.556893974542617798e-02 4.350005090236663818e-02 4.583128169178962708e-02 -5.555670335888862610e-02 -2.627969719469547272e-02 -2.636304311454296112e-02 -1.371020916849374771e-02 2.642902731895446777e-02 2.630235068500041962e-02 -2.685434743762016296e-02 -1.016861125826835632e-01 -2.745478041470050812e-02 -3.053265810012817383e-02 -1.757921464741230011e-02 0.000000000000000000e+00 -2.304338105022907257e-02 -3.032674454152584076e-02 2.716575376689434052e-02 0.000000000000000000e+00 0.000000000000000000e+00 1.462589390575885773e-02 1.516984496265649796e-02 2.160730771720409393e-02 3.844077885150909424e-02 2.843319438397884369e-02 -0.000000000000000000e+00 2.162965200841426849e-02 2.463529817759990692e-02 0.000000000000000000e+00 2.375933714210987091e-02 -0.000000000000000000e+00 0.000000000000000000e+00 0.000000000000000000e+00 2.376376092433929443e-02 1.417456474155187607e-02 -0.000000000000000000e+00 0.000000000000000000e+00 0.000000000000000000e+00 2.259036898612976074e-02 -2.364747226238250732e-02 -3.150808438658714294e-02 -1.260934118181467056e-02 -0.000000000000000000e+00 2.659026533365249634e-02 0.000000000000000000e+00 -2.298663184046745300e-02 1.768254116177558899e-02 -0.000000000000000000e+00 2.361477725207805634e-02 -0.000000000000000000e+00 0.000000000000000000e+00 1.166066713631153107e-02 -1.423235889524221420e-02 0.000000000000000000e+00 5.282218754291534424e-02 2.536840178072452545e-02 3.660222515463829041e-02 -0.000000000000000000e+00 0.000000000000000000e+00 -0.000000000000000000e+00 0.000000000000000000e+00 3.383864834904670715e-02 3.123284503817558289e-02 0.000000000000000000e+00 -0.000000000000000000e+00 0.000000000000000000e+00 2.524110116064548492e-02 4.673189297318458557e-02 5.220512673258781433e-02 6.818557530641555786e-02 3.860316798090934753e-02 2.048873901367187500e-02 2.425099536776542664e-02 0.000000000000000000e+00 2.742201462388038635e-02 -4.280947521328926086e-02 -2.327589318156242371e-02 -3.000726178288459778e-02 -3.910368308424949646e-02 -1.700596138834953308e-02 -0.000000000000000000e+00 -4.978712275624275208e-02 -3.515972942113876343e-02 -0.000000000000000000e+00 2.628118917346000671e-02 0.000000000000000000e+00 0.000000000000000000e+00 2.160599082708358765e-02 -1.460243668407201767e-02 -1.808365061879158020e-02 2.808140031993389130e-02 -1.417289860546588898e-02 0.000000000000000000e+00 3.730398416519165039e-02 3.254481777548789978e-02 5.712930858135223389e-02 0.000000000000000000e+00 0.000000000000000000e+00 4.134811460971832275e-02 4.186869040131568909e-02 2.484739571809768677e-02 3.817863762378692627e-02 0.000000000000000000e+00 -0.000000000000000000e+00 -0.000000000000000000e+00 -0.000000000000000000e+00 1.605985872447490692e-02 -0.000000000000000000e+00 1.447854377329349518e-02 0.000000000000000000e+00 0.000000000000000000e+00 -0.000000000000000000e+00 -0.000000000000000000e+00 -0.000000000000000000e+00 0.000000000000000000e+00 1.406122092157602310e-02 1.669044047594070435e-02 1.624026149511337280e-02 -0.000000000000000000e+00 0.000000000000000000e+00 3.217190131545066833e-02 0.000000000000000000e+00 0.000000000000000000e+00 0.000000000000000000e+00 -0.000000000000000000e+00 -2.157628349959850311e-02 1.553421188145875931e-02 0.000000000000000000e+00 -0.000000000000000000e+00 -2.128661051392555237e-02 -1.719055511057376862e-02 -2.888139523565769196e-02 1.805650629103183746e-02 2.444813400506973267e-02 3.162005916237831116e-02 -3.069982305169105530e-02 0.000000000000000000e+00 1.504805684089660645e-02 0.000000000000000000e+00 0.000000000000000000e+00 3.263118118047714233e-02 -2.659833058714866638e-02 -2.782783284783363342e-02 -0.000000000000000000e+00 -2.808353491127490997e-02 -1.258627418428659439e-02 -0.000000000000000000e+00 -3.451277688145637512e-02 2.952807582914829254e-02 0.000000000000000000e+00 -1.769528351724147797e-02 -1.181494910269975662e-02 0.000000000000000000e+00 -0.000000000000000000e+00 2.229451015591621399e-02 -1.753750257194042206e-02 -5.197516456246376038e-02 -4.492225125432014465e-02 -2.727668918669223785e-02 -1.257125474512577057e-02 0.000000000000000000e+00 1.618783362209796906e-02 -1.574029773473739624e-02 -0.000000000000000000e+00 3.213790431618690491e-02 0.000000000000000000e+00 -0.000000000000000000e+00 0.000000000000000000e+00 -0.000000000000000000e+00 -1.956815645098686218e-02 -1.653515920042991638e-02 1.250002905726432800e-02 -0.000000000000000000e+00 0.000000000000000000e+00 8.113806694746017456e-02 7.046027481555938721e-02 6.548978388309478760e-02 4.554405435919761658e-02 5.731686949729919434e-02 7.492406666278839111e-02 3.551825508475303650e-02 9.611050784587860107e-02 1.202461570501327515e-01 -1.405149418860673904e-02 -0.000000000000000000e+00 -0.000000000000000000e+00 0.000000000000000000e+00 2.001749537885189056e-02 1.653832755982875824e-02 -0.000000000000000000e+00 -0.000000000000000000e+00 -0.000000000000000000e+00 1.370628364384174347e-02 -4.512845724821090698e-02 -2.871306985616683960e-02 -1.947153173387050629e-02 -1.089843213558197021e-01 -7.210861146450042725e-02 2.840881422162055969e-02 -2.381729893386363983e-02 -2.591057121753692627e-02 0.000000000000000000e+00 1.519834157079458237e-02 3.475885093212127686e-02 2.353703975677490234e-02 0.000000000000000000e+00 3.235421702265739441e-02 0.000000000000000000e+00 0.000000000000000000e+00 3.021507710218429565e-02 -1.018376201391220093e-01 -1.617180258035659790e-01 -1.170534566044807434e-01 -1.426413953304290771e-01 -2.148150950670242310e-01 -1.656470745801925659e-01 -8.679971843957901001e-02 -1.506307870149612427e-01 -1.244585290551185608e-01 -1.923941262066364288e-02 5.283021181821823120e-02 2.556488662958145142e-02 1.810892112553119659e-02 5.009824410080909729e-02 2.628295309841632843e-02 5.148883163928985596e-02 6.921407580375671387e-02 3.943905234336853027e-02 -4.338299855589866638e-02 -0.000000000000000000e+00 0.000000000000000000e+00 0.000000000000000000e+00 4.100942239165306091e-02 0.000000000000000000e+00 1.433450356125831604e-02 1.577777601778507233e-02 -3.422164916992187500e-02 3.278373926877975464e-02 -0.000000000000000000e+00 0.000000000000000000e+00 0.000000000000000000e+00 -3.029449284076690674e-02 -4.485202580690383911e-02 3.661873564124107361e-02 0.000000000000000000e+00 -3.005026094615459442e-02 0.000000000000000000e+00 -0.000000000000000000e+00 1.766805350780487061e-02 0.000000000000000000e+00 -4.696730151772499084e-02 -1.555919833481311798e-02 0.000000000000000000e+00 -0.000000000000000000e+00 -1.267484854906797409e-02 -0.000000000000000000e+00 0.000000000000000000e+00 1.404383685439825058e-02 -0.000000000000000000e+00 -0.000000000000000000e+00 -0.000000000000000000e+00 0.000000000000000000e+00 -0.000000000000000000e+00 -0.000000000000000000e+00 -5.182990431785583496e-02 -1.748589798808097839e-02 -3.097507916390895844e-02 -1.437427382916212082e-02 -3.610694780945777893e-02 -3.852923959493637085e-02 -4.821993783116340637e-02 -4.804426431655883789e-02 -7.120271027088165283e-02 4.739053547382354736e-02 6.007460877299308777e-02 0.000000000000000000e+00 1.386394258588552475e-02 2.129155769944190979e-02 0.000000000000000000e+00 -0.000000000000000000e+00 3.410623222589492798e-02 0.000000000000000000e+00 -2.823505736887454987e-02 -5.660726130008697510e-02 -4.522701725363731384e-02 -6.884014606475830078e-02 -1.122601777315139771e-01 -9.314913302659988403e-02 0.000000000000000000e+00 -2.761078625917434692e-02 -2.816536650061607361e-02 -7.139530032873153687e-02 -9.915569424629211426e-02 -4.263937473297119141e-02 -1.043660640716552734e-01 -1.249922364950180054e-01 -7.558792084455490112e-02 -7.672803103923797607e-02 -1.069077625870704651e-01 -5.735552310943603516e-02 -5.322493612766265869e-02 -3.420621529221534729e-02 -3.219958394765853882e-02 -2.468368597328662872e-02 3.775997459888458252e-02 -1.546343695372343063e-02 -2.125966921448707581e-02 2.275219000875949860e-02 -4.580847918987274170e-02 -2.106510102748870850e-02 -4.701147228479385376e-02 -1.871402934193611145e-02 2.495835721492767334e-02 -3.088565357029438019e-02 0.000000000000000000e+00 3.323442488908767700e-02 3.705766052007675171e-02 4.835940897464752197e-02 -0.000000000000000000e+00 0.000000000000000000e+00 -4.948405548930168152e-02 2.972630038857460022e-02 8.000431954860687256e-02 0.000000000000000000e+00 0.000000000000000000e+00 6.206250563263893127e-02 0.000000000000000000e+00 3.644488751888275146e-02 -2.331014908850193024e-02 -0.000000000000000000e+00 -2.187024429440498352e-02 -8.154706656932830811e-02 -4.962617903947830200e-02 -0.000000000000000000e+00 -5.341774970293045044e-02 -1.300100516527891159e-02 -1.720383390784263611e-02 2.141069062054157257e-02 -0.000000000000000000e+00 0.000000000000000000e+00 9.076602011919021606e-02 2.962021529674530029e-02 -4.017151892185211182e-02 -1.731697283685207367e-02 -1.618319004774093628e-02 1.778260245919227600e-02 2.159810997545719147e-02 4.835276678204536438e-02 0.000000000000000000e+00 2.120140567421913147e-02 1.259507611393928528e-02 -1.319115143269300461e-02 4.510232806205749512e-02 4.620532318949699402e-02 8.298537135124206543e-02 7.859055697917938232e-02 8.626420795917510986e-02 5.936686694622039795e-02 5.583708733320236206e-02 6.645052134990692139e-02 8.505492657423019409e-02 8.755392581224441528e-02 9.845841675996780396e-02 8.710644394159317017e-02 4.552937299013137817e-02 3.600669652223587036e-02 8.935707062482833862e-02 7.469271868467330933e-02 6.228490546345710754e-02 7.480052858591079712e-02 5.812177062034606934e-02 7.297818362712860107e-02 0.000000000000000000e+00 -3.387016803026199341e-02 -3.541457280516624451e-02 2.647743560373783112e-02 0.000000000000000000e+00 0.000000000000000000e+00 -2.035659365355968475e-02 -3.741278871893882751e-02 -0.000000000000000000e+00 3.405243530869483948e-02 4.168733209371566772e-02 -2.507017180323600769e-02 2.712597511708736420e-02 4.026283323764801025e-02 3.720549866557121277e-02 0.000000000000000000e+00 2.970067784190177917e-02 1.796474307775497437e-02 0.000000000000000000e+00 -0.000000000000000000e+00 1.297441683709621429e-02 -1.754817552864551544e-02 -2.260308153927326202e-02 -1.488706190139055252e-02 -0.000000000000000000e+00 -1.532236207276582718e-02 1.179939880967140198e-02 -3.461229428648948669e-02 -3.396390751004219055e-02 -3.370236977934837341e-02 0.000000000000000000e+00 2.026428282260894775e-02 -1.782547682523727417e-02 0.000000000000000000e+00 1.389487273991107941e-02 -1.577048376202583313e-02 2.336684241890907288e-02 -4.153709858655929565e-02 0.000000000000000000e+00 -2.479790337383747101e-02 -1.089517921209335327e-01 -6.639538705348968506e-02 5.040511861443519592e-02 0.000000000000000000e+00 0.000000000000000000e+00 3.987713903188705444e-02 6.864865869283676147e-02 1.791209354996681213e-02 3.300907462835311890e-02 0.000000000000000000e+00 5.640128999948501587e-02 -0.000000000000000000e+00 -0.000000000000000000e+00 4.382938891649246216e-02 0.000000000000000000e+00 0.000000000000000000e+00 0.000000000000000000e+00 -0.000000000000000000e+00 -0.000000000000000000e+00 -0.000000000000000000e+00 0.000000000000000000e+00 -2.095600590109825134e-02 -0.000000000000000000e+00 -2.282223291695117950e-02 3.492547944188117981e-02 1.311554107815027237e-02 2.596654556691646576e-02 0.000000000000000000e+00 1.112621203064918518e-01 3.227961063385009766e-02 4.544907435774803162e-02 6.244698166847229004e-02 0.000000000000000000e+00 -0.000000000000000000e+00 2.075338736176490784e-02 -4.002393409609794617e-02 -4.038267210125923157e-02 -3.482095152139663696e-02 -2.025129273533821106e-02 -0.000000000000000000e+00 1.395439635962247849e-02 -0.000000000000000000e+00 3.230283036828041077e-02 -0.000000000000000000e+00 0.000000000000000000e+00 0.000000000000000000e+00 0.000000000000000000e+00 -1.276034396141767502e-02 -0.000000000000000000e+00 0.000000000000000000e+00 1.530171837657690048e-02 2.136105298995971680e-02 -0.000000000000000000e+00 -1.422061584889888763e-02 4.597901552915573120e-02 2.136932499706745148e-02 3.131233900785446167e-02 6.642840057611465454e-02 2.146472968161106110e-02
5.342192202806472778e-02 4.051544144749641418e-02 0.000000000000000000e+00 3.288422897458076477e-02 -2.347406558692455292e-02 3.464154526591300964e-02 -1.286128628998994827e-02 5.006642639636993408e-02 5.457916110754013062e-02 2.876421064138412476e-02 4.343140497803688049e-02 2.825768291950225830e-02 2.873404137790203094e-02 -3.545902669429779053e-02 -5.278842896223068237e-02 -5.511860176920890808e-02 -7.181262224912643433e-02 -8.297047764062881470e-02 9.529250860214233398e-02 1.254905760288238525e-01 -6.400141865015029907e-02 -4.116555675864219666e-02 -0.000000000000000000e+00 5.138662457466125488e-02 -1.131071969866752625e-01 -7.982266694307327271e-02 1.437257081270217896e-01 2.560133673250675201e-02 0.000000000000000000e+00 2.813123539090156555e-02 0.000000000000000000e+00 -3.409599512815475464e-02 -0.000000000000000000e+00 -0.000000000000000000e+00 1.265955995768308640e-02 6.113891676068305969e-02 0.000000000000000000e+00 3.773164376616477966e-02 2.699092030525207520e-02 0.000000000000000000e+00 4.094989597797393799e-02 3.032221831381320953e-02 -1.192002836614847183e-02 -0.000000000000000000e+00 -0.000000000000000000e+00 2.273903042078018188e-02 0.000000000000000000e+00 -1.656588912010192871e-02 0.000000000000000000e+00 -0.000000000000000000e+00 0.000000000000000000e+00 -5.100251361727714539e-02 -1.853052154183387756e-02 0.000000000000000000e+00 -2.279562130570411682e-02 0.000000000000000000e+00 -2.128869295120239258e-02 1.632872596383094788e-02 3.044661134481430054e-02 3.192790970206260681e-02 2.805631235241889954e-02 6.008689105510711670e-02 0.000000000000000000e+00 0.000000000000000000e+00 6.542063504457473755e-02 5.475730821490287781e-02 -0.000000000000000000e+00 -0.000000000000000000e+00 0.000000000000000000e+00 -0.000000000000000000e+00 -2.110506966710090637e-02 -3.559663146734237671e-02 -0.000000000000000000e+00 6.806016713380813599e-02 6.249023601412773132e-02 -5.458284541964530945e-02 0.000000000000000000e+00 -0.000000000000000000e+00 -6.104911491274833679e-02 -4.819104820489883423e-02 -4.732302948832511902e-02 -4.406938701868057251e-02 -6.259677559137344360e-02 -6.435514986515045166e-02 -8.933136612176895142e-02 -1.137902140617370605e-01 -1.057288050651550293e-01 -3.987319394946098328e-02 -5.034472420811653137e-02 -3.572959080338478088e-02 0.000000000000000000e+00 1.293287798762321472e-02 3.805488348007202148e-02 -2.151248604059219360e-02 -2.014809660613536835e-02 -1.304951496422290802e-02 -0.000000000000000000e+00 -6.635164469480514526e-02 -6.346828490495681763e-02 -2.576585300266742706e-02 -1.219057291746139526e-02 -0.000000000000000000e+00 -4.561058059334754944e-02 -0.000000000000000000e+00 0.000000000000000000e+00 -2.557155862450599670e-02 1.837791129946708679e-02 2.419772185385227203e-02 0.000000000000000000e+00 4.454024881124496460e-02 -0.000000000000000000e+00 3.295708075165748596e-02 7.646526396274566650e-02 0.000000000000000000e+00 3.248744457960128784e-02 -4.155817627906799316e-02 -3.664502501487731934e-02 0.000000000000000000e+00 -1.464033406227827072e-02 -0.000000000000000000e+00 -0.000000000000000000e+00 -2.138014696538448334e-02 -2.049830369651317596e-02 2.037265151739120483e-02 -0.000000000000000000e+00 -1.729592867195606232e-02 -0.000000000000000000e+00 0.000000000000000000e+00 -1.207505073398351669e-02 -0.000000000000000000e+00 -3.212150558829307556e-02 -3.811722248792648315e-02 0.000000000000000000e+00 -0.000000000000000000e+00 -0.000000000000000000e+00 -2.900496870279312134e-02 -1.558376196771860123e-02 -1.753046549856662750e-02 -0.000000000000000000e+00 -2.252706699073314667e-02 -2.457106858491897583e-02 -3.808985650539398193e-02 0.000000000000000000e+00 2.357618138194084167e-02 -2.004923485219478607e-02 -7.400235533714294434e-02 -4.985538870096206665e-02 0.000000000000000000e+00 3.253586590290069580e-02 5.375390872359275818e-02 -4.160802066326141357e-02 -2.890899777412414551e-02 -1.456676237285137177e-02 0.000000000000000000e+00 -1.768227107822895050e-02 -0.000000000000000000e+00 0.000000000000000000e+00 0.000000000000000000e+00 0.000000000000000000e+00 0.000000000000000000e+00 0.000000000000000000e+00 -0.000000000000000000e+00 -1.496469229459762573e-02 1.575868017971515656e-02 4.428287222981452942e-02 2.093662694096565247e-02 3.280166909098625183e-02 4.555467143654823303e-02 4.819257929921150208e-02 4.445187374949455261e-02 3.178745135664939880e-02 0.000000000000000000e+00 -0.000000000000000000e+00 0.000000000000000000e+00 4.115339741110801697e-02 -2.161377668380737305e-02 -4.330462217330932617e-02 3.117487579584121704e-02 -1.676171645522117615e-02 3.950153663754463196e-02 2.606043033301830292e-02 4.071933403611183167e-02 1.377689465880393982e-02 -0.000000000000000000e+00 -0.000000000000000000e+00 0.000000000000000000e+00 -1.802358590066432953e-02 -2.503951080143451691e-02 -1.576424948871135712e-02 3.187410160899162292e-02 4.070967808365821838e-02 2.353702299296855927e-02 0.000000000000000000e+00 4.514572024345397949e-02 0.000000000000000000e+00 -1.720432937145233154e-02 0.000000000000000000e+00 -0.000000000000000000e+00 -0.000000000000000000e+00 0.000000000000000000e+00 -0.000000000000000000e+00 1.886620745062828064e-02 0.000000000000000000e+00 -0.000000000000000000e+00 -1.475585531443357468e-02 -1.610904373228549957e-02 -2.064391970634460449e-02 1.517088804394006729e-02 4.930286481976509094e-02 5.609573423862457275e-02 -3.001471981406211853e-02 -0.000000000000000000e+00 -0.000000000000000000e+00 -5.100570619106292725e-02 -6.969089806079864502e-02 -3.989080339670181274e-02 -3.826877474784851074e-02 -0.000000000000000000e+00 1.369050610810518265e-02 -0.000000000000000000e+00 0.000000000000000000e+00 1.951440423727035522e-02 -0.000000000000000000e+00 -3.461563959717750549e-02 -2.114811725914478302e-02 1.490847114473581314e-02 3.522564470767974854e-02 3.160872310400009155e-02 -2.987670339643955231e-02 -1.514127384871244431e-02 -0.000000000000000000e+00 -2.199243195354938507e-02 -3.322887793183326721e-02 -1.171078719198703766e-02 -6.488074362277984619e-02 -3.641803190112113953e-02 -2.815692685544490814e-02 -1.368635334074497223e-02 -1.181991770863533020e-02 -2.091854624450206757e-02 1.952454820275306702e-02 3.600153326988220215e-02 4.391242563724517822e-02 4.914717748761177063e-02 4.286799952387809753e-02 -0.000000000000000000e+00 4.024178534746170044e-02 5.697096511721611023e-02 0.000000000000000000e+00 -2.623005025088787079e-02 1.395667064934968948e-02 0.000000000000000000e+00 0.000000000000000000e+00 0.000000000000000000e+00 -2.793264389038085938e-02 -2.185999415814876556e-02 -6.745365262031555176e-02 -8.853386342525482178e-02 -3.780289366841316223e-02 -0.000000000000000000e+00 -8.543086051940917969e-02 -0.000000000000000000e+00 -4.063822701573371887e-02 -4.161414131522178650e-02 6.358179450035095215e-02 1.936905086040496826e-02 2.024404332041740417e-02 4.809806868433952332e-02 1.471776422113180161e-02 3.088425286114215851e-02 0.000000000000000000e+00 1.222990918904542923e-02 1.375286281108856201e-02 -1.596328616142272949e-02 -0.000000000000000000e+00 1.561538968235254288e-02 -3.335202485322952271e-02 -2.828254178166389465e-02 -0.000000000000000000e+00 1.240328140556812286e-02 -6.778971850872039795e-02 -5.199177563190460205e-02 -2.293421328067779541e-02 -1.008231267333030701e-01 -3.144737705588340759e-02 1.659948565065860748e-02 -1.563710346817970276e-02 1.477797329425811768e-02 -0.000000000000000000e+00 -0.000000000000000000e+00 1.583873480558395386e-02 0.000000000000000000e+00 1.169825810939073563e-02 0.000000000000000000e+00 1.202725525945425034e-02 1.812987215816974640e-02 1.703672111034393311e-02 2.370449714362621307e-02 -0.000000000000000000e+00 1.356775779277086258e-02 2.503925189375877380e-02 -1.766522787511348724e-02 0.000000000000000000e+00 0.000000000000000000e+00 1.186524517834186554e-02 0.000000000000000000e+00 -0.000000000000000000e+00 2.572463080286979675e-02 2.105251699686050415e-02 0.000000000000000000e+00 0.000000000000000000e+00 -0.000000000000000000e+00 -3.652565181255340576e-02 -3.971691802144050598e-02 -3.879348933696746826e-02 1.869077794253826141e-02 0.000000000000000000e+00 2.629098296165466309e-02 1.906130276620388031e-02 2.598846890032291412e-02 3.168122842907905579e-02 0.000000000000000000e+00 2.697540447115898132e-02 4.005225002765655518e-02 -2.363746240735054016e-02 -4.059631377458572388e-02 -0.000000000000000000e+00 -4.887861758470535278e-02 -1.017214506864547729e-01 -4.800387471914291382e-02 -0.000000000000000000e+00 1.255590934306383133e-02 1.988733373582363129e-02 -6.093735992908477783e-02 -4.404856264591217041e-02 -5.016101151704788208e-02 -4.824360087513923645e-02 0.000000000000000000e+00 0.000000000000000000e+00 -2.317138761281967163e-02 -7.729568332433700562e-02 -2.634200826287269592e-02 0.000000000000000000e+00 1.833629049360752106e-02 -0.000000000000000000e+00 1.226425729691982269e-02 3.702786192297935486e-02 2.989751286804676056e-02 -1.948506198823451996e-02 -0.000000000000000000e+00 -0.000000000000000000e+00 1.588371954858303070e-02 -1.373062469065189362e-02 -2.412807941436767578e-02 0.000000000000000000e+00 -3.124695643782615662e-02 -4.714562743902206421e-02 -0.000000000000000000e+00 -4.749419912695884705e-02 -3.933859616518020630e-02 7.010813057422637939e-02 1.080333366990089417e-01 5.213679373264312744e-02 -1.546952407807111740e-02 0.000000000000000000e+00 -2.562694624066352844e-02 6.833674758672714233e-02 1.214442551136016846e-01 7.810024917125701904e-02 1.961529627442359924e-02 0.000000000000000000e+00 -1.426514331251382828e-02 2.452947385609149933e-02 1.486065052449703217e-02 -0.000000000000000000e+00 2.808738127350807190e-02 4.551102966070175171e-02 2.523902803659439087e-02 0.000000000000000000e+00 -2.285300195217132568e-02 -3.119602799415588379e-02 -1.398947183042764664e-02 -5.545561015605926514e-02 -0.000000000000000000e+00 1.533508393913507462e-02 1.375937089323997498e-02 4.382388666272163391e-02 -0.000000000000000000e+00 -6.161331385374069214e-02 -0.000000000000000000e+00 -7.385113835334777832e-02 -1.211747005581855774e-01 -5.914245545864105225e-02 -1.737954281270503998e-02 -1.301954872906208038e-02 0.000000000000000000e+00 -2.033248730003833771e-02 -2.691818028688430786e-02 -3.892880678176879883e-02 3.534680232405662537e-02 3.683121129870414734e-02 2.580980584025382996e-02 4.568066075444221497e-02 5.582125857472419739e-02 3.974392265081405640e-02 1.213813852518796921e-02 2.409075200557708740e-02 0.000000000000000000e+00 -0.000000000000000000e+00 5.519830808043479919e-02 3.237386792898178101e-02 -1.182639133185148239e-02 -4.562170431017875671e-02 -1.315799355506896973e-02 -2.669179067015647888e-02 -6.882327049970626831e-02 -2.788148075342178345e-02 0.000000000000000000e+00 -6.451035290956497192e-02 -3.658252209424972534e-02 -0.000000000000000000e+00 3.369748592376708984e-02 2.683600038290023804e-02 -0.000000000000000000e+00 0.000000000000000000e+00 0.000000000000000000e+00 0.000000000000000000e+00 -1.607849448919296265e-02 -0.000000000000000000e+00 2.539412677288055420e-02 3.123615123331546783e-02 3.402676805853843689e-02 5.329573899507522583e-02 3.108564391732215881e-02 2.382616512477397919e-02 -0.000000000000000000e+00 -4.035088792443275452e-02 -1.645980961620807648e-02 4.230296239256858826e-02 3.955313190817832947e-02 4.233693331480026245e-02 -3.211579844355583191e-02 -5.333622917532920837e-02 0.000000000000000000e+00 0.000000000000000000e+00 3.349763154983520508e-02 0.000000000000000000e+00 2.124488726258277893e-02 2.574534155428409576e-02 0.000000000000000000e+00 -1.531748473644256592e-02 0.000000000000000000e+00 1.428106240928173065e-02 -4.027261212468147278e-02 -3.681989759206771851e-02 -3.865657001733779907e-02 -0.000000000000000000e+00 2.253294549882411957e-02 -0.000000000000000000e+00 0.000000000000000000e+00 -0.000000000000000000e+00 -0.000000000000000000e+00 1.454791799187660217e-02 5.074102431535720825e-02 2.019845321774482727e-02 -0.000000000000000000e+00 -0.000000000000000000e+00 0.000000000000000000e+00 -2.178652212023735046e-02 -3.282548859715461731e-02 -2.010531164705753326e-02 -0.000000000000000000e+00 -3.154470026493072510e-02 -3.627977892756462097e-02 1.808049157261848450e-02 -0.000000000000000000e+00 -1.353564579039812088e-02 1.952956616878509521e-02 0.000000000000000000e+00 -1.388654112815856934e-02 4.031102731823921204e-02 5.756217613816261292e-02 2.310167811810970306e-02 1.271278597414493561e-02 2.424383163452148438e-02 -0.000000000000000000e+00 -0.000000000000000000e+00 3.066308423876762390e-02 2.263082750141620636e-02 1.755270734429359436e-02 6.747137755155563354e-02 6.740728020668029785e-02 1.947379484772682190e-02 -2.761009149253368378e-02 -3.928667679429054260e-02 -3.320944681763648987e-02 -4.145845770835876465e-02 -2.969321608543395996e-02 -2.175352722406387329e-02 -0.000000000000000000e+00 -1.872242614626884460e-02 -2.631017193198204041e-02 -2.365916408598423004e-02 -1.365525089204311371e-02 -0.000000000000000000e+00 0.000000000000000000e+00 -1.474307291209697723e-02 1.316502969712018967e-02 2.692530490458011627e-02 2.356466092169284821e-02 0.000000000000000000e+00 0.000000000000000000e+00 1.662797667086124420e-02 -2.135349065065383911e-02 0.000000000000000000e+00 0.000000000000000000e+00 -1.967693865299224854e-02 1.203992776572704315e-02 -0.000000000000000000e+00 -7.245432585477828979e-02 -3.421119973063468933e-02 -6.554228067398071289e-02 -0.000000000000000000e+00 0.000000000000000000e+00 -0.000000000000000000e+00 -1.423387322574853897e-02 -0.000000000000000000e+00 -3.661317750811576843e-02 -3.314114362001419067e-02 2.560579404234886169e-02 1.963437162339687347e-02 1.492390222847461700e-02 0.000000000000000000e+00 -1.753533631563186646e-02 4.231297597289085388e-02 2.916098944842815399e-02 -0.000000000000000000e+00 -0.000000000000000000e+00 -0.000000000000000000e+00 -2.610613778233528137e-02 2.948382683098316193e-02 1.779376342892646790e-02 0.000000000000000000e+00 -2.001513354480266571e-02 -6.576909869909286499e-02 -3.963726758956909180e-02 1.435223966836929321e-02 6.149702519178390503e-02 5.904492735862731934e-02 -0.000000000000000000e+00 2.064713835716247559e-02 1.952088810503482819e-02 -0.000000000000000000e+00 0.000000000000000000e+00 0.000000000000000000e+00 -0.000000000000000000e+00 -0.000000000000000000e+00 -0.000000000000000000e+00 -2.615330554544925690e-02 -2.464124560356140137e-02 4.097038507461547852e-02 -1.916404440999031067e-02 -0.000000000000000000e+00 3.316317871212959290e-02 0.000000000000000000e+00 0.000000000000000000e+00 0.000000000000000000e+00 0.000000000000000000e+00 2.644701860845088959e-02 6.365006417036056519e-02 -3.060776740312576294e-02 2.495857514441013336e-02 1.295140478760004044e-02 -2.093791402876377106e-02 -0.000000000000000000e+00 -3.879038617014884949e-02
0.000000000000000000e+00 -1.440937165170907974e-02 1.573047973215579987e-02 1.665480807423591614e-02 4.453529044985771179e-02 6.321170181035995483e-02 3.412093222141265869e-02 7.313530147075653076e-02 5.920347198843955994e-02 0.000000000000000000e+00 0.000000000000000000e+00 2.030797675251960754e-02 2.045743726193904877e-02 4.002908244729042053e-02 3.474408760666847229e-02 -4.735594242811203003e-02 -3.728577867150306702e-02 1.454224716871976852e-02 -2.274153567850589752e-02 -1.899974606931209564e-02 -0.000000000000000000e+00 -0.000000000000000000e+00 2.151005342602729797e-02 0.000000000000000000e+00 -0.000000000000000000e+00 0.000000000000000000e+00 -3.113578632473945618e-02 1.537947542965412140e-02 1.180239953100681305e-02 -2.561612613499164581e-02 0.000000000000000000e+00 4.750332236289978027e-02 3.587954863905906677e-02 0.000000000000000000e+00 7.432371377944946289e-02 8.668415248394012451e-02 -2.690379880368709564e-02 -0.000000000000000000e+00 -1.572582684457302094e-02 -0.000000000000000000e+00 6.925615668296813965e-02 3.293745964765548706e-02 -2.596023678779602051e-02 4.728636145591735840e-02 1.816816441714763641e-02 -3.164496272802352905e-02 -1.780694164335727692e-02 -1.987063325941562653e-02 0.000000000000000000e+00 3.415836393833160400e-02 3.046481683850288391e-02 3.273402526974678040e-02 6.584004312753677368e-02 1.746025867760181427e-02 -1.452332641929388046e-02 -1.981324702501296997e-02 0.000000000000000000e+00 1.780592277646064758e-02 4.497820883989334106e-02 2.201984263956546783e-02 3.179705888032913208e-02 2.475716918706893921e-02 3.937884047627449036e-02 -1.431983988732099533e-02 -0.000000000000000000e+00 -4.202776029706001282e-02 -1.617581769824028015e-02 4.887672141194343567e-02 4.376628994941711426e-02 -4.034056514501571655e-02 2.266235835850238800e-02 0.000000000000000000e+00 0.000000000000000000e+00 -2.057419158518314362e-02 -4.511747881770133972e-02 -0.000000000000000000e+00 -0.000000000000000000e+00 -4.947197437286376953e-02 -1.664883084595203400e-02 -0.000000000000000000e+00 -2.397446706891059875e-02 -1.642680540680885315e-02 -0.000000000000000000e+00 0.000000000000000000e+00 -1.455827709287405014e-02 1.518711447715759277e-02 1.774139888584613800e-02 -2.399701438844203949e-02 0.000000000000000000e+00 0.000000000000000000e+00 4.290079697966575623e-02 1.543609239161014557e-02 -1.785818114876747131e-02 5.747851729393005371e-02 5.173819139599800110e-02 1.831357739865779877e-02 -0.000000000000000000e+00 2.706487476825714111e-02 1.808235608041286469e-02 -3.752312064170837402e-02 -3.485931083559989929e-02 -3.168587759137153625e-02 -4.293154925107955933e-02 -1.875749975442886353e-02 1.284132432192564011e-02 -1.971745863556861877e-02 0.000000000000000000e+00 2.014996297657489777e-02 2.315437421202659607e-02 5.422348156571388245e-02 4.662843421101570129e-02 0.000000000000000000e+00 5.921706557273864746e-02 7.232037186622619629e-02 2.295459993183612823e-02 4.635434225201606750e-02 6.688281148672103882e-02 -2.842413447797298431e-02 2.776939980685710907e-02 2.212800458073616028e-02 -5.234999209642410278e-02 2.006499655544757843e-02 5.504497140645980835e-02 -4.577080160379409790e-02 -0.000000000000000000e+00 0.000000000000000000e+00 -0.000000000000000000e+00 2.726977132260799408e-02 -0.000000000000000000e+00 -1.331926230341196060e-02 3.871216997504234314e-02 0.000000000000000000e+00 2.014727890491485596e-02 7.173856347799301147e-02 1.414824184030294418e-02 -0.000000000000000000e+00 -0.000000000000000000e+00 -0.000000000000000000e+00 0.000000000000000000e+00 5.236035212874412537e-02 3.055785037577152252e-02 -0.000000000000000000e+00 2.793838828802108765e-02 0.000000000000000000e+00 -0.000000000000000000e+00 0.000000000000000000e+00 -2.702616713941097260e-02 0.000000000000000000e+00 4.548030719161033630e-02 3.545327112078666687e-02 -0.000000000000000000e+00 2.469632029533386230e-02 3.147082030773162842e-02 0.000000000000000000e+00 0.000000000000000000e+00 -2.266567759215831757e-02 1.899252831935882568e-02 3.625160828232765198e-02 0.000000000000000000e+00 0.000000000000000000e+00 1.557029597461223602e-02 -0.000000000000000000e+00 -1.529306918382644653e-02 0.000000000000000000e+00 -1.183027774095535278e-02 -2.319760620594024658e-02 0.000000000000000000e+00 0.000000000000000000e+00 -2.319752611219882965e-02 -0.000000000000000000e+00 -0.000000000000000000e+00 1.936460472643375397e-02 2.652477286756038666e-02 -0.000000000000000000e+00 -0.000000000000000000e+00 1.995917595922946930e-02 2.764076925814151764e-02 -0.000000000000000000e+00 3.642173111438751221e-02 5.673386156558990479e-02 -0.000000000000000000e+00 0.000000000000000000e+00 0.000000000000000000e+00 -1.946369186043739319e-02 1.263109967112541199e-02 1.515282783657312393e-02 -3.690707311034202576e-02 0.000000000000000000e+00 0.000000000000000000e+00 -1.647789403796195984e-02 1.581121236085891724e-02 2.079250849783420563e-02 -0.000000000000000000e+00 3.171592950820922852e-02 5.871476605534553528e-02 -0.000000000000000000e+00 1.820955425500869751e-02 4.686874151229858398e-02 -0.000000000000000000e+00 0.000000000000000000e+00 3.622728213667869568e-02 0.000000000000000000e+00 5.736662074923515320e-02 8.817934244871139526e-02 -0.000000000000000000e+00 4.910004884004592896e-02 4.502083733677864075e-02 0.000000000000000000e+00 0.000000000000000000e+00 0.000000000000000000e+00 1.289972476661205292e-02 1.542769093066453934e-02 1.786707341670989990e-02 0.000000000000000000e+00 0.000000000000000000e+00 -0.000000000000000000e+00 0.000000000000000000e+00 0.000000000000000000e+00 0.000000000000000000e+00 0.000000000000000000e+00 1.598821580410003662e-02 0.000000000000000000e+00 0.000000000000000000e+00 0.000000000000000000e+00 -0.000000000000000000e+00 0.000000000000000000e+00 -0.000000000000000000e+00 -1.394780073314905167e-02 -1.178946066647768021e-02 -0.000000000000000000e+00 -0.000000000000000000e+00 -2.049130387604236603e-02 -1.463552098721265793e-02 -1.651722379028797150e-02 1.207381766289472580e-02 5.227990075945854187e-02 3.739344701170921326e-02 3.470171242952346802e-02 6.724072992801666260e-02 3.153904154896736145e-02 3.896430879831314087e-02 3.833927959203720093e-02 1.890407688915729523e-02 -5.430961027741432190e-02 -4.441230371594429016e-02 -4.978824406862258911e-02 -1.642533950507640839e-02 1.570704579353332520e-02 2.597606740891933441e-02 3.037218935787677765e-02 6.069522351026535034e-02 3.120877593755722046e-02 -0.000000000000000000e+00 -0.000000000000000000e+00 1.641485840082168579e-02 -0.000000000000000000e+00 2.345728315412998199e-02 4.641726613044738770e-02 -5.251289159059524536e-02 0.000000000000000000e+00 2.915449999272823334e-02 2.206057310104370117e-02 3.106404282152652740e-02 2.655445598065853119e-02 2.469392679631710052e-02 3.823743760585784912e-02 2.643010765314102173e-02 3.262592107057571411e-02 4.354872554540634155e-02 1.956808939576148987e-02 0.000000000000000000e+00 2.111935243010520935e-02 2.822221629321575165e-02 0.000000000000000000e+00 2.261930890381336212e-02 1.981253363192081451e-02 -0.000000000000000000e+00 0.000000000000000000e+00 1.716613769531250000e-02 -1.173098850995302200e-02 -1.804378814995288849e-02 -2.774500474333763123e-02 -1.391616463661193848e-02 0.000000000000000000e+00 1.831845566630363464e-02 1.652641966938972473e-02 5.922652408480644226e-02 5.162972584366798401e-02 0.000000000000000000e+00 -0.000000000000000000e+00 -0.000000000000000000e+00 -0.000000000000000000e+00 -0.000000000000000000e+00 -0.000000000000000000e+00 -2.195685356855392456e-02 -2.101602032780647278e-02 -2.888310328125953674e-02 -8.563155680894851685e-02 -7.049343734979629517e-02 -5.678397789597511292e-02 -5.916513875126838684e-02 0.000000000000000000e+00 0.000000000000000000e+00 -3.777031973004341125e-02 4.582491144537925720e-02 3.575957193970680237e-02 -3.331468999385833740e-02 0.000000000000000000e+00 3.309150040149688721e-02 0.000000000000000000e+00 4.092647507786750793e-02 4.055128991603851318e-02 0.000000000000000000e+00 3.053567185997962952e-02 3.376716747879981995e-02 -2.043575607240200043e-02 0.000000000000000000e+00 -4.091256856918334961e-02 0.000000000000000000e+00 4.788768664002418518e-02 1.567930541932582855e-02 0.000000000000000000e+00 4.734639823436737061e-02 2.732327021658420563e-02 0.000000000000000000e+00 -0.000000000000000000e+00 -1.270669419318437576e-02 3.716371208429336548e-02 3.679979965090751648e-02 5.133550986647605896e-02 0.000000000000000000e+00 3.373843058943748474e-02 2.484994195401668549e-02 2.725215256214141846e-02 3.241887316107749939e-02 0.000000000000000000e+00 0.000000000000000000e+00 2.730268053710460663e-02 2.876280620694160461e-02 -1.387124788016080856e-02 2.889350429177284241e-02 2.224010787904262543e-02 -5.844146758317947388e-02 -1.216470543295145035e-02 -2.289810776710510254e-02 -1.883227936923503876e-02 5.160181596875190735e-02 2.317450009286403656e-02 -1.535654626786708832e-02 4.747759178280830383e-02 2.873304113745689392e-02 -2.171954698860645294e-02 -1.200202666223049164e-02 -1.681997254490852356e-02 -1.740488223731517792e-02 0.000000000000000000e+00 0.000000000000000000e+00 -0.000000000000000000e+00 4.837323352694511414e-02 6.443729251623153687e-02 0.000000000000000000e+00 2.750861085951328278e-02 -0.000000000000000000e+00 2.951553091406822205e-02 6.064490601420402527e-02 2.062821015715599060e-02 1.311512570828199387e-02 0.000000000000000000e+00 -0.000000000000000000e+00 -0.000000000000000000e+00 -0.000000000000000000e+00 -1.487109903246164322e-02 0.000000000000000000e+00 2.231863141059875488e-02 4.056850075721740723e-02 -0.000000000000000000e+00 4.504312202334403992e-02 6.220696866512298584e-02 4.460364952683448792e-02 2.990880981087684631e-02 1.205214392393827438e-02 6.719385832548141479e-02 4.652884230017662048e-02 -3.781530633568763733e-02 3.894747421145439148e-02 3.436097875237464905e-02 -6.787408888339996338e-02 4.263689368963241577e-02 4.729235172271728516e-02 2.343017049133777618e-02 7.838522642850875854e-02 6.709064543247222900e-02 1.586703024804592133e-02 3.050988912582397461e-02 2.331503294408321381e-02 -0.000000000000000000e+00 -2.705363184213638306e-02 -3.053303621709346771e-02 -4.310262948274612427e-02 0.000000000000000000e+00 0.000000000000000000e+00 -1.403069961816072464e-02 -2.089025080204010010e-02 -2.010310627520084381e-02 -3.775607049465179443e-02 0.000000000000000000e+00 5.365556105971336365e-02 0.000000000000000000e+00 2.387882955372333527e-02 6.627454608678817749e-02 1.833926886320114136e-02 3.926565125584602356e-02 9.194111824035644531e-02 0.000000000000000000e+00 -5.944605916738510132e-02 -3.706548735499382019e-02 -4.453930258750915527e-02 -1.414926722645759583e-02 1.478074863553047180e-02 2.090703323483467102e-02 1.396602392196655273e-02 5.827075242996215820e-02 7.768397778272628784e-02 2.368777059018611908e-02 2.986649051308631897e-02 2.294275537133216858e-02 2.329785563051700592e-02 5.013335123658180237e-02 2.759397774934768677e-02 1.766892522573471069e-02 4.200793057680130005e-02 0.000000000000000000e+00 -1.969090290367603302e-02 -1.332373358309268951e-02 -2.353354357182979584e-02 0.000000000000000000e+00 4.132409766316413879e-02 3.767687082290649414e-02 -0.000000000000000000e+00 3.100838884711265564e-02 3.121466748416423798e-02 -0.000000000000000000e+00 1.328166015446186066e-02 -0.000000000000000000e+00 -0.000000000000000000e+00 2.258782461285591125e-02 1.356733869761228561e-02 2.995259873569011688e-02 4.821352660655975342e-02 5.936382338404655457e-02 -7.232253253459930420e-02 1.209051534533500671e-02 -1.861114799976348877e-02 -1.925473473966121674e-02 3.797057643532752991e-02 0.000000000000000000e+00 -3.063892945647239685e-02 1.655468344688415527e-02 2.772394008934497833e-02 -5.485552921891212463e-02 -6.670641154050827026e-02 -6.973572820425033569e-02 -4.670738428831100464e-02 -6.325907260179519653e-02 -6.253525614738464355e-02 -1.341674011200666428e-02 -2.286550961434841156e-02 -2.644785866141319275e-02 4.576302692294120789e-02 2.939983084797859192e-02 0.000000000000000000e+00 2.843105792999267578e-02 6.068498641252517700e-02 1.752115413546562195e-02 1.467945799231529236e-02 4.021966829895973206e-02 1.376996841281652451e-02 -3.193451464176177979e-02 -0.000000000000000000e+00 -0.000000000000000000e+00 -1.323226466774940491e-02 3.339324146509170532e-02 4.572883620858192444e-02 0.000000000000000000e+00 4.746157675981521606e-02 4.284382238984107971e-02 -3.675399720668792725e-02 -2.727728150784969330e-02 -0.000000000000000000e+00 0.000000000000000000e+00 3.913533687591552734e-02 4.082230105996131897e-02 -0.000000000000000000e+00 2.975620329380035400e-02 3.441317006945610046e-02 -2.440983988344669342e-02 0.000000000000000000e+00 0.000000000000000000e+00 3.040479123592376709e-02 6.231624260544776917e-02 4.767492786049842834e-02 1.353590562939643860e-02 3.374199196696281433e-02 1.782802492380142212e-02 -3.951499611139297485e-02 -3.609880432486534119e-02 -4.175099357962608337e-02 -4.762345552444458008e-02 -3.409012034535408020e-02 -5.172716826200485229e-02 -3.533918038010597229e-02 -2.514967508614063263e-02 -4.566980153322219849e-02 -2.447916381061077118e-02 0.000000000000000000e+00 2.526815049350261688e-02 -1.862907968461513519e-02 3.083837963640689850e-02 2.814635634422302246e-02 -6.429029256105422974e-02 -2.345725521445274353e-02 -2.603477798402309418e-02 -3.393843770027160645e-02 -1.273401454091072083e-02 2.670847810804843903e-02 -4.115000739693641663e-02 2.201561816036701202e-02 2.859568223357200623e-02 1.251071970909833908e-02 4.552143812179565430e-02 0.000000000000000000e+00 -1.885291747748851776e-02 -2.187253907322883606e-02 -3.296753391623497009e-02 -0.000000000000000000e+00 -0.000000000000000000e+00 -1.653717830777168274e-02 -3.084153309464454651e-02 -3.610809519886970520e-02 -3.534058108925819397e-02 6.139152497053146362e-02 5.210978910326957703e-02 2.570436336100101471e-02 4.009586945176124573e-02 2.023193985223770142e-02 -3.252168744802474976e-02 -1.602249965071678162e-02 -0.000000000000000000e+00 -0.000000000000000000e+00 -0.000000000000000000e+00 -1.605622097849845886e-02 -0.000000000000000000e+00 -0.000000000000000000e+00 1.425176672637462616e-02 4.500011727213859558e-02 -0.000000000000000000e+00 2.235125191509723663e-02 4.172760993242263794e-02 2.570503763854503632e-02 4.820734634995460510e-02 7.914500683546066284e-02 -0.000000000000000000e+00 0.000000000000000000e+00 4.169421270489692688e-02 0.000000000000000000e+00 -0.000000000000000000e+00 0.000000000000000000e+00 -3.389249369502067566e-02 0.000000000000000000e+00 4.174572601914405823e-02 -1.646977849304676056e-02 0.000000000000000000e+00 6.243845820426940918e-02 -3.105528838932514191e-02 -0.000000000000000000e+00 7.081727683544158936e-02
2.076409012079238892e-02 -6.391902267932891846e-02 -0.000000000000000000e+00 4.123398289084434509e-02 -1.333404239267110825e-02 -4.098647832870483398e-02 4.880059137940406799e-02 5.918772518634796143e-02 -4.983170703053474426e-02 0.000000000000000000e+00 1.899464055895805359e-02 1.709100045263767242e-02 2.055017650127410889e-01 -6.550363451242446899e-02 -2.065379917621612549e-01 2.290759421885013580e-02 -2.971173077821731567e-02 -1.898619905114173889e-02 0.000000000000000000e+00 -3.211935609579086304e-02 2.508173324167728424e-02 -2.260951511561870575e-02 5.854840949177742004e-02 1.372775807976722717e-02 -0.000000000000000000e+00 0.000000000000000000e+00 0.000000000000000000e+00 -0.000000000000000000e+00 0.000000000000000000e+00 -2.203762717545032501e-02 -3.851497545838356018e-02 1.382323447614908218e-02 3.015608899295330048e-02 -2.945233881473541260e-02 -1.335733104497194290e-02 1.437353715300559998e-02 3.905366361141204834e-02 -0.000000000000000000e+00 3.930556774139404297e-02 -0.000000000000000000e+00 -1.078961268067359924e-01 -1.604029722511768341e-02 2.746951207518577576e-02 -4.927023127675056458e-02 -1.234357524663209915e-02 4.394654557108879089e-02 -2.483302168548107147e-02 2.870878763496875763e-02 3.730682656168937683e-02 -2.672399766743183136e-02 0.000000000000000000e+00 0.000000000000000000e+00 0.000000000000000000e+00 5.945006012916564941e-02 6.593949347734451294e-02 -3.847614303231239319e-02 1.809412240982055664e-02 7.253877073526382446e-02 -2.278570644557476044e-02 -3.054653666913509369e-02 5.447825044393539429e-02 -0.000000000000000000e+00 -6.848586350679397583e-02 3.962641954421997070e-02 -1.851761527359485626e-02 -0.000000000000000000e+00 1.149564161896705627e-01 7.683095335960388184e-02 2.357159368693828583e-02 4.925647750496864319e-02 0.000000000000000000e+00 4.196257516741752625e-02 -3.702949732542037964e-02 -3.433536365628242493e-02 -4.510682821273803711e-02 -2.436034753918647766e-02 5.124083533883094788e-02 0.000000000000000000e+00 -1.892307028174400330e-02 3.678316250443458557e-02 -0.000000000000000000e+00 -1.861329190433025360e-02 5.322220548987388611e-02 1.076912432909011841e-01 -4.875049367547035217e-02 -1.364873535931110382e-02 1.103779673576354980e-01 2.331534028053283691e-02 -1.912478916347026825e-02 -0.000000000000000000e+00 2.862598374485969543e-02 -5.348625406622886658e-02 5.202056467533111572e-02 -3.181930258870124817e-02 4.631591960787773132e-02 1.649136543273925781e-01 8.231654018163681030e-02 2.100156620144844055e-02 -6.256169825792312622e-02 5.154791474342346191e-02 6.896545737981796265e-02 -1.299390289932489395e-02 0.000000000000000000e+00 8.527059108018875122e-02 9.060528874397277832e-02 -5.574683472514152527e-02 0.000000000000000000e+00 -2.909122779965400696e-02 0.000000000000000000e+00 -3.999677672982215881e-02 0.000000000000000000e+00 1.316556986421346664e-02 1.171689759939908981e-02 5.394937843084335327e-02 -3.810463473200798035e-02 -3.514115512371063232e-02 2.251628041267395020e-02 -1.622421480715274811e-02 -8.726697415113449097e-02 -2.411512285470962524e-02 -2.222822755575180054e-01 -2.294170558452606201e-01 2.441388927400112152e-02 -5.551032721996307373e-02 -1.321486830711364746e-01 -4.534729570150375366e-02 -3.426166996359825134e-02 -1.267477590590715408e-02 5.689891427755355835e-02 -9.838169068098068237e-02 -1.298799961805343628e-01 0.000000000000000000e+00 -4.561490193009376526e-02 -3.704859688878059387e-02 2.060727216303348541e-02 2.770086377859115601e-02 0.000000000000000000e+00 -0.000000000000000000e+00 3.063057549297809601e-02 1.341719832271337509e-02 0.000000000000000000e+00 -0.000000000000000000e+00 1.689485646784305573e-02 -2.441847510635852814e-02 -2.163164690136909485e-02 -1.653172448277473450e-02 2.596467733383178711e-02 2.745592407882213593e-02 0.000000000000000000e+00 1.518774684518575668e-02 0.000000000000000000e+00 1.202169992029666901e-02 1.313389465212821960e-02 -0.000000000000000000e+00 -2.361595816910266876e-02 0.000000000000000000e+00 -4.816572368144989014e-02 1.332895271480083466e-02 4.226850345730781555e-02 -2.132546342909336090e-02 2.482248470187187195e-02 -0.000000000000000000e+00 0.000000000000000000e+00 -1.211789716035127640e-02 -0.000000000000000000e+00 1.928718760609626770e-02 0.000000000000000000e+00 -0.000000000000000000e+00 0.000000000000000000e+00 0.000000000000000000e+00 0.000000000000000000e+00 -4.779735580086708069e-02 2.523765712976455688e-02 -0.000000000000000000e+00 -0.000000000000000000e+00 -2.781664952635765076e-02 -0.000000000000000000e+00 4.690682515501976013e-02 -1.259894575923681259e-02 -4.386049881577491760e-02 0.000000000000000000e+00 -1.406618952751159668e-02 4.301211237907409668e-02 1.536169350147247314e-01 2.071585506200790405e-01 6.501366943120956421e-02 6.771711260080337524e-02 8.124586939811706543e-02 5.718294158577919006e-02 -7.046298682689666748e-02 -0.000000000000000000e+00 -1.364358048886060715e-02 -1.035366877913475037e-01 6.540589034557342529e-02 6.712476909160614014e-02 -3.049835190176963806e-02 8.202282339334487915e-02 3.902062773704528809e-02 2.075660601258277893e-02 1.337955333292484283e-02 -4.215804114937782288e-02 1.776548177003860474e-01 2.182784080505371094e-01 -0.000000000000000000e+00 8.066589385271072388e-02 8.813338726758956909e-02 -4.826333746314048767e-02 0.000000000000000000e+00 0.000000000000000000e+00 -3.377298638224601746e-02 -7.027539610862731934e-02 6.243291869759559631e-02 4.507846385240554810e-02 0.000000000000000000e+00 -1.795939914882183075e-02 -1.299231499433517456e-02 -2.818039618432521820e-02 -4.814180359244346619e-02 -1.462298631668090820e-02 -1.068820878863334656e-01 -0.000000000000000000e+00 8.582706749439239502e-02 -7.317458838224411011e-02 2.477300353348255157e-02 3.898799791932106018e-02 2.474028989672660828e-02 2.621143497526645660e-02 1.945663429796695709e-02 -4.370619729161262512e-02 7.569458335638046265e-02 4.708953201770782471e-02 -1.170020643621683121e-02 2.970215119421482086e-02 -0.000000000000000000e+00 -2.208496071398258209e-02 -4.423644393682479858e-02 0.000000000000000000e+00 -0.000000000000000000e+00 -2.044886723160743713e-02 0.000000000000000000e+00 3.270158171653747559e-02 2.433522045612335205e-02 -2.673073858022689819e-02 1.985156722366809845e-02 0.000000000000000000e+00 -1.858821138739585876e-02 0.000000000000000000e+00 -3.136358410120010376e-02 -0.000000000000000000e+00 0.000000000000000000e+00 -0.000000000000000000e+00 -1.454349420964717865e-02 -1.312632020562887192e-02 -1.498679257929325104e-02 -3.436285257339477539e-02 4.640467464923858643e-02 -0.000000000000000000e+00 0.000000000000000000e+00 -0.000000000000000000e+00 -0.000000000000000000e+00 -1.598871126770973206e-02 3.037836216390132904e-02 4.374947026371955872e-02 -3.375656530261039734e-02 4.736338928341865540e-02 3.683188930153846741e-02 -7.438589632511138916e-02 0.000000000000000000e+00 1.257868390530347824e-02 -7.827772945165634155e-02 -0.000000000000000000e+00 1.571865938603878021e-02 -2.294608950614929199e-02 6.005028262734413147e-02 4.119998961687088013e-02 -4.830896854400634766e-02 2.667601965367794037e-02 2.659449726343154907e-02 -2.533507533371448517e-02 6.480774283409118652e-02 -2.544934488832950592e-02 -0.000000000000000000e+00 4.987633228302001953e-02 6.220492720603942871e-02 0.000000000000000000e+00 -2.304890565574169159e-02 0.000000000000000000e+00 -4.304436966776847839e-02 -1.501776743680238724e-02 -3.255953267216682434e-02 -0.000000000000000000e+00 -6.832048296928405762e-02 0.000000000000000000e+00 2.967118471860885620e-02 -4.323139786720275879e-02 2.054817229509353638e-02 2.073715813457965851e-02 3.642282262444496155e-02 1.594059355556964874e-02 0.000000000000000000e+00 1.579919643700122833e-02 1.267714519053697586e-02 0.000000000000000000e+00 2.632215991616249084e-02 -2.560722269117832184e-02 -1.220845058560371399e-02 1.651681400835514069e-02 -6.412564963102340698e-02 3.931147605180740356e-02 -1.217897459864616394e-01 -2.201698124408721924e-01 -2.333591133356094360e-02 -4.751654714345932007e-02 -1.091097891330718994e-01 3.979614749550819397e-02 1.577335037291049957e-02 -3.238030523061752319e-02 -6.966933608055114746e-02 -5.103946104645729065e-02 0.000000000000000000e+00 1.602835394442081451e-02 -1.482863537967205048e-02 1.378881093114614487e-02 -0.000000000000000000e+00 2.977092750370502472e-02 -5.162436515092849731e-02 -4.521621391177177429e-02 -0.000000000000000000e+00 4.563046991825103760e-02 2.094688266515731812e-02 -2.874926477670669556e-02 0.000000000000000000e+00 2.286789193749427795e-02 -1.619785092771053314e-02 -1.558399107307195663e-02 -0.000000000000000000e+00 1.497827470302581787e-02 -2.950402721762657166e-02 1.254792883992195129e-02 3.024669736623764038e-02 -1.239954028278589249e-02 -3.203769773244857788e-02 1.778409630060195923e-02 3.327306360006332397e-02 4.938710853457450867e-02 6.666038185358047485e-02 -0.000000000000000000e+00 -0.000000000000000000e+00 -0.000000000000000000e+00 -4.243869706988334656e-02 -3.535156697034835815e-02 -0.000000000000000000e+00 3.938454017043113708e-02 5.267996713519096375e-02 -6.083041056990623474e-02 2.048261649906635284e-02 3.878087177872657776e-02 0.000000000000000000e+00 2.952637523412704468e-02 -0.000000000000000000e+00 2.610599063336849213e-02 -1.786634325981140137e-02 3.018798306584358215e-02 -0.000000000000000000e+00 -2.471525035798549652e-02 4.550804942846298218e-02 0.000000000000000000e+00 1.469853334128856659e-02 -0.000000000000000000e+00 6.612763553857803345e-02 0.000000000000000000e+00 1.969347521662712097e-02 4.321504011750221252e-02 -0.000000000000000000e+00 4.180710762739181519e-02 2.690666168928146362e-02 -1.417227927595376968e-02 1.744792982935905457e-02 -9.304295480251312256e-02 4.601111263036727905e-02 7.062324881553649902e-02 1.464548707008361816e-01 -1.095629632472991943e-01 -7.562798261642456055e-02 2.447030134499073029e-02 -1.762404106557369232e-02 -2.596648037433624268e-02 -0.000000000000000000e+00 2.127987518906593323e-02 -1.627610251307487488e-02 -0.000000000000000000e+00 7.326372712850570679e-02 0.000000000000000000e+00 -4.286616295576095581e-02 4.760162159800529480e-02 1.488308236002922058e-02 2.790231071412563324e-02 4.709689319133758545e-02 1.202471647411584854e-02 7.050950825214385986e-02 5.011101439595222473e-02 -2.639674395322799683e-02 3.390164300799369812e-02 1.689205691218376160e-02 -2.797275222837924957e-02 -2.531500346958637238e-02 -2.558210678398609161e-02 -2.508903667330741882e-02 1.699544675648212433e-02 -3.328062221407890320e-02 6.755888462066650391e-02 1.886056549847126007e-02 -0.000000000000000000e+00 0.000000000000000000e+00 4.422359541058540344e-02 -4.200737923383712769e-02 -6.521882116794586182e-02 3.098074905574321747e-02 -0.000000000000000000e+00 -0.000000000000000000e+00 -0.000000000000000000e+00 0.000000000000000000e+00 -0.000000000000000000e+00 2.307830005884170532e-02 -2.160980552434921265e-02 5.889851972460746765e-02 1.359083801507949829e-01 -4.270036891102790833e-02 -3.757456317543983459e-02 6.831303983926773071e-02 -3.444095328450202942e-02 -2.760944515466690063e-02 -3.884931653738021851e-02 -1.520666480064392090e-02 2.289347164332866669e-02 5.730267986655235291e-02 -3.137875348329544067e-02 -3.235990926623344421e-02 5.258148908615112305e-02 0.000000000000000000e+00 -0.000000000000000000e+00 5.584095045924186707e-02 6.707719713449478149e-02 6.739215552806854248e-02 -1.998270452022552490e-01 5.416930466890335083e-02 2.019921839237213135e-01 -5.860508605837821960e-02 2.224952727556228638e-02 3.458306193351745605e-02 3.063706681132316589e-02 -9.791626781225204468e-02 0.000000000000000000e+00 -4.409575462341308594e-02 -1.600497215986251831e-01 -1.646069809794425964e-02 0.000000000000000000e+00 -7.341464608907699585e-02 1.624668017029762268e-02 -0.000000000000000000e+00 -2.827904932200908661e-02 -3.406151756644248962e-02 -4.676970094442367554e-02 -0.000000000000000000e+00 4.353909566998481750e-02 -4.480473697185516357e-02 -3.647764772176742554e-02 2.557587809860706329e-02 1.932407915592193604e-02 -3.015915490686893463e-02 -0.000000000000000000e+00 -1.991331763565540314e-02 7.283357530832290649e-02 5.871833115816116333e-02 -1.431948319077491760e-02 -0.000000000000000000e+00 0.000000000000000000e+00 3.570113331079483032e-02 9.146858751773834229e-02 5.352735891938209534e-02 -0.000000000000000000e+00 1.013288870453834534e-01 4.925941303372383118e-02 -3.886102512478828430e-02 2.409308589994907379e-02 0.000000000000000000e+00 -0.000000000000000000e+00 -2.641271986067295074e-02 0.000000000000000000e+00 -0.000000000000000000e+00 -0.000000000000000000e+00 3.371928259730339050e-02 4.235566034913063049e-02 0.000000000000000000e+00 0.000000000000000000e+00 -6.890379637479782104e-02 -6.152646243572235107e-02 -2.105757594108581543e-02 -1.229170337319374084e-01 3.351002931594848633e-02 4.595611989498138428e-02 -4.850833490490913391e-02 -0.000000000000000000e+00 1.421523187309503555e-02 -0.000000000000000000e+00 -5.176265537738800049e-02 -1.846930012106895447e-02 2.606227993965148926e-02 -6.657595932483673096e-02 -1.372088491916656494e-02 1.532092224806547165e-02 -3.553578630089759827e-02 -4.042566567659378052e-02 -1.297725923359394073e-02 -3.495864570140838623e-02 0.000000000000000000e+00 -3.127171844244003296e-02 -0.000000000000000000e+00 4.974889010190963745e-02 0.000000000000000000e+00 4.427225887775421143e-02 6.830139458179473877e-02 0.000000000000000000e+00 0.000000000000000000e+00 0.000000000000000000e+00 -1.340679172426462173e-02 -0.000000000000000000e+00 4.410584643483161926e-02 -1.787150464951992035e-02 -0.000000000000000000e+00 2.852614410221576691e-02 0.000000000000000000e+00 0.000000000000000000e+00 3.312080353498458862e-02 -6.108951941132545471e-02 3.272677585482597351e-02 7.199248671531677246e-02 -3.365420922636985779e-02 1.877453736960887909e-02 3.216850757598876953e-02 -5.353570356965065002e-02 -4.908598586916923523e-02 -2.643351815640926361e-02 5.332627519965171814e-02 1.349363178014755249e-01 -8.145566284656524658e-02 0.000000000000000000e+00 -4.781572893261909485e-02 0.000000000000000000e+00 -0.000000000000000000e+00 -2.841148152947425842e-02 2.645643986761569977e-02 -0.000000000000000000e+00 -1.166571378707885742e-01 -0.000000000000000000e+00 3.115681558847427368e-02 -6.811358779668807983e-02 -0.000000000000000000e+00 1.557045709341764450e-02 0.000000000000000000e+00 -1.183133851736783981e-02 -4.604502394795417786e-02 -6.386404484510421753e-02 -5.216664448380470276e-02 -9.619572758674621582e-02 -8.773332089185714722e-02 -4.083738103508949280e-02 -3.166496381163597107e-02 0.000000000000000000e+00 -1.907913386821746826e-02 -1.242710202932357788e-01 6.216648966073989868e-02 7.744994014501571655e-02 -8.260676264762878418e-02 2.691472694277763367e-02 1.194335892796516418e-02
-6.325338780879974365e-02 -5.296188965439796448e-02 -6.736475229263305664e-02 2.512773871421813965e-02 9.086173027753829956e-02 1.473860722035169601e-02 2.547162212431430817e-02 8.041928708553314209e-02 0.000000000000000000e+00 5.083168670535087585e-02 2.909383550286293030e-02 4.883506894111633301e-02 0.000000000000000000e+00 -2.001124061644077301e-02 0.000000000000000000e+00 2.234298177063465118e-02 -2.500915154814720154e-02 2.670807391405105591e-02 -0.000000000000000000e+00 -1.260052807629108429e-02 -2.439975552260875702e-02 0.000000000000000000e+00 0.000000000000000000e+00 -2.974144741892814636e-02 -0.000000000000000000e+00 2.058324217796325684e-02 -0.000000000000000000e+00 -7.192129641771316528e-02 -5.568415671586990356e-02 -4.306804016232490540e-02 -5.063226819038391113e-02 6.013821810483932495e-02 7.084517180919647217e-02 -0.000000000000000000e+00 8.709419518709182739e-02 9.260871261358261108e-02 0.000000000000000000e+00 0.000000000000000000e+00 0.000000000000000000e+00 1.640456169843673706e-02 6.869134306907653809e-02 6.870833039283752441e-02 -0.000000000000000000e+00 5.154036357998847961e-02 3.589937090873718262e-02 1.748658902943134308e-02 5.433357506990432739e-02 -2.298809960484504700e-02 2.581201866269111633e-02 8.439093083143234253e-02 1.603765971958637238e-02 -1.595535688102245331e-02 0.000000000000000000e+00 -1.958860456943511963e-02 -5.162761732935905457e-02 -3.011481277644634247e-02 -4.520595073699951172e-02 0.000000000000000000e+00 5.232457071542739868e-02 2.541280724108219147e-02 -1.181143149733543396e-02 -1.974071748554706573e-02 -1.643433421850204468e-02 -0.000000000000000000e+00 0.000000000000000000e+00 0.000000000000000000e+00 -1.822480931878089905e-02 0.000000000000000000e+00 -2.014437876641750336e-02 -5.297682806849479675e-02 -3.376347944140434265e-02 -6.641332805156707764e-02 0.000000000000000000e+00 5.262000858783721924e-02 4.939726367592811584e-02 -1.746266707777976990e-02 5.674668028950691223e-02 5.404180660843849182e-02 -4.872604086995124817e-02 -0.000000000000000000e+00 -0.000000000000000000e+00 -1.662460528314113617e-02 -3.848647698760032654e-02 -5.621184036135673523e-02 3.614484891295433044e-02 5.546472966670989990e-02 4.523755609989166260e-02 1.896559074521064758e-02 2.039942331612110138e-02 3.969589248299598694e-02 0.000000000000000000e+00 1.995471678674221039e-02 0.000000000000000000e+00 -0.000000000000000000e+00 0.000000000000000000e+00 1.544060837477445602e-02 -2.837847173213958740e-02 -1.798164099454879761e-02 -3.573450818657875061e-02 0.000000000000000000e+00 2.804854325950145721e-02 -0.000000000000000000e+00 0.000000000000000000e+00 4.146173596382141113e-02 -0.000000000000000000e+00 -0.000000000000000000e+00 2.183473482728004456e-02 -2.659712173044681549e-02 -3.153968602418899536e-02 7.541888207197189331e-02 5.396312847733497620e-02 -4.899081960320472717e-02 1.605120860040187836e-02 2.992683649063110352e-02 -3.786334022879600525e-02 -4.109276831150054932e-02 -3.137640282511711121e-02 0.000000000000000000e+00 -2.516165189445018768e-02 -6.390598416328430176e-02 -0.000000000000000000e+00 -1.647436991333961487e-02 -6.312003731727600098e-02 -0.000000000000000000e+00 -1.349277980625629425e-02 -4.570706561207771301e-02 3.480203449726104736e-02 0.000000000000000000e+00 0.000000000000000000e+00 4.105455055832862854e-02 7.103220373392105103e-02 5.804085358977317810e-02 2.840754203498363495e-02 4.535072296857833862e-02 2.382940240204334259e-02 1.350437663495540619e-02 -3.844671696424484253e-02 -4.432352259755134583e-02 -2.759884484112262726e-02 -6.325102597475051880e-02 -7.497709989547729492e-02 -0.000000000000000000e+00 -3.763894364237785339e-02 -3.345337882637977600e-02 -0.000000000000000000e+00 0.000000000000000000e+00 -3.423625603318214417e-02 -0.000000000000000000e+00 -0.000000000000000000e+00 -3.764025866985321045e-02 -0.000000000000000000e+00 -0.000000000000000000e+00 -4.729637131094932556e-02 0.000000000000000000e+00 0.000000000000000000e+00 -0.000000000000000000e+00 0.000000000000000000e+00 0.000000000000000000e+00 -0.000000000000000000e+00 -0.000000000000000000e+00 -1.365426555275917053e-02 -2.275973185896873474e-02 0.000000000000000000e+00 -1.383038889616727829e-02 0.000000000000000000e+00 -0.000000000000000000e+00 -4.462847858667373657e-02 -0.000000000000000000e+00 4.933469370007514954e-02 0.000000000000000000e+00 1.492175552994012833e-02 2.487764880061149597e-02 0.000000000000000000e+00 -2.104996517300605774e-02 -0.000000000000000000e+00 3.923510015010833740e-02 5.390422791242599487e-02 -3.173385560512542725e-02 3.847504034638404846e-02 4.148170724511146545e-02 0.000000000000000000e+00 0.000000000000000000e+00 -0.000000000000000000e+00 -0.000000000000000000e+00 0.000000000000000000e+00 -0.000000000000000000e+00 -1.861625909805297852e-02 -0.000000000000000000e+00 0.000000000000000000e+00 -2.319007180631160736e-02 0.000000000000000000e+00 -0.000000000000000000e+00 0.000000000000000000e+00 6.520334631204605103e-02 4.144151136279106140e-02 -3.924784436821937561e-02 1.459737028926610947e-02 -1.554055884480476379e-02 0.000000000000000000e+00 3.454065695405006409e-02 2.822354994714260101e-02 4.027238860726356506e-02 8.695241063833236694e-02 6.948589533567428589e-02 0.000000000000000000e+00 3.430453315377235413e-02 1.854185387492179871e-02 0.000000000000000000e+00 -2.898815833032131195e-02 -2.233996428549289703e-02 2.660804428160190582e-02 0.000000000000000000e+00 0.000000000000000000e+00 2.347615547478199005e-02 -0.000000000000000000e+00 0.000000000000000000e+00 2.774290554225444794e-02 0.000000000000000000e+00 0.000000000000000000e+00 4.111060500144958496e-02 0.000000000000000000e+00 0.000000000000000000e+00 0.000000000000000000e+00 -0.000000000000000000e+00 -0.000000000000000000e+00 -3.553570806980133057e-02 -4.543462768197059631e-02 -2.969630621373653412e-02 -2.678526379168033600e-02 -3.115446865558624268e-02 -2.009651996195316315e-02 -3.241499140858650208e-02 -2.739383652806282043e-02 -2.491997741162776947e-02 -5.424022674560546875e-02 -6.948890537023544312e-02 -3.392644971609115601e-02 -4.852595552802085876e-02 -3.206431865692138672e-02 -2.019290626049041748e-02 -4.074366763234138489e-02 -3.443425893783569336e-02 -0.000000000000000000e+00 0.000000000000000000e+00 5.378836393356323242e-02 -0.000000000000000000e+00 5.535024404525756836e-02 1.370977163314819336e-01 5.060207098722457886e-02 0.000000000000000000e+00 6.774103641510009766e-02 0.000000000000000000e+00 2.293558232486248016e-02 -0.000000000000000000e+00 -0.000000000000000000e+00 3.529451414942741394e-02 3.194368258118629456e-02 0.000000000000000000e+00 -0.000000000000000000e+00 -0.000000000000000000e+00 0.000000000000000000e+00 0.000000000000000000e+00 -0.000000000000000000e+00 -0.000000000000000000e+00 -2.135056816041469574e-02 -5.043204873800277710e-02 -4.665152356028556824e-02 -4.479057341814041138e-02 -7.770840078592300415e-02 -7.132419198751449585e-02 -2.254444546997547150e-02 0.000000000000000000e+00 1.813495717942714691e-02 -1.817258447408676147e-02 -1.519734412431716919e-02 0.000000000000000000e+00 -2.145070210099220276e-02 -1.390808075666427612e-02 0.000000000000000000e+00 -1.173020247370004654e-02 -0.000000000000000000e+00 -0.000000000000000000e+00 2.359934151172637939e-02 4.932153970003128052e-02 4.788733273744583130e-02 3.154353424906730652e-02 5.320454761385917664e-02 2.984101697802543640e-02 1.950645446777343750e-02 0.000000000000000000e+00 0.000000000000000000e+00 0.000000000000000000e+00 0.000000000000000000e+00 -0.000000000000000000e+00 -0.000000000000000000e+00 -1.903375983238220215e-02 -2.848454937338829041e-02 -1.518614776432514191e-02 4.005340486764907837e-02 2.501531690359115601e-02 0.000000000000000000e+00 1.053395420312881470e-01 6.327418982982635498e-02 -4.515428841114044189e-02 1.695525087416172028e-02 -1.440808828920125961e-02 4.419773072004318237e-02 4.599682986736297607e-02 1.357854716479778290e-02 1.472103036940097809e-02 6.450723111629486084e-02 3.157764673233032227e-02 -0.000000000000000000e+00 0.000000000000000000e+00 -0.000000000000000000e+00 -2.244918420910835266e-02 -0.000000000000000000e+00 -5.032525956630706787e-02 0.000000000000000000e+00 6.173868849873542786e-02 -0.000000000000000000e+00 -2.063446864485740662e-02 3.093525767326354980e-02 -2.811195142567157745e-02 2.630947530269622803e-02 0.000000000000000000e+00 -0.000000000000000000e+00 4.080928117036819458e-02 2.954177185893058777e-02 0.000000000000000000e+00 1.492970250546932220e-02 2.235300093889236450e-02 -1.503138430416584015e-02 0.000000000000000000e+00 -0.000000000000000000e+00 0.000000000000000000e+00 -3.319393843412399292e-02 -3.888811543583869934e-02 -3.037574887275695801e-02 -0.000000000000000000e+00 1.504638604819774628e-02 1.476156897842884064e-02 -3.421790525317192078e-02 2.730679884552955627e-02 2.522492595016956329e-02 -0.000000000000000000e+00 7.430419325828552246e-02 7.800713926553726196e-02 -1.348616462200880051e-02 6.107128411531448364e-02 9.004568308591842651e-02 -0.000000000000000000e+00 1.612952724099159241e-02 0.000000000000000000e+00 2.528055198490619659e-02 1.018798649311065674e-01 7.260613888502120972e-02 2.423047088086605072e-02 7.908170670270919800e-02 8.425980806350708008e-02 -0.000000000000000000e+00 -0.000000000000000000e+00 -2.442498318850994110e-02 -1.988303288817405701e-02 -0.000000000000000000e+00 -2.457592636346817017e-02 -0.000000000000000000e+00 -0.000000000000000000e+00 -2.393383160233497620e-02 2.192783541977405548e-02 4.352278262376785278e-02 -0.000000000000000000e+00 0.000000000000000000e+00 9.192925691604614258e-02 3.984717652201652527e-02 -3.093074262142181396e-02 3.815950453281402588e-02 0.000000000000000000e+00 -0.000000000000000000e+00 -1.183123514056205750e-02 1.757144182920455933e-02 0.000000000000000000e+00 -1.709586195647716522e-02 0.000000000000000000e+00 5.582656711339950562e-02 2.830436080694198608e-02 1.884265616536140442e-02 -3.457532450556755066e-02 -1.806596852838993073e-02 -1.617294363677501678e-02 2.673395164310932159e-02 3.645629063248634338e-02 0.000000000000000000e+00 -0.000000000000000000e+00 -0.000000000000000000e+00 -1.742243953049182892e-02 2.678052522242069244e-02 3.650297224521636963e-02 1.372957695275545120e-02 6.878348439931869507e-02 8.894672244787216187e-02 4.590922594070434570e-02 5.967085808515548706e-02 7.461287826299667358e-02 3.884717822074890137e-02 1.290300674736499786e-02 6.456018239259719849e-02 3.301500529050827026e-02 0.000000000000000000e+00 6.134354695677757263e-02 -1.918137632310390472e-02 -8.302582800388336182e-02 -7.910346239805221558e-02 -6.494673341512680054e-02 2.356659434735774994e-02 5.162108689546585083e-02 4.813105985522270203e-02 3.740726783871650696e-02 1.022264882922172546e-01 8.579354733228683472e-02 -0.000000000000000000e+00 4.904406890273094177e-02 2.713027223944664001e-02 7.199525088071823120e-02 8.842164278030395508e-02 6.540231406688690186e-02 7.024818658828735352e-02 7.442189007997512817e-02 6.396479904651641846e-02 6.164470314979553223e-02 6.125893443822860718e-02 3.791362792253494263e-02 -0.000000000000000000e+00 4.628186300396919250e-02 2.418002486228942871e-02 2.353118918836116791e-02 8.645981550216674805e-02 5.341733992099761963e-02 2.374953962862491608e-02 7.120051980018615723e-02 1.858625560998916626e-02 2.922292239964008331e-02 1.549786608666181564e-02 -1.183171849697828293e-02 2.933591976761817932e-02 2.481123618781566620e-02 -0.000000000000000000e+00 5.402050539851188660e-02 4.007567465305328369e-02 0.000000000000000000e+00 4.768573492765426636e-02 6.143785640597343445e-02 2.957466989755630493e-02 2.004015259444713593e-02 3.186702728271484375e-02 1.551841106265783310e-02 -2.807436510920524597e-02 -1.600857265293598175e-02 -0.000000000000000000e+00 -4.200359061360359192e-02 -2.761837653815746307e-02 -1.176581345498561859e-02 -2.443306520581245422e-02 2.029502019286155701e-02 1.621769927442073822e-02 -4.589162394404411316e-02 -1.171049289405345917e-02 -2.091114595532417297e-02 -3.782452270388603210e-02 -2.232880517840385437e-02 -1.892354153096675873e-02 -2.412632480263710022e-02 -1.280561182647943497e-02 -2.911111712455749512e-02 -5.330683290958404541e-02 -3.476952761411666870e-02 -4.237180575728416443e-02 -0.000000000000000000e+00 1.636724732816219330e-02 1.389843039214611053e-02 -0.000000000000000000e+00 7.804001867771148682e-02 4.570158198475837708e-02 -1.568992808461189270e-02 4.819772019982337952e-02 2.065188996493816376e-02 -6.050595268607139587e-02 1.722825877368450165e-02 4.557245597243309021e-02 -4.093183204531669617e-02 8.394870907068252563e-02 1.179817393422126770e-01 -0.000000000000000000e+00 3.388254344463348389e-02 2.344978041946887970e-02 0.000000000000000000e+00 0.000000000000000000e+00 1.785703934729099274e-02 -0.000000000000000000e+00 -1.817712746560573578e-02 0.000000000000000000e+00 -0.000000000000000000e+00 -1.262119412422180176e-02 0.000000000000000000e+00 4.932998493313789368e-02 8.475643396377563477e-02 6.588439643383026123e-02 3.307941183447837830e-02 8.468268811702728271e-02 7.747644931077957153e-02 -0.000000000000000000e+00 1.607015356421470642e-02 0.000000000000000000e+00 -4.537121951580047607e-02 2.066337130963802338e-02 -1.916198618710041046e-02 -3.734900429844856262e-02 7.909579575061798096e-02 3.752606734633445740e-02 -8.585130423307418823e-02 -2.233895100653171539e-02 -4.934924840927124023e-02 -6.035981699824333191e-02 0.000000000000000000e+00 3.003961965441703796e-02 -1.298046112060546875e-02 6.285142898559570312e-02 -0.000000000000000000e+00 3.985653445124626160e-02 1.100199967622756958e-01 0.000000000000000000e+00 -0.000000000000000000e+00 -0.000000000000000000e+00 0.000000000000000000e+00 0.000000000000000000e+00 -0.000000000000000000e+00 0.000000000000000000e+00 -1.718438975512981415e-02 -0.000000000000000000e+00 -0.000000000000000000e+00 2.118575386703014374e-02 -4.070352762937545776e-02 -4.712332412600517273e-02 1.508394908159971237e-02 -0.000000000000000000e+00 -7.791019231081008911e-02 2.139345556497573853e-02 6.562568247318267822e-02 -2.717531472444534302e-02 1.449472550302743912e-02 1.417363528162240982e-02 -1.423189789056777954e-02 4.164732247591018677e-02 6.772004067897796631e-02 3.834270685911178589e-02 4.161440953612327576e-02 4.495820403099060059e-02 -0.000000000000000000e+00 -4.610364511609077454e-02 -3.846826776862144470e-02 -6.539691239595413208e-02 -1.408699993044137955e-02 1.333316694945096970e-02 -2.762174420058727264e-02 -0.000000000000000000e+00 1.960888132452964783e-02 -2.427536621689796448e-02 0.000000000000000000e+00 1.207459997385740280e-02 1.298112608492374420e-02 -2.612412534654140472e-02 1.888661459088325500e-02 6.067079305648803711e-02 -5.937190353870391846e-02 -1.229067333042621613e-02 -0.000000000000000000e+00
-2.105414494872093201e-02 -0.000000000000000000e+00 -4.938502237200737000e-02 -3.308619558811187744e-02 -2.136835083365440369e-02 -4.346763342618942261e-02 -3.374557569622993469e-02 -3.179814666509628296e-02 -3.240468353033065796e-02 4.169446602463722229e-02 0.000000000000000000e+00 0.000000000000000000e+00 4.302584007382392883e-02 -1.670251972973346710e-02 1.896006055176258087e-02 1.871801726520061493e-02 0.000000000000000000e+00 -2.147325687110424042e-02 3.842499479651451111e-02 4.171689227223396301e-02 -1.544682774692773819e-02 -3.514638543128967285e-02 9.194596111774444580e-02 9.144335240125656128e-02 -5.095056444406509399e-02 6.521381437778472900e-02 -2.510551735758781433e-02 1.418870501220226288e-02 1.326293032616376877e-02 -0.000000000000000000e+00 4.240631312131881714e-02 2.149952761828899384e-02 -1.385229639708995819e-02 4.908747598528862000e-02 -0.000000000000000000e+00 -2.131198160350322723e-02 4.667464643716812134e-02 5.466122925281524658e-02 4.063940048217773438e-02 -0.000000000000000000e+00 -0.000000000000000000e+00 0.000000000000000000e+00 1.731879822909832001e-02 1.456042006611824036e-02 -1.366719603538513184e-02 0.000000000000000000e+00 0.000000000000000000e+00 -1.927206851541996002e-02 -0.000000000000000000e+00 0.000000000000000000e+00 -5.232341587543487549e-02 1.527562458068132401e-02 1.872529461979866028e-02 -0.000000000000000000e+00 -1.585928350687026978e-02 -3.633040562272071838e-02 -1.399332098662853241e-02 -8.129914104938507080e-02 -4.783452302217483521e-02 5.553187802433967590e-02 -3.449406474828720093e-02 6.801842153072357178e-02 5.424046516418457031e-02 1.402804721146821976e-02 6.612577289342880249e-02 -1.991244032979011536e-02 -5.645979195833206177e-02 4.613936319947242737e-02 0.000000000000000000e+00 -2.798674069344997406e-02 3.307383880019187927e-02 1.487701572477817535e-02 -0.000000000000000000e+00 0.000000000000000000e+00 -3.031130321323871613e-02 0.000000000000000000e+00 5.591475591063499451e-02 2.130522578954696655e-02 -0.000000000000000000e+00 1.464532408863306046e-02 -2.350388653576374054e-02 -0.000000000000000000e+00 2.581425011157989502e-02 -2.771669253706932068e-02 -0.000000000000000000e+00 2.622617036104202271e-02 0.000000000000000000e+00 -2.206996455788612366e-02 -0.000000000000000000e+00 0.000000000000000000e+00 -1.273618917912244797e-02 1.293556299060583115e-02 -0.000000000000000000e+00 1.799683459103107452e-02 2.470209077000617981e-02 -0.000000000000000000e+00 -2.275608479976654053e-02 -1.376950275152921677e-02 -3.932790085673332214e-02 -2.379939518868923187e-02 -1.838354393839836121e-02 -0.000000000000000000e+00 -2.941681817173957825e-02 -2.459046244621276855e-02 1.547658909112215042e-02 -1.388956420123577118e-02 -2.287663705646991730e-02 3.114648163318634033e-02 7.430852204561233521e-02 -4.718855768442153931e-02 0.000000000000000000e+00 8.313605189323425293e-02 -6.400199234485626221e-02 -0.000000000000000000e+00 -0.000000000000000000e+00 -1.325554586946964264e-02 2.039323374629020691e-02 0.000000000000000000e+00 7.560577243566513062e-02 4.421409964561462402e-02 -3.137008100748062134e-02 1.150804385542869568e-01 4.777351021766662598e-02 -3.105975687503814697e-02 9.746094793081283569e-02 1.918646506965160370e-02 2.662032842636108398e-02 2.997815050184726715e-02 -0.000000000000000000e+00 2.355144545435905457e-02 2.179135940968990326e-02 2.128542959690093994e-02 0.000000000000000000e+00 2.633347921073436737e-02 1.877939142286777496e-02 -1.963309757411479950e-02 0.000000000000000000e+00 7.057572901248931885e-02 -8.532623946666717529e-02 2.221705615520477295e-01 1.378470510244369507e-01 2.794793620705604553e-02 1.141524836421012878e-01 0.000000000000000000e+00 1.495433598756790161e-01 -2.768537402153015137e-02 -8.095148950815200806e-02 2.306192666292190552e-01 -4.037854075431823730e-02 -1.717838793992996216e-01 3.877230361104011536e-02 -3.277629241347312927e-02 -0.000000000000000000e+00 8.812257647514343262e-02 -0.000000000000000000e+00 -5.654230713844299316e-02 1.589980721473693848e-01 -1.203702855855226517e-02 -1.384966373443603516e-01 1.016439571976661682e-01 1.663659326732158661e-02 -4.938907176256179810e-02 2.049964852631092072e-02 -3.403954580426216125e-02 7.553969323635101318e-02 -1.242616772651672363e-01 -1.826817244291305542e-01 1.735530346632003784e-01 1.436288561671972275e-02 -9.686832129955291748e-02 9.513001143932342529e-02 -2.031376585364341736e-02 -1.705709099769592285e-02 -1.507108844816684723e-02 -4.507888481020927429e-02 4.723329097032546997e-02 0.000000000000000000e+00 -0.000000000000000000e+00 3.564682602882385254e-02 0.000000000000000000e+00 4.017443209886550903e-02 3.660542890429496765e-02 4.421091824769973755e-02 1.687814481556415558e-02 -1.555311027914285660e-02 0.000000000000000000e+00 3.807530179619789124e-02 4.869212582707405090e-02 4.965827241539955139e-02 -1.605286821722984314e-02 -0.000000000000000000e+00 -0.000000000000000000e+00 -0.000000000000000000e+00 -1.212384179234504700e-02 -3.306036815047264099e-02 1.504472270607948303e-02 0.000000000000000000e+00 -0.000000000000000000e+00 0.000000000000000000e+00 1.934202201664447784e-02 1.781591586768627167e-02 -4.300716519355773926e-02 -4.006491601467132568e-02 -1.194484066218137741e-02 -1.681076735258102417e-02 -2.538769319653511047e-02 0.000000000000000000e+00 6.302902847528457642e-02 -0.000000000000000000e+00 -7.758139818906784058e-02 2.542751841247081757e-02 -0.000000000000000000e+00 -2.596450783312320709e-02 1.913023181259632111e-02 0.000000000000000000e+00 -1.746520400047302246e-02 5.448975041508674622e-02 -1.214964222162961960e-02 -6.549843400716781616e-02 4.852794855833053589e-02 -0.000000000000000000e+00 -1.341623160988092422e-02 3.287137299776077271e-02 -0.000000000000000000e+00 -2.289540693163871765e-02 -0.000000000000000000e+00 1.818078942596912384e-02 2.953523583710193634e-02 -3.561646863818168640e-02 1.596473902463912964e-02 4.396509751677513123e-02 -0.000000000000000000e+00 0.000000000000000000e+00 1.350447069853544235e-02 2.128097973763942719e-02 -0.000000000000000000e+00 1.278343703597784042e-02 1.248416025191545486e-02 0.000000000000000000e+00 4.308857768774032593e-02 0.000000000000000000e+00 0.000000000000000000e+00 0.000000000000000000e+00 1.254906039685010910e-02 2.272850647568702698e-02 1.534174103289842606e-02 -1.934298872947692871e-02 -0.000000000000000000e+00 1.600235886871814728e-02 0.000000000000000000e+00 -2.587109617888927460e-02 -1.266711298376321793e-02 -3.780446574091911316e-02 -6.480906158685684204e-02 3.092020563781261444e-02 1.209284961223602295e-01 -2.247378677129745483e-01 -1.056964546442031860e-01 0.000000000000000000e+00 -5.966905504465103149e-02 -7.597494870424270630e-02 -0.000000000000000000e+00 -0.000000000000000000e+00 -4.171355441212654114e-02 2.299905940890312195e-02 -1.512316055595874786e-02 -5.041786655783653259e-02 1.725754700601100922e-02 -0.000000000000000000e+00 -2.722424268722534180e-02 4.528997465968132019e-02 -1.414360664784908295e-02 -7.798497378826141357e-02 1.077329739928245544e-01 -0.000000000000000000e+00 -1.321426630020141602e-01 3.641297668218612671e-02 -0.000000000000000000e+00 -5.972252413630485535e-02 -0.000000000000000000e+00 0.000000000000000000e+00 1.720769703388214111e-02 0.000000000000000000e+00 -0.000000000000000000e+00 1.165014598518610001e-02 3.001053072512149811e-02 -3.715042024850845337e-02 0.000000000000000000e+00 -2.329264394938945770e-02 -0.000000000000000000e+00 4.450825601816177368e-02 -6.653880327939987183e-02 -1.562952436506748199e-02 9.606524556875228882e-02 -4.970972239971160889e-02 0.000000000000000000e+00 1.013799533247947693e-01 1.354896835982799530e-02 3.263377398252487183e-02 0.000000000000000000e+00 1.795070618391036987e-02 -0.000000000000000000e+00 2.043782547116279602e-02 3.002871014177799225e-02 -2.409911900758743286e-02 0.000000000000000000e+00 -1.835830509662628174e-02 -3.199158236384391785e-02 -0.000000000000000000e+00 -3.907580673694610596e-02 -6.088976562023162842e-02 -0.000000000000000000e+00 -2.563392743468284607e-02 -0.000000000000000000e+00 2.536890655755996704e-02 -0.000000000000000000e+00 -2.192000672221183777e-02 -1.207637973129749298e-02 -0.000000000000000000e+00 -0.000000000000000000e+00 -2.148625068366527557e-02 -0.000000000000000000e+00 -2.109390683472156525e-02 -5.514109879732131958e-02 -0.000000000000000000e+00 1.718382723629474640e-02 2.485730871558189392e-02 -0.000000000000000000e+00 0.000000000000000000e+00 3.055378794670104980e-02 0.000000000000000000e+00 4.445883259177207947e-02 1.748079992830753326e-02 9.763582795858383179e-02 0.000000000000000000e+00 -2.101259082555770874e-01 -1.841157115995883942e-02 1.050183400511741638e-01 -0.000000000000000000e+00 -1.011573970317840576e-01 -4.048168659210205078e-02 1.373605281114578247e-01 2.972443774342536926e-02 -2.841527014970779419e-02 -0.000000000000000000e+00 0.000000000000000000e+00 -1.204822957515716553e-02 0.000000000000000000e+00 1.287219207733869553e-02 0.000000000000000000e+00 -0.000000000000000000e+00 0.000000000000000000e+00 0.000000000000000000e+00 -1.182750612497329712e-02 -0.000000000000000000e+00 -2.913780510425567627e-02 -2.004474215209484100e-02 -0.000000000000000000e+00 -0.000000000000000000e+00 0.000000000000000000e+00 -7.108013331890106201e-02 1.528740767389535904e-02 6.223791465163230896e-02 -0.000000000000000000e+00 3.791601583361625671e-02 -9.109959751367568970e-02 9.372981637716293335e-02 4.595694690942764282e-02 -1.135716363787651062e-01 6.001757457852363586e-02 -0.000000000000000000e+00 0.000000000000000000e+00 0.000000000000000000e+00 -4.516590014100074768e-02 -3.785219416022300720e-02 1.968671940267086029e-02 -1.701176352798938751e-02 -2.896697074174880981e-02 2.463523298501968384e-02 -1.437420584261417389e-02 -3.303487971425056458e-02 3.412964195013046265e-02 0.000000000000000000e+00 -5.938623100519180298e-02 2.074965834617614746e-02 1.488055195659399033e-02 -3.482143208384513855e-02 -3.658673912286758423e-02 2.382024191319942474e-02 0.000000000000000000e+00 0.000000000000000000e+00 -0.000000000000000000e+00 0.000000000000000000e+00 -1.498393993824720383e-02 -0.000000000000000000e+00 -1.435651630163192749e-02 6.275413930416107178e-02 -1.372968591749668121e-02 -0.000000000000000000e+00 7.061074674129486084e-02 -1.876180991530418396e-02 -1.676563546061515808e-02 7.292557507753372192e-02 0.000000000000000000e+00 -0.000000000000000000e+00 -1.372388377785682678e-02 1.183807477355003357e-02 -6.552473455667495728e-02 0.000000000000000000e+00 -0.000000000000000000e+00 -0.000000000000000000e+00 -1.833667047321796417e-02 -4.513692855834960938e-02 -6.670991331338882446e-02 0.000000000000000000e+00 -1.412226539105176926e-02 -0.000000000000000000e+00 -0.000000000000000000e+00 0.000000000000000000e+00 1.749164052307605743e-02 0.000000000000000000e+00 0.000000000000000000e+00 -0.000000000000000000e+00 5.559177324175834656e-02 -3.593282029032707214e-02 0.000000000000000000e+00 7.260182499885559082e-02 -3.158463165163993835e-02 -2.500478550791740417e-02 8.474117517471313477e-02 -0.000000000000000000e+00 -2.880673296749591827e-02 2.197087183594703674e-02 1.649553701281547546e-02 -2.690083719789981842e-02 1.175054442137479782e-02 -0.000000000000000000e+00 -0.000000000000000000e+00 -0.000000000000000000e+00 -1.935861632227897644e-02 0.000000000000000000e+00 4.630225896835327148e-02 -2.547160349786281586e-02 -2.933408878743648529e-02 4.522873088717460632e-02 -5.180535465478897095e-02 -1.180698163807392120e-02 1.598252356052398682e-02 0.000000000000000000e+00 4.741402342915534973e-02 -1.297816075384616852e-02 -1.899993047118186951e-02 0.000000000000000000e+00 -2.332232519984245300e-02 1.717165857553482056e-02 3.045948408544063568e-02 -1.432333141565322876e-02 3.974069654941558838e-02 -1.789270155131816864e-02 2.154767885804176331e-02 -0.000000000000000000e+00 -3.270415216684341431e-02 3.069067560136318207e-02 3.853221237659454346e-02 -0.000000000000000000e+00 0.000000000000000000e+00 -0.000000000000000000e+00 -1.701352000236511230e-02 -1.414198800921440125e-02 -8.059030026197433472e-02 -2.132442779839038849e-02 7.648000121116638184e-02 -7.369133085012435913e-02 -6.286594271659851074e-02 2.416114322841167450e-02 -4.857108741998672485e-02 -0.000000000000000000e+00 6.060225516557693481e-02 3.395147621631622314e-02 -0.000000000000000000e+00 0.000000000000000000e+00 -6.296522170305252075e-02 -3.671411797404289246e-02 1.548952143639326096e-02 -1.525286678224802017e-02 -0.000000000000000000e+00 2.482828125357627869e-02 -0.000000000000000000e+00 -0.000000000000000000e+00 0.000000000000000000e+00 -0.000000000000000000e+00 -0.000000000000000000e+00 -1.226687896996736526e-02 -2.737697400152683258e-02 -0.000000000000000000e+00 4.431783035397529602e-02 0.000000000000000000e+00 -0.000000000000000000e+00 3.901499882340431213e-02 -0.000000000000000000e+00 -3.921690955758094788e-02 0.000000000000000000e+00 -0.000000000000000000e+00 -1.369737554341554642e-02 3.168321773409843445e-02 -0.000000000000000000e+00 1.351166795939207077e-02 6.201295927166938782e-02 -0.000000000000000000e+00 -0.000000000000000000e+00 4.464500769972801208e-02 0.000000000000000000e+00 -0.000000000000000000e+00 -1.818229258060455322e-02 -6.023795157670974731e-02 -4.282803460955619812e-02 -1.840970106422901154e-02 -8.714947849512100220e-02 -2.870972454547882080e-02 -1.601638831198215485e-02 -6.284358352422714233e-02 -2.513937093317508698e-02 0.000000000000000000e+00 -0.000000000000000000e+00 -3.417216241359710693e-02 3.248499333858489990e-02 0.000000000000000000e+00 -4.300828650593757629e-02 1.819672621786594391e-02 -0.000000000000000000e+00 -5.188694223761558533e-02 1.167940571904182434e-01 -2.248309925198554993e-02 -1.159513220191001892e-01 1.804354190826416016e-01 -2.242566458880901337e-02 -2.282199710607528687e-01 1.327944248914718628e-01 0.000000000000000000e+00 -1.268696635961532593e-01 -2.831905335187911987e-02 -2.956273406744003296e-02 -2.543360926210880280e-02 -0.000000000000000000e+00 3.834845870733261108e-02 -3.891999274492263794e-02 -3.023197501897811890e-02 -7.308892905712127686e-02 -2.511974796652793884e-02 2.861323393881320953e-02 1.245138049125671387e-02 2.880402281880378723e-02 0.000000000000000000e+00 0.000000000000000000e+00 0.000000000000000000e+00 -0.000000000000000000e+00 -0.000000000000000000e+00 1.200175751000642776e-02 -2.198153175413608551e-02 4.482276737689971924e-02 1.430770754814147949e-02 -2.540105395019054413e-02 2.250417694449424744e-02 -0.000000000000000000e+00 -2.049412578344345093e-02 2.800793386995792389e-02 0.000000000000000000e+00 -0.000000000000000000e+00 -0.000000000000000000e+00 4.414378106594085693e-02 0.000000000000000000e+00 0.000000000000000000e+00 0.000000000000000000e+00 0.000000000000000000e+00 -0.000000000000000000e+00 0.000000000000000000e+00
