-1.615335978567600250e-02
0.000000000000000000e+00
-0.000000000000000000e+00
-0.000000000000000000e+00
-1.939018443226814270e-02
-2.417358383536338806e-02
0.000000000000000000e+00
0.000000000000000000e+00
-1.381569169461727142e-02
-0.000000000000000000e+00
0.000000000000000000e+00
2.365563809871673584e-02
-1.768718101084232330e-02
1.986079849302768707e-02
6.414956599473953247e-02
0.000000000000000000e+00
7.634177803993225098e-02
1.021463349461555481e-01
-0.000000000000000000e+00
0.000000000000000000e+00
2.543585374951362610e-02
-0.000000000000000000e+00
0.000000000000000000e+00
0.000000000000000000e+00
0.000000000000000000e+00
1.215855032205581665e-02
0.000000000000000000e+00
0.000000000000000000e+00
-0.000000000000000000e+00
0.000000000000000000e+00
1.709684915840625763e-02
-0.000000000000000000e+00
-0.000000000000000000e+00
2.348128147423267365e-02
1.591969653964042664e-02
0.000000000000000000e+00
-0.000000000000000000e+00
1.363803166896104813e-02
-0.000000000000000000e+00
-1.876436918973922729e-02
-2.775994688272476196e-02
-0.000000000000000000e+00
-0.000000000000000000e+00
-1.441130880266427994e-02
-0.000000000000000000e+00
1.168302167207002640e-02
1.539294794201850891e-02
1.290056109428405762e-02
2.023435197770595551e-02
-1.969799213111400604e-02
2.606620453298091888e-02
1.364671066403388977e-02
-1.364152319729328156e-02
2.997129224240779877e-02
-0.000000000000000000e+00
-0.000000000000000000e+00
-0.000000000000000000e+00
-1.199981849640607834e-02
-2.550190873444080353e-02
-2.118659205734729767e-02
0.000000000000000000e+00
-0.000000000000000000e+00
-0.000000000000000000e+00
-2.358936704695224762e-02
-3.808607906103134155e-02
-3.811431676149368286e-02
-2.628897130489349365e-02
-3.246689215302467346e-02
-4.519575089216232300e-02
-3.684548288583755493e-02
-1.208709273487329483e-02
-5.267357453703880310e-02
-1.670781150460243225e-02
-1.793504692614078522e-02
-0.000000000000000000e+00
-0.000000000000000000e+00
0.000000000000000000e+00
0.000000000000000000e+00
-0.000000000000000000e+00
-0.000000000000000000e+00
-1.601980067789554596e-02
-0.000000000000000000e+00
0.000000000000000000e+00
3.624372556805610657e-02
1.621292531490325928e-02
-0.000000000000000000e+00
1.816657558083534241e-02
3.602434322237968445e-02
-0.000000000000000000e+00
-1.529896538704633713e-02
-0.000000000000000000e+00
-0.000000000000000000e+00
-1.948075182735919952e-02
-1.762006431818008423e-02
-3.385171294212341309e-02
-0.000000000000000000e+00
0.000000000000000000e+00
-0.000000000000000000e+00
0.000000000000000000e+00
-1.389332581311464310e-02
-0.000000000000000000e+00
1.575914211571216583e-02
1.834939233958721161e-02
1.499037444591522217e-02
0.000000000000000000e+00
-1.722655445337295532e-02
-0.000000000000000000e+00
-0.000000000000000000e+00
-0.000000000000000000e+00
-0.000000000000000000e+00
1.582817919552326202e-02
-5.651598796248435974e-02
-1.474103238433599472e-02
0.000000000000000000e+00
-2.340218052268028259e-02
-0.000000000000000000e+00
0.000000000000000000e+00
0.000000000000000000e+00
-0.000000000000000000e+00
0.000000000000000000e+00
-0.000000000000000000e+00
-0.000000000000000000e+00
2.700334042310714722e-02
-0.000000000000000000e+00
0.000000000000000000e+00
4.037846997380256653e-02
0.000000000000000000e+00
2.942592836916446686e-02
2.250985428690910339e-02
-1.732390187680721283e-02
0.000000000000000000e+00
3.738935664296150208e-02
0.000000000000000000e+00
-2.076962776482105255e-02
0.000000000000000000e+00
6.382868438959121704e-02
3.883946314454078674e-02
-2.389354072511196136e-02
6.124345213174819946e-02
4.997362196445465088e-02
-5.890909954905509949e-02
7.261877506971359253e-02
3.229880705475807190e-02
-5.676823109388351440e-02
1.339681260287761688e-02
0.000000000000000000e+00
-0.000000000000000000e+00
1.501318626105785370e-02
0.000000000000000000e+00
1.886156760156154633e-02
-2.148097008466720581e-02
0.000000000000000000e+00
0.000000000000000000e+00
3.312726691365242004e-02
4.659520089626312256e-02
4.917139559984207153e-02
-0.000000000000000000e+00
-3.728499636054039001e-02
0.000000000000000000e+00
0.000000000000000000e+00
0.000000000000000000e+00
0.000000000000000000e+00
0.000000000000000000e+00
-1.933283172547817230e-02
-2.241415530443191528e-02
1.909900270402431488e-02
2.618714608252048492e-02
-0.000000000000000000e+00
0.000000000000000000e+00
2.266696654260158539e-02
0.000000000000000000e+00
1.247390639036893845e-02
4.886911436915397644e-02
5.705730244517326355e-02
-1.196699216961860657e-02
2.712561190128326416e-02
4.349635913968086243e-02
1.340535376220941544e-02
1.644889451563358307e-02
2.515020966529846191e-02
-2.257238887250423431e-02
-0.000000000000000000e+00
-0.000000000000000000e+00
0.000000000000000000e+00
-1.415768079459667206e-02
-2.041694708168506622e-02
0.000000000000000000e+00
-0.000000000000000000e+00
-0.000000000000000000e+00
-1.868323981761932373e-02
-2.133629098534584045e-02
-1.511910650879144669e-02
1.393078826367855072e-02
-0.000000000000000000e+00
1.248120050877332687e-02
0.000000000000000000e+00
2.214732579886913300e-02
3.220930323004722595e-02
1.766321621835231781e-02
0.000000000000000000e+00
-0.000000000000000000e+00
0.000000000000000000e+00
0.000000000000000000e+00
-0.000000000000000000e+00
0.000000000000000000e+00
2.565806545317173004e-02
2.068874612450599670e-02
0.000000000000000000e+00
0.000000000000000000e+00
2.110159397125244141e-02
-2.844656258821487427e-02
-4.791383445262908936e-02
-2.933546528220176697e-02
-4.351657629013061523e-02
-4.655721783638000488e-02
-2.609253302216529846e-02
-0.000000000000000000e+00
0.000000000000000000e+00
1.632957905530929565e-02
0.000000000000000000e+00
-2.505490742623806000e-02
-1.397733204066753387e-02
4.795341566205024719e-02
-0.000000000000000000e+00
-0.000000000000000000e+00
0.000000000000000000e+00
3.672198578715324402e-02
1.371185854077339172e-02
-1.522000692784786224e-02
1.232484821230173111e-02
-1.647729054093360901e-02
0.000000000000000000e+00
1.328728254884481430e-02
-1.264176797121763229e-02
-3.471965715289115906e-02
0.000000000000000000e+00
-0.000000000000000000e+00
-0.000000000000000000e+00
6.182744726538658142e-02
2.329208143055438995e-02
-1.498312782496213913e-02
3.383084759116172791e-02
-0.000000000000000000e+00
0.000000000000000000e+00
2.416784875094890594e-02
2.139780111610889435e-02
1.178827788680791855e-02
0.000000000000000000e+00
3.013985604047775269e-02
0.000000000000000000e+00
0.000000000000000000e+00
1.902227662503719330e-02
4.848014563322067261e-02
5.023049935698509216e-02
4.116220399737358093e-02
1.302081998437643051e-02
5.780361220240592957e-02
2.027087472379207611e-02
1.182207930833101273e-02
3.178136795759201050e-02
-2.301728725433349609e-02
-1.274164579808712006e-02
-0.000000000000000000e+00
-1.181180030107498169e-02
-0.000000000000000000e+00
-4.431810975074768066e-02
1.845066063106060028e-02
-2.106632478535175323e-02
-0.000000000000000000e+00
-0.000000000000000000e+00
4.483885690569877625e-02
3.787635266780853271e-02
4.334372282028198242e-02
3.860357403755187988e-02
2.123387902975082397e-02
-2.715621888637542725e-02
2.049353159964084625e-02
3.457283228635787964e-02
2.232322655618190765e-02
1.661409810185432434e-02
4.310596361756324768e-02
1.914877444505691528e-02
2.290129847824573517e-02
3.345348313450813293e-02
2.337228134274482727e-02
-0.000000000000000000e+00
-2.350068464875221252e-02
-1.258177030831575394e-02
1.786391995847225189e-02
1.367027312517166138e-02
-0.000000000000000000e+00
1.845371350646018982e-02
-0.000000000000000000e+00
-0.000000000000000000e+00
0.000000000000000000e+00
-0.000000000000000000e+00
-0.000000000000000000e+00
3.188201412558555603e-02
1.735915243625640869e-02
1.622616499662399292e-02
1.775709353387355804e-02
-3.061508573591709137e-02
-1.833242364227771759e-02
1.298614311963319778e-02
0.000000000000000000e+00
1.202047988772392273e-02
0.000000000000000000e+00
-0.000000000000000000e+00
-0.000000000000000000e+00
0.000000000000000000e+00
-1.312507875263690948e-02
-0.000000000000000000e+00
1.218441501259803772e-02
0.000000000000000000e+00
-0.000000000000000000e+00
2.108604647219181061e-02
2.424059808254241943e-02
2.116670832037925720e-02
-0.000000000000000000e+00
-1.879758015275001526e-02
-1.997467130422592163e-02
0.000000000000000000e+00
1.861343346536159515e-02
0.000000000000000000e+00
-1.559795066714286804e-02
-1.401658635586500168e-02
-0.000000000000000000e+00
-0.000000000000000000e+00
-1.547210291028022766e-02
-3.082997165620326996e-02
-1.497483719140291214e-02
0.000000000000000000e+00
0.000000000000000000e+00
-0.000000000000000000e+00
0.000000000000000000e+00
-1.556184422224760056e-02
0.000000000000000000e+00
3.616199269890785217e-02
1.194324623793363571e-02
0.000000000000000000e+00
3.490259498357772827e-02
2.074805088341236115e-02
6.122171133756637573e-02
1.129991039633750916e-01
3.384827077388763428e-02
1.243646442890167236e-02
3.909826278686523438e-02
-0.000000000000000000e+00
-1.425167080014944077e-02
-3.271824866533279419e-02
-2.212110534310340881e-02
-2.345035225152969360e-02
-2.089473418891429901e-02
0.000000000000000000e+00
-4.080805927515029907e-02
-2.723772823810577393e-02
-2.408102527260780334e-02
-0.000000000000000000e+00
-0.000000000000000000e+00
-2.380078099668025970e-02
0.000000000000000000e+00
-0.000000000000000000e+00
-2.713510021567344666e-02
-1.202662754803895950e-02
0.000000000000000000e+00
2.488477900624275208e-02
-2.290949784219264984e-02
-1.505361497402191162e-02
0.000000000000000000e+00
2.840597182512283325e-02
0.000000000000000000e+00
3.108136542141437531e-02
1.602129451930522919e-02
-0.000000000000000000e+00
0.000000000000000000e+00
-1.760350354015827179e-02
-1.478344295173883438e-02
-0.000000000000000000e+00
-4.372622817754745483e-02
-1.728650741279125214e-02
-0.000000000000000000e+00
-3.378883376717567444e-02
0.000000000000000000e+00
2.698997780680656433e-02
-3.791468963027000427e-02
0.000000000000000000e+00
0.000000000000000000e+00
-1.534313429147005081e-02
1.999788917601108551e-02
-1.238294877111911774e-02
-1.171206403523683548e-02
-2.096918225288391113e-02
-0.000000000000000000e+00
-0.000000000000000000e+00
-2.873087674379348755e-02
-3.252669796347618103e-02
1.554095000028610229e-02
1.274349913001060486e-02
-0.000000000000000000e+00
-3.263049572706222534e-02
-4.382956400513648987e-02
-1.481607835739850998e-02
-4.451809078454971313e-02
-4.412045329809188843e-02
-4.656128585338592529e-02
-0.000000000000000000e+00
-1.440380513668060303e-02
0.000000000000000000e+00
2.860005944967269897e-02
0.000000000000000000e+00
1.318557281047105789e-02
-0.000000000000000000e+00
-2.592201158404350281e-02
-2.705578692257404327e-02
2.019148319959640503e-02
-0.000000000000000000e+00
0.000000000000000000e+00
1.359408050775527954e-01
5.036072432994842529e-02
-0.000000000000000000e+00
1.836272515356540680e-02
-1.310222037136554718e-02
-2.000149153172969818e-02
-2.076655067503452301e-02
-5.735417455434799194e-02
-4.524483904242515564e-02
-2.744205854833126068e-02
0.000000000000000000e+00
-5.726803466677665710e-02
-4.986790940165519714e-02
-0.000000000000000000e+00
-4.640690237283706665e-02
0.000000000000000000e+00
0.000000000000000000e+00
-1.562984474003314972e-02
3.380874916911125183e-02
-3.041439130902290344e-02
-0.000000000000000000e+00
-0.000000000000000000e+00
-1.756604202091693878e-02
2.475798875093460083e-02
-1.589113101363182068e-02
-2.977390401065349579e-02
0.000000000000000000e+00
-0.000000000000000000e+00
-1.722593978047370911e-02
0.000000000000000000e+00
-0.000000000000000000e+00
-2.509855479001998901e-02
1.927171088755130768e-02
-3.295236080884933472e-02
-1.941011473536491394e-02
-1.656459830701351166e-02
-0.000000000000000000e+00
-2.304949238896369934e-02
-0.000000000000000000e+00
-0.000000000000000000e+00
-3.583508357405662537e-02
-2.562419511377811432e-02
0.000000000000000000e+00
0.000000000000000000e+00
-0.000000000000000000e+00
0.000000000000000000e+00
-1.731168106198310852e-02
-0.000000000000000000e+00
1.292184181511402130e-02
-2.907258830964565277e-02
-2.524929866194725037e-02
-0.000000000000000000e+00
2.277072332799434662e-02
0.000000000000000000e+00
0.000000000000000000e+00
-1.491511613130569458e-02
-2.985277213156223297e-02
0.000000000000000000e+00
0.000000000000000000e+00
-2.139627747237682343e-02
0.000000000000000000e+00
3.070234321057796478e-02
1.315723452717065811e-02
-1.625778526067733765e-02
-0.000000000000000000e+00
0.000000000000000000e+00
-2.268073335289955139e-02
0.000000000000000000e+00
-0.000000000000000000e+00
0.000000000000000000e+00
-3.677124530076980591e-02
2.026496455073356628e-02
-0.000000000000000000e+00
-6.727707386016845703e-02
2.516233921051025391e-02
-0.000000000000000000e+00
-3.343829885125160217e-02
1.237816084176301956e-02
-2.171240188181400299e-02
-1.745925098657608032e-02
0.000000000000000000e+00
-0.000000000000000000e+00
-3.110044077038764954e-02
4.641226679086685181e-02
2.388282679021358490e-02
-2.190570719540119171e-02
1.440819259732961655e-02
-0.000000000000000000e+00
0.000000000000000000e+00
0.000000000000000000e+00
-0.000000000000000000e+00
0.000000000000000000e+00
0.000000000000000000e+00
0.000000000000000000e+00
0.000000000000000000e+00
-0.000000000000000000e+00
0.000000000000000000e+00
0.000000000000000000e+00
-0.000000000000000000e+00
0.000000000000000000e+00
0.000000000000000000e+00
-0.000000000000000000e+00
-2.851297147572040558e-02
-3.104954957962036133e-02
-1.584606990218162537e-02
-0.000000000000000000e+00
1.684778928756713867e-02
0.000000000000000000e+00
0.000000000000000000e+00
0.000000000000000000e+00
-2.123525366187095642e-02
0.000000000000000000e+00
-1.774211786687374115e-02
-4.196510463953018188e-02
-1.971722394227981567e-02
-0.000000000000000000e+00
-1.443845685571432114e-02
0.000000000000000000e+00
1.725496537983417511e-02
-0.000000000000000000e+00
1.318048685789108276e-02
-1.515718549489974976e-02
-1.749751344323158264e-02
-0.000000000000000000e+00
-0.000000000000000000e+00
-0.000000000000000000e+00
1.291616819798946381e-02
-0.000000000000000000e+00
-1.707941293716430664e-02
0.000000000000000000e+00
-1.281529478728771210e-02
-0.000000000000000000e+00
2.732208184897899628e-02
1.533899828791618347e-02
-0.000000000000000000e+00
-0.000000000000000000e+00
1.746215298771858215e-02
-0.000000000000000000e+00
-0.000000000000000000e+00
2.099309675395488739e-02
2.521827816963195801e-02
-0.000000000000000000e+00
-2.042390964925289154e-02
0.000000000000000000e+00
-1.441605016589164734e-02
-1.447311230003833771e-02
-1.377655100077390671e-02
-0.000000000000000000e+00
-1.786804012954235077e-02
-2.720869891345500946e-02
3.388894349336624146e-02
3.667978942394256592e-02
2.622992917895317078e-02
-0.000000000000000000e+00
-2.175154723227024078e-02
-0.000000000000000000e+00
1.974515803158283234e-02
-0.000000000000000000e+00
0.000000000000000000e+00
0.000000000000000000e+00
-0.000000000000000000e+00
1.426600664854049683e-02
-0.000000000000000000e+00
-1.956634968519210815e-02
-0.000000000000000000e+00
0.000000000000000000e+00
1.984247937798500061e-02
2.139635011553764343e-02
0.000000000000000000e+00
0.000000000000000000e+00
1.955312490463256836e-02
0.000000000000000000e+00
-5.266902595758438110e-02
-0.000000000000000000e+00
-0.000000000000000000e+00
-3.658346086740493774e-02
0.000000000000000000e+00
0.000000000000000000e+00
4.185593500733375549e-02
2.242695726454257965e-02
-1.476015895605087280e-02
1.535745430737733841e-02
2.556280605494976044e-02
-1.362264249473810196e-02
-0.000000000000000000e+00
-0.000000000000000000e+00
-0.000000000000000000e+00
-0.000000000000000000e+00
3.867411240935325623e-02
-2.869453839957714081e-02
-2.087238244712352753e-02
9.751176089048385620e-02
-2.075272984802722931e-02
-3.100167959928512573e-02
5.438630282878875732e-02
-0.000000000000000000e+00
-1.459911465644836426e-02
0.000000000000000000e+00
2.169391699135303497e-02
-0.000000000000000000e+00
1.301706396043300629e-02
1.809049397706985474e-02
-2.273105643689632416e-02
-2.000917680561542511e-02
-0.000000000000000000e+00
-0.000000000000000000e+00
-2.074753493070602417e-02
-3.225296735763549805e-02
-6.540112942457199097e-02
-3.136733546853065491e-02
-2.789873443543910980e-02
-5.196224525570869446e-02
-3.099339269101619720e-02
-0.000000000000000000e+00
1.459717378020286560e-02
-1.358390599489212036e-02
0.000000000000000000e+00
0.000000000000000000e+00
0.000000000000000000e+00
0.000000000000000000e+00
-0.000000000000000000e+00
2.484044060111045837e-02
1.502476539462804794e-02
-1.534214243292808533e-02
-2.503269910812377930e-02
0.000000000000000000e+00
-1.757893525063991547e-02
-0.000000000000000000e+00
3.046504221856594086e-02
-0.000000000000000000e+00
-3.487139567732810974e-02
1.567821577191352844e-02
-0.000000000000000000e+00
-0.000000000000000000e+00
0.000000000000000000e+00
1.952191069722175598e-02
-0.000000000000000000e+00
-3.998611494898796082e-02
-0.000000000000000000e+00
0.000000000000000000e+00
0.000000000000000000e+00
-1.318016462028026581e-02
-2.154009975492954254e-02
2.899263240396976471e-02
-1.336669549345970154e-02
-0.000000000000000000e+00
0.000000000000000000e+00
-0.000000000000000000e+00
-0.000000000000000000e+00
1.314887404441833496e-02
0.000000000000000000e+00
0.000000000000000000e+00
1.563458330929279327e-02
-0.000000000000000000e+00
-0.000000000000000000e+00
-0.000000000000000000e+00
-0.000000000000000000e+00
-0.000000000000000000e+00
-0.000000000000000000e+00
1.582073420286178589e-02
0.000000000000000000e+00
-0.000000000000000000e+00
0.000000000000000000e+00
1.270802412182092667e-02
0.000000000000000000e+00
-1.706445962190628052e-02
0.000000000000000000e+00
1.913514174520969391e-02
0.000000000000000000e+00
2.370428852736949921e-02
0.000000000000000000e+00
0.000000000000000000e+00
1.217885967344045639e-02
1.561414264142513275e-02
1.886251196265220642e-02
4.211353510618209839e-02
-0.000000000000000000e+00
-1.889045536518096924e-02
0.000000000000000000e+00
0.000000000000000000e+00
-1.768139190971851349e-02
2.407428249716758728e-02
-0.000000000000000000e+00
0.000000000000000000e+00
1.517912093549966812e-02
0.000000000000000000e+00
-0.000000000000000000e+00
-0.000000000000000000e+00
-1.550641655921936035e-02
-1.857611350715160370e-02
2.048243023455142975e-02
0.000000000000000000e+00
2.150750160217285156e-02
1.433863397687673569e-02
-3.143510594964027405e-02
-0.000000000000000000e+00
-0.000000000000000000e+00
-0.000000000000000000e+00
0.000000000000000000e+00
0.000000000000000000e+00
3.464731946587562561e-02
1.455983240157365799e-02
2.031819522380828857e-02
0.000000000000000000e+00
-1.336672808974981308e-02
-0.000000000000000000e+00
2.246907912194728851e-02
0.000000000000000000e+00
-0.000000000000000000e+00
0.000000000000000000e+00
0.000000000000000000e+00
-0.000000000000000000e+00
-2.082946710288524628e-02
-2.537889406085014343e-02
-2.630569599568843842e-02
-0.000000000000000000e+00
1.294256467372179031e-02
-1.301028952002525330e-02
3.571804612874984741e-02
5.831636488437652588e-02
4.335758835077285767e-02
0.000000000000000000e+00
-3.758644312620162964e-02
-0.000000000000000000e+00
1.541998609900474548e-02
-6.494153290987014771e-02
2.014474384486675262e-02
-0.000000000000000000e+00
-2.407341636717319489e-02
2.066428028047084808e-02
1.205095928162336349e-02
1.854716986417770386e-02
-1.322863716632127762e-02
0.000000000000000000e+00
0.000000000000000000e+00
0.000000000000000000e+00
-0.000000000000000000e+00
-0.000000000000000000e+00
0.000000000000000000e+00
-0.000000000000000000e+00
-0.000000000000000000e+00
-2.863551676273345947e-02
0.000000000000000000e+00
0.000000000000000000e+00
-0.000000000000000000e+00
-0.000000000000000000e+00
-0.000000000000000000e+00
-0.000000000000000000e+00
0.000000000000000000e+00
1.552571170032024384e-02
2.408302575349807739e-02
-0.000000000000000000e+00
-0.000000000000000000e+00
2.168440073728561401e-02
-0.000000000000000000e+00
-0.000000000000000000e+00
2.946352027356624603e-02
1.774949394166469574e-02
0.000000000000000000e+00
-1.199766807258129120e-02
1.806142181158065796e-02
-1.273144409060478210e-02
-1.793799176812171936e-02
-0.000000000000000000e+00
-0.000000000000000000e+00
-0.000000000000000000e+00
-0.000000000000000000e+00
2.070050314068794250e-02
-0.000000000000000000e+00
4.256358742713928223e-02
1.127570122480392456e-01
3.874395787715911865e-02
1.206664554774761200e-02
6.522146612405776978e-02
0.000000000000000000e+00
0.000000000000000000e+00
-0.000000000000000000e+00
-2.242716401815414429e-02
-6.661769002676010132e-02
-0.000000000000000000e+00
0.000000000000000000e+00
-3.990667313337326050e-02
-1.436613220721483231e-02
-0.000000000000000000e+00
0.000000000000000000e+00
0.000000000000000000e+00
0.000000000000000000e+00
-1.940138265490531921e-02
-1.746678352355957031e-02
-2.980634570121765137e-02
-1.241317111998796463e-02
-0.000000000000000000e+00
-0.000000000000000000e+00
2.123026736080646515e-02
-1.599083282053470612e-02
-0.000000000000000000e+00
2.096499688923358917e-02
-1.379358209669589996e-02
-1.419527828693389893e-02
-0.000000000000000000e+00
0.000000000000000000e+00
-0.000000000000000000e+00
-4.475225135684013367e-02
-0.000000000000000000e+00
-1.684670895338058472e-02
2.243287488818168640e-02
-1.979296654462814331e-02
-1.916004903614521027e-02
0.000000000000000000e+00
-3.800082579255104065e-02
-4.009772464632987976e-02
-0.000000000000000000e+00
-1.425747480243444443e-02
-1.966047473251819611e-02
-0.000000000000000000e+00
-0.000000000000000000e+00
-0.000000000000000000e+00
-1.679682731628417969e-02
-0.000000000000000000e+00
0.000000000000000000e+00
0.000000000000000000e+00
2.470178715884685516e-02
-1.308682374656200409e-02
-1.213113125413656235e-02
-0.000000000000000000e+00
-0.000000000000000000e+00
0.000000000000000000e+00
-0.000000000000000000e+00
-0.000000000000000000e+00
0.000000000000000000e+00
-0.000000000000000000e+00
1.923764869570732117e-02
1.170769520103931427e-02
1.335090678185224533e-02
1.953903026878833771e-02
1.476583909243345261e-02
2.349765039980411530e-02
1.260012015700340271e-02
-1.757554896175861359e-02
-0.000000000000000000e+00
-1.369389425963163376e-02
-1.518313214182853699e-02
-0.000000000000000000e+00
-0.000000000000000000e+00
-0.000000000000000000e+00
-3.580852597951889038e-02
-1.854754239320755005e-02
1.702174171805381775e-02
0.000000000000000000e+00
0.000000000000000000e+00
-1.178632862865924835e-02
-5.421871319413185120e-02
-0.000000000000000000e+00
-2.205350622534751892e-02
0.000000000000000000e+00
3.591814264655113220e-02
-1.278844941407442093e-02
-1.262517180293798447e-02
-3.619303554296493530e-02
-2.809656597673892975e-02
-0.000000000000000000e+00
-2.649641223251819611e-02
-3.142750635743141174e-02
-0.000000000000000000e+00
-1.208247430622577667e-02
0.000000000000000000e+00
0.000000000000000000e+00
-0.000000000000000000e+00
0.000000000000000000e+00
0.000000000000000000e+00
-1.193312555551528931e-02
-0.000000000000000000e+00
-0.000000000000000000e+00
-0.000000000000000000e+00
-0.000000000000000000e+00
-2.348987571895122528e-02
-0.000000000000000000e+00
-1.545405108481645584e-02
-3.236812725663185120e-02
-1.542578637599945068e-02
-1.383140683174133301e-02
1.428380515426397324e-02
0.000000000000000000e+00
-2.126277238130569458e-02
-2.329568378627300262e-02
-0.000000000000000000e+00
-5.627543106675148010e-02
1.178993657231330872e-02
0.000000000000000000e+00
-3.334479033946990967e-02
-1.352248899638652802e-02
-2.407313697040081024e-02
2.681579254567623138e-02
-0.000000000000000000e+00
-2.562181465327739716e-02
0.000000000000000000e+00
0.000000000000000000e+00
-3.475975245237350464e-02
-0.000000000000000000e+00
-1.585043780505657196e-02
-1.228003203868865967e-02
-0.000000000000000000e+00
-0.000000000000000000e+00
0.000000000000000000e+00
0.000000000000000000e+00
-0.000000000000000000e+00
0.000000000000000000e+00
-0.000000000000000000e+00
-0.000000000000000000e+00
-1.449013873934745789e-02
1.377178356051445007e-02
-6.613494455814361572e-02
-0.000000000000000000e+00
1.463489420711994171e-02
0.000000000000000000e+00
1.368067692965269089e-02
-2.419723942875862122e-02
0.000000000000000000e+00
0.000000000000000000e+00
0.000000000000000000e+00
-3.623281419277191162e-02
-1.493330020457506180e-02
1.649528928101062775e-02
0.000000000000000000e+00
0.000000000000000000e+00
1.954606920480728149e-02
1.585451699793338776e-02
0.000000000000000000e+00
4.148616641759872437e-02
4.788547381758689880e-02
2.686758898198604584e-02
3.041915968060493469e-02
5.477672070264816284e-02
2.155264839529991150e-02
2.410747483372688293e-02
2.886870503425598145e-02
2.903091721236705780e-02
1.637326180934906006e-02
-1.958759874105453491e-02
-0.000000000000000000e+00
0.000000000000000000e+00
-1.182148978114128113e-02
0.000000000000000000e+00
-1.185290422290563583e-02
-1.515430398285388947e-02
-0.000000000000000000e+00
-1.737682893872261047e-02
-0.000000000000000000e+00
1.300609856843948364e-02
-2.298906259238719940e-02
0.000000000000000000e+00
-1.720797270536422729e-02
1.961941085755825043e-02
1.940269209444522858e-02
-1.753663457930088043e-02
0.000000000000000000e+00
-0.000000000000000000e+00
-0.000000000000000000e+00
1.960509456694126129e-02
0.000000000000000000e+00
0.000000000000000000e+00
2.864261157810688019e-02
4.407322406768798828e-02
1.627008989453315735e-02
-0.000000000000000000e+00
-6.240243092179298401e-02
2.693790383636951447e-02
1.900543086230754852e-02
1.848792657256126404e-02
3.013981506228446960e-02
2.812650427222251892e-02
4.095637053251266479e-02
1.896556466817855835e-02
0.000000000000000000e+00
-0.000000000000000000e+00
0.000000000000000000e+00
2.677948959171772003e-02
1.414157357066869736e-02
3.038678504526615143e-02
-0.000000000000000000e+00
0.000000000000000000e+00
-0.000000000000000000e+00
-7.436212897300720215e-02
-6.213035434484481812e-02
-1.115509793162345886e-01
-2.209406718611717224e-02
1.306785549968481064e-02
-6.054763123393058777e-02
-2.834416180849075317e-02
-3.645594045519828796e-02
-6.090705096721649170e-02
-1.892873458564281464e-02
1.925231888890266418e-02
5.549965053796768188e-02
0.000000000000000000e+00
2.538050152361392975e-02
4.389838501811027527e-02
-7.516258955001831055e-02
-6.626315414905548096e-02
0.000000000000000000e+00
-0.000000000000000000e+00
0.000000000000000000e+00
-0.000000000000000000e+00
-2.858247980475425720e-02
-1.311073452234268188e-02
-2.240458875894546509e-02
1.193431485444307327e-02
2.197482250630855560e-02
2.844878286123275757e-02
-1.556563097983598709e-02
-0.000000000000000000e+00
-0.000000000000000000e+00
0.000000000000000000e+00
0.000000000000000000e+00
-1.205131690949201584e-02
-0.000000000000000000e+00
0.000000000000000000e+00
-0.000000000000000000e+00
-2.622516080737113953e-02
1.244532316923141479e-02
0.000000000000000000e+00
0.000000000000000000e+00
0.000000000000000000e+00
1.698369346559047699e-02
2.216132357716560364e-02
1.211419049650430679e-02
0.000000000000000000e+00
3.561219945549964905e-02
2.088534459471702576e-02
0.000000000000000000e+00
-0.000000000000000000e+00
-0.000000000000000000e+00
-0.000000000000000000e+00
-0.000000000000000000e+00
-0.000000000000000000e+00
-2.241251990199089050e-02
-0.000000000000000000e+00
-4.424418881535530090e-02
-3.588842973113059998e-02
1.474828738719224930e-02
-3.360746428370475769e-02
-4.998479783535003662e-02
7.733159512281417847e-02
5.167614668607711792e-02
-1.380158774554729462e-02
-1.994157396256923676e-02
-1.377137843519449234e-02
-2.027657441794872284e-02
-3.276153653860092163e-02
-2.819197811186313629e-02
-2.065653540194034576e-02
-2.430791035294532776e-02
-2.895733155310153961e-02
-3.581475466489791870e-02
0.000000000000000000e+00
-0.000000000000000000e+00
1.778569258749485016e-02
-0.000000000000000000e+00
-0.000000000000000000e+00
2.529028989374637604e-02
2.052539587020874023e-02
2.698612958192825317e-02
2.324739098548889160e-02
0.000000000000000000e+00
0.000000000000000000e+00
-1.456820126622915268e-02
-0.000000000000000000e+00
0.000000000000000000e+00
4.021092876791954041e-02
-0.000000000000000000e+00
-1.320968940854072571e-02
3.195096552371978760e-02
-1.532728876918554306e-02
4.243930056691169739e-02
0.000000000000000000e+00
-0.000000000000000000e+00
-2.527967095375061035e-02
-3.149085491895675659e-02
-0.000000000000000000e+00
1.542567368596792221e-02
-0.000000000000000000e+00
3.100127354264259338e-02
0.000000000000000000e+00
1.576375961303710938e-02
-0.000000000000000000e+00
4.374086111783981323e-02
2.880047261714935303e-02
1.401321496814489365e-02
4.241270944476127625e-02
0.000000000000000000e+00
-1.872054673731327057e-02
-0.000000000000000000e+00
-0.000000000000000000e+00
-1.623470336198806763e-02
-0.000000000000000000e+00
-2.568896859884262085e-02
-0.000000000000000000e+00
0.000000000000000000e+00
-0.000000000000000000e+00
-0.000000000000000000e+00
-0.000000000000000000e+00
-1.178058888763189316e-02
-0.000000000000000000e+00
0.000000000000000000e+00
0.000000000000000000e+00
2.737324126064777374e-02
2.754047885537147522e-02
0.000000000000000000e+00
1.517498306930065155e-02
0.000000000000000000e+00
2.179822325706481934e-02
-1.519869174808263779e-02
-8.543918281793594360e-02
-2.471259236335754395e-02
-1.846027560532093048e-02
-4.976727068424224854e-02
-0.000000000000000000e+00
3.072763048112392426e-02
3.996152803301811218e-02
3.125312924385070801e-02
-1.873813569545745850e-02
-6.751024723052978516e-02
-2.764919959008693695e-02
2.842878364026546478e-02
3.185398504137992859e-02
0.000000000000000000e+00
-1.832032017409801483e-02
-1.585356704890727997e-02
-0.000000000000000000e+00
-2.744184248149394989e-02
-3.061636351048946381e-02
-0.000000000000000000e+00
-1.512184739112854004e-02
-0.000000000000000000e+00
-2.532173134386539459e-02
0.000000000000000000e+00
3.099584393203258514e-02
4.276300966739654541e-02
4.653702676296234131e-02
4.860567674040794373e-02
0.000000000000000000e+00
1.665444113314151764e-02
1.289978809654712677e-02
-1.823001913726329803e-02
-0.000000000000000000e+00
-0.000000000000000000e+00
-1.612837240099906921e-02
-1.279895007610321045e-02
0.000000000000000000e+00
-1.458546333014965057e-02
-2.355348505079746246e-02
-0.000000000000000000e+00
-1.439898740500211716e-02
0.000000000000000000e+00
-1.755960099399089813e-02
-3.304619342088699341e-02
-3.209045529365539551e-02
-0.000000000000000000e+00
0.000000000000000000e+00
-4.142817109823226929e-02
0.000000000000000000e+00
1.690613478422164917e-02
-0.000000000000000000e+00
-3.182450309395790100e-02
-0.000000000000000000e+00
-1.468890719115734100e-02
-2.831525169312953949e-02
-0.000000000000000000e+00
-0.000000000000000000e+00
0.000000000000000000e+00
1.336757373064756393e-02
1.238995511084794998e-02
-1.684343069791793823e-02
-2.149227447807788849e-02
-1.785300858318805695e-02
-2.884310670197010040e-02
0.000000000000000000e+00
-2.094445005059242249e-02
-2.178736403584480286e-02
2.163451164960861206e-02
-0.000000000000000000e+00
-0.000000000000000000e+00
0.000000000000000000e+00
-0.000000000000000000e+00
4.059011861681938171e-02
7.329975813627243042e-02
-0.000000000000000000e+00
6.397588551044464111e-02
9.450079500675201416e-02
3.028517216444015503e-02
1.298786327242851257e-02
0.000000000000000000e+00
-0.000000000000000000e+00
-0.000000000000000000e+00
-0.000000000000000000e+00
1.915245316922664642e-02
2.050566114485263824e-02
1.972083747386932373e-02
-1.500385627150535583e-02
-3.210606053471565247e-02
-3.168690949678421021e-02
-3.387893736362457275e-02
-4.691307991743087769e-02
-4.521264135837554932e-02
-2.334451861679553986e-02
-3.227393701672554016e-02
-1.813925057649612427e-02
0.000000000000000000e+00
0.000000000000000000e+00
-1.263918075710535049e-02
-0.000000000000000000e+00
-3.075814619660377502e-02
-1.302761863917112350e-02
-0.000000000000000000e+00
-0.000000000000000000e+00
-0.000000000000000000e+00
-3.398644179105758667e-02
-0.000000000000000000e+00
0.000000000000000000e+00
0.000000000000000000e+00
-0.000000000000000000e+00
0.000000000000000000e+00
2.728256396949291229e-02
0.000000000000000000e+00
-1.769226975739002228e-02
-2.569587901234626770e-02
-0.000000000000000000e+00
-2.756530232727527618e-02
-0.000000000000000000e+00
-1.471192482858896255e-02
-0.000000000000000000e+00
-2.970137260854244232e-02
-2.473335526883602142e-02
-2.549355477094650269e-02
5.035934224724769592e-02
4.975135624408721924e-02
4.023803398013114929e-02
2.444508112967014313e-02
2.457880787551403046e-02
1.665602438151836395e-02
-3.347089886665344238e-02
-0.000000000000000000e+00
0.000000000000000000e+00
1.942006498575210571e-02
0.000000000000000000e+00
2.763772010803222656e-02
-1.330964080989360809e-02
1.271194964647293091e-02
5.041031539440155029e-02
-0.000000000000000000e+00
2.485327795147895813e-02
2.980856783688068390e-02
1.228540018200874329e-02
-0.000000000000000000e+00
-0.000000000000000000e+00
1.197104156017303467e-02
-0.000000000000000000e+00
0.000000000000000000e+00
-2.359092608094215393e-02
-1.579445786774158478e-02
-0.000000000000000000e+00
-1.707837730646133423e-02
-1.591338589787483215e-02
-1.365584321320056915e-02
-3.987331688404083252e-02
-1.781749539077281952e-02
-2.387215942144393921e-02
-2.629480510950088501e-02
-4.478907212615013123e-02
-3.138029575347900391e-02
0.000000000000000000e+00
-0.000000000000000000e+00
0.000000000000000000e+00
4.058923199772834778e-02
1.646156609058380127e-02
-1.606666110455989838e-02
1.403426285833120346e-02
0.000000000000000000e+00
-0.000000000000000000e+00
-0.000000000000000000e+00
2.288193255662918091e-02
2.254844829440116882e-02
-2.551725879311561584e-02
-0.000000000000000000e+00
3.821075335144996643e-02
2.395503409206867218e-02
0.000000000000000000e+00
2.506379224359989166e-02
-0.000000000000000000e+00
-1.165943406522274017e-02
-0.000000000000000000e+00
-0.000000000000000000e+00
2.985598519444465637e-02
0.000000000000000000e+00
1.610725373029708862e-02
4.498244449496269226e-02
3.104012645781040192e-02
-1.540197711437940598e-02
-0.000000000000000000e+00
1.841087825596332550e-02
-6.291922181844711304e-02
-6.393519788980484009e-02
-0.000000000000000000e+00
-3.196244314312934875e-02
-4.715230315923690796e-02
-0.000000000000000000e+00
1.521452516317367554e-02
-0.000000000000000000e+00
0.000000000000000000e+00
4.652112722396850586e-02
1.605287380516529083e-02
-1.420498546212911606e-02
3.655589371919631958e-02
0.000000000000000000e+00
1.858169212937355042e-02
0.000000000000000000e+00
0.000000000000000000e+00
-1.732214353978633881e-02
-0.000000000000000000e+00
0.000000000000000000e+00
-0.000000000000000000e+00
-1.245824247598648071e-02
-0.000000000000000000e+00
-3.023485839366912842e-02
-0.000000000000000000e+00
-1.446605566889047623e-02
-0.000000000000000000e+00
-2.120842412114143372e-02
-1.448096707463264465e-02
1.688180677592754364e-02
-0.000000000000000000e+00
3.089728765189647675e-02
3.368084132671356201e-02
-0.000000000000000000e+00
-0.000000000000000000e+00
-1.198639255017042160e-02
1.506054494529962540e-02
0.000000000000000000e+00
0.000000000000000000e+00
1.896253786981105804e-02
1.388433575630187988e-02
-0.000000000000000000e+00
-2.050937712192535400e-02
-2.525789104402065277e-02
-1.501282956451177597e-02
-2.204785868525505066e-02
-1.557913515716791153e-02
-1.859912462532520294e-02
-1.399136241525411606e-02
-1.929493062198162079e-02
-0.000000000000000000e+00
-2.185727655887603760e-02
1.775631867349147797e-02
1.265909522771835327e-02
-2.594341151416301727e-02
1.380383688956499100e-02
1.312419120222330093e-02
-1.559208892285823822e-02
-1.500375010073184967e-02
-1.353291980922222137e-02
0.000000000000000000e+00
2.343150228261947632e-02
0.000000000000000000e+00
1.696771569550037384e-02
2.542336285114288330e-02
0.000000000000000000e+00
-2.377679757773876190e-02
1.460079289972782135e-02
2.391903288662433624e-02
-1.792202517390251160e-02
-1.419241819530725479e-02
-2.658925019204616547e-02
-0.000000000000000000e+00
0.000000000000000000e+00
0.000000000000000000e+00
0.000000000000000000e+00
1.453098841011524200e-02
2.042524889111518860e-02
-1.344644930213689804e-02
-0.000000000000000000e+00
-1.303960196673870087e-02
-1.703406125307083130e-02
-2.601190656423568726e-02
-1.737635210156440735e-02
-0.000000000000000000e+00
-0.000000000000000000e+00
-1.501144096255302429e-02
-1.477575767785310745e-02
-0.000000000000000000e+00
-0.000000000000000000e+00
-3.949621319770812988e-02
-2.060403302311897278e-02
0.000000000000000000e+00
-0.000000000000000000e+00
0.000000000000000000e+00
1.919459924101829529e-02
3.467224910855293274e-02
0.000000000000000000e+00
0.000000000000000000e+00
-0.000000000000000000e+00
2.574848383665084839e-02
3.106754273176193237e-02
-0.000000000000000000e+00
1.315979287028312683e-02
2.348929271101951599e-02
1.731096208095550537e-02
0.000000000000000000e+00
0.000000000000000000e+00
0.000000000000000000e+00
-0.000000000000000000e+00
1.591383293271064758e-02
2.577862702310085297e-02
0.000000000000000000e+00
-0.000000000000000000e+00
-0.000000000000000000e+00
-1.729435473680496216e-02
-1.179734710603952408e-02
-2.138414978981018066e-02
-2.449049800634384155e-02
-0.000000000000000000e+00
0.000000000000000000e+00
2.372043207287788391e-02
1.311956997960805893e-02
1.690932735800743103e-02
0.000000000000000000e+00
1.278725359588861465e-02
0.000000000000000000e+00
1.385461352765560150e-02
0.000000000000000000e+00
0.000000000000000000e+00
0.000000000000000000e+00
0.000000000000000000e+00
-1.723758876323699951e-02
-6.034795939922332764e-02
-5.987048894166946411e-02
-3.930456191301345825e-02
-7.952526956796646118e-02
-8.081177622079849243e-02
-2.486216463148593903e-02
-4.467805474996566772e-02
-4.442637413740158081e-02
-0.000000000000000000e+00
-2.064434625208377838e-02
-4.592381417751312256e-02
0.000000000000000000e+00
0.000000000000000000e+00
-0.000000000000000000e+00
-0.000000000000000000e+00
-1.192770432680845261e-02
-0.000000000000000000e+00
-1.850858889520168304e-02
0.000000000000000000e+00
-2.110456116497516632e-02
-2.844797633588314056e-02
-0.000000000000000000e+00
0.000000000000000000e+00
0.000000000000000000e+00
0.000000000000000000e+00
1.762850768864154816e-02
-3.426437824964523315e-02
-1.794512011110782623e-02
0.000000000000000000e+00
-2.892067842185497284e-02
-1.851716823875904083e-02
-1.835627853870391846e-02
-2.275433763861656189e-02
-2.195181325078010559e-02
-3.712709620594978333e-02
-0.000000000000000000e+00
1.823053881525993347e-02
5.504669994115829468e-02
2.876569703221321106e-02
0.000000000000000000e+00
2.718002721667289734e-02
3.362609073519706726e-02
2.374328486621379852e-02
1.290441490709781647e-02
-1.607193052768707275e-02
-1.561913918703794479e-02
-1.541938167065382004e-02
-2.758651785552501678e-02
-0.000000000000000000e+00
-1.854529976844787598e-02
-0.000000000000000000e+00
-0.000000000000000000e+00
-1.812402717769145966e-02
0.000000000000000000e+00
-1.328628882765769958e-02
-1.200074981898069382e-02
0.000000000000000000e+00
-1.202945597469806671e-02
-0.000000000000000000e+00
0.000000000000000000e+00
1.240621879696846008e-02
2.750692702829837799e-02
2.485424280166625977e-02
2.808797918260097504e-02
3.849269449710845947e-02
0.000000000000000000e+00
3.175836801528930664e-02
6.235584244132041931e-02
-0.000000000000000000e+00
0.000000000000000000e+00
3.322154656052589417e-02
-0.000000000000000000e+00
0.000000000000000000e+00
-0.000000000000000000e+00
-0.000000000000000000e+00
-0.000000000000000000e+00
-0.000000000000000000e+00
1.837949454784393311e-02
2.204397693276405334e-02
-0.000000000000000000e+00
-1.297229994088411331e-02
0.000000000000000000e+00
0.000000000000000000e+00
-0.000000000000000000e+00
-2.304358594119548798e-02
-0.000000000000000000e+00
-0.000000000000000000e+00
-2.802923694252967834e-02
0.000000000000000000e+00
1.267193071544170380e-02
2.425124123692512512e-02
0.000000000000000000e+00
0.000000000000000000e+00
3.157452866435050964e-02
0.000000000000000000e+00
3.078205324709415436e-02
3.907867893576622009e-02
3.420445695519447327e-02
-0.000000000000000000e+00
0.000000000000000000e+00
-2.180508337914943695e-02
0.000000000000000000e+00
3.023025766015052795e-02
0.000000000000000000e+00
0.000000000000000000e+00
1.518570072948932648e-02
-0.000000000000000000e+00
2.687165513634681702e-02
-0.000000000000000000e+00
0.000000000000000000e+00
7.139487564563751221e-02
2.108433842658996582e-02
-1.350404880940914154e-02
4.944352433085441589e-02
0.000000000000000000e+00
-3.940124437212944031e-02
-0.000000000000000000e+00
0.000000000000000000e+00
0.000000000000000000e+00
2.073450200259685516e-02
0.000000000000000000e+00
0.000000000000000000e+00
3.411490842700004578e-02
0.000000000000000000e+00
-0.000000000000000000e+00
-1.743842661380767822e-02
0.000000000000000000e+00
0.000000000000000000e+00
-0.000000000000000000e+00
0.000000000000000000e+00
1.546017825603485107e-02
1.406699419021606445e-02
1.547849643975496292e-02
0.000000000000000000e+00
-0.000000000000000000e+00
0.000000000000000000e+00
0.000000000000000000e+00
-1.543411705642938614e-02
1.612356677651405334e-02
2.131786383688449860e-02
-0.000000000000000000e+00
2.770713903009891510e-02
0.000000000000000000e+00
0.000000000000000000e+00
-2.459272556006908417e-02
0.000000000000000000e+00
0.000000000000000000e+00
-1.688239537179470062e-02
0.000000000000000000e+00
1.845722086727619171e-02
-0.000000000000000000e+00
1.888569630682468414e-02
2.520842291414737701e-02
-0.000000000000000000e+00
0.000000000000000000e+00
4.777980968356132507e-02
-0.000000000000000000e+00
-4.085496068000793457e-02
2.245269156992435455e-02
-1.960129477083683014e-02
-2.865900844335556030e-02
1.262322068214416504e-02
-1.926676370203495026e-02
-2.417607046663761139e-02
1.341847702860832214e-02
-1.634430512785911560e-02
-3.066887706518173218e-02
2.565658092498779297e-02
0.000000000000000000e+00
-0.000000000000000000e+00
-2.000916004180908203e-02
3.490003570914268494e-02
2.666028589010238647e-02
-2.528645843267440796e-02
1.550462562590837479e-02
0.000000000000000000e+00
-2.060301601886749268e-02
-1.537056453526020050e-02
-1.696406491100788116e-02
0.000000000000000000e+00
2.504756301641464233e-02
2.961047366261482239e-02
3.062531538307666779e-02
0.000000000000000000e+00
-1.886296644806861877e-02
-0.000000000000000000e+00
-6.137636676430702209e-02
-4.363481327891349792e-02
0.000000000000000000e+00
-1.546150539070367813e-02
0.000000000000000000e+00
1.746507920324802399e-02
-1.242649368941783905e-02
0.000000000000000000e+00
1.425297744572162628e-02
-1.245697587728500366e-02
0.000000000000000000e+00
1.206753309816122055e-02
2.072805352509021759e-02
1.839904673397541046e-02
1.314503792673349380e-02
3.768587484955787659e-02
0.000000000000000000e+00
-0.000000000000000000e+00
2.250526286661624908e-02
0.000000000000000000e+00
-0.000000000000000000e+00
-0.000000000000000000e+00
-0.000000000000000000e+00
0.000000000000000000e+00
-0.000000000000000000e+00
-1.366277504712343216e-02
6.606169044971466064e-02
7.149573415517807007e-02
5.709486827254295349e-02
-0.000000000000000000e+00
-0.000000000000000000e+00
-2.372836694121360779e-02
0.000000000000000000e+00
0.000000000000000000e+00
-2.456397004425525665e-02
1.998075842857360840e-02
1.756352558732032776e-02
-1.233027596026659012e-02
-1.742544211447238922e-02
-0.000000000000000000e+00
3.519912809133529663e-02
-0.000000000000000000e+00
-1.981741935014724731e-02
4.165323451161384583e-02
-1.561573706567287445e-02
-2.034618332982063293e-02
6.387913227081298828e-02
-2.723369561135768890e-02
-3.386779129505157471e-02
-4.771206527948379517e-02
-1.390141248703002930e-02
0.000000000000000000e+00
-0.000000000000000000e+00
-1.274912618100643158e-02
0.000000000000000000e+00
0.000000000000000000e+00
2.874027006328105927e-02
-0.000000000000000000e+00
-0.000000000000000000e+00
0.000000000000000000e+00
-0.000000000000000000e+00
-0.000000000000000000e+00
-0.000000000000000000e+00
3.018038906157016754e-02
1.199707202613353729e-02
-0.000000000000000000e+00
-1.280987076461315155e-02
0.000000000000000000e+00
-0.000000000000000000e+00
0.000000000000000000e+00
4.202231392264366150e-02
0.000000000000000000e+00
4.016206786036491394e-02
8.323534578084945679e-02
-0.000000000000000000e+00
-0.000000000000000000e+00
-0.000000000000000000e+00
2.167440950870513916e-02
-0.000000000000000000e+00
-2.123621292412281036e-02
3.846767172217369080e-02
-2.271199040114879608e-02
-3.183595836162567139e-02
0.000000000000000000e+00
-0.000000000000000000e+00
1.194054353982210159e-02
-3.489255160093307495e-02
-3.888970986008644104e-02
-2.359709516167640686e-02
0.000000000000000000e+00
0.000000000000000000e+00
-0.000000000000000000e+00
-1.440925896167755127e-02
-1.211143191903829575e-02
0.000000000000000000e+00
0.000000000000000000e+00
-0.000000000000000000e+00
-2.638278529047966003e-02
1.210187561810016632e-02
2.416146546602249146e-02
-1.787296868860721588e-02
-0.000000000000000000e+00
-0.000000000000000000e+00
0.000000000000000000e+00
-1.489822007715702057e-02
-2.897791005671024323e-02
-1.891426928341388702e-02
-1.816537790000438690e-02
-4.509235173463821411e-02
-2.954680845141410828e-02
2.116272971034049988e-02
0.000000000000000000e+00
-0.000000000000000000e+00
2.711863070726394653e-02
0.000000000000000000e+00
-2.619178965687751770e-02
4.415043443441390991e-02
3.422892093658447266e-02
1.466654241085052490e-02
0.000000000000000000e+00
0.000000000000000000e+00
-0.000000000000000000e+00
-0.000000000000000000e+00
-1.726473495364189148e-02
-0.000000000000000000e+00
0.000000000000000000e+00
-0.000000000000000000e+00
-0.000000000000000000e+00
2.494519762694835663e-02
-0.000000000000000000e+00
0.000000000000000000e+00
3.461287915706634521e-02
3.584370017051696777e-02
2.629310637712478638e-02
0.000000000000000000e+00
2.693208120763301849e-02
1.996731571853160858e-02
-1.390120014548301697e-02
-1.991617120802402496e-02
-1.601978763937950134e-02
-3.036519512534141541e-02
-5.446189269423484802e-02
-2.744369953870773315e-02
-2.729459106922149658e-02
-5.074409767985343933e-02
-1.411763951182365417e-02
3.134548291563987732e-02
1.858262158930301666e-02
0.000000000000000000e+00
0.000000000000000000e+00
1.713337004184722900e-02
-0.000000000000000000e+00
-2.933994308114051819e-02
-1.480660215020179749e-02
-0.000000000000000000e+00
0.000000000000000000e+00
-0.000000000000000000e+00
-0.000000000000000000e+00
0.000000000000000000e+00
0.000000000000000000e+00
0.000000000000000000e+00
-2.619486674666404724e-02
-0.000000000000000000e+00
2.251686714589595795e-02
-2.155900560319423676e-02
-0.000000000000000000e+00
0.000000000000000000e+00
-0.000000000000000000e+00
-0.000000000000000000e+00
-0.000000000000000000e+00
1.736664585769176483e-02
2.566447854042053223e-02
-0.000000000000000000e+00
-1.588615775108337402e-02
0.000000000000000000e+00
3.856159374117851257e-02
0.000000000000000000e+00
4.216568544507026672e-02
2.675125375390052795e-02
0.000000000000000000e+00
2.163912728428840637e-02
1.623167283833026886e-02
-0.000000000000000000e+00
-0.000000000000000000e+00
-1.922899298369884491e-02
2.385573089122772217e-02
1.275654416531324387e-02
-2.069224603474140167e-02
1.393112912774085999e-02
6.067967042326927185e-02
2.082991972565650940e-02
0.000000000000000000e+00
2.057927288115024567e-02
0.000000000000000000e+00
3.381165862083435059e-02
0.000000000000000000e+00
4.049719870090484619e-02
-0.000000000000000000e+00
1.215232722461223602e-02
2.779209986329078674e-02
-2.686283923685550690e-02
-1.974380761384963989e-02
-1.715030707418918610e-02
-5.166907235980033875e-02
-3.463540971279144287e-02
-4.121915623545646667e-02
-2.281457558274269104e-02
-0.000000000000000000e+00
-2.392935939133167267e-02
0.000000000000000000e+00
4.144802689552307129e-02
-0.000000000000000000e+00
-1.197072211652994156e-02
4.008199647068977356e-02
-1.218283548951148987e-02
-0.000000000000000000e+00
1.779700256884098053e-02
-0.000000000000000000e+00
0.000000000000000000e+00
2.724918536841869354e-02
-0.000000000000000000e+00
3.480782359838485718e-02
2.974018082022666931e-02
-2.925425581634044647e-02
2.219074219465255737e-02
0.000000000000000000e+00
-0.000000000000000000e+00
-1.388430781662464142e-02
2.713149040937423706e-02
-1.759468764066696167e-02
2.965372800827026367e-02
4.254145175218582153e-02
1.840274035930633545e-02
0.000000000000000000e+00
2.372904494404792786e-02
0.000000000000000000e+00
1.611965894699096680e-02
4.751911759376525879e-02
0.000000000000000000e+00
4.364128410816192627e-02
9.068089723587036133e-02
3.286260738968849182e-02
0.000000000000000000e+00
3.328996896743774414e-02
1.222851220518350601e-02
-3.087702952325344086e-02
0.000000000000000000e+00
-3.058641776442527771e-02
1.617254503071308136e-02
-0.000000000000000000e+00
1.263253763318061829e-02
5.456398800015449524e-02
1.746002957224845886e-02
2.913554012775421143e-02
-2.111355215311050415e-02
0.000000000000000000e+00
3.294250369071960449e-02
-2.945689484477043152e-02
0.000000000000000000e+00
3.330999240279197693e-02
-1.780377887189388275e-02
0.000000000000000000e+00
1.420794054865837097e-02
0.000000000000000000e+00
2.348116226494312286e-02
2.518913336098194122e-02
0.000000000000000000e+00
0.000000000000000000e+00
1.231135707348585129e-02
2.129743620753288269e-02
2.868582494556903839e-02
-0.000000000000000000e+00
0.000000000000000000e+00
2.019102685153484344e-02
0.000000000000000000e+00
-0.000000000000000000e+00
-0.000000000000000000e+00
-1.872451044619083405e-02
-0.000000000000000000e+00
0.000000000000000000e+00
-0.000000000000000000e+00
1.812431402504444122e-02
-1.797674037516117096e-02
-2.822819724678993225e-02
0.000000000000000000e+00
-3.737489134073257446e-02
-2.032857201993465424e-02
2.334845066070556641e-02
-0.000000000000000000e+00
-2.123172767460346222e-02
-1.832052879035472870e-02
-1.413853745907545090e-02
-1.240181457251310349e-02
-4.374343529343605042e-02
-3.066241554915904999e-02
-3.823963925242424011e-02
-2.003704942762851715e-02
-2.698134817183017731e-02
-3.191298991441726685e-02
1.714777573943138123e-02
0.000000000000000000e+00
-0.000000000000000000e+00
2.055028825998306274e-02
3.570859879255294800e-02
2.319870144128799438e-02
0.000000000000000000e+00
3.658708184957504272e-02
2.431832998991012573e-02
-0.000000000000000000e+00
0.000000000000000000e+00
1.921297609806060791e-02
-2.968169189989566803e-02
-0.000000000000000000e+00
3.126981481909751892e-02
-2.221253141760826111e-02
0.000000000000000000e+00
3.635455295443534851e-02
0.000000000000000000e+00
-0.000000000000000000e+00
-0.000000000000000000e+00
0.000000000000000000e+00
-2.143598347902297974e-02
-0.000000000000000000e+00
0.000000000000000000e+00
-2.513259649276733398e-02
-0.000000000000000000e+00
-0.000000000000000000e+00
2.698211744427680969e-02
2.166158147156238556e-02
-4.404203966259956360e-02
1.382709480822086334e-02
4.907249286770820618e-02
-2.329503372311592102e-02
-3.383032605051994324e-02
0.000000000000000000e+00
0.000000000000000000e+00
-2.521316148340702057e-02
-1.801674440503120422e-02
-1.653464324772357941e-02
-1.769741252064704895e-02
0.000000000000000000e+00
0.000000000000000000e+00
3.186928108334541321e-02
5.171982198953628540e-02
-0.000000000000000000e+00
-1.799978315830230713e-02
-2.279166691005229950e-02
0.000000000000000000e+00
-1.354818418622016907e-02
-1.855696178972721100e-02
0.000000000000000000e+00
-0.000000000000000000e+00
2.146187238395214081e-02
-0.000000000000000000e+00
4.629562795162200928e-02
-0.000000000000000000e+00
1.281347963958978653e-02
5.665658786892890930e-02
-0.000000000000000000e+00
-0.000000000000000000e+00
-0.000000000000000000e+00
-0.000000000000000000e+00
-0.000000000000000000e+00
0.000000000000000000e+00
0.000000000000000000e+00
1.818759180605411530e-02
1.294455304741859436e-02
-0.000000000000000000e+00
1.744924858212471008e-02
3.420449793338775635e-02
-2.566608414053916931e-02
0.000000000000000000e+00
0.000000000000000000e+00
-0.000000000000000000e+00
0.000000000000000000e+00
0.000000000000000000e+00
-0.000000000000000000e+00
-0.000000000000000000e+00
0.000000000000000000e+00
-0.000000000000000000e+00
2.228748239576816559e-02
-1.248990464955568314e-02
-3.670096769928932190e-02
-1.410888787358999252e-02
-3.225874900817871094e-02
-3.892759233713150024e-02
-2.798587642610073090e-02
-2.137229964137077332e-02
-0.000000000000000000e+00
-0.000000000000000000e+00
0.000000000000000000e+00
-0.000000000000000000e+00
-2.050209231674671173e-02
-0.000000000000000000e+00
0.000000000000000000e+00
-0.000000000000000000e+00
0.000000000000000000e+00
0.000000000000000000e+00
-2.917998842895030975e-02
-3.683583065867424011e-02
-2.014446444809436798e-02
-0.000000000000000000e+00
-0.000000000000000000e+00
0.000000000000000000e+00
-0.000000000000000000e+00
4.816765710711479187e-02
6.614368408918380737e-02
-2.421507611870765686e-02
-3.032507002353668213e-02
0.000000000000000000e+00
-0.000000000000000000e+00
0.000000000000000000e+00
0.000000000000000000e+00
1.172097772359848022e-02
3.513661026954650879e-02
3.553310409188270569e-02
2.314168401062488556e-02
0.000000000000000000e+00
-1.521731913089752197e-02
0.000000000000000000e+00
1.285903807729482651e-02
-0.000000000000000000e+00
0.000000000000000000e+00
0.000000000000000000e+00
2.320597879588603973e-02
0.000000000000000000e+00
1.660375297069549561e-02
2.517713978886604309e-02
-1.612395793199539185e-02
1.196616888046264648e-02
4.665821418166160583e-02
-1.209040544927120209e-02
-3.822605684399604797e-02
-1.620964333415031433e-02
3.481991589069366455e-02
2.086798287928104401e-02
0.000000000000000000e+00
2.997555956244468689e-02
5.401165038347244263e-02
0.000000000000000000e+00
1.690085604786872864e-02
-0.000000000000000000e+00
-0.000000000000000000e+00
-2.463922463357448578e-02
-3.642485663294792175e-02
-2.027977630496025085e-02
0.000000000000000000e+00
-1.582838967442512512e-02
-0.000000000000000000e+00
3.520125150680541992e-02
2.924145013093948364e-02
4.871781542897224426e-02
-1.254132669419050217e-02
-4.733665660023689270e-02
-4.508752003312110901e-02
-0.000000000000000000e+00
-5.680908635258674622e-02
-4.308635741472244263e-02
0.000000000000000000e+00
0.000000000000000000e+00
-0.000000000000000000e+00
0.000000000000000000e+00
0.000000000000000000e+00
0.000000000000000000e+00
0.000000000000000000e+00
0.000000000000000000e+00
0.000000000000000000e+00
-1.170722488313913345e-02
-0.000000000000000000e+00
-1.404670719057321548e-02
-3.750330954790115356e-02
-1.365771517157554626e-02
1.870068162679672241e-02
-3.774515539407730103e-02
-2.273989655077457428e-02
1.431871671229600906e-02
-2.778768539428710938e-02
1.231225486844778061e-02
1.450870092958211899e-02
2.153482101857662201e-02
2.092502079904079437e-02
1.203041151165962219e-02
0.000000000000000000e+00
-2.207196876406669617e-02
-0.000000000000000000e+00
0.000000000000000000e+00
0.000000000000000000e+00
2.493091113865375519e-02
-0.000000000000000000e+00
0.000000000000000000e+00
-1.591120660305023193e-02
0.000000000000000000e+00
1.992445625364780426e-02
0.000000000000000000e+00
-2.506283670663833618e-02
-0.000000000000000000e+00
0.000000000000000000e+00
-1.333376485854387283e-02
2.031329832971096039e-02
0.000000000000000000e+00
0.000000000000000000e+00
0.000000000000000000e+00
-0.000000000000000000e+00
-0.000000000000000000e+00
-0.000000000000000000e+00
-0.000000000000000000e+00
0.000000000000000000e+00
3.906758129596710205e-02
0.000000000000000000e+00
0.000000000000000000e+00
2.638551220297813416e-02
-1.771413721144199371e-02
1.387541554868221283e-02
2.384118549525737762e-02
-0.000000000000000000e+00
-0.000000000000000000e+00
1.393352355808019638e-02
-1.240857131779193878e-02
-0.000000000000000000e+00
1.204689498990774155e-02
-0.000000000000000000e+00
-3.690743073821067810e-02
-2.717350609600543976e-02
-3.116152249276638031e-02
0.000000000000000000e+00
0.000000000000000000e+00
0.000000000000000000e+00
-0.000000000000000000e+00
-2.042500115931034088e-02
-2.829318679869174957e-02
1.404978800565004349e-02
-0.000000000000000000e+00
-2.410802617669105530e-02
0.000000000000000000e+00
0.000000000000000000e+00
0.000000000000000000e+00
0.000000000000000000e+00
-0.000000000000000000e+00
-0.000000000000000000e+00
-0.000000000000000000e+00
-1.183677092194557190e-02
-0.000000000000000000e+00
0.000000000000000000e+00
-2.500318177044391632e-02
-0.000000000000000000e+00
-2.208859845995903015e-02
-7.044295966625213623e-02
-1.641991734504699707e-02
-0.000000000000000000e+00
-6.023347750306129456e-02
-2.518143691122531891e-02
-0.000000000000000000e+00
-0.000000000000000000e+00
4.567729309201240540e-02
1.850769482553005219e-02
-1.173462066799402237e-02
-1.632214337587356567e-02
1.976855471730232239e-02
1.706301979720592499e-02
-1.509256288409233093e-02
0.000000000000000000e+00
2.709393575787544250e-02
1.581180468201637268e-02
2.914849482476711273e-02
7.001703977584838867e-02
1.410310063511133194e-02
2.617648988962173462e-02
4.077416285872459412e-02
2.617202885448932648e-02
-1.528819557279348373e-02
-0.000000000000000000e+00
0.000000000000000000e+00
-3.000316582620143890e-02
-0.000000000000000000e+00
-1.785039156675338745e-02
-5.740603432059288025e-02
-2.760512195527553558e-02
-4.025479033589363098e-02
-1.677658036351203918e-02
0.000000000000000000e+00
0.000000000000000000e+00
-2.316870912909507751e-02
-1.988658867776393890e-02
0.000000000000000000e+00
-2.641607634723186493e-02
-2.305839583277702332e-02
-0.000000000000000000e+00
-0.000000000000000000e+00
0.000000000000000000e+00
-1.820500940084457397e-02
-2.282366156578063965e-02
2.004775591194629669e-02
-2.888168580830097198e-02
-3.075591474771499634e-02
4.104623943567276001e-02
-0.000000000000000000e+00
-2.156585641205310822e-02
-5.609997734427452087e-02
-3.339653462171554565e-02
-0.000000000000000000e+00
-1.645753718912601471e-02
-2.293778583407402039e-02
-0.000000000000000000e+00
-0.000000000000000000e+00
-2.108064852654933929e-02
2.575166523456573486e-02
3.099697083234786987e-02
0.000000000000000000e+00
-1.422610785812139511e-02
-1.615986414253711700e-02
-1.939437165856361389e-02
-0.000000000000000000e+00
0.000000000000000000e+00
4.004081711173057556e-02
-2.353589050471782684e-02
-2.405350655317306519e-02
-2.046172320842742920e-02
-0.000000000000000000e+00
-4.170520976185798645e-02
-2.055548690259456635e-02
3.238024562597274780e-02
0.000000000000000000e+00
1.622085832059383392e-02
0.000000000000000000e+00
0.000000000000000000e+00
0.000000000000000000e+00
0.000000000000000000e+00
-0.000000000000000000e+00
0.000000000000000000e+00
-0.000000000000000000e+00
-0.000000000000000000e+00
0.000000000000000000e+00
-0.000000000000000000e+00
0.000000000000000000e+00
0.000000000000000000e+00
-0.000000000000000000e+00
-0.000000000000000000e+00
-2.067597769200801849e-02
1.850360073149204254e-02
2.832928113639354706e-02
-2.818944491446018219e-02
-4.952463135123252869e-02
-4.649793356657028198e-02
-5.991625413298606873e-02
-2.666979655623435974e-02
-1.907869242131710052e-02
-2.941866964101791382e-02
-0.000000000000000000e+00
1.940505951642990112e-02
0.000000000000000000e+00
1.429342757910490036e-02
1.564260572195053101e-02
0.000000000000000000e+00
0.000000000000000000e+00
0.000000000000000000e+00
-0.000000000000000000e+00
-1.352205686271190643e-02
-0.000000000000000000e+00
-0.000000000000000000e+00
-3.090821765363216400e-02
-1.983851566910743713e-02
-1.937521062791347504e-02
-0.000000000000000000e+00
-2.429358661174774170e-02
0.000000000000000000e+00
-1.927513256669044495e-02
-2.970716170966625214e-02
-1.562313362956047058e-02
-4.921208322048187256e-02
-2.958790399134159088e-02
8.802346885204315186e-02
0.000000000000000000e+00
4.356384277343750000e-02
9.311515837907791138e-02
7.408293336629867554e-02
4.286789894104003906e-02
-5.103307589888572693e-02
0.000000000000000000e+00
2.167611196637153625e-02
-0.000000000000000000e+00
1.928588375449180603e-02
0.000000000000000000e+00
-0.000000000000000000e+00
3.107497654855251312e-02
-0.000000000000000000e+00
-2.760298736393451691e-02
6.009567528963088989e-02
-2.935870178043842316e-02
-5.891129001975059509e-02
-1.913305558264255524e-02
-8.162416517734527588e-02
-2.255258150398731232e-02
0.000000000000000000e+00
2.509242855012416840e-02
1.213008351624011993e-02
-4.547249898314476013e-02
-4.604382067918777466e-02
-0.000000000000000000e+00
-2.629225514829158783e-02
-2.104377001523971558e-02
-0.000000000000000000e+00
5.068641901016235352e-02
0.000000000000000000e+00
-2.109635993838310242e-02
-0.000000000000000000e+00
0.000000000000000000e+00
-1.759619079530239105e-02
2.605853416025638580e-02
-1.931241527199745178e-02
-1.454440690577030182e-02
2.309747412800788879e-02
-0.000000000000000000e+00
2.920132875442504883e-02
5.104679986834526062e-02
6.316049396991729736e-02
-0.000000000000000000e+00
2.386398054659366608e-02
-0.000000000000000000e+00
0.000000000000000000e+00
3.801059350371360779e-02
-2.548307925462722778e-02
0.000000000000000000e+00
0.000000000000000000e+00
0.000000000000000000e+00
0.000000000000000000e+00
1.339744497090578079e-02
-1.471906807273626328e-02
-1.234952360391616821e-02
1.359090115875005722e-02
-0.000000000000000000e+00
-0.000000000000000000e+00
-2.057742699980735779e-02
-0.000000000000000000e+00
-0.000000000000000000e+00
-2.784539200365543365e-02
-1.697598397731781006e-02
-0.000000000000000000e+00
-0.000000000000000000e+00
1.446872204542160034e-02
2.013783715665340424e-02
-0.000000000000000000e+00
8.080129325389862061e-02
-5.724135786294937134e-02
0.000000000000000000e+00
2.515471540391445160e-02
-3.901554271578788757e-02
-2.804064750671386719e-02
-1.753776520490646362e-02
-3.527730703353881836e-02
-0.000000000000000000e+00
1.447525806725025177e-02
-1.477873791009187698e-02
-0.000000000000000000e+00
1.221308112144470215e-02
-0.000000000000000000e+00
0.000000000000000000e+00
0.000000000000000000e+00
-0.000000000000000000e+00
0.000000000000000000e+00
-1.436173077672719955e-02
1.420147623866796494e-02
0.000000000000000000e+00
-1.592032052576541901e-02
0.000000000000000000e+00
-0.000000000000000000e+00
-2.750985324382781982e-02
-1.403536740690469742e-02
-4.559037089347839355e-02
5.134302377700805664e-02
0.000000000000000000e+00
-2.266470342874526978e-02
9.475278854370117188e-02
1.216620579361915588e-02
0.000000000000000000e+00
6.564748287200927734e-02
-1.399865839630365372e-02
0.000000000000000000e+00
-3.388807922601699829e-02
-2.702741883695125580e-02
1.625367999076843262e-02
-2.018518559634685516e-02
-2.754994668066501617e-02
2.351091615855693817e-02
1.416397839784622192e-02
-3.820894658565521240e-02
0.000000000000000000e+00
-2.428871206939220428e-02
-4.107808694243431091e-02
-0.000000000000000000e+00
-2.292775921523571014e-02
-0.000000000000000000e+00
-3.066662326455116272e-02
-2.007761597633361816e-02
-0.000000000000000000e+00
-0.000000000000000000e+00
-0.000000000000000000e+00
2.160939760506153107e-02
-2.660935185849666595e-02
-2.633194252848625183e-02
2.544746734201908112e-02
-1.935210451483726501e-02
0.000000000000000000e+00
0.000000000000000000e+00
-1.663846708834171295e-02
-1.863035932183265686e-02
2.581094391644001007e-02
-4.645500332117080688e-02
-0.000000000000000000e+00
3.896602615714073181e-02
0.000000000000000000e+00
1.554568111896514893e-02
3.431284800171852112e-02
1.190178189426660538e-02
1.606599427759647369e-02
0.000000000000000000e+00
4.804519191384315491e-02
2.662248536944389343e-02
9.970159828662872314e-02
4.506120085716247559e-02
-2.357222512364387512e-02
8.914297074079513550e-02
0.000000000000000000e+00
2.242023125290870667e-02
1.826554909348487854e-02
-2.997961826622486115e-02
0.000000000000000000e+00
-1.497148443013429642e-02
2.145262435078620911e-02
3.258410096168518066e-02
0.000000000000000000e+00
-1.410084124654531479e-02
-0.000000000000000000e+00
0.000000000000000000e+00
-2.730165980756282806e-02
-4.270800948143005371e-02
1.528907474130392075e-02
-0.000000000000000000e+00
-2.906067296862602234e-02
1.971290446817874908e-02
-3.466247022151947021e-02
-7.119630277156829834e-02
-2.176973037421703339e-02
-0.000000000000000000e+00
-1.819853484630584717e-02
0.000000000000000000e+00
4.463313147425651550e-02
7.867169380187988281e-02
3.801161795854568481e-02
-0.000000000000000000e+00
-0.000000000000000000e+00
-2.070784941315650940e-02
1.470781769603490829e-02
-2.498470433056354523e-02
-0.000000000000000000e+00
0.000000000000000000e+00
-4.287695512175559998e-02
-2.442135103046894073e-02
-0.000000000000000000e+00
-2.486983686685562134e-02
1.245403662323951721e-02
4.511607810854911804e-02
-2.916839160025119781e-02
-0.000000000000000000e+00
7.367512583732604980e-02
-4.160211980342864990e-02
-1.861160434782505035e-02
1.189257018268108368e-02
0.000000000000000000e+00
-0.000000000000000000e+00
5.342850461602210999e-02
-1.668323390185832977e-02
-3.542770817875862122e-02
-2.168563380837440491e-02
-5.959772318601608276e-02
-0.000000000000000000e+00
1.319675613194704056e-02
-1.984286494553089142e-02
2.000972442328929901e-02
0.000000000000000000e+00
2.419039234519004822e-02
6.498584151268005371e-02
2.165041118860244751e-02
1.433633454144001007e-02
2.350496686995029449e-02
-3.169262409210205078e-02
0.000000000000000000e+00
1.644378527998924255e-02
-2.544760890305042267e-02
-2.128727361559867859e-02
-0.000000000000000000e+00
-1.604262180626392365e-02
-3.901096060872077942e-02
-0.000000000000000000e+00
-6.484578549861907959e-02
1.721251569688320160e-02
3.093218803405761719e-02
-5.121488124132156372e-02
-3.479729592800140381e-02
-0.000000000000000000e+00
-2.039776928722858429e-02
-8.203193545341491699e-02
-0.000000000000000000e+00
-2.367311902344226837e-02
0.000000000000000000e+00
-0.000000000000000000e+00
-5.069735646247863770e-02
-2.158175408840179443e-02
-4.110901802778244019e-02
-1.223675999790430069e-02
-0.000000000000000000e+00
-2.644196338951587677e-02
1.582606881856918335e-02
2.811422199010848999e-02
3.444196656346321106e-02
0.000000000000000000e+00
0.000000000000000000e+00
0.000000000000000000e+00
1.358451973646879196e-02
-0.000000000000000000e+00
2.042599767446517944e-02
-2.563686110079288483e-02
-0.000000000000000000e+00
-0.000000000000000000e+00
0.000000000000000000e+00
2.666319534182548523e-02
0.000000000000000000e+00
0.000000000000000000e+00
0.000000000000000000e+00
-2.063858322799205780e-02
1.080128848552703857e-01
-5.598424375057220459e-02
-6.510069966316223145e-02
1.082274466753005981e-01
-4.188075289130210876e-02
6.764104217290878296e-02
-0.000000000000000000e+00
0.000000000000000000e+00
6.263767927885055542e-02
-1.646528393030166626e-02
-3.962882980704307556e-02
-2.639630995690822601e-02
0.000000000000000000e+00
-1.767142862081527710e-02
1.500517968088388443e-02
1.302818860858678818e-02
2.221102453768253326e-02
0.000000000000000000e+00
1.624623127281665802e-02
3.162884712219238281e-02
5.562658980488777161e-02
-0.000000000000000000e+00
-1.312742941081523895e-02
-0.000000000000000000e+00
4.988550767302513123e-02
-4.903045669198036194e-02
2.215856313705444336e-02
0.000000000000000000e+00
-0.000000000000000000e+00
-0.000000000000000000e+00
-0.000000000000000000e+00
-0.000000000000000000e+00
0.000000000000000000e+00
-0.000000000000000000e+00
-1.722261868417263031e-02
0.000000000000000000e+00
-1.951666176319122314e-02
-2.762615866959095001e-02
-0.000000000000000000e+00
-1.505095604807138443e-02
-4.646585881710052490e-02
-3.060199506580829620e-02
0.000000000000000000e+00
-0.000000000000000000e+00
-0.000000000000000000e+00
-1.483880355954170227e-02
-5.291575938463211060e-02
-4.264589771628379822e-02
-3.117960691452026367e-02
-2.479806169867515564e-02
0.000000000000000000e+00
-3.711320087313652039e-02
-2.748300880193710327e-02
6.505003571510314941e-02
0.000000000000000000e+00
-0.000000000000000000e+00
-1.472996361553668976e-02
0.000000000000000000e+00
-1.974456943571567535e-02
1.724791340529918671e-02
2.776201628148555756e-02
0.000000000000000000e+00
3.179316595196723938e-02
-5.839905142784118652e-02
0.000000000000000000e+00
8.502260595560073853e-02
-1.567038148641586304e-02
-0.000000000000000000e+00
4.736488312482833862e-02
-2.679181098937988281e-02
-2.423993498086929321e-02
-0.000000000000000000e+00
-2.490185014903545380e-02
-4.105694219470024109e-02
-1.889464631676673889e-02
1.391536928713321686e-02
-0.000000000000000000e+00
0.000000000000000000e+00
1.457078289240598679e-02
9.213443845510482788e-02
9.525150805711746216e-02
-0.000000000000000000e+00
3.751773759722709656e-02
-0.000000000000000000e+00
0.000000000000000000e+00
5.352100729942321777e-02
-1.938816532492637634e-02
1.679429039359092712e-02
3.085343167185783386e-02
1.620859839022159576e-02
-1.588009111583232880e-02
-4.685193672776222229e-02
-0.000000000000000000e+00
-4.200624302029609680e-02
-5.665848404169082642e-02
-0.000000000000000000e+00
2.130865678191184998e-02
-0.000000000000000000e+00
0.000000000000000000e+00
-4.295063018798828125e-02
1.923923194408416748e-02
0.000000000000000000e+00
-2.392272092401981354e-02
8.794612437486648560e-02
-9.573613852262496948e-02
-1.213561836630105972e-02
1.440099440515041351e-02
-3.326773270964622498e-02
0.000000000000000000e+00
0.000000000000000000e+00
0.000000000000000000e+00
0.000000000000000000e+00
-1.432972960174083710e-02
-0.000000000000000000e+00
-0.000000000000000000e+00
-3.429423272609710693e-02
-0.000000000000000000e+00
-2.945701964199542999e-02
0.000000000000000000e+00
-1.342270709574222565e-02
1.496364269405603409e-02
2.515750937163829803e-02
-4.227063804864883423e-02
0.000000000000000000e+00
-5.979204177856445312e-02
-5.096275359392166138e-02
0.000000000000000000e+00
-0.000000000000000000e+00
0.000000000000000000e+00
-3.931333869695663452e-02
-6.653724610805511475e-02
1.513527147471904755e-02
-1.528439018875360489e-02
-2.877838537096977234e-02
-0.000000000000000000e+00
0.000000000000000000e+00
-0.000000000000000000e+00
-3.090085089206695557e-02
0.000000000000000000e+00
-0.000000000000000000e+00
-2.796239964663982391e-02
-1.774019002914428711e-02
-5.514390021562576294e-02
-1.445936970412731171e-02
1.384859625250101089e-02
8.201503008604049683e-02
6.602683663368225098e-02
0.000000000000000000e+00
9.590680152177810669e-02
5.200331285595893860e-02
3.918749839067459106e-02
3.635302186012268066e-02
0.000000000000000000e+00
-0.000000000000000000e+00
0.000000000000000000e+00
0.000000000000000000e+00
2.489332482218742371e-02
0.000000000000000000e+00
0.000000000000000000e+00
3.078082017600536346e-02
2.372823469340801239e-02
-3.545705229043960571e-02
-0.000000000000000000e+00
-2.919793687760829926e-02
-0.000000000000000000e+00
0.000000000000000000e+00
-1.633211970329284668e-02
1.215689908713102341e-02
-2.543870173394680023e-02
3.193908184766769409e-02
0.000000000000000000e+00
1.346013788133859634e-02
-1.185419317334890366e-02
-0.000000000000000000e+00
-1.176042295992374420e-02
1.857045851647853851e-02
-4.671909287571907043e-02
0.000000000000000000e+00
3.739526495337486267e-02
2.879956737160682678e-02
1.280937623232603073e-02
-1.345837768167257309e-02
2.478833682835102081e-02
1.970288716256618500e-02
0.000000000000000000e+00
7.881049811840057373e-02
-3.468266502022743225e-02
2.732661925256252289e-02
3.735690936446189880e-02
-1.533326599746942520e-02
-4.432641342282295227e-02
-0.000000000000000000e+00
-0.000000000000000000e+00
-4.415539652109146118e-02
1.301942486315965652e-02
1.892708241939544678e-02
1.554853376001119614e-02
-2.606797032058238983e-02
2.740642242133617401e-02
2.866530604660511017e-02
5.286524072289466858e-02
0.000000000000000000e+00
-0.000000000000000000e+00
9.086436033248901367e-02
0.000000000000000000e+00
-4.372896999120712280e-02
3.050720132887363434e-02
-5.080721154808998108e-02
4.754299670457839966e-02
5.262803286314010620e-02
-3.809882700443267822e-02
-2.702749334275722504e-02
1.667713187634944916e-02
-0.000000000000000000e+00
-1.133287474513053894e-01
-4.264803230762481689e-02
8.329470455646514893e-02
8.573454618453979492e-02
-2.673323825001716614e-02
9.945809096097946167e-02
1.132682114839553833e-01
-3.781388327479362488e-02
0.000000000000000000e+00
0.000000000000000000e+00
-2.348827198147773743e-02
1.654761098325252533e-02
1.291243173182010651e-02
2.629292011260986328e-02
1.614922285079956055e-02
2.272471971809864044e-02
2.038240619003772736e-02
1.500105019658803940e-02
2.412557043135166168e-02
3.421598672866821289e-02
0.000000000000000000e+00
-4.138905555009841919e-02
-3.975658491253852844e-02
-0.000000000000000000e+00
-0.000000000000000000e+00
1.705474033951759338e-02
-1.799881085753440857e-02
0.000000000000000000e+00
3.952532634139060974e-02
-2.440934255719184875e-02
-3.736037015914916992e-02
0.000000000000000000e+00
-1.999020762741565704e-02
-4.396585002541542053e-02
1.858797110617160797e-02
1.585014909505844116e-02
-0.000000000000000000e+00
4.771484807133674622e-02
-0.000000000000000000e+00
2.571932785212993622e-02
5.592578649520874023e-02
2.135661058127880096e-02
4.607278853654861450e-02
1.939747855067253113e-02
-1.529187336564064026e-02
1.268255058676004410e-02
4.004786908626556396e-02
0.000000000000000000e+00
-0.000000000000000000e+00
3.995472937822341919e-02
2.605907991528511047e-02
2.992489747703075409e-02
-2.913588657975196838e-02
4.727719724178314209e-02
2.565767802298069000e-02
-5.780474469065666199e-02
0.000000000000000000e+00
4.305566847324371338e-02
1.494026929140090942e-02
-1.317684538662433624e-02
1.224902272224426270e-02
4.505669325590133667e-02
-2.071739360690116882e-02
-0.000000000000000000e+00
-5.176720395684242249e-02
3.047244995832443237e-02
-4.565398022532463074e-02
-2.491869032382965088e-02
-3.519523888826370239e-02
-4.715565219521522522e-02
0.000000000000000000e+00
-0.000000000000000000e+00
-1.603599265217781067e-02
0.000000000000000000e+00
2.605794928967952728e-02
-4.911269992589950562e-02
-3.024948947131633759e-02
3.840032964944839478e-02
-5.368405207991600037e-02
-7.673004269599914551e-02
0.000000000000000000e+00
0.000000000000000000e+00
-7.193676382303237915e-02
-1.363270357251167297e-02
-3.224462270736694336e-02
-2.974769100546836853e-02
-0.000000000000000000e+00
-0.000000000000000000e+00
1.239882316440343857e-02
-2.900352701544761658e-02
-2.180831693112850189e-02
-0.000000000000000000e+00
0.000000000000000000e+00
-0.000000000000000000e+00
0.000000000000000000e+00
2.487964741885662079e-02
1.214230339974164963e-02
1.567748747766017914e-02
-2.059704996645450592e-02
-3.163741901516914368e-02
0.000000000000000000e+00
-0.000000000000000000e+00
-0.000000000000000000e+00
1.225485187023878098e-02
2.661489881575107574e-02
2.868259325623512268e-02
2.467538602650165558e-02
-2.636192925274372101e-02
1.854815706610679626e-02
1.740446314215660095e-02
2.086826227605342865e-02
0.000000000000000000e+00
-1.892461813986301422e-02
0.000000000000000000e+00
0.000000000000000000e+00
-0.000000000000000000e+00
1.213298365473747253e-02
-1.203641854226589203e-02
-2.619548700749874115e-02
-1.897205412387847900e-02
0.000000000000000000e+00
-1.296567451208829880e-02
-2.140494808554649353e-02
0.000000000000000000e+00
-5.625944584608078003e-02
-5.209690332412719727e-02
-0.000000000000000000e+00
-0.000000000000000000e+00
-0.000000000000000000e+00
-3.147530183196067810e-02
2.585340477526187897e-02
-0.000000000000000000e+00
1.270292140543460846e-02
1.770654693245887756e-02
-0.000000000000000000e+00
1.363199576735496521e-02
1.176197174936532974e-02
-6.030650064349174500e-02
-3.965379297733306885e-02
0.000000000000000000e+00
-5.001925304532051086e-02
5.581052973866462708e-02
0.000000000000000000e+00
0.000000000000000000e+00
1.282886415719985962e-01
4.549010097980499268e-02
0.000000000000000000e+00
-0.000000000000000000e+00
-0.000000000000000000e+00
1.590368896722793579e-02
-0.000000000000000000e+00
-2.199239842593669891e-02
-2.966010756790637970e-02
-2.453186362981796265e-02
-1.787205785512924194e-02
0.000000000000000000e+00
2.988853305578231812e-02
1.744691468775272369e-02
1.249165087938308716e-02
5.178701132535934448e-02
-1.894724182784557343e-02
-0.000000000000000000e+00
-2.868945337831974030e-02
-5.236801877617835999e-02
-0.000000000000000000e+00
-2.239084430038928986e-02
-2.726893313229084015e-02
2.223609387874603271e-02
-3.343994542956352234e-02
-1.827652193605899811e-02
0.000000000000000000e+00
-2.779041416943073273e-02
-6.012601032853126526e-02
-4.116964340209960938e-02
-0.000000000000000000e+00
-0.000000000000000000e+00
-3.405964747071266174e-02
-0.000000000000000000e+00
1.320526376366615295e-02
-1.637520827353000641e-02
-0.000000000000000000e+00
1.477822847664356232e-02
-0.000000000000000000e+00
-7.639138400554656982e-02
-1.573320850729942322e-02
3.984802216291427612e-02
-0.000000000000000000e+00
2.204541489481925964e-02
5.998176336288452148e-02
-0.000000000000000000e+00
-2.593501657247543335e-02
0.000000000000000000e+00
-0.000000000000000000e+00
0.000000000000000000e+00
2.032386884093284607e-02
-3.947012871503829956e-02
1.200460921972990036e-02
2.309500798583030701e-02
-1.794880814850330353e-02
0.000000000000000000e+00
1.617076992988586426e-02
2.798645012080669403e-02
2.022768370807170868e-02
4.288879409432411194e-02
7.621125876903533936e-02
1.586574316024780273e-02
2.060641907155513763e-02
-0.000000000000000000e+00
-3.414782881736755371e-02
-1.622653380036354065e-02
-2.171865850687026978e-02
-5.526477470993995667e-02
0.000000000000000000e+00
-6.280665844678878784e-02
1.367831509560346603e-02
-0.000000000000000000e+00
-5.769108235836029053e-02
6.508948653936386108e-02
0.000000000000000000e+00
0.000000000000000000e+00
-0.000000000000000000e+00
0.000000000000000000e+00
2.336783148348331451e-02
1.741150207817554474e-02
-2.207042463123798370e-02
5.061279982328414917e-02
3.887467086315155029e-02
1.975892297923564911e-02
-5.058728531002998352e-02
-3.285855799913406372e-02
0.000000000000000000e+00
-0.000000000000000000e+00
0.000000000000000000e+00
4.797074943780899048e-02
4.312342032790184021e-02
4.042089730501174927e-02
-0.000000000000000000e+00
-0.000000000000000000e+00
-2.844423614442348480e-02
-4.466856271028518677e-02
-7.735342532396316528e-02
-3.399977833032608032e-02
-5.796213820576667786e-02
-4.233825206756591797e-02
-0.000000000000000000e+00
0.000000000000000000e+00
0.000000000000000000e+00
0.000000000000000000e+00
-2.660324797034263611e-02
-2.617057412862777710e-02
-4.345130920410156250e-02
-4.966145008802413940e-02
-5.397928133606910706e-02
-1.882094517350196838e-02
0.000000000000000000e+00
-1.892723888158798218e-02
-1.919424347579479218e-02
1.793671771883964539e-02
-0.000000000000000000e+00
1.486613601446151733e-02
3.703412786126136780e-02
1.377129275351762772e-02
2.329905331134796143e-02
-0.000000000000000000e+00
0.000000000000000000e+00
-3.018752485513687134e-02
0.000000000000000000e+00
1.987540163099765778e-02
-3.210663050413131714e-02
3.204419463872909546e-02
0.000000000000000000e+00
-1.331916730850934982e-02
-0.000000000000000000e+00
-2.024194225668907166e-02
0.000000000000000000e+00
-7.507520169019699097e-02
-4.756715148687362671e-02
1.693418622016906738e-02
-4.437352716922760010e-02
-2.961637638509273529e-02
4.506520554423332214e-02
1.395206432789564133e-02
0.000000000000000000e+00
0.000000000000000000e+00
0.000000000000000000e+00
-0.000000000000000000e+00
-2.926146611571311951e-02
-0.000000000000000000e+00
-2.201746031641960144e-02
-1.781866140663623810e-02
1.691580750048160553e-02
1.561775617301464081e-02
-1.708346605300903320e-02
1.512479688972234726e-02
2.019350416958332062e-02
0.000000000000000000e+00
-2.363543398678302765e-02
3.390103578567504883e-02
5.810424312949180603e-02
-2.659632638096809387e-02
-0.000000000000000000e+00
0.000000000000000000e+00
-0.000000000000000000e+00
0.000000000000000000e+00
0.000000000000000000e+00
3.241567686200141907e-02
2.864056639373302460e-02
-1.496062055230140686e-02
1.793848164379596710e-02
-3.403015062212944031e-02
-0.000000000000000000e+00
1.934853941202163696e-02
0.000000000000000000e+00
1.893036440014839172e-02
0.000000000000000000e+00
2.757286652922630310e-02
3.544267266988754272e-02
-0.000000000000000000e+00
-1.992212235927581787e-02
-0.000000000000000000e+00
-0.000000000000000000e+00
-2.215774171054363251e-02
-0.000000000000000000e+00
1.357616856694221497e-02
0.000000000000000000e+00
-1.239879522472620010e-02
1.468871068209409714e-02
-5.654998123645782471e-02
-0.000000000000000000e+00
0.000000000000000000e+00
-5.131697282195091248e-02
5.187625810503959656e-02
1.332211773842573166e-02
5.405410006642341614e-02
6.403345614671707153e-02
-4.566682130098342896e-02
3.220956400036811829e-02
4.509826749563217163e-02
2.288713306188583374e-02
2.501090802252292633e-02
-2.819671668112277985e-02
5.567706003785133362e-02
-2.860505506396293640e-02
3.399300947785377502e-02
-1.739497669041156769e-02
-0.000000000000000000e+00
-3.602160140872001648e-02
1.517507154494524002e-02
-2.216753177344799042e-02
-0.000000000000000000e+00
2.245514094829559326e-02
-0.000000000000000000e+00
-3.110480308532714844e-02
-1.557923667132854462e-02
-1.508374791592359543e-02
-0.000000000000000000e+00
-1.495715137571096420e-02
1.307705417275428772e-02
0.000000000000000000e+00
-4.735914617776870728e-02
0.000000000000000000e+00
1.941448263823986053e-02
0.000000000000000000e+00
1.542449891567230225e-01
5.318272486329078674e-02
-0.000000000000000000e+00
1.422095000743865967e-01
-5.127039924263954163e-02
-4.581438750028610229e-02
2.585796825587749481e-02
-0.000000000000000000e+00
-5.548559129238128662e-02
-6.516653299331665039e-02
0.000000000000000000e+00
-5.351049453020095825e-02
-4.583317413926124573e-02
-0.000000000000000000e+00
1.436085812747478485e-02
3.064707480370998383e-02
-0.000000000000000000e+00
0.000000000000000000e+00
-1.335397455841302872e-02
-2.040614187717437744e-02
-2.899651788175106049e-02
1.546734292060136795e-02
-0.000000000000000000e+00
0.000000000000000000e+00
5.524243414402008057e-02
4.281871393322944641e-02
-2.424758858978748322e-02
-0.000000000000000000e+00
0.000000000000000000e+00
1.524462737143039703e-02
-0.000000000000000000e+00
0.000000000000000000e+00
2.021525613963603973e-02
-0.000000000000000000e+00
-3.758796676993370056e-02
2.543443813920021057e-02
-0.000000000000000000e+00
0.000000000000000000e+00
2.624451369047164917e-02
-1.841953024268150330e-02
-2.224752306938171387e-02
-0.000000000000000000e+00
-3.558804094791412354e-02
-3.698868677020072937e-02
-0.000000000000000000e+00
0.000000000000000000e+00
-2.503507398068904877e-02
0.000000000000000000e+00
0.000000000000000000e+00
-2.290004678070545197e-02
1.689051277935504913e-02
0.000000000000000000e+00
2.078058011829853058e-02
-1.236555911600589752e-02
-0.000000000000000000e+00
-0.000000000000000000e+00
0.000000000000000000e+00
0.000000000000000000e+00
-0.000000000000000000e+00
1.209613028913736343e-02
1.715173572301864624e-02
3.048793599009513855e-02
2.353741042315959930e-02
-1.309814956039190292e-02
-2.671026252210140228e-02
1.853537559509277344e-02
2.001370862126350403e-02
-2.449621260166168213e-02
2.194644883275032043e-02
2.445868961513042450e-02
-2.257434651255607605e-02
-2.781407348811626434e-02
-2.256408147513866425e-02
0.000000000000000000e+00
-2.001847513020038605e-02
3.103829547762870789e-02
0.000000000000000000e+00
0.000000000000000000e+00
4.317814484238624573e-02
-0.000000000000000000e+00
-2.916669659316539764e-02
0.000000000000000000e+00
-3.507740423083305359e-02
2.295189350843429565e-02
7.690859586000442505e-02
1.575719937682151794e-02
1.357901748269796371e-02
4.380152374505996704e-02
3.777476027607917786e-02
-2.980755269527435303e-02
2.120788581669330597e-02
0.000000000000000000e+00
-2.396576106548309326e-02
1.447336189448833466e-02
-1.231030747294425964e-02
0.000000000000000000e+00
2.177278324961662292e-02
0.000000000000000000e+00
0.000000000000000000e+00
0.000000000000000000e+00
0.000000000000000000e+00
3.552951663732528687e-02
0.000000000000000000e+00
-0.000000000000000000e+00
4.269577562808990479e-02
-1.998644135892391205e-02
0.000000000000000000e+00
0.000000000000000000e+00
1.358371600508689880e-02
0.000000000000000000e+00
-0.000000000000000000e+00
3.666181117296218872e-02
0.000000000000000000e+00
0.000000000000000000e+00
-0.000000000000000000e+00
-1.895739324390888214e-02
2.290602400898933411e-02
3.198723867535591125e-02
3.368737548589706421e-02
2.006922848522663116e-02
4.114959016442298889e-02
2.213925495743751526e-02
0.000000000000000000e+00
4.190666601061820984e-02
-2.084144763648509979e-02
-2.345222607254981995e-02
6.383842974901199341e-02
-2.502499893307685852e-02
-0.000000000000000000e+00
-0.000000000000000000e+00
-4.260963946580886841e-02
-0.000000000000000000e+00
-5.360132828354835510e-02
-2.285406738519668579e-02
-1.787029951810836792e-02
0.000000000000000000e+00
-3.022808209061622620e-02
0.000000000000000000e+00
4.171165451407432556e-02
-1.511400379240512848e-02
-2.402082458138465881e-02
-5.061577260494232178e-02
0.000000000000000000e+00
-0.000000000000000000e+00
0.000000000000000000e+00
-3.748501464724540710e-02
0.000000000000000000e+00
1.951836980879306793e-02
-0.000000000000000000e+00
0.000000000000000000e+00
0.000000000000000000e+00
0.000000000000000000e+00
-2.171563170850276947e-02
6.127499043941497803e-02
4.160304367542266846e-02
1.322656217962503433e-02
1.538694053888320923e-01
1.446422096341848373e-02
5.267586559057235718e-02
6.172806397080421448e-02
-4.892027750611305237e-02
2.545142546296119690e-02
3.426973521709442139e-02
-0.000000000000000000e+00
1.463752239942550659e-02
3.765397518873214722e-02
0.000000000000000000e+00
-1.251940988004207611e-02
-1.546938624233007431e-02
-3.100993484258651733e-02
-0.000000000000000000e+00
0.000000000000000000e+00
4.323888570070266724e-02
2.810924686491489410e-02
-0.000000000000000000e+00
5.656400695443153381e-02
-0.000000000000000000e+00
-4.496605321764945984e-02
2.751855179667472839e-02
3.517402708530426025e-02
-6.708047538995742798e-02
-5.736698210239410400e-02
5.285532027482986450e-02
-4.917626827955245972e-02
-4.202191904187202454e-02
1.786245219409465790e-02
-4.563859477639198303e-02
-5.278168246150016785e-02
-3.145166113972663879e-02
-0.000000000000000000e+00
-3.771969303488731384e-02
0.000000000000000000e+00
1.353346742689609528e-02
0.000000000000000000e+00
2.608390897512435913e-02
5.146159976720809937e-02
3.412962704896926880e-02
-5.243929848074913025e-02
-2.330500446259975433e-02
1.548645831644535065e-02
-4.670050367712974548e-02
-3.424914181232452393e-02
0.000000000000000000e+00
-3.578338027000427246e-02
0.000000000000000000e+00
5.131157115101814270e-02
3.065003827214241028e-02
1.510699186474084854e-02
-3.579441830515861511e-02
7.316996902227401733e-02
-0.000000000000000000e+00
-5.838231369853019714e-02
5.047454684972763062e-02
-0.000000000000000000e+00
-5.715157836675643921e-02
2.722091786563396454e-02
-0.000000000000000000e+00
0.000000000000000000e+00
1.423357054591178894e-02
2.921765856444835663e-02
3.448383137583732605e-02
0.000000000000000000e+00
2.363389730453491211e-02
5.244914069771766663e-02
0.000000000000000000e+00
-0.000000000000000000e+00
-0.000000000000000000e+00
-1.704774796962738037e-02
-2.879193238914012909e-02
-0.000000000000000000e+00
-1.368153654038906097e-02
-2.614162117242813110e-02
0.000000000000000000e+00
2.885453402996063232e-02
-1.707883551716804504e-02
0.000000000000000000e+00
2.087137475609779358e-02
-5.975178256630897522e-02
0.000000000000000000e+00
-0.000000000000000000e+00
-3.949655219912528992e-02
1.699098385870456696e-02
0.000000000000000000e+00
-0.000000000000000000e+00
-4.492196440696716309e-02
5.028752982616424561e-02
6.077205017209053040e-02
0.000000000000000000e+00
-0.000000000000000000e+00
4.036290198564529419e-02
-0.000000000000000000e+00
-2.061037719249725342e-02
1.177826710045337677e-02
-0.000000000000000000e+00
-2.270376309752464294e-02
-3.135229647159576416e-02
1.794765703380107880e-02
-0.000000000000000000e+00
-4.468196630477905273e-02
1.689662039279937744e-02
0.000000000000000000e+00
-0.000000000000000000e+00
0.000000000000000000e+00
2.201551571488380432e-02
0.000000000000000000e+00
0.000000000000000000e+00
2.065737172961235046e-02
1.442347280681133270e-02
-2.108597010374069214e-02
1.816994883120059967e-02
-3.119384683668613434e-02
-1.787864416837692261e-02
1.840617507696151733e-02
-2.530908770859241486e-02
-0.000000000000000000e+00
1.182126533240079880e-02
-0.000000000000000000e+00
-1.200070418417453766e-02
-1.874870806932449341e-02
-0.000000000000000000e+00
-0.000000000000000000e+00
-3.289641439914703369e-02
-0.000000000000000000e+00
3.303204849362373352e-02
-3.520013391971588135e-02
-4.096762835979461670e-02
0.000000000000000000e+00
0.000000000000000000e+00
-2.313024923205375671e-02
0.000000000000000000e+00
-4.378529638051986694e-02
-2.673529461026191711e-02
2.199256978929042816e-02
-3.591864183545112610e-02
-4.100900515913963318e-02
-2.186046540737152100e-02
3.370492532849311829e-02
6.293775141239166260e-02
4.350171238183975220e-02
0.000000000000000000e+00
1.924297586083412170e-02
-0.000000000000000000e+00
-0.000000000000000000e+00
-5.344508588314056396e-02
-0.000000000000000000e+00
-0.000000000000000000e+00
-2.695363759994506836e-02
-1.766666769981384277e-02
-0.000000000000000000e+00
0.000000000000000000e+00
0.000000000000000000e+00
-2.683151327073574066e-02
-3.599129989743232727e-02
-4.249502345919609070e-02
-0.000000000000000000e+00
-1.835097745060920715e-02
-3.435777872800827026e-02
-2.883469313383102417e-02
-4.543026909232139587e-02
-2.231470681726932526e-02
0.000000000000000000e+00
-0.000000000000000000e+00
-1.366183534264564514e-02
4.287998005747795105e-02
0.000000000000000000e+00
0.000000000000000000e+00
0.000000000000000000e+00
-3.067762218415737152e-02
-3.251342847943305969e-02
0.000000000000000000e+00
-2.687551826238632202e-02
-2.393791452050209045e-02
-0.000000000000000000e+00
-1.387790311127901077e-02
-1.420064736157655716e-02
-0.000000000000000000e+00
-1.726732403039932251e-02
-0.000000000000000000e+00
-1.986585929989814758e-02
-1.294429320842027664e-02
-0.000000000000000000e+00
5.590502545237541199e-02
-0.000000000000000000e+00
1.734786480665206909e-02
7.808756828308105469e-02
-3.501351922750473022e-02
0.000000000000000000e+00
6.769060343503952026e-02
-2.151652798056602478e-02
-0.000000000000000000e+00
-0.000000000000000000e+00
0.000000000000000000e+00
2.942024543881416321e-02
0.000000000000000000e+00
5.405735224485397339e-02
7.571955770254135132e-02
0.000000000000000000e+00
2.688763476908206940e-02
3.539783880114555359e-02
1.167077291756868362e-02
-0.000000000000000000e+00
-1.537415664643049240e-02
2.578067407011985779e-02
1.574475504457950592e-02
1.936889626085758209e-02
2.127443440258502960e-02
2.936284244060516357e-02
1.294146478176116943e-02
-0.000000000000000000e+00
0.000000000000000000e+00
-0.000000000000000000e+00
-1.175881084054708481e-02
-0.000000000000000000e+00
-0.000000000000000000e+00
-2.680882066488265991e-02
-1.914128288626670837e-02
-2.157662063837051392e-02
-0.000000000000000000e+00
-5.183777585625648499e-02
-1.963452808558940887e-02
-4.698042199015617371e-02
-4.462408646941184998e-02
-3.449204191565513611e-02
0.000000000000000000e+00
-4.038533195853233337e-02
1.272944360971450806e-02
-0.000000000000000000e+00
3.393321484327316284e-02
-2.053701132535934448e-02
0.000000000000000000e+00
3.192671388387680054e-02
1.300018280744552612e-02
1.368833612650632858e-02
2.698703855276107788e-02
0.000000000000000000e+00
1.245096232742071152e-02
-0.000000000000000000e+00
-3.138642013072967529e-02
0.000000000000000000e+00
-0.000000000000000000e+00
-2.525299228727817535e-02
-0.000000000000000000e+00
0.000000000000000000e+00
3.247704356908798218e-02
-0.000000000000000000e+00
-1.351137924939393997e-02
-0.000000000000000000e+00
-0.000000000000000000e+00
-1.852300390601158142e-02
-3.226571157574653625e-02
1.717766188085079193e-02
1.356632914394140244e-02
0.000000000000000000e+00
1.741968840360641479e-02
0.000000000000000000e+00
2.875971235334873199e-02
1.684539020061492920e-02
2.631996572017669678e-02
-0.000000000000000000e+00
-2.527197077870368958e-02
-2.625648677349090576e-02
0.000000000000000000e+00
-0.000000000000000000e+00
-4.427515715360641479e-02
-0.000000000000000000e+00
-0.000000000000000000e+00
-5.912768095731735229e-02
-0.000000000000000000e+00
-2.664007432758808136e-02
-2.529658563435077667e-02
0.000000000000000000e+00
3.494505584239959717e-02
-2.473007887601852417e-02
-0.000000000000000000e+00
0.000000000000000000e+00
-1.652914099395275116e-02
1.604809798300266266e-02
-2.156810648739337921e-02
-0.000000000000000000e+00
-1.426955033093690872e-02
-1.390591263771057129e-02
-3.511909022927284241e-02
-3.827279806137084961e-02
0.000000000000000000e+00
-0.000000000000000000e+00
0.000000000000000000e+00
-1.268283184617757797e-02
-0.000000000000000000e+00
-0.000000000000000000e+00
-2.887864410877227783e-02
-1.759851537644863129e-02
-0.000000000000000000e+00
5.337411537766456604e-02
-3.758171200752258301e-02
0.000000000000000000e+00
0.000000000000000000e+00
-0.000000000000000000e+00
0.000000000000000000e+00
-2.210226096212863922e-02
-3.966309875249862671e-02
-2.656469680368900299e-02
1.248469389975070953e-02
3.396396711468696594e-02
0.000000000000000000e+00
3.041542135179042816e-02
3.065140917897224426e-02
2.490897476673126221e-02
-0.000000000000000000e+00
0.000000000000000000e+00
-0.000000000000000000e+00
0.000000000000000000e+00
0.000000000000000000e+00
2.123412117362022400e-02
-0.000000000000000000e+00
2.682985365390777588e-02
0.000000000000000000e+00
-1.928492262959480286e-02
-0.000000000000000000e+00
-0.000000000000000000e+00
-2.450130693614482880e-02
-1.826455257833003998e-02
-0.000000000000000000e+00
-0.000000000000000000e+00
-0.000000000000000000e+00
-2.406652644276618958e-02
2.773487381637096405e-02
-3.318642452359199524e-02
-4.429481923580169678e-02
7.772627472877502441e-02
-1.981231383979320526e-02
-3.542716056108474731e-02
-2.922681160271167755e-02
-2.853435836732387543e-02
-3.219318017363548279e-02
-0.000000000000000000e+00
-0.000000000000000000e+00
0.000000000000000000e+00
-5.369954556226730347e-02
-2.042669802904129028e-02
0.000000000000000000e+00
-1.683077961206436157e-02
-1.390367373824119568e-02
-2.167560346424579620e-02
-0.000000000000000000e+00
-4.148305580019950867e-02
-1.854101382195949554e-02
-3.759708255529403687e-02
-3.162131085991859436e-02
0.000000000000000000e+00
-2.501631900668144226e-02
0.000000000000000000e+00
1.861973479390144348e-02
3.344580903649330139e-02
-0.000000000000000000e+00
-3.781482577323913574e-02
0.000000000000000000e+00
-0.000000000000000000e+00
-1.858786121010780334e-02
0.000000000000000000e+00
-1.218505669385194778e-02
-1.362549047917127609e-02
-2.575601264834403992e-02
0.000000000000000000e+00
5.679561942815780640e-02
-3.863840922713279724e-02
-4.028530418872833252e-02
1.490350533276796341e-02
1.815181225538253784e-02
-0.000000000000000000e+00
1.592324487864971161e-02
-2.595040947198867798e-02
-1.786626875400543213e-02
2.698317356407642365e-02
0.000000000000000000e+00
-1.265006419271230698e-02
1.618477702140808105e-02
0.000000000000000000e+00
3.252285346388816833e-02
2.248999103903770447e-02
-2.206042408943176270e-02
-1.344843860715627670e-02
3.143280372023582458e-02
-2.697848528623580933e-02
2.362065948545932770e-02
2.691118977963924408e-02
-0.000000000000000000e+00
2.798073738813400269e-02
0.000000000000000000e+00
-2.651548944413661957e-02
-2.272594906389713287e-02
-3.017690777778625488e-02
0.000000000000000000e+00
0.000000000000000000e+00
-1.840205490589141846e-02
2.820381522178649902e-02
0.000000000000000000e+00
2.510999515652656555e-02
0.000000000000000000e+00
2.088871970772743225e-02
1.301325112581253052e-02
1.277916599065065384e-02
6.107706576585769653e-02
3.479597717523574829e-02
1.648885197937488556e-02
5.642606690526008606e-02
4.999208450317382812e-02
7.702546566724777222e-02
3.865263238549232483e-02
-3.177569434046745300e-02
-0.000000000000000000e+00
-1.563282310962677002e-02
-2.962037734687328339e-02
-1.612994261085987091e-02
-2.352162264287471771e-02
-1.178040169179439545e-02
0.000000000000000000e+00
-2.010039240121841431e-02
-0.000000000000000000e+00
-0.000000000000000000e+00
-5.669037252664566040e-02
-2.658626623451709747e-02
-0.000000000000000000e+00
-1.426037680357694626e-02
-2.018772438168525696e-02
-3.834880888462066650e-02
-3.194783255457878113e-02
2.413155697286128998e-02
-3.844777494668960571e-02
-2.821611799299716949e-02
6.874659657478332520e-02
-2.390366606414318085e-02
-1.412277203053236008e-02
0.000000000000000000e+00
-2.805793657898902893e-02
-0.000000000000000000e+00
-0.000000000000000000e+00
0.000000000000000000e+00
2.400173991918563843e-02
1.352035254240036011e-02
1.484188903123140335e-02
4.522500932216644287e-02
0.000000000000000000e+00
-0.000000000000000000e+00
0.000000000000000000e+00
-0.000000000000000000e+00
0.000000000000000000e+00
2.283957228064537048e-02
-0.000000000000000000e+00
-0.000000000000000000e+00
1.203761529177427292e-02
0.000000000000000000e+00
0.000000000000000000e+00
-1.561521273106336594e-02
-0.000000000000000000e+00
0.000000000000000000e+00
0.000000000000000000e+00
-0.000000000000000000e+00
0.000000000000000000e+00
1.170447748154401779e-02
-0.000000000000000000e+00
-0.000000000000000000e+00
-2.098977006971836090e-02
4.596726596355438232e-02
2.438110858201980591e-02
-1.440784893929958344e-02
1.238001417368650436e-02
-0.000000000000000000e+00
-0.000000000000000000e+00
1.957426592707633972e-02
0.000000000000000000e+00
1.660302281379699707e-02
-1.314878650009632111e-02
2.474291808903217316e-02
0.000000000000000000e+00
-0.000000000000000000e+00
5.106331780552864075e-02
4.751358553767204285e-02
3.458373248577117920e-02
-3.268097713589668274e-02
0.000000000000000000e+00
-0.000000000000000000e+00
-2.042111754417419434e-02
-3.526147827506065369e-02
0.000000000000000000e+00
0.000000000000000000e+00
-2.278448455035686493e-02
-3.864538669586181641e-02
3.570047765970230103e-02
0.000000000000000000e+00
0.000000000000000000e+00
1.239629369229078293e-02
1.392432302236557007e-02
0.000000000000000000e+00
0.000000000000000000e+00
0.000000000000000000e+00
-1.275238022208213806e-02
-4.758801683783531189e-02
-6.834357231855392456e-02
-0.000000000000000000e+00
-0.000000000000000000e+00
-3.594429790973663330e-02
-1.682275347411632538e-02
-0.000000000000000000e+00
0.000000000000000000e+00
0.000000000000000000e+00
-1.377775706350803375e-02
-9.293482452630996704e-02
-0.000000000000000000e+00
-3.356916084885597229e-02
-9.007852524518966675e-02
-0.000000000000000000e+00
0.000000000000000000e+00
-3.331516310572624207e-02
-0.000000000000000000e+00
2.676438167691230774e-02
-0.000000000000000000e+00
0.000000000000000000e+00
-1.752026379108428955e-02
0.000000000000000000e+00
2.171315625309944153e-02
-1.867218129336833954e-02
-3.473661467432975769e-02
-2.065567672252655029e-02
1.915815100073814392e-02
3.205101564526557922e-02
1.300771720707416534e-02
-2.874879911541938782e-02
-4.075504839420318604e-02
1.524528674781322479e-02
-0.000000000000000000e+00
-3.825092688202857971e-02
1.166611816734075546e-02
3.379164263606071472e-02
-2.832326479256153107e-02
0.000000000000000000e+00
0.000000000000000000e+00
-1.498830690979957581e-02
-1.503734849393367767e-02
1.884557493031024933e-02
-0.000000000000000000e+00
-0.000000000000000000e+00
0.000000000000000000e+00
-3.212485462427139282e-02
-1.860908977687358856e-02
1.410416327416896820e-02
-2.832214161753654480e-02
-0.000000000000000000e+00
-0.000000000000000000e+00
-3.554137051105499268e-02
-1.542772725224494934e-02
0.000000000000000000e+00
-0.000000000000000000e+00
2.315180189907550812e-02
0.000000000000000000e+00
-0.000000000000000000e+00
-2.179561741650104523e-02
0.000000000000000000e+00
-0.000000000000000000e+00
-1.893728971481323242e-02
-2.681745402514934540e-02
-1.393247768282890320e-02
-0.000000000000000000e+00
0.000000000000000000e+00
0.000000000000000000e+00
2.296902798116207123e-02
0.000000000000000000e+00
0.000000000000000000e+00
4.330057650804519653e-02
-0.000000000000000000e+00
0.000000000000000000e+00
-0.000000000000000000e+00
-9.250146150588989258e-02
0.000000000000000000e+00
-0.000000000000000000e+00
0.000000000000000000e+00
4.581747204065322876e-02
2.094359509646892548e-02
-0.000000000000000000e+00
-1.955499872565269470e-02
-0.000000000000000000e+00
1.226934790611267090e-01
2.439249120652675629e-02
-7.825817167758941650e-02
1.045524775981903076e-01
2.736052125692367554e-02
-7.714583724737167358e-02
0.000000000000000000e+00
-3.868472576141357422e-02
-2.852594293653964996e-02
-3.253991901874542236e-02
-4.144794493913650513e-02
1.645315252244472504e-02
-0.000000000000000000e+00
3.202168270945549011e-02
0.000000000000000000e+00
-0.000000000000000000e+00
1.922444626688957214e-02
-0.000000000000000000e+00
-0.000000000000000000e+00
0.000000000000000000e+00
1.550114806741476059e-02
2.157165855169296265e-02
-0.000000000000000000e+00
0.000000000000000000e+00
0.000000000000000000e+00
1.308195292949676514e-02
1.982893981039524078e-02
-0.000000000000000000e+00
-3.641707450151443481e-02
-0.000000000000000000e+00
-2.105686254799365997e-02
-1.294141169637441635e-02
-0.000000000000000000e+00
0.000000000000000000e+00
0.000000000000000000e+00
2.129023149609565735e-02
