-0.000000000000000000e+00
-0.000000000000000000e+00
-0.000000000000000000e+00
2.484367415308952332e-02
0.000000000000000000e+00
0.000000000000000000e+00
0.000000000000000000e+00
-1.647568121552467346e-02
0.000000000000000000e+00
-2.148805372416973114e-02
-0.000000000000000000e+00
-1.428114436566829681e-02
-1.704387366771697998e-02
0.000000000000000000e+00
0.000000000000000000e+00
0.000000000000000000e+00
-0.000000000000000000e+00
-0.000000000000000000e+00
-0.000000000000000000e+00
3.038849681615829468e-02
2.224653027951717377e-02
-6.118425726890563965e-02
-2.379689179360866547e-02
0.000000000000000000e+00
4.067753255367279053e-02
-1.035573035478591919e-01
-6.001149490475654602e-02
0.000000000000000000e+00
0.000000000000000000e+00
1.267291791737079620e-02
0.000000000000000000e+00
0.000000000000000000e+00
1.929810270667076111e-02
-0.000000000000000000e+00
-0.000000000000000000e+00
0.000000000000000000e+00
-0.000000000000000000e+00
-3.548996150493621826e-02
-0.000000000000000000e+00
0.000000000000000000e+00
0.000000000000000000e+00
-2.492722868919372559e-02
0.000000000000000000e+00
0.000000000000000000e+00
0.000000000000000000e+00
-3.863401338458061218e-02
-0.000000000000000000e+00
1.446910761296749115e-02
-4.985457286238670349e-02
-1.595268771052360535e-02
-2.488160692155361176e-02
1.440709177404642105e-02
0.000000000000000000e+00
3.776663169264793396e-02
-0.000000000000000000e+00
3.581101074814796448e-02
2.970134280622005463e-02
-1.719828508794307709e-02
-1.681661978363990784e-02
-1.491585746407508850e-02
1.485040783882141113e-02
3.405533358454704285e-02
-0.000000000000000000e+00
0.000000000000000000e+00
0.000000000000000000e+00
-2.364534139633178711e-02
-0.000000000000000000e+00
1.608418300747871399e-02
-4.314262047410011292e-02
-2.410438098013401031e-02
0.000000000000000000e+00
-1.376124471426010132e-02
2.804407477378845215e-02
-0.000000000000000000e+00
0.000000000000000000e+00
-3.509593382477760315e-02
0.000000000000000000e+00
3.067734651267528534e-02
-3.863375633955001831e-02
-0.000000000000000000e+00
-3.061045520007610321e-02
-1.927001960575580597e-02
0.000000000000000000e+00
-3.579495847225189209e-02
1.749297231435775757e-02
-3.522409498691558838e-02
-6.749872863292694092e-02
-2.387895248830318451e-02
-0.000000000000000000e+00
-0.000000000000000000e+00
0.000000000000000000e+00
0.000000000000000000e+00
0.000000000000000000e+00
-0.000000000000000000e+00
-1.340817846357822418e-02
-0.000000000000000000e+00
-0.000000000000000000e+00
-0.000000000000000000e+00
0.000000000000000000e+00
0.000000000000000000e+00
-0.000000000000000000e+00
0.000000000000000000e+00
-3.318098932504653931e-02
0.000000000000000000e+00
0.000000000000000000e+00
-0.000000000000000000e+00
-3.069601394236087799e-02
-0.000000000000000000e+00
0.000000000000000000e+00
-2.177226543426513672e-02
-0.000000000000000000e+00
-0.000000000000000000e+00
3.075457364320755005e-02
0.000000000000000000e+00
-0.000000000000000000e+00
0.000000000000000000e+00
0.000000000000000000e+00
-0.000000000000000000e+00
-3.364275395870208740e-02
-3.520522639155387878e-02
-5.523052811622619629e-02
-1.307147741317749023e-02
0.000000000000000000e+00
0.000000000000000000e+00
2.206981554627418518e-02
0.000000000000000000e+00
1.782499253749847412e-02
2.601929008960723877e-02
3.029039315879344940e-02
0.000000000000000000e+00
0.000000000000000000e+00
1.539601664990186691e-02
-0.000000000000000000e+00
-1.613793522119522095e-02
-0.000000000000000000e+00
-0.000000000000000000e+00
-4.081739857792854309e-02
0.000000000000000000e+00
1.789693534374237061e-02
-0.000000000000000000e+00
-3.768211975693702698e-02
1.790331117808818817e-02
3.985099121928215027e-02
2.805273234844207764e-02
-2.616420015692710876e-02
-2.609489671885967255e-02
0.000000000000000000e+00
-0.000000000000000000e+00
4.275736585259437561e-02
2.948555164039134979e-02
-0.000000000000000000e+00
-2.682902663946151733e-02
-3.166276216506958008e-02
2.106797322630882263e-02
0.000000000000000000e+00
-0.000000000000000000e+00
1.937028206884860992e-02
3.076109662652015686e-02
0.000000000000000000e+00
-6.749916076660156250e-02
-6.123175844550132751e-02
0.000000000000000000e+00
0.000000000000000000e+00
1.683663763105869293e-02
-1.710438355803489685e-02
-5.147931352257728577e-02
1.749439537525177002e-02
3.924070298671722412e-02
-4.209716618061065674e-02
-1.896638795733451843e-02
0.000000000000000000e+00
-2.425370179116725922e-02
-2.718361280858516693e-02
-1.730369217693805695e-02
-0.000000000000000000e+00
-1.861972920596599579e-02
1.288744714111089706e-02
-1.303647831082344055e-02
2.224953845143318176e-02
2.119456231594085693e-02
0.000000000000000000e+00
0.000000000000000000e+00
-3.586616739630699158e-02
0.000000000000000000e+00
3.316870331764221191e-02
-0.000000000000000000e+00
-0.000000000000000000e+00
-0.000000000000000000e+00
-1.642783917486667633e-02
2.334602177143096924e-02
-0.000000000000000000e+00
2.150200866162776947e-02
0.000000000000000000e+00
-2.286095917224884033e-02
-4.231380671262741089e-02
-1.527906861156225204e-02
-3.242629766464233398e-02
-1.516615506261587143e-02
-3.079459257423877716e-02
-2.013963647186756134e-02
-0.000000000000000000e+00
-2.018195018172264099e-02
0.000000000000000000e+00
0.000000000000000000e+00
3.882465884089469910e-02
-1.754915155470371246e-02
-1.538749132305383682e-02
-0.000000000000000000e+00
3.977452591061592102e-02
-0.000000000000000000e+00
4.136344045400619507e-02
-3.612120449542999268e-02
-3.845794871449470520e-02
2.389740385115146637e-02
0.000000000000000000e+00
-3.194487094879150391e-02
-3.070404566824436188e-02
-3.877960518002510071e-02
-4.597116261720657349e-02
-5.070822685956954956e-02
2.076738141477108002e-02
4.934976994991302490e-02
0.000000000000000000e+00
-0.000000000000000000e+00
-0.000000000000000000e+00
-1.474534068256616592e-02
-8.275032043457031250e-02
-3.065278753638267517e-02
-3.733529150485992432e-02
0.000000000000000000e+00
2.785417251288890839e-02
1.401230227202177048e-02
0.000000000000000000e+00
0.000000000000000000e+00
-0.000000000000000000e+00
-0.000000000000000000e+00
0.000000000000000000e+00
-4.687895998358726501e-02
-0.000000000000000000e+00
2.421660721302032471e-02
3.851046040654182434e-02
0.000000000000000000e+00
-0.000000000000000000e+00
1.333622075617313385e-02
-2.900134958326816559e-02
-1.412876974791288376e-02
0.000000000000000000e+00
2.471531368792057037e-02
-2.298781834542751312e-02
-0.000000000000000000e+00
-2.226333878934383392e-02
-0.000000000000000000e+00
0.000000000000000000e+00
2.716761827468872070e-02
0.000000000000000000e+00
0.000000000000000000e+00
0.000000000000000000e+00
-0.000000000000000000e+00
1.769918762147426605e-02
-3.433507308363914490e-02
-4.405949264764785767e-02
-0.000000000000000000e+00
-2.456748113036155701e-02
-3.025599196553230286e-02
-4.220368713140487671e-02
3.289442881941795349e-02
4.264177754521369934e-02
0.000000000000000000e+00
2.373776398599147797e-02
2.448836155235767365e-02
-8.591110259294509888e-02
-6.008737161755561829e-02
-4.304997622966766357e-02
2.104795910418033600e-02
-5.701076984405517578e-02
-1.013360545039176941e-01
-0.000000000000000000e+00
9.920950978994369507e-02
4.843704029917716980e-02
-4.818651080131530762e-02
-5.382537469267845154e-02
-8.429264277219772339e-02
1.463612634688615799e-02
6.470299512147903442e-02
2.501459233462810516e-02
1.488108374178409576e-02
6.256327033042907715e-02
0.000000000000000000e+00
1.277975644916296005e-02
0.000000000000000000e+00
-1.243405975401401520e-02
-1.373498048633337021e-02
0.000000000000000000e+00
-1.290494389832019806e-02
2.139425650238990784e-02
0.000000000000000000e+00
0.000000000000000000e+00
1.719281449913978577e-02
-3.282411023974418640e-02
0.000000000000000000e+00
-0.000000000000000000e+00
7.290283590555191040e-02
0.000000000000000000e+00
-2.580462582409381866e-02
2.570630796253681183e-02
-0.000000000000000000e+00
0.000000000000000000e+00
-2.728711813688278198e-02
-7.390779256820678711e-02
-4.983277246356010437e-02
-1.770083792507648468e-02
2.775032818317413330e-02
2.884412743151187897e-02
4.058749601244926453e-02
8.655877411365509033e-02
1.235248986631631851e-02
1.883581466972827911e-02
-0.000000000000000000e+00
2.364886365830898285e-02
0.000000000000000000e+00
2.704325318336486816e-02
0.000000000000000000e+00
0.000000000000000000e+00
4.769729822874069214e-02
-1.459993794560432434e-02
-4.856580868363380432e-02
-1.447802037000656128e-02
4.455872252583503723e-02
2.438775636255741119e-02
1.797794923186302185e-02
3.559675812721252441e-02
0.000000000000000000e+00
-2.488165721297264099e-02
-1.410559564828872681e-02
0.000000000000000000e+00
2.009502239525318146e-02
-1.799818873405456543e-02
-1.782033592462539673e-02
0.000000000000000000e+00
-0.000000000000000000e+00
-0.000000000000000000e+00
-1.342797745019197464e-02
1.593590341508388519e-02
-1.818375475704669952e-02
0.000000000000000000e+00
-1.976319216191768646e-02
3.291830420494079590e-02
8.858963102102279663e-02
-3.368603438138961792e-02
-1.520425081253051758e-02
4.727538675069808960e-02
-1.249299868941307068e-01
-1.097435131669044495e-01
-8.117408305406570435e-02
-8.988136053085327148e-02
0.000000000000000000e+00
5.857302621006965637e-02
6.410394608974456787e-02
1.344151198863983154e-01
8.849631249904632568e-02
6.705825030803680420e-02
1.108695790171623230e-01
7.000771164894104004e-02
-5.736771970987319946e-02
2.825024165213108063e-02
6.588108837604522705e-02
-1.376807242631912231e-01
-1.964990198612213135e-01
-3.868922591209411621e-02
2.478081360459327698e-02
2.921192348003387451e-02
2.322160266339778900e-02
-2.797323465347290039e-02
-0.000000000000000000e+00
3.176549077033996582e-02
1.949937827885150909e-02
-0.000000000000000000e+00
-2.610748261213302612e-02
-0.000000000000000000e+00
-0.000000000000000000e+00
1.174172200262546539e-02
1.652964018285274506e-02
-1.378999277949333191e-02
0.000000000000000000e+00
0.000000000000000000e+00
1.432736404240131378e-02
-1.733674667775630951e-02
1.350714080035686493e-02
-0.000000000000000000e+00
-1.722992211580276489e-02
-0.000000000000000000e+00
2.268932759761810303e-02
-0.000000000000000000e+00
4.312498122453689575e-02
-0.000000000000000000e+00
-2.631850354373455048e-02
-0.000000000000000000e+00
-0.000000000000000000e+00
-0.000000000000000000e+00
2.961201965808868408e-02
-5.505455285310745239e-02
-2.869900315999984741e-02
2.362978830933570862e-02
5.027157068252563477e-02
4.963243380188941956e-02
-0.000000000000000000e+00
-0.000000000000000000e+00
2.240269444882869720e-02
-0.000000000000000000e+00
-3.852802887558937073e-02
-0.000000000000000000e+00
-2.283094078302383423e-02
-3.943165764212608337e-02
-3.028761595487594604e-02
-1.580761186778545380e-02
-0.000000000000000000e+00
-0.000000000000000000e+00
-0.000000000000000000e+00
0.000000000000000000e+00
-4.778366163372993469e-02
2.469894662499427795e-02
-0.000000000000000000e+00
-0.000000000000000000e+00
-1.871189847588539124e-02
-0.000000000000000000e+00
0.000000000000000000e+00
-1.973599568009376526e-02
1.943835243582725525e-02
-0.000000000000000000e+00
-1.685504056513309479e-02
-4.082022234797477722e-02
-1.662755198776721954e-02
3.459093719720840454e-02
8.357431739568710327e-02
8.429184556007385254e-02
-0.000000000000000000e+00
-0.000000000000000000e+00
-1.529842615127563477e-02
-4.655138403177261353e-02
-5.224900320172309875e-02
-3.626638650894165039e-02
4.460978135466575623e-02
5.783141776919364929e-02
-5.303271114826202393e-02
-1.193086057901382446e-02
0.000000000000000000e+00
8.723995089530944824e-02
-0.000000000000000000e+00
-4.230725765228271484e-02
4.967376217246055603e-02
1.812230236828327179e-02
0.000000000000000000e+00
-0.000000000000000000e+00
0.000000000000000000e+00
3.289244323968887329e-02
-0.000000000000000000e+00
-2.275897376239299774e-02
-2.663708105683326721e-02
-1.827158220112323761e-02
1.955750212073326111e-02
2.482690662145614624e-02
2.326105721294879913e-02
5.911276489496231079e-02
-4.931643605232238770e-02
1.310260035097599030e-02
2.232055552303791046e-02
-5.983951687812805176e-02
-2.443162351846694946e-02
1.828309148550033569e-02
-0.000000000000000000e+00
4.194377735257148743e-02
-0.000000000000000000e+00
1.209261547774076462e-02
2.657614834606647491e-02
-0.000000000000000000e+00
3.391658887267112732e-02
3.845151141285896301e-02
-1.223099883645772934e-02
-0.000000000000000000e+00
1.416295208036899567e-02
-0.000000000000000000e+00
0.000000000000000000e+00
0.000000000000000000e+00
0.000000000000000000e+00
1.526232436299324036e-02
-2.816547080874443054e-02
1.971444115042686462e-02
1.153715699911117554e-01
6.693948805332183838e-02
3.553121164441108704e-02
0.000000000000000000e+00
-8.858422935009002686e-02
-0.000000000000000000e+00
-1.655825972557067871e-02
-9.251628071069717407e-02
-0.000000000000000000e+00
-1.206462644040584564e-02
-0.000000000000000000e+00
-0.000000000000000000e+00
0.000000000000000000e+00
1.617531478404998779e-02
2.153782919049263000e-02
0.000000000000000000e+00
-0.000000000000000000e+00
-1.232287939637899399e-02
-0.000000000000000000e+00
-0.000000000000000000e+00
0.000000000000000000e+00
-0.000000000000000000e+00
-2.099620550870895386e-02
-3.303916007280349731e-02
0.000000000000000000e+00
5.937439575791358948e-02
0.000000000000000000e+00
0.000000000000000000e+00
-0.000000000000000000e+00
-0.000000000000000000e+00
1.981943659484386444e-02
0.000000000000000000e+00
-2.282338216900825500e-02
-2.066010236740112305e-02
-0.000000000000000000e+00
0.000000000000000000e+00
7.402323186397552490e-02
-0.000000000000000000e+00
5.583923682570457458e-02
-1.488213241100311279e-02
-6.184189394116401672e-02
1.498991996049880981e-02
3.021913766860961914e-02
-6.405074149370193481e-02
-7.543822377920150757e-02
-4.314315691590309143e-02
-7.636184990406036377e-02
1.792806945741176605e-02
-6.059621274471282959e-02
-9.697110950946807861e-02
-1.873263902962207794e-02
2.375545203685760498e-01
-0.000000000000000000e+00
2.793107181787490845e-02
1.560278888791799545e-02
0.000000000000000000e+00
-1.426305901259183884e-02
-1.216818112879991531e-02
0.000000000000000000e+00
-0.000000000000000000e+00
-2.517593465745449066e-02
-0.000000000000000000e+00
2.810432761907577515e-02
-0.000000000000000000e+00
-0.000000000000000000e+00
-2.760762348771095276e-02
-3.155529499053955078e-02
6.728363037109375000e-02
-0.000000000000000000e+00
-4.308890551328659058e-02
6.412502378225326538e-02
5.422612652182579041e-02
2.939448691904544830e-02
-0.000000000000000000e+00
-2.869020774960517883e-02
-2.239113114774227142e-02
5.173990875482559204e-02
-6.374106556177139282e-02
-1.440514922142028809e-01
-5.814008042216300964e-02
-3.523369878530502319e-02
-0.000000000000000000e+00
-0.000000000000000000e+00
-6.273195892572402954e-02
-2.773623354732990265e-02
-2.759048528969287872e-02
0.000000000000000000e+00
-5.529342964291572571e-02
-6.082937866449356079e-02
-6.031986698508262634e-02
0.000000000000000000e+00
-3.609190136194229126e-02
-1.487161964178085327e-02
-0.000000000000000000e+00
-3.792233392596244812e-02
0.000000000000000000e+00
6.510832905769348145e-02
-2.880361117422580719e-02
0.000000000000000000e+00
-0.000000000000000000e+00
-2.384844608604907990e-02
0.000000000000000000e+00
1.290964148938655853e-02
2.654484286904335022e-02
-0.000000000000000000e+00
-1.554861571639776230e-02
-0.000000000000000000e+00
1.310643646866083145e-02
1.122720539569854736e-01
3.672113642096519470e-02
4.081069678068161011e-02
8.356503397226333618e-02
1.497826259583234787e-02
-1.212318390607833862e-01
-1.950718909502029419e-01
-1.215176060795783997e-01
-0.000000000000000000e+00
-0.000000000000000000e+00
-0.000000000000000000e+00
3.559425100684165955e-02
-1.588499918580055237e-02
0.000000000000000000e+00
-0.000000000000000000e+00
-1.690069772303104401e-02
0.000000000000000000e+00
1.308360695838928223e-02
3.196476399898529053e-02
0.000000000000000000e+00
-2.829156629741191864e-02
0.000000000000000000e+00
4.193070530891418457e-02
-1.342284213751554489e-02
-0.000000000000000000e+00
2.803334407508373260e-02
-4.577057436108589172e-02
-2.056395821273326874e-02
-4.028065502643585205e-02
1.270593106746673584e-01
2.545924484729766846e-01
0.000000000000000000e+00
-4.304635152220726013e-02
0.000000000000000000e+00
1.274717003107070923e-01
-3.723945096135139465e-02
-0.000000000000000000e+00
0.000000000000000000e+00
-2.422323077917098999e-02
1.902565360069274902e-02
-1.552166976034641266e-02
1.316548418253660202e-02
0.000000000000000000e+00
0.000000000000000000e+00
0.000000000000000000e+00
0.000000000000000000e+00
1.673540472984313965e-02
-1.569936610758304596e-02
-3.083415888249874115e-02
0.000000000000000000e+00
-1.691401563584804535e-02
-3.780327737331390381e-02
-0.000000000000000000e+00
-2.448599413037300110e-02
-2.105153724551200867e-02
-0.000000000000000000e+00
2.695019915699958801e-02
-6.994987279176712036e-02
-9.635247290134429932e-02
-4.997709393501281738e-02
5.072210356593132019e-02
1.729081757366657257e-02
3.261962905526161194e-02
2.113942429423332214e-02
-0.000000000000000000e+00
-6.346522271633148193e-02
1.610435731709003448e-02
-0.000000000000000000e+00
0.000000000000000000e+00
-5.052610486745834351e-02
-4.881313070654869080e-02
-1.173577830195426941e-02
-0.000000000000000000e+00
-0.000000000000000000e+00
-1.018072590231895447e-01
-7.046341896057128906e-02
-0.000000000000000000e+00
-1.951951719820499420e-02
4.563359543681144714e-02
0.000000000000000000e+00
-1.843903213739395142e-02
-0.000000000000000000e+00
0.000000000000000000e+00
-0.000000000000000000e+00
1.325200870633125305e-02
-4.244028404355049133e-02
4.244313016533851624e-02
2.715604193508625031e-02
-1.543846447020769119e-02
3.503566607832908630e-02
-2.973513491451740265e-02
-0.000000000000000000e+00
-0.000000000000000000e+00
-3.245309367775917053e-02
1.815187744796276093e-02
-2.266974002122879028e-02
0.000000000000000000e+00
3.486288711428642273e-02
6.862644851207733154e-02
4.535941034555435181e-02
5.584136396646499634e-02
1.385967340320348740e-02
-2.028360962867736816e-02
-2.091463841497898102e-02
-7.810474932193756104e-02
-2.152481116354465485e-02
-2.393664419651031494e-02
0.000000000000000000e+00
0.000000000000000000e+00
-0.000000000000000000e+00
0.000000000000000000e+00
2.908591926097869873e-02
-2.671062387526035309e-02
-0.000000000000000000e+00
0.000000000000000000e+00
-2.037265338003635406e-02
6.843460351228713989e-02
7.620888203382492065e-02
3.753987327218055725e-02
-1.254844944924116135e-02
-3.181658312678337097e-02
1.444616764783859253e-01
4.157412424683570862e-02
-2.754188328981399536e-02
-9.629622101783752441e-02
-2.962467260658740997e-02
0.000000000000000000e+00
-3.250071406364440918e-02
-1.262763142585754395e-02
-0.000000000000000000e+00
0.000000000000000000e+00
-0.000000000000000000e+00
2.659275569021701813e-02
0.000000000000000000e+00
4.845447838306427002e-02
8.151201158761978149e-02
6.367717683315277100e-02
-1.413168571889400482e-02
-0.000000000000000000e+00
5.982741713523864746e-02
-2.542625553905963898e-02
-8.234278857707977295e-02
-5.403993651270866394e-02
-0.000000000000000000e+00
-0.000000000000000000e+00
-1.254735887050628662e-02
-4.349837079644203186e-02
-1.369323302060365677e-02
0.000000000000000000e+00
-1.280402485281229019e-02
-0.000000000000000000e+00
-3.880107775330543518e-02
2.428129129111766815e-02
0.000000000000000000e+00
0.000000000000000000e+00
1.441783271729946136e-02
4.967170208692550659e-02
-0.000000000000000000e+00
-3.377000242471694946e-02
-1.671737618744373322e-02
4.296576604247093201e-02
0.000000000000000000e+00
0.000000000000000000e+00
0.000000000000000000e+00
-3.689234331250190735e-02
0.000000000000000000e+00
0.000000000000000000e+00
-1.767920702695846558e-02
-1.607436127960681915e-02
0.000000000000000000e+00
-0.000000000000000000e+00
-0.000000000000000000e+00
0.000000000000000000e+00
0.000000000000000000e+00
1.902794279158115387e-02
0.000000000000000000e+00
-0.000000000000000000e+00
-0.000000000000000000e+00
-3.922414779663085938e-02
0.000000000000000000e+00
-0.000000000000000000e+00
-2.076203189790248871e-02
0.000000000000000000e+00
-0.000000000000000000e+00
-2.434416860342025757e-02
2.671927586197853088e-02
0.000000000000000000e+00
-0.000000000000000000e+00
0.000000000000000000e+00
6.956870853900909424e-02
9.790511429309844971e-02
5.888201668858528137e-02
1.342531573027372360e-02
1.573263853788375854e-02
-5.855172500014305115e-02
-8.669282495975494385e-02
2.300217561423778534e-02
-0.000000000000000000e+00
-3.958121687173843384e-02
2.047629840672016144e-02
-0.000000000000000000e+00
-1.352673210203647614e-02
-1.756452769041061401e-02
-1.893108338117599487e-02
0.000000000000000000e+00
-1.955670677125453949e-02
1.285397447645664215e-02
0.000000000000000000e+00
1.708326488733291626e-02
-0.000000000000000000e+00
-0.000000000000000000e+00
-0.000000000000000000e+00
-0.000000000000000000e+00
-0.000000000000000000e+00
-1.394855882972478867e-02
-4.056947305798530579e-02
-1.228652242571115494e-02
-1.633266173303127289e-02
1.365480106323957443e-02
-0.000000000000000000e+00
1.280593778938055038e-02
6.252790987491607666e-02
-1.580058783292770386e-02
0.000000000000000000e+00
3.790604323148727417e-02
4.294024407863616943e-02
0.000000000000000000e+00
-3.301021084189414978e-02
-1.759369485080242157e-02
1.461941562592983246e-02
-1.785754598677158356e-02
-1.576996594667434692e-02
-0.000000000000000000e+00
0.000000000000000000e+00
1.762169785797595978e-02
0.000000000000000000e+00
2.263293042778968811e-02
2.737963944673538208e-02
2.624498493969440460e-02
-2.534316852688789368e-02
-1.707524433732032776e-02
-0.000000000000000000e+00
1.649276912212371826e-02
-2.198595553636550903e-02
0.000000000000000000e+00
0.000000000000000000e+00
4.527234658598899841e-02
3.475060313940048218e-02
-0.000000000000000000e+00
-0.000000000000000000e+00
-0.000000000000000000e+00
2.559855766594409943e-02
-0.000000000000000000e+00
-1.257899496704339981e-02
0.000000000000000000e+00
-1.566128060221672058e-02
-1.608923077583312988e-02
-0.000000000000000000e+00
-2.015695534646511078e-02
1.301703602075576782e-02
-6.015152484178543091e-02
-0.000000000000000000e+00
-8.077628165483474731e-02
1.530476566404104233e-02
1.466809399425983429e-02
0.000000000000000000e+00
2.904384210705757141e-02
3.293281793594360352e-02
5.137032270431518555e-02
0.000000000000000000e+00
-1.441757008433341980e-02
0.000000000000000000e+00
2.271871641278266907e-02
1.303409971296787262e-02
2.002375200390815735e-02
0.000000000000000000e+00
-2.649453654885292053e-02
1.764773763716220856e-02
-0.000000000000000000e+00
-1.485663093626499176e-02
-0.000000000000000000e+00
0.000000000000000000e+00
-0.000000000000000000e+00
-2.209212072193622589e-02
1.507748942822217941e-02
-0.000000000000000000e+00
-3.639939427375793457e-02
-1.600740663707256317e-02
-2.268918231129646301e-02
1.363917160779237747e-02
-4.687280952930450439e-02
-3.767247498035430908e-02
1.834940537810325623e-02
3.146009519696235657e-02
-7.911050319671630859e-02
-7.820067554712295532e-02
-2.979054115712642670e-02
-5.809952318668365479e-02
-6.363017112016677856e-02
4.285033419728279114e-02
7.698126882314682007e-02
-2.964692190289497375e-02
3.408328071236610413e-02
6.560333818197250366e-02
-8.914130181074142456e-02
0.000000000000000000e+00
2.326899208128452301e-02
1.664100028574466705e-02
0.000000000000000000e+00
-1.599056459963321686e-02
-2.038854174315929413e-02
3.225259855389595032e-02
0.000000000000000000e+00
-0.000000000000000000e+00
3.000460565090179443e-02
2.282957546412944794e-02
-0.000000000000000000e+00
-2.458838745951652527e-02
1.513448636978864670e-02
5.905875563621520996e-02
-1.818581670522689819e-02
-1.730008274316787720e-01
-4.358242079615592957e-02
2.453808672726154327e-02
-2.889225445687770844e-02
-0.000000000000000000e+00
-0.000000000000000000e+00
-0.000000000000000000e+00
0.000000000000000000e+00
-1.987226121127605438e-02
-0.000000000000000000e+00
-0.000000000000000000e+00
-0.000000000000000000e+00
0.000000000000000000e+00
-4.752411320805549622e-02
-1.899675093591213226e-02
-0.000000000000000000e+00
-2.467752993106842041e-02
-1.889456622302532196e-02
-0.000000000000000000e+00
-2.693106047809123993e-02
-0.000000000000000000e+00
0.000000000000000000e+00
-0.000000000000000000e+00
0.000000000000000000e+00
0.000000000000000000e+00
-0.000000000000000000e+00
-0.000000000000000000e+00
-2.136268839240074158e-02
-1.429997477680444717e-02
0.000000000000000000e+00
3.500172495841979980e-02
2.081122808158397675e-02
-0.000000000000000000e+00
-0.000000000000000000e+00
5.954596400260925293e-02
2.152062579989433289e-02
-2.875775471329689026e-02
0.000000000000000000e+00
2.466103248298168182e-02
7.312339544296264648e-02
-4.326480999588966370e-02
0.000000000000000000e+00
-2.997270785272121429e-02
-5.649252235889434814e-02
-5.001667514443397522e-02
-0.000000000000000000e+00
2.756957896053791046e-02
0.000000000000000000e+00
-0.000000000000000000e+00
0.000000000000000000e+00
-1.736325211822986603e-02
3.489465638995170593e-02
1.419308595359325409e-02
4.329773038625717163e-02
-2.422172762453556061e-02
-1.912568323314189911e-02
-3.521467000246047974e-02
-5.537297204136848450e-02
-2.434892952442169189e-02
3.451053425669670105e-02
0.000000000000000000e+00
-2.851913124322891235e-02
-2.363890409469604492e-02
1.777085848152637482e-02
2.502909116446971893e-02
0.000000000000000000e+00
-0.000000000000000000e+00
-1.642844825983047485e-02
-1.250757556408643723e-02
-1.321383845061063766e-02
1.245407573878765106e-02
0.000000000000000000e+00
4.915362969040870667e-02
0.000000000000000000e+00
4.521109163761138916e-02
0.000000000000000000e+00
-0.000000000000000000e+00
1.740453764796257019e-02
-4.020495340228080750e-02
-3.093584813177585602e-02
-1.736315153539180756e-02
-3.785029426217079163e-02
-1.648114249110221863e-02
1.329092215746641159e-02
-0.000000000000000000e+00
-3.422225639224052429e-02
0.000000000000000000e+00
3.328716009855270386e-02
2.151249162852764130e-02
1.283624023199081421e-02
5.223577842116355896e-02
0.000000000000000000e+00
-5.033481866121292114e-02
7.943321019411087036e-02
-0.000000000000000000e+00
6.020234897732734680e-02
1.460399776697158813e-01
-6.563296169042587280e-02
-4.155171290040016174e-02
-1.359325498342514038e-01
-6.565389782190322876e-02
0.000000000000000000e+00
1.411543413996696472e-02
1.840429753065109253e-02
5.538598448038101196e-02
1.075934022665023804e-01
7.029780745506286621e-02
-3.603722900152206421e-02
-5.301145464181900024e-02
0.000000000000000000e+00
-1.793337427079677582e-02
1.308693923056125641e-02
-1.561511959880590439e-02
-0.000000000000000000e+00
2.240270003676414490e-02
0.000000000000000000e+00
-0.000000000000000000e+00
-3.291051462292671204e-02
-2.342652715742588043e-02
0.000000000000000000e+00
0.000000000000000000e+00
1.581035740673542023e-02
-3.989326208829879761e-02
0.000000000000000000e+00
-1.402073353528976440e-02
-0.000000000000000000e+00
1.655812747776508331e-02
-0.000000000000000000e+00
2.357094548642635345e-02
0.000000000000000000e+00
0.000000000000000000e+00
-5.292436853051185608e-02
-5.379401892423629761e-02
-0.000000000000000000e+00
0.000000000000000000e+00
9.853351116180419922e-02
1.106038466095924377e-01
0.000000000000000000e+00
-1.429119706153869629e-02
1.692186482250690460e-02
0.000000000000000000e+00
-2.307619526982307434e-02
-3.947976976633071899e-02
1.739308238029479980e-02
6.021251156926155090e-02
-3.408772125840187073e-02
1.808254793286323547e-02
4.259686544537544250e-02
1.528448797762393951e-02
3.470532596111297607e-02
-5.976869910955429077e-02
-2.873209118843078613e-02
-3.560310229659080505e-02
2.130579203367233276e-02
9.991746395826339722e-02
2.269699983298778534e-02
3.563928976655006409e-02
4.691204428672790527e-02
2.669912390410900116e-02
-0.000000000000000000e+00
-0.000000000000000000e+00
0.000000000000000000e+00
-4.645439609885215759e-02
0.000000000000000000e+00
4.598024860024452209e-02
0.000000000000000000e+00
1.785690151154994965e-02
-4.408003389835357666e-02
-5.931634828448295593e-02
1.508948393166065216e-02
-0.000000000000000000e+00
2.878535911440849304e-02
6.789439171552658081e-02
-3.345949947834014893e-02
-2.238466590642929077e-02
1.675165072083473206e-02
2.354944311082363129e-02
-0.000000000000000000e+00
-4.442645609378814697e-02
2.423602342605590820e-02
0.000000000000000000e+00
0.000000000000000000e+00
2.869644016027450562e-02
4.573641344904899597e-02
1.578613184392452240e-02
-2.977331355214118958e-02
0.000000000000000000e+00
-1.490144617855548859e-02
2.171399630606174469e-02
-6.089540570974349976e-02
-2.767347358167171478e-02
3.163491934537887573e-02
2.982926554977893829e-02
1.674244366586208344e-02
0.000000000000000000e+00
-1.929339207708835602e-02
1.886054500937461853e-02
0.000000000000000000e+00
-2.378712780773639679e-02
0.000000000000000000e+00
-3.674703463912010193e-02
-0.000000000000000000e+00
0.000000000000000000e+00
1.227239519357681274e-02
-1.375880464911460876e-02
2.460750006139278412e-02
-0.000000000000000000e+00
3.473161906003952026e-02
-3.510354831814765930e-02
-0.000000000000000000e+00
0.000000000000000000e+00
2.080026082694530487e-02
-1.656514406204223633e-02
-3.958743810653686523e-02
1.259387750178575516e-02
-0.000000000000000000e+00
-0.000000000000000000e+00
3.679421171545982361e-02
-1.368669886142015457e-02
-2.951353229582309723e-02
-1.474456582218408585e-02
2.829940617084503174e-02
2.209630608558654785e-02
0.000000000000000000e+00
-0.000000000000000000e+00
-0.000000000000000000e+00
0.000000000000000000e+00
0.000000000000000000e+00
2.066592127084732056e-02
3.742880001664161682e-02
0.000000000000000000e+00
4.398334026336669922e-02
1.753831282258033752e-02
-0.000000000000000000e+00
-2.478873357176780701e-02
-0.000000000000000000e+00
8.443851023912429810e-02
8.482727408409118652e-02
-5.147796124219894409e-02
3.525317832827568054e-02
-0.000000000000000000e+00
-1.033117845654487610e-01
-6.407766044139862061e-02
-1.266048997640609741e-01
-1.295229792594909668e-01
0.000000000000000000e+00
-1.408320199698209763e-02
0.000000000000000000e+00
-2.105899155139923096e-02
-2.877773903310298920e-02
0.000000000000000000e+00
1.407369971275329590e-02
1.869135536253452301e-02
5.819238722324371338e-02
2.213928103446960449e-02
0.000000000000000000e+00
1.478970889002084732e-02
-1.749692671000957489e-02
-0.000000000000000000e+00
2.783446200191974640e-02
-1.385528314858675003e-02
-1.334635633975267410e-02
1.766811497509479523e-02
-4.896987602114677429e-02
-3.794791176915168762e-02
-0.000000000000000000e+00
-3.332564607262611389e-02
-4.365690052509307861e-02
0.000000000000000000e+00
2.513253502547740936e-02
1.567867398262023926e-02
6.270284205675125122e-02
0.000000000000000000e+00
-1.731369458138942719e-02
-0.000000000000000000e+00
0.000000000000000000e+00
-1.711460389196872711e-02
-0.000000000000000000e+00
0.000000000000000000e+00
-0.000000000000000000e+00
-3.505174443125724792e-02
0.000000000000000000e+00
0.000000000000000000e+00
0.000000000000000000e+00
-0.000000000000000000e+00
2.931937202811241150e-02
-1.702612079679965973e-02
-2.381245978176593781e-02
0.000000000000000000e+00
-0.000000000000000000e+00
0.000000000000000000e+00
-0.000000000000000000e+00
0.000000000000000000e+00
-2.656684257090091705e-02
-4.607411101460456848e-02
3.141321614384651184e-02
1.657615974545478821e-02
1.729295030236244202e-02
6.468652933835983276e-02
-7.034827023744583130e-02
-5.412609502673149109e-02
-2.610912732779979706e-02
-5.173587426543235779e-02
-3.417466208338737488e-02
0.000000000000000000e+00
1.467987895011901855e-02
5.691407993435859680e-02
6.608394533395767212e-02
0.000000000000000000e+00
-1.219275873154401779e-02
-1.285050343722105026e-02
3.208234533667564392e-02
-0.000000000000000000e+00
0.000000000000000000e+00
1.561962347477674484e-02
1.673342101275920868e-02
0.000000000000000000e+00
-3.992017731070518494e-02
-4.338882490992546082e-02
0.000000000000000000e+00
-2.442809008061885834e-02
0.000000000000000000e+00
1.369153987616300583e-02
-0.000000000000000000e+00
0.000000000000000000e+00
0.000000000000000000e+00
-2.133153192698955536e-02
1.971393823623657227e-02
1.246524229645729065e-02
0.000000000000000000e+00
2.781972847878932953e-02
-0.000000000000000000e+00
-2.232469059526920319e-02
0.000000000000000000e+00
-0.000000000000000000e+00
2.531670778989791870e-02
-1.806885376572608948e-02
-2.484905347228050232e-02
0.000000000000000000e+00
-1.820012554526329041e-02
-2.376860193908214569e-02
-0.000000000000000000e+00
0.000000000000000000e+00
-0.000000000000000000e+00
1.239411905407905579e-02
2.556852065026760101e-02
-2.419889718294143677e-02
1.331865694373846054e-02
6.468977034091949463e-02
-5.056641250848770142e-02
-4.461583122611045837e-02
-2.975294552743434906e-02
-6.310761719942092896e-02
0.000000000000000000e+00
0.000000000000000000e+00
-2.500994689762592316e-02
4.481938853859901428e-02
2.067785710096359253e-02
-3.453239798545837402e-02
0.000000000000000000e+00
0.000000000000000000e+00
0.000000000000000000e+00
-0.000000000000000000e+00
-1.890439726412296295e-02
-3.484106808900833130e-02
-2.937287464737892151e-02
-7.514902949333190918e-02
-1.973345503211021423e-02
-0.000000000000000000e+00
-2.759334817528724670e-02
-0.000000000000000000e+00
1.417915429919958115e-02
2.272387407720088959e-02
-1.766179129481315613e-02
2.585000544786453247e-02
3.870720416307449341e-02
-2.367605455219745636e-02
-2.501410432159900665e-02
-0.000000000000000000e+00
-0.000000000000000000e+00
2.517315000295639038e-02
6.924080848693847656e-02
2.652664855122566223e-02
0.000000000000000000e+00
4.202685505151748657e-02
-1.558261364698410034e-02
-1.382377371191978455e-02
0.000000000000000000e+00
-3.983557224273681641e-02
1.408847793936729431e-02
0.000000000000000000e+00
-3.142975270748138428e-02
0.000000000000000000e+00
-3.005734272301197052e-02
-2.709647826850414276e-02
-1.559956744313240051e-02
-0.000000000000000000e+00
-0.000000000000000000e+00
-0.000000000000000000e+00
3.617075830698013306e-02
1.210055779665708542e-02
0.000000000000000000e+00
0.000000000000000000e+00
0.000000000000000000e+00
0.000000000000000000e+00
-1.779749430716037750e-02
-0.000000000000000000e+00
-3.625942021608352661e-02
-1.904076337814331055e-02
1.951711997389793396e-02
-0.000000000000000000e+00
1.764962077140808105e-02
4.883407056331634521e-02
0.000000000000000000e+00
0.000000000000000000e+00
0.000000000000000000e+00
-3.354591131210327148e-02
-2.347548305988311768e-02
2.346881106495857239e-02
-1.683628372848033905e-02
-4.939270392060279846e-02
2.863721735775470734e-02
0.000000000000000000e+00
0.000000000000000000e+00
3.430335223674774170e-02
-0.000000000000000000e+00
-2.439060993492603302e-02
-1.272922009229660034e-02
-2.433556504547595978e-02
-1.845249719917774200e-02
-0.000000000000000000e+00
-0.000000000000000000e+00
1.197262294590473175e-02
-1.558574847877025604e-02
0.000000000000000000e+00
0.000000000000000000e+00
-2.115411683917045593e-02
-3.892024978995323181e-02
-3.570269420742988586e-02
-1.756017282605171204e-02
-3.198155760765075684e-02
-0.000000000000000000e+00
2.831293642520904541e-02
0.000000000000000000e+00
0.000000000000000000e+00
-1.833849400281906128e-02
-4.337710142135620117e-02
0.000000000000000000e+00
-3.266683220863342285e-02
-1.578203588724136353e-02
-0.000000000000000000e+00
-2.578944526612758636e-02
4.939033091068267822e-02
6.462661176919937134e-02
-2.938976697623729706e-02
3.654045239090919495e-02
0.000000000000000000e+00
-5.760460346937179565e-02
-2.155062742531299591e-02
-6.853378564119338989e-02
-4.192458093166351318e-02
1.933042332530021667e-02
-0.000000000000000000e+00
-0.000000000000000000e+00
0.000000000000000000e+00
-1.672368124127388000e-02
-3.292504698038101196e-02
1.580905169248580933e-02
0.000000000000000000e+00
-0.000000000000000000e+00
1.302587147802114487e-02
-1.463550794869661331e-02
0.000000000000000000e+00
-1.862868107855319977e-02
-5.180292204022407532e-02
1.449089031666517258e-02
-0.000000000000000000e+00
1.223846990615129471e-02
-0.000000000000000000e+00
0.000000000000000000e+00
4.789515584707260132e-02
-0.000000000000000000e+00
1.292980555444955826e-02
1.357385609298944473e-02
-5.049115419387817383e-02
-4.699376225471496582e-02
-8.123473823070526123e-02
-6.508050858974456787e-02
1.885989308357238770e-02
-0.000000000000000000e+00
1.451932825148105621e-02
1.844527386128902435e-02
-1.338961720466613770e-02
4.340373724699020386e-02
3.767349943518638611e-02
2.704700455069541931e-02
5.520107969641685486e-02
0.000000000000000000e+00
0.000000000000000000e+00
1.313795801252126694e-02
-3.090976178646087646e-02
-5.010579526424407959e-02
0.000000000000000000e+00
-2.015211433172225952e-02
-3.570635244250297546e-02
1.493901386857032776e-02
2.331032231450080872e-02
-0.000000000000000000e+00
-0.000000000000000000e+00
0.000000000000000000e+00
-2.253932692110538483e-02
-0.000000000000000000e+00
0.000000000000000000e+00
-0.000000000000000000e+00
0.000000000000000000e+00
1.467293221503496170e-02
0.000000000000000000e+00
0.000000000000000000e+00
0.000000000000000000e+00
-1.938075944781303406e-02
0.000000000000000000e+00
-0.000000000000000000e+00
0.000000000000000000e+00
1.669206842780113220e-02
7.734947651624679565e-02
8.610220253467559814e-02
-3.359362855553627014e-02
6.518702208995819092e-02
1.327201351523399353e-02
-1.163269579410552979e-01
-3.823994100093841553e-02
-7.193809002637863159e-02
-8.750824630260467529e-02
1.330749690532684326e-02
0.000000000000000000e+00
-1.338573172688484192e-02
0.000000000000000000e+00
0.000000000000000000e+00
-0.000000000000000000e+00
1.197582576423883438e-02
0.000000000000000000e+00
-0.000000000000000000e+00
0.000000000000000000e+00
0.000000000000000000e+00
2.741657942533493042e-02
1.636007986962795258e-02
-1.733163185417652130e-02
-0.000000000000000000e+00
1.495546381920576096e-02
-2.558270283043384552e-02
-0.000000000000000000e+00
-0.000000000000000000e+00
-1.496748346835374832e-02
-0.000000000000000000e+00
-1.514549832791090012e-02
-0.000000000000000000e+00
-0.000000000000000000e+00
-0.000000000000000000e+00
0.000000000000000000e+00
2.448509447276592255e-02
0.000000000000000000e+00
-3.786697983741760254e-02
-3.356603905558586121e-02
-0.000000000000000000e+00
-3.110024705529212952e-02
0.000000000000000000e+00
-0.000000000000000000e+00
1.318287756294012070e-02
2.515358291566371918e-02
-1.262005139142274857e-02
-0.000000000000000000e+00
-2.448763698339462280e-02
-1.490548346191644669e-02
-1.291946694254875183e-02
-1.459743175655603409e-02
-0.000000000000000000e+00
-0.000000000000000000e+00
-1.371864974498748779e-02
-1.426353026181459427e-02
1.996411196887493134e-02
-1.880995929241180420e-02
-2.772164158523082733e-02
-1.184232439845800400e-02
-2.253807894885540009e-02
-1.184887252748012543e-02
-3.699056431651115417e-02
2.656254544854164124e-02
-1.336852647364139557e-02
0.000000000000000000e+00
0.000000000000000000e+00
-0.000000000000000000e+00
-1.335343439131975174e-02
-0.000000000000000000e+00
-0.000000000000000000e+00
-0.000000000000000000e+00
-0.000000000000000000e+00
-0.000000000000000000e+00
-1.202229037880897522e-02
-1.459182891994714737e-02
0.000000000000000000e+00
0.000000000000000000e+00
0.000000000000000000e+00
-0.000000000000000000e+00
0.000000000000000000e+00
1.999304629862308502e-02
-3.272235020995140076e-02
-2.206021174788475037e-02
1.300598401576280594e-02
-2.065333724021911621e-02
-1.379359699785709381e-02
-0.000000000000000000e+00
-1.732845976948738098e-02
-0.000000000000000000e+00
2.623890154063701630e-02
-2.100552059710025787e-02
0.000000000000000000e+00
-0.000000000000000000e+00
-1.382693927735090256e-02
8.582704514265060425e-02
-0.000000000000000000e+00
-0.000000000000000000e+00
0.000000000000000000e+00
-0.000000000000000000e+00
-9.528803080320358276e-02
-7.416727393865585327e-02
-0.000000000000000000e+00
-8.764521032571792603e-02
-7.769371569156646729e-02
4.902399331331253052e-02
-5.844803154468536377e-02
-3.179380297660827637e-02
7.759708166122436523e-02
3.867696225643157959e-02
-0.000000000000000000e+00
0.000000000000000000e+00
3.946134820580482483e-02
-1.846908591687679291e-02
1.492326613515615463e-02
-0.000000000000000000e+00
0.000000000000000000e+00
2.813361771404743195e-02
5.654089897871017456e-02
8.494652807712554932e-02
0.000000000000000000e+00
4.720236361026763916e-02
5.092829093337059021e-02
-3.789944946765899658e-02
-4.538149759173393250e-02
-5.815299227833747864e-02
-8.208941668272018433e-02
-1.234035659581422806e-02
0.000000000000000000e+00
-3.524891659617424011e-02
7.409649342298507690e-02
9.104847908020019531e-02
-0.000000000000000000e+00
-0.000000000000000000e+00
-0.000000000000000000e+00
-4.573692381381988525e-02
-3.348526358604431152e-02
0.000000000000000000e+00
-2.005425840616226196e-02
-2.491108328104019165e-02
4.722944274544715881e-02
4.436114430427551270e-02
-1.776277087628841400e-02
-0.000000000000000000e+00
1.422992255538702011e-02
-3.623458370566368103e-02
-0.000000000000000000e+00
-0.000000000000000000e+00
-4.103442281484603882e-02
1.265682652592658997e-02
0.000000000000000000e+00
-2.146382816135883331e-02
2.707507647573947906e-02
0.000000000000000000e+00
-0.000000000000000000e+00
0.000000000000000000e+00
-0.000000000000000000e+00
-2.645682170987129211e-02
-0.000000000000000000e+00
-1.887562684714794159e-02
-0.000000000000000000e+00
-2.271083742380142212e-02
-0.000000000000000000e+00
-2.951963618397712708e-02
-1.579222641885280609e-02
-0.000000000000000000e+00
0.000000000000000000e+00
0.000000000000000000e+00
0.000000000000000000e+00
-2.339341491460800171e-02
-5.243603885173797607e-02
-4.923374578356742859e-02
0.000000000000000000e+00
-1.271426025778055191e-02
-2.608631365001201630e-02
-0.000000000000000000e+00
-0.000000000000000000e+00
-0.000000000000000000e+00
0.000000000000000000e+00
-0.000000000000000000e+00
1.307234168052673340e-02
0.000000000000000000e+00
-0.000000000000000000e+00
1.944884844124317169e-02
0.000000000000000000e+00
-0.000000000000000000e+00
1.616055518388748169e-02
-4.272321984171867371e-02
-1.915511116385459900e-02
-3.282555192708969116e-02
-4.335182532668113708e-02
-5.796467885375022888e-02
-0.000000000000000000e+00
-4.961637035012245178e-02
-4.712491855025291443e-02
9.158045798540115356e-02
2.307544834911823273e-02
7.152479141950607300e-02
1.084810793399810791e-01
1.582804135978221893e-02
-0.000000000000000000e+00
-4.948922619223594666e-02
0.000000000000000000e+00
-0.000000000000000000e+00
0.000000000000000000e+00
0.000000000000000000e+00
-0.000000000000000000e+00
-0.000000000000000000e+00
3.412832319736480713e-02
2.619478851556777954e-02
-2.615181915462017059e-02
-0.000000000000000000e+00
-4.580787569284439087e-02
-9.441997110843658447e-02
-0.000000000000000000e+00
-4.793500155210494995e-02
-3.619829937815666199e-02
4.335278272628784180e-02
1.768771372735500336e-02
1.315553579479455948e-02
0.000000000000000000e+00
-1.357621513307094574e-02
1.795661821961402893e-02
1.798237673938274384e-02
3.160963207483291626e-02
0.000000000000000000e+00
-7.863951474428176880e-02
-7.405820488929748535e-02
1.388028264045715332e-02
-8.745666593313217163e-02
-5.114277079701423645e-02
3.314978256821632385e-02
-2.190417237579822540e-02
-2.989658713340759277e-02
0.000000000000000000e+00
0.000000000000000000e+00
1.430686656385660172e-02
0.000000000000000000e+00
1.220642030239105225e-02
1.248053647577762604e-02
-0.000000000000000000e+00
-0.000000000000000000e+00
0.000000000000000000e+00
-1.426165644079446793e-02
0.000000000000000000e+00
2.990711666643619537e-02
-1.855102367699146271e-02
0.000000000000000000e+00
-3.058245219290256500e-02
-2.697236277163028717e-02
1.813719049096107483e-02
0.000000000000000000e+00
-0.000000000000000000e+00
0.000000000000000000e+00
2.606529742479324341e-02
1.855770125985145569e-02
1.718926057219505310e-02
2.190547063946723938e-02
1.437205821275711060e-02
0.000000000000000000e+00
-0.000000000000000000e+00
-2.139797806739807129e-02
2.048657834529876709e-02
0.000000000000000000e+00
-0.000000000000000000e+00
2.258989773690700531e-02
-0.000000000000000000e+00
0.000000000000000000e+00
-0.000000000000000000e+00
0.000000000000000000e+00
-0.000000000000000000e+00
0.000000000000000000e+00
-0.000000000000000000e+00
-0.000000000000000000e+00
0.000000000000000000e+00
-0.000000000000000000e+00
0.000000000000000000e+00
0.000000000000000000e+00
0.000000000000000000e+00
1.587850041687488556e-02
-1.184653770178556442e-02
-0.000000000000000000e+00
0.000000000000000000e+00
0.000000000000000000e+00
-1.929905079305171967e-02
0.000000000000000000e+00
1.590495556592941284e-02
1.766169257462024689e-02
3.963006287813186646e-02
0.000000000000000000e+00
-1.580840349197387695e-02
-0.000000000000000000e+00
-0.000000000000000000e+00
-2.306801266968250275e-02
-0.000000000000000000e+00
-1.671102643013000488e-02
-0.000000000000000000e+00
-0.000000000000000000e+00
0.000000000000000000e+00
-0.000000000000000000e+00
0.000000000000000000e+00
-4.273908585309982300e-02
-0.000000000000000000e+00
1.415979396551847458e-02
-1.389088016003370285e-02
0.000000000000000000e+00
2.038092166185379028e-02
-2.027557231485843658e-02
-0.000000000000000000e+00
-2.656680531799793243e-02
-1.425393298268318176e-02
0.000000000000000000e+00
-0.000000000000000000e+00
-2.433628961443901062e-02
0.000000000000000000e+00
-1.493845973163843155e-02
-3.329798951745033264e-02
2.069248631596565247e-02
-3.008021041750907898e-02
-4.074056819081306458e-02
-3.342797979712486267e-02
-0.000000000000000000e+00
-0.000000000000000000e+00
-1.422963105142116547e-02
2.460512332618236542e-02
-1.455525960773229599e-02
-2.731993794441223145e-02
-0.000000000000000000e+00
0.000000000000000000e+00
-0.000000000000000000e+00
2.887073531746864319e-02
-1.188502274453639984e-02
-0.000000000000000000e+00
0.000000000000000000e+00
0.000000000000000000e+00
-0.000000000000000000e+00
-0.000000000000000000e+00
-0.000000000000000000e+00
-0.000000000000000000e+00
-0.000000000000000000e+00
-0.000000000000000000e+00
0.000000000000000000e+00
2.282904647290706635e-02
2.256018482148647308e-02
-2.432917058467864990e-02
-6.273520737886428833e-02
-2.100471407175064087e-02
-2.309135347604751587e-02
-7.355728000402450562e-02
-4.569174721837043762e-02
-4.493446648120880127e-02
-7.621905952692031860e-02
0.000000000000000000e+00
-2.030890993773937225e-02
-2.931839413940906525e-02
-1.357319205999374390e-02
-2.580147609114646912e-02
-2.451330237090587616e-02
-1.710479706525802612e-02
0.000000000000000000e+00
2.402310445904731750e-02
3.062680549919605255e-02
4.213868826627731323e-02
2.711682021617889404e-02
0.000000000000000000e+00
-0.000000000000000000e+00
0.000000000000000000e+00
-0.000000000000000000e+00
-0.000000000000000000e+00
0.000000000000000000e+00
0.000000000000000000e+00
0.000000000000000000e+00
0.000000000000000000e+00
-0.000000000000000000e+00
-0.000000000000000000e+00
1.254180166870355606e-02
1.287068426609039307e-02
1.755149476230144501e-02
0.000000000000000000e+00
-3.195218741893768311e-02
-1.472131814807653427e-02
-1.459023356437683105e-02
1.723204553127288818e-02
1.422583404928445816e-02
0.000000000000000000e+00
0.000000000000000000e+00
-0.000000000000000000e+00
-1.185398921370506287e-02
-2.278297580778598785e-02
-0.000000000000000000e+00
-2.217033132910728455e-02
-1.359847094863653183e-02
1.708884723484516144e-02
0.000000000000000000e+00
-2.716858685016632080e-02
-0.000000000000000000e+00
-3.860412165522575378e-02
1.861358620226383209e-02
0.000000000000000000e+00
-2.584828250110149384e-02
0.000000000000000000e+00
1.514324452728033066e-02
-0.000000000000000000e+00
-0.000000000000000000e+00
-1.392283104360103607e-02
-0.000000000000000000e+00
-1.836600527167320251e-02
-0.000000000000000000e+00
2.352300658822059631e-02
-1.920067332684993744e-02
-0.000000000000000000e+00
1.820810884237289429e-02
-1.312713045626878738e-02
0.000000000000000000e+00
2.369351312518119812e-02
-8.378963172435760498e-02
-8.050203323364257812e-02
-3.978824988007545471e-02
-6.069403514266014099e-02
-1.853406429290771484e-02
4.391129314899444580e-02
-2.261869423091411591e-02
0.000000000000000000e+00
3.982107341289520264e-02
-0.000000000000000000e+00
-1.842329837381839752e-02
-0.000000000000000000e+00
-1.602785848081111908e-02
-3.212145343422889709e-02
-0.000000000000000000e+00
-0.000000000000000000e+00
-0.000000000000000000e+00
-0.000000000000000000e+00
0.000000000000000000e+00
2.006193250417709351e-02
-0.000000000000000000e+00
-0.000000000000000000e+00
-1.201055105775594711e-02
-0.000000000000000000e+00
-0.000000000000000000e+00
-1.982540823519229889e-02
0.000000000000000000e+00
4.415845125913619995e-02
2.556765638291835785e-02
-0.000000000000000000e+00
-0.000000000000000000e+00
-1.540427561849355698e-02
0.000000000000000000e+00
0.000000000000000000e+00
-0.000000000000000000e+00
2.111884951591491699e-02
2.115099877119064331e-02
-1.356689166277647018e-02
-2.587489038705825806e-02
-1.870204135775566101e-02
-0.000000000000000000e+00
-2.946217730641365051e-02
-0.000000000000000000e+00
-1.531140040606260300e-02
-2.522129938006401062e-02
1.437966804951429367e-02
2.403870038688182831e-02
-0.000000000000000000e+00
0.000000000000000000e+00
1.426472794264554977e-02
-0.000000000000000000e+00
0.000000000000000000e+00
-0.000000000000000000e+00
-0.000000000000000000e+00
-2.872909791767597198e-02
-0.000000000000000000e+00
1.989795826375484467e-02
1.840717345476150513e-02
2.913093194365501404e-02
0.000000000000000000e+00
1.177748292684555054e-02
0.000000000000000000e+00
2.313152700662612915e-02
-3.616530448198318481e-02
-2.652275376021862030e-02
0.000000000000000000e+00
-1.577351801097393036e-02
3.463755920529365540e-02
1.208764687180519104e-02
-1.696865819394588470e-02
-0.000000000000000000e+00
-4.199373722076416016e-02
-6.140958890318870544e-02
-6.253522634506225586e-02
-1.947451382875442505e-02
-0.000000000000000000e+00
-1.714464277029037476e-02
3.367467224597930908e-02
4.942878335714340210e-02
4.602535068988800049e-02
6.761986762285232544e-02
0.000000000000000000e+00
0.000000000000000000e+00
-0.000000000000000000e+00
-2.022798173129558563e-02
1.937356963753700256e-02
-2.110970392823219299e-02
-1.402969937771558762e-02
-0.000000000000000000e+00
-0.000000000000000000e+00
6.684495508670806885e-02
6.004193425178527832e-02
0.000000000000000000e+00
0.000000000000000000e+00
-0.000000000000000000e+00
-0.000000000000000000e+00
0.000000000000000000e+00
0.000000000000000000e+00
1.984522491693496704e-02
-7.924467325210571289e-02
-6.758052110671997070e-02
-4.469645395874977112e-02
-4.893638938665390015e-02
-4.899212345480918884e-02
-1.328895892947912216e-02
-0.000000000000000000e+00
0.000000000000000000e+00
4.926732182502746582e-02
-2.154897153377532959e-02
0.000000000000000000e+00
2.710101567208766937e-02
-1.379971485584974289e-02
1.851424761116504669e-02
1.903300173580646515e-02
-2.416381984949111938e-02
2.537712268531322479e-02
-1.688969694077968597e-02
0.000000000000000000e+00
1.948145218193531036e-02
-0.000000000000000000e+00
-1.343216467648744583e-02
0.000000000000000000e+00
0.000000000000000000e+00
1.735011301934719086e-02
-0.000000000000000000e+00
1.633231714367866516e-02
3.391825407743453979e-02
2.273790352046489716e-02
3.122911788523197174e-02
4.064510762691497803e-02
0.000000000000000000e+00
1.909288950264453888e-02
1.486682053655385971e-02
1.438518427312374115e-02
-0.000000000000000000e+00
5.884522199630737305e-02
1.335002854466438293e-02
-1.753268204629421234e-02
-0.000000000000000000e+00
-2.643820457160472870e-02
-4.682218283414840698e-02
-3.864077478647232056e-02
-2.870563790202140808e-02
-4.051525518298149109e-02
4.875762388110160828e-02
9.495119005441665649e-02
0.000000000000000000e+00
5.719928443431854248e-02
8.145716041326522827e-02
-6.649678945541381836e-02
-2.590509876608848572e-02
-6.896938383579254150e-02
-6.889886409044265747e-02
0.000000000000000000e+00
-0.000000000000000000e+00
0.000000000000000000e+00
-2.594066411256790161e-02
0.000000000000000000e+00
-1.740239188075065613e-02
-0.000000000000000000e+00
-0.000000000000000000e+00
-0.000000000000000000e+00
2.737890183925628662e-02
0.000000000000000000e+00
1.862937211990356445e-02
-0.000000000000000000e+00
0.000000000000000000e+00
0.000000000000000000e+00
0.000000000000000000e+00
-0.000000000000000000e+00
-2.361238002777099609e-02
0.000000000000000000e+00
2.606277540326118469e-02
3.944000974297523499e-02
5.850673094391822815e-02
6.081593781709671021e-02
8.589781075716018677e-02
6.560268998146057129e-02
7.737211138010025024e-02
1.123588159680366516e-01
2.048620581626892090e-02
-0.000000000000000000e+00
3.369253128767013550e-02
1.550357602536678314e-02
-1.741805672645568848e-02
1.568807289004325867e-02
0.000000000000000000e+00
1.208448689430952072e-02
-0.000000000000000000e+00
-3.131382912397384644e-02
0.000000000000000000e+00
-2.663445100188255310e-02
-3.553317487239837646e-02
-2.773663774132728577e-02
-0.000000000000000000e+00
-3.231739625334739685e-02
-1.875857450067996979e-02
-0.000000000000000000e+00
-1.688711717724800110e-02
0.000000000000000000e+00
-4.709375277161598206e-02
-3.475029394030570984e-02
-2.491257898509502411e-02
-3.683288767933845520e-02
-1.887953840196132660e-02
-1.516640931367874146e-02
-1.249090861529111862e-02
-0.000000000000000000e+00
1.284533087164163589e-02
-0.000000000000000000e+00
-0.000000000000000000e+00
-0.000000000000000000e+00
-0.000000000000000000e+00
0.000000000000000000e+00
0.000000000000000000e+00
-0.000000000000000000e+00
0.000000000000000000e+00
2.540163137018680573e-02
2.660040371119976044e-02
-1.454360503703355789e-02
0.000000000000000000e+00
1.225859299302101135e-02
-2.553630620241165161e-02
-2.445805631577968597e-02
1.802101545035839081e-02
2.394970320165157318e-02
2.220884710550308228e-02
-0.000000000000000000e+00
-0.000000000000000000e+00
0.000000000000000000e+00
-0.000000000000000000e+00
-1.968104764819145203e-02
-1.980325207114219666e-02
-2.060453779995441437e-02
-0.000000000000000000e+00
-2.108412235975265503e-02
-2.883145399391651154e-02
-1.543906051665544510e-02
-2.289577946066856384e-02
-2.060999535024166107e-02
-0.000000000000000000e+00
-0.000000000000000000e+00
2.913966029882431030e-02
-0.000000000000000000e+00
-1.465983130037784576e-02
1.861168630421161652e-02
-0.000000000000000000e+00
0.000000000000000000e+00
2.026433497667312622e-02
-0.000000000000000000e+00
2.112188935279846191e-02
-1.908044144511222839e-02
-0.000000000000000000e+00
0.000000000000000000e+00
-2.240892127156257629e-02
0.000000000000000000e+00
-0.000000000000000000e+00
-0.000000000000000000e+00
0.000000000000000000e+00
-0.000000000000000000e+00
-3.905424848198890686e-02
-0.000000000000000000e+00
-1.579857431352138519e-02
-0.000000000000000000e+00
-0.000000000000000000e+00
-0.000000000000000000e+00
0.000000000000000000e+00
0.000000000000000000e+00
-0.000000000000000000e+00
1.898981072008609772e-02
-2.886201813817024231e-02
-0.000000000000000000e+00
0.000000000000000000e+00
-0.000000000000000000e+00
-0.000000000000000000e+00
-2.087794058024883270e-02
-0.000000000000000000e+00
-2.451184764504432678e-02
-0.000000000000000000e+00
-0.000000000000000000e+00
-0.000000000000000000e+00
-0.000000000000000000e+00
-0.000000000000000000e+00
-1.562899537384510040e-02
0.000000000000000000e+00
1.775784045457839966e-02
0.000000000000000000e+00
0.000000000000000000e+00
-2.031062729656696320e-02
-0.000000000000000000e+00
-0.000000000000000000e+00
0.000000000000000000e+00
-0.000000000000000000e+00
0.000000000000000000e+00
2.404791861772537231e-02
1.185370702296495438e-02
-4.588621482253074646e-02
-1.522518973797559738e-02
0.000000000000000000e+00
-0.000000000000000000e+00
0.000000000000000000e+00
3.587527945637702942e-02
2.011770382523536682e-02
-1.404721010476350784e-02
-0.000000000000000000e+00
-0.000000000000000000e+00
4.089974239468574524e-02
0.000000000000000000e+00
-2.821644209325313568e-02
0.000000000000000000e+00
-0.000000000000000000e+00
0.000000000000000000e+00
0.000000000000000000e+00
0.000000000000000000e+00
-0.000000000000000000e+00
2.813884429633617401e-02
-0.000000000000000000e+00
-1.564765721559524536e-02
0.000000000000000000e+00
2.791007980704307556e-02
-3.225315734744071960e-02
-3.187800943851470947e-02
-0.000000000000000000e+00
0.000000000000000000e+00
0.000000000000000000e+00
2.349751070141792297e-02
5.304781347513198853e-02
0.000000000000000000e+00
3.256437554955482483e-02
1.980172470211982727e-02
3.165671229362487793e-02
-0.000000000000000000e+00
3.533175960183143616e-02
3.783547878265380859e-02
2.752666547894477844e-02
1.881851442158222198e-02
0.000000000000000000e+00
1.479214802384376526e-02
-1.338876038789749146e-02
0.000000000000000000e+00
-2.688895538449287415e-02
1.837833039462566376e-02
1.423204783350229263e-02
0.000000000000000000e+00
-0.000000000000000000e+00
1.439464278519153595e-02
-0.000000000000000000e+00
-0.000000000000000000e+00
0.000000000000000000e+00
-0.000000000000000000e+00
-0.000000000000000000e+00
0.000000000000000000e+00
1.763990148901939392e-02
-0.000000000000000000e+00
2.655679732561111450e-02
1.822145842015743256e-02
-0.000000000000000000e+00
-2.040322497487068176e-02
0.000000000000000000e+00
-1.352912187576293945e-02
-0.000000000000000000e+00
-1.374069321900606155e-02
0.000000000000000000e+00
1.189551968127489090e-02
0.000000000000000000e+00
0.000000000000000000e+00
1.247043721377849579e-02
2.089110761880874634e-02
0.000000000000000000e+00
1.271985564380884171e-02
-0.000000000000000000e+00
0.000000000000000000e+00
0.000000000000000000e+00
3.242801502346992493e-02
-0.000000000000000000e+00
-0.000000000000000000e+00
-1.938924565911293030e-02
-0.000000000000000000e+00
-0.000000000000000000e+00
1.391652785241603851e-02
1.264042407274246216e-02
2.316164970397949219e-02
2.105432935059070587e-02
0.000000000000000000e+00
-1.384015846997499466e-02
-2.111013047397136688e-02
0.000000000000000000e+00
-2.281065098941326141e-02
-3.233687579631805420e-02
2.009630948305130005e-02
2.916000597178936005e-02
4.630605876445770264e-02
1.885333657264709473e-02
0.000000000000000000e+00
0.000000000000000000e+00
-2.727794460952281952e-02
1.875170134007930756e-02
-1.512568444013595581e-02
-0.000000000000000000e+00
1.929081603884696960e-02
-1.213161461055278778e-02
0.000000000000000000e+00
2.094250358641147614e-02
-1.240521669387817383e-02
-0.000000000000000000e+00
1.527406126260757446e-01
1.126394793391227722e-01
-3.148457780480384827e-02
5.807722732424736023e-02
-3.141660243272781372e-02
-9.524624794721603394e-02
-2.310289442539215088e-02
-7.146350294351577759e-02
-4.637093469500541687e-02
2.418985217809677124e-02
-0.000000000000000000e+00
-0.000000000000000000e+00
0.000000000000000000e+00
-0.000000000000000000e+00
-0.000000000000000000e+00
-0.000000000000000000e+00
0.000000000000000000e+00
0.000000000000000000e+00
-3.803212195634841919e-02
-2.309722267091274261e-02
-0.000000000000000000e+00
-3.508861735463142395e-02
0.000000000000000000e+00
1.364022679626941681e-02
0.000000000000000000e+00
0.000000000000000000e+00
0.000000000000000000e+00
-4.418350383639335632e-02
-1.619023084640502930e-02
1.224327459931373596e-02
-4.034922271966934204e-02
-1.789364404976367950e-02
2.891144528985023499e-02
-0.000000000000000000e+00
-0.000000000000000000e+00
0.000000000000000000e+00
0.000000000000000000e+00
1.311919838190078735e-02
0.000000000000000000e+00
0.000000000000000000e+00
-1.303075347095727921e-02
-0.000000000000000000e+00
-2.331381663680076599e-02
0.000000000000000000e+00
0.000000000000000000e+00
-2.117962017655372620e-02
-0.000000000000000000e+00
0.000000000000000000e+00
-0.000000000000000000e+00
0.000000000000000000e+00
0.000000000000000000e+00
-1.452930830419063568e-02
2.984267845749855042e-02
0.000000000000000000e+00
0.000000000000000000e+00
0.000000000000000000e+00
3.007812611758708954e-02
-0.000000000000000000e+00
0.000000000000000000e+00
-0.000000000000000000e+00
3.135984018445014954e-02
0.000000000000000000e+00
-0.000000000000000000e+00
-3.672617301344871521e-02
0.000000000000000000e+00
1.391944587230682373e-01
-4.299230873584747314e-02
0.000000000000000000e+00
7.714070379734039307e-02
-5.005034431815147400e-02
-0.000000000000000000e+00
2.469312399625778198e-02
1.175720710307359695e-02
0.000000000000000000e+00
0.000000000000000000e+00
0.000000000000000000e+00
0.000000000000000000e+00
0.000000000000000000e+00
-0.000000000000000000e+00
0.000000000000000000e+00
0.000000000000000000e+00
3.583773970603942871e-02
1.255339849740266800e-02
0.000000000000000000e+00
2.686749212443828583e-02
-1.263443008065223694e-02
2.228446863591670990e-02
2.841668762266635895e-02
0.000000000000000000e+00
3.583123907446861267e-02
-0.000000000000000000e+00
2.271237596869468689e-02
3.448379039764404297e-02
-3.642644733190536499e-02
1.205527856945991516e-01
3.180170059204101562e-02
1.565475203096866608e-02
0.000000000000000000e+00
0.000000000000000000e+00
1.383870281279087067e-02
-0.000000000000000000e+00
0.000000000000000000e+00
-0.000000000000000000e+00
-4.208294302225112915e-02
-0.000000000000000000e+00
2.069999277591705322e-02
0.000000000000000000e+00
1.656517572700977325e-02
-1.180328056216239929e-02
2.663485519587993622e-02
2.937661111354827881e-02
0.000000000000000000e+00
-0.000000000000000000e+00
0.000000000000000000e+00
3.140748664736747742e-02
0.000000000000000000e+00
0.000000000000000000e+00
-0.000000000000000000e+00
-2.855601347982883453e-02
2.824010513722896576e-02
-2.690049819648265839e-02
2.209928818047046661e-02
0.000000000000000000e+00
0.000000000000000000e+00
-2.989609539508819580e-02
-1.775789074599742889e-02
-0.000000000000000000e+00
-0.000000000000000000e+00
1.428946573287248611e-02
-1.736582256853580475e-02
0.000000000000000000e+00
1.704278960824012756e-02
0.000000000000000000e+00
0.000000000000000000e+00
0.000000000000000000e+00
2.246294729411602020e-02
1.216969452798366547e-02
-0.000000000000000000e+00
1.719043217599391937e-02
-2.377923019230365753e-02
0.000000000000000000e+00
0.000000000000000000e+00
1.924045570194721222e-02
-0.000000000000000000e+00
0.000000000000000000e+00
0.000000000000000000e+00
0.000000000000000000e+00
-0.000000000000000000e+00
-1.541273575276136398e-02
-1.635838113725185394e-02
-0.000000000000000000e+00
0.000000000000000000e+00
1.174858119338750839e-02
0.000000000000000000e+00
1.523579377681016922e-02
-1.480403635650873184e-02
2.571980468928813934e-02
0.000000000000000000e+00
-1.926621422171592712e-02
1.598616130650043488e-02
0.000000000000000000e+00
-1.949425041675567627e-02
-3.093626722693443298e-02
-3.514239192008972168e-02
-0.000000000000000000e+00
2.212561294436454773e-02
1.333919353783130646e-02
0.000000000000000000e+00
0.000000000000000000e+00
-2.115460857748985291e-02
-0.000000000000000000e+00
-1.969547197222709656e-02
-2.312184870243072510e-02
0.000000000000000000e+00
-0.000000000000000000e+00
-1.947463490068912506e-02
2.968921512365341187e-02
-1.370328757911920547e-02
-0.000000000000000000e+00
2.473032660782337189e-02
-2.956231124699115753e-02
-1.933532953262329102e-02
-1.826366223394870758e-02
-3.214421123266220093e-02
3.368679061532020569e-02
0.000000000000000000e+00
-1.863148994743824005e-02
-0.000000000000000000e+00
-3.280808776617050171e-02
-2.627726085484027863e-02
-1.576851308345794678e-02
0.000000000000000000e+00
-5.815574526786804199e-02
-2.317824773490428925e-02
-1.205094531178474426e-02
-1.810739748179912567e-02
-2.856140024960041046e-02
-0.000000000000000000e+00
1.995306648313999176e-02
-0.000000000000000000e+00
-0.000000000000000000e+00
-1.492685638368129730e-02
2.919653058052062988e-02
0.000000000000000000e+00
-1.378604955971240997e-02
1.196560729295015335e-02
-1.282493025064468384e-02
-2.243835292756557465e-02
0.000000000000000000e+00
0.000000000000000000e+00
0.000000000000000000e+00
-3.854308649897575378e-02
-1.605667360126972198e-02
1.620365492999553680e-02
-0.000000000000000000e+00
-0.000000000000000000e+00
3.205274045467376709e-02
3.948734700679779053e-02
-0.000000000000000000e+00
4.588589817285537720e-02
0.000000000000000000e+00
-3.338629752397537231e-02
5.225509405136108398e-02
1.917920820415019989e-02
-0.000000000000000000e+00
0.000000000000000000e+00
-0.000000000000000000e+00
-1.563990302383899689e-02
-0.000000000000000000e+00
-0.000000000000000000e+00
1.317589078098535538e-02
-2.935892716050148010e-02
-0.000000000000000000e+00
1.234447397291660309e-02
3.596388921141624451e-02
4.166813939809799194e-02
4.362782463431358337e-02
1.897894032299518585e-02
-4.927363246679306030e-02
-2.116642519831657410e-02
-0.000000000000000000e+00
-3.408458456397056580e-02
-3.080479241907596588e-02
-1.330815441906452179e-02
-1.277994550764560699e-02
-4.480356350541114807e-02
-0.000000000000000000e+00
-1.998091861605644226e-02
-3.105224296450614929e-02
0.000000000000000000e+00
2.348250895738601685e-02
0.000000000000000000e+00
0.000000000000000000e+00
3.286907076835632324e-02
1.804101653397083282e-02
3.095473162829875946e-02
1.250900775194168091e-01
4.559539258480072021e-02
3.760260716080665588e-02
1.009593158960342407e-01
-0.000000000000000000e+00
0.000000000000000000e+00
3.564181178808212280e-02
1.321308966726064682e-02
2.067327871918678284e-02
-0.000000000000000000e+00
-0.000000000000000000e+00
0.000000000000000000e+00
-0.000000000000000000e+00
-0.000000000000000000e+00
2.503282949328422546e-02
0.000000000000000000e+00
-0.000000000000000000e+00
3.999654203653335571e-02
0.000000000000000000e+00
0.000000000000000000e+00
2.282960340380668640e-02
0.000000000000000000e+00
-3.586310893297195435e-02
0.000000000000000000e+00
1.671692915260791779e-02
-0.000000000000000000e+00
2.984125912189483643e-02
0.000000000000000000e+00
-0.000000000000000000e+00
1.448338758200407028e-02
0.000000000000000000e+00
-0.000000000000000000e+00
-0.000000000000000000e+00
0.000000000000000000e+00
0.000000000000000000e+00
0.000000000000000000e+00
0.000000000000000000e+00
0.000000000000000000e+00
-0.000000000000000000e+00
-3.540811315178871155e-02
-0.000000000000000000e+00
0.000000000000000000e+00
-1.335774548351764679e-02
2.272941730916500092e-02
-0.000000000000000000e+00
-4.293657094240188599e-02
2.835735306143760681e-02
0.000000000000000000e+00
-0.000000000000000000e+00
0.000000000000000000e+00
2.831738628447055817e-02
2.293055318295955658e-02
3.034369833767414093e-02
1.219557225704193115e-02
-2.184855565428733826e-02
-0.000000000000000000e+00
3.579717129468917847e-02
-0.000000000000000000e+00
4.270553216338157654e-02
0.000000000000000000e+00
-0.000000000000000000e+00
3.117003105580806732e-02
2.004275470972061157e-02
-1.270233094692230225e-02
1.904143020510673523e-02
0.000000000000000000e+00
-4.791554436087608337e-02
0.000000000000000000e+00
1.905044727027416229e-02
2.969195321202278137e-02
-3.800833225250244141e-02
7.042212784290313721e-02
7.073030620813369751e-02
-1.350829750299453735e-02
-1.583191379904747009e-02
3.839102759957313538e-02
-0.000000000000000000e+00
2.181916125118732452e-02
0.000000000000000000e+00
0.000000000000000000e+00
-1.807019487023353577e-02
-6.133638322353363037e-02
0.000000000000000000e+00
1.772874221205711365e-02
1.385150011628866196e-02
0.000000000000000000e+00
-0.000000000000000000e+00
1.660975813865661621e-02
4.438278451561927795e-02
0.000000000000000000e+00
0.000000000000000000e+00
4.475702717900276184e-02
-1.551952958106994629e-02
-3.175162523984909058e-02
-0.000000000000000000e+00
0.000000000000000000e+00
-1.983302645385265350e-02
-1.582688651978969574e-02
-1.712770573794841766e-02
1.700521074235439301e-02
-0.000000000000000000e+00
-1.547002233564853668e-02
0.000000000000000000e+00
-1.692268997430801392e-02
-1.776899211108684540e-02
-1.225868612527847290e-02
0.000000000000000000e+00
-1.327342074364423752e-02
-1.686927117407321930e-02
3.634500503540039062e-02
2.747809141874313354e-02
0.000000000000000000e+00
-0.000000000000000000e+00
-4.872789978981018066e-02
-2.398860454559326172e-02
1.715683750808238983e-02
-2.307632565498352051e-02
-4.743328317999839783e-02
2.393205650150775909e-02
0.000000000000000000e+00
0.000000000000000000e+00
7.743498682975769043e-02
1.738541573286056519e-02
1.604612544178962708e-02
0.000000000000000000e+00
2.332262322306632996e-02
1.237616501748561859e-02
-0.000000000000000000e+00
1.522016152739524841e-02
-0.000000000000000000e+00
-0.000000000000000000e+00
0.000000000000000000e+00
0.000000000000000000e+00
-0.000000000000000000e+00
-0.000000000000000000e+00
0.000000000000000000e+00
-2.663347870111465454e-02
0.000000000000000000e+00
0.000000000000000000e+00
-0.000000000000000000e+00
-4.687281697988510132e-02
-2.422016859054565430e-02
-1.335208397358655930e-02
-2.756005898118019104e-02
2.324911020696163177e-02
0.000000000000000000e+00
-4.007560759782791138e-02
0.000000000000000000e+00
3.333109989762306213e-02
-3.745456412434577942e-02
1.186020579189062119e-02
4.527062922716140747e-02
-0.000000000000000000e+00
-1.489707734435796738e-02
-2.154824137687683105e-02
0.000000000000000000e+00
-0.000000000000000000e+00
0.000000000000000000e+00
-1.188943814486265182e-02
-0.000000000000000000e+00
0.000000000000000000e+00
-3.591841831803321838e-02
-2.794153057038784027e-02
-2.397709339857101440e-02
-3.408486023545265198e-02
-4.086730629205703735e-02
-5.303592607378959656e-02
1.212491188198328018e-02
-0.000000000000000000e+00
-0.000000000000000000e+00
-1.489376835525035858e-02
-0.000000000000000000e+00
-1.223148871213197708e-02
-0.000000000000000000e+00
-2.666141092777252197e-02
-0.000000000000000000e+00
-0.000000000000000000e+00
-0.000000000000000000e+00
1.989013515412807465e-02
0.000000000000000000e+00
-2.185874432325363159e-02
-0.000000000000000000e+00
-0.000000000000000000e+00
-3.611768409609794617e-02
-1.791399903595447540e-02
5.320726707577705383e-02
1.487718895077705383e-02
-4.300801455974578857e-02
1.843532733619213104e-02
-3.323603793978691101e-02
-1.572493277490139008e-02
-2.021549083292484283e-02
0.000000000000000000e+00
4.756357148289680481e-02
0.000000000000000000e+00
-1.747422851622104645e-02
-0.000000000000000000e+00
0.000000000000000000e+00
2.308485284447669983e-02
0.000000000000000000e+00
-1.277404464781284332e-02
-1.833757758140563965e-02
-0.000000000000000000e+00
-0.000000000000000000e+00
-0.000000000000000000e+00
1.443852484226226807e-02
-1.220100931823253632e-02
1.300985086709260941e-02
-2.393165789544582367e-02
1.536696590483188629e-02
-0.000000000000000000e+00
-0.000000000000000000e+00
-2.411580085754394531e-02
-2.751155011355876923e-02
-0.000000000000000000e+00
-2.869086153805255890e-02
-0.000000000000000000e+00
-3.949708119034767151e-02
1.348847337067127228e-02
-1.815604232251644135e-02
-5.039752274751663208e-02
7.531560212373733521e-02
5.927033349871635437e-02
2.507418766617774963e-02
7.003577798604965210e-02
4.555668681859970093e-02
8.966528624296188354e-02
2.931654825806617737e-02
7.022225111722946167e-02
3.790603950619697571e-02
-2.424806542694568634e-02
-0.000000000000000000e+00
3.221921995282173157e-02
-1.372576691210269928e-02
6.032898649573326111e-02
1.361371017992496490e-02
2.163486368954181671e-02
3.444867208600044250e-02
-2.262790873646736145e-02
1.219708193093538284e-02
-1.754983142018318176e-02
0.000000000000000000e+00
-2.631704695522785187e-02
-4.998992010951042175e-02
0.000000000000000000e+00
-0.000000000000000000e+00
-1.752021722495555878e-02
0.000000000000000000e+00
-8.785448968410491943e-02
-6.858474761247634888e-02
-4.301502928137779236e-02
-8.856862038373947144e-02
-6.877561658620834351e-02
-4.426600411534309387e-02
-5.494698882102966309e-02
-5.673122778534889221e-02
-3.659756854176521301e-02
-1.988707296550273895e-02
2.235542796552181244e-02
1.133973002433776855e-01
-3.905067220330238342e-02
-4.680469259619712830e-02
8.233921974897384644e-02
-3.566276282072067261e-02
-5.676870048046112061e-02
4.756927490234375000e-02
-3.698592260479927063e-02
-1.569008640944957733e-02
2.809247560799121857e-02
-1.953401975333690643e-02
-3.630439937114715576e-02
-0.000000000000000000e+00
1.562354527413845062e-02
-0.000000000000000000e+00
-2.058437839150428772e-02
1.720321364700794220e-02
-0.000000000000000000e+00
2.859070897102355957e-02
-0.000000000000000000e+00
-7.444710284471511841e-02
-2.324728854000568390e-02
3.563079610466957092e-02
-0.000000000000000000e+00
6.015210971236228943e-02
-2.726337499916553497e-02
-0.000000000000000000e+00
-3.768686577677726746e-02
-0.000000000000000000e+00
-1.758230291306972504e-02
0.000000000000000000e+00
2.316675148904323578e-02
-0.000000000000000000e+00
-0.000000000000000000e+00
-0.000000000000000000e+00
-0.000000000000000000e+00
-1.890025846660137177e-02
-2.526298537850379944e-02
-0.000000000000000000e+00
-2.049951814115047455e-02
0.000000000000000000e+00
-0.000000000000000000e+00
-0.000000000000000000e+00
-0.000000000000000000e+00
0.000000000000000000e+00
0.000000000000000000e+00
-1.644495129585266113e-02
4.737367853522300720e-02
0.000000000000000000e+00
-0.000000000000000000e+00
0.000000000000000000e+00
-1.196368038654327393e-02
1.812663301825523376e-02
2.172867767512798309e-02
7.823973894119262695e-02
2.759989723563194275e-02
-1.799345389008522034e-02
3.853462636470794678e-02
7.006548345088958740e-02
0.000000000000000000e+00
3.417709842324256897e-02
6.922891736030578613e-02
1.384400855749845505e-02
2.635129168629646301e-02
4.474049434065818787e-02
-0.000000000000000000e+00
2.790537290275096893e-02
0.000000000000000000e+00
2.445655688643455505e-02
6.688632071018218994e-02
-1.776507496833801270e-02
-0.000000000000000000e+00
-0.000000000000000000e+00
0.000000000000000000e+00
-0.000000000000000000e+00
-0.000000000000000000e+00
-0.000000000000000000e+00
-3.403763845562934875e-02
-2.803283557295799255e-02
-1.736373640596866608e-02
2.227221988141536713e-02
4.175926744937896729e-02
-1.571651920676231384e-02
0.000000000000000000e+00
0.000000000000000000e+00
0.000000000000000000e+00
0.000000000000000000e+00
-0.000000000000000000e+00
-5.267386138439178467e-02
0.000000000000000000e+00
-6.184701994061470032e-02
-5.824995040893554688e-02
0.000000000000000000e+00
-1.886824145913124084e-02
-5.282850563526153564e-02
-3.193946927785873413e-02
-0.000000000000000000e+00
-1.276030763983726501e-02
-0.000000000000000000e+00
3.478256240487098694e-02
-0.000000000000000000e+00
3.697114810347557068e-02
2.048727311193943024e-02
4.864528030157089233e-02
2.856056764721870422e-02
2.298005484044551849e-02
-4.116998985409736633e-02
0.000000000000000000e+00
2.450470998883247375e-02
0.000000000000000000e+00
2.361272834241390228e-02
-1.606970280408859253e-02
1.810856536030769348e-02
-0.000000000000000000e+00
-2.175429835915565491e-02
2.384597063064575195e-02
-0.000000000000000000e+00
0.000000000000000000e+00
0.000000000000000000e+00
-2.013095095753669739e-02
-0.000000000000000000e+00
1.423777174204587936e-02
0.000000000000000000e+00
-0.000000000000000000e+00
-2.755948714911937714e-02
6.774022430181503296e-02
-0.000000000000000000e+00
5.486929789185523987e-02
6.426868587732315063e-02
4.743506386876106262e-02
-1.629117690026760101e-02
2.315577492117881775e-02
-1.488739438354969025e-02
-3.126623854041099548e-02
-0.000000000000000000e+00
1.835895888507366180e-02
-1.724209077656269073e-02
-0.000000000000000000e+00
4.068666696548461914e-02
-1.537881977856159210e-02
2.758938260376453400e-02
9.246279299259185791e-02
0.000000000000000000e+00
2.391147427260875702e-02
0.000000000000000000e+00
1.194873172789812088e-02
-1.434591691941022873e-02
-4.183927550911903381e-02
-0.000000000000000000e+00
2.162956632673740387e-02
-3.689530119299888611e-02
-1.945875398814678192e-02
-0.000000000000000000e+00
-0.000000000000000000e+00
-4.482286050915718079e-02
-4.798396304249763489e-02
-3.511548042297363281e-02
0.000000000000000000e+00
-0.000000000000000000e+00
-0.000000000000000000e+00
-2.996698394417762756e-02
-1.696057058870792389e-02
-1.884065940976142883e-02
-2.308485843241214752e-02
1.721262745559215546e-02
-4.375117272138595581e-02
-0.000000000000000000e+00
0.000000000000000000e+00
-1.847955025732517242e-02
2.774387784302234650e-02
-0.000000000000000000e+00
-3.270161524415016174e-02
-1.656262762844562531e-02
-9.141800552606582642e-02
-3.401920199394226074e-02
-5.570507422089576721e-02
-3.171445056796073914e-02
2.579909749329090118e-02
-3.662008792161941528e-02
-2.152882516384124756e-02
1.594673842191696167e-02
-8.046492934226989746e-02
-6.991537660360336304e-02
-4.155411571264266968e-02
-5.621179565787315369e-02
-8.331386744976043701e-02
-4.774883016943931580e-02
-2.696549333631992340e-02
-0.000000000000000000e+00
2.753796800971031189e-02
-1.735131256282329559e-02
0.000000000000000000e+00
4.341958835721015930e-02
0.000000000000000000e+00
0.000000000000000000e+00
2.826821804046630859e-02
-1.336981821805238724e-02
0.000000000000000000e+00
3.981132805347442627e-02
0.000000000000000000e+00
0.000000000000000000e+00
6.144781410694122314e-02
3.630707412958145142e-02
4.818502441048622131e-02
6.173956394195556641e-02
-1.975728943943977356e-02
-1.273892354220151901e-02
-3.604279085993766785e-02
0.000000000000000000e+00
0.000000000000000000e+00
-1.755325309932231903e-02
3.371720388531684875e-02
0.000000000000000000e+00
4.897874593734741211e-02
-0.000000000000000000e+00
-4.354004561901092529e-02
0.000000000000000000e+00
3.785245493054389954e-02
6.122799217700958252e-02
-1.463808771222829819e-02
6.367870420217514038e-02
3.914500400424003601e-02
-3.622583299875259399e-02
3.932372108101844788e-02
0.000000000000000000e+00
-1.732716150581836700e-02
0.000000000000000000e+00
-6.069144979119300842e-02
-7.559031248092651367e-02
2.232586033642292023e-02
-0.000000000000000000e+00
-2.716905437409877777e-02
2.130015380680561066e-02
0.000000000000000000e+00
-0.000000000000000000e+00
0.000000000000000000e+00
-2.016985043883323669e-02
-2.445042505860328674e-02
-0.000000000000000000e+00
-3.350089117884635925e-02
-1.994990184903144836e-02
-3.197147324681282043e-02
0.000000000000000000e+00
3.167117014527320862e-02
-2.537664771080017090e-02
1.528745517134666443e-02
-2.123135142028331757e-02
2.217675745487213135e-02
2.823031321167945862e-02
1.981791853904724121e-02
-1.790176145732402802e-02
0.000000000000000000e+00
-0.000000000000000000e+00
-0.000000000000000000e+00
-2.960073575377464294e-02
-0.000000000000000000e+00
-0.000000000000000000e+00
-0.000000000000000000e+00
-0.000000000000000000e+00
-3.585261851549148560e-02
-0.000000000000000000e+00
1.565128937363624573e-02
-1.887687481939792633e-02
-0.000000000000000000e+00
-2.087468653917312622e-02
1.415492873638868332e-02
1.293203979730606079e-02
-0.000000000000000000e+00
2.649147808551788330e-02
0.000000000000000000e+00
3.706393763422966003e-02
0.000000000000000000e+00
2.334087900817394257e-02
2.887592650949954987e-02
4.888356477022171021e-02
2.812094800174236298e-02
3.085527382791042328e-02
5.607549473643302917e-02
2.678436785936355591e-02
-2.322475053369998932e-02
1.287535578012466431e-02
-2.580532804131507874e-02
-3.335999697446823120e-02
0.000000000000000000e+00
-0.000000000000000000e+00
-0.000000000000000000e+00
-0.000000000000000000e+00
0.000000000000000000e+00
1.307758782058954239e-02
-3.309778869152069092e-02
-3.021050244569778442e-02
-1.865334436297416687e-02
0.000000000000000000e+00
-3.140129521489143372e-02
-0.000000000000000000e+00
-1.481110136955976486e-02
-4.276927933096885681e-02
-0.000000000000000000e+00
-1.572800055146217346e-02
-3.858885541558265686e-02
-1.262526772916316986e-02
0.000000000000000000e+00
0.000000000000000000e+00
2.149192057549953461e-02
0.000000000000000000e+00
0.000000000000000000e+00
1.244002953171730042e-02
0.000000000000000000e+00
1.926060393452644348e-02
0.000000000000000000e+00
2.041906490921974182e-02
-0.000000000000000000e+00
-0.000000000000000000e+00
-1.453310064971446991e-02
8.986850082874298096e-02
6.408949941396713257e-02
9.970036149024963379e-02
1.333978623151779175e-01
0.000000000000000000e+00
3.360499814152717590e-02
1.873567327857017517e-02
-6.068209186196327209e-02
3.721705824136734009e-02
-0.000000000000000000e+00
1.424267608672380447e-02
0.000000000000000000e+00
-3.434602171182632446e-02
-1.502792816609144211e-02
5.275047942996025085e-02
3.846473619341850281e-02
5.167129263281822205e-02
0.000000000000000000e+00
0.000000000000000000e+00
0.000000000000000000e+00
-1.855288632214069366e-02
-1.213485002517700195e-02
-0.000000000000000000e+00
-1.371126156300306320e-02
0.000000000000000000e+00
0.000000000000000000e+00
0.000000000000000000e+00
0.000000000000000000e+00
0.000000000000000000e+00
1.366086211055517197e-02
2.742558531463146210e-02
1.692842878401279449e-02
2.674499712884426117e-02
-0.000000000000000000e+00
1.820282451808452606e-02
-5.340372025966644287e-02
-3.447852656245231628e-02
0.000000000000000000e+00
-2.223067544400691986e-02
-2.481087110936641693e-02
-1.766971871256828308e-02
-0.000000000000000000e+00
-1.600809022784233093e-02
1.733831875026226044e-02
-2.860474586486816406e-02
-0.000000000000000000e+00
0.000000000000000000e+00
2.630551904439926147e-02
4.010224342346191406e-02
0.000000000000000000e+00
6.840270012617111206e-02
2.745032310485839844e-02
-3.025524504482746124e-02
-1.954035833477973938e-02
0.000000000000000000e+00
4.247448220849037170e-02
0.000000000000000000e+00
8.601132035255432129e-02
0.000000000000000000e+00
3.659414872527122498e-02
1.657920330762863159e-02
-4.102424159646034241e-02
-0.000000000000000000e+00
-1.443937420845031738e-02
-2.941253781318664551e-02
-2.392364293336868286e-02
-1.954679936170578003e-02
-4.079024493694305420e-02
-2.576663345098495483e-02
-0.000000000000000000e+00
-0.000000000000000000e+00
-3.064516559243202209e-02
6.997558474540710449e-02
5.475538223981857300e-02
6.386771053075790405e-02
1.215403601527214050e-01
4.957266151905059814e-02
3.750757500529289246e-02
2.900327183306217194e-02
-3.312044963240623474e-02
3.144631162285804749e-02
1.664500124752521515e-02
1.251587830483913422e-02
-3.521225973963737488e-02
1.644894294440746307e-02
1.291626133024692535e-02
0.000000000000000000e+00
2.676105499267578125e-02
-1.319186296314001083e-02
1.193243730813264847e-02
0.000000000000000000e+00
1.881516724824905396e-02
0.000000000000000000e+00
0.000000000000000000e+00
0.000000000000000000e+00
2.986929938197135925e-02
0.000000000000000000e+00
3.583863377571105957e-02
0.000000000000000000e+00
0.000000000000000000e+00
1.797972619533538818e-02
0.000000000000000000e+00
-1.245721522718667984e-02
-0.000000000000000000e+00
0.000000000000000000e+00
0.000000000000000000e+00
-1.373217441141605377e-02
2.556391991674900055e-02
0.000000000000000000e+00
0.000000000000000000e+00
-2.027343772351741791e-02
-0.000000000000000000e+00
-0.000000000000000000e+00
-1.465319655835628510e-02
-2.954491227865219116e-02
1.479383930563926697e-02
3.429780900478363037e-02
3.828310221433639526e-02
2.606500126421451569e-02
1.231583487242460251e-02
0.000000000000000000e+00
2.790635079145431519e-02
-1.823836751282215118e-02
-1.172756217420101166e-02
0.000000000000000000e+00
-2.929920889437198639e-02
-1.848003454506397247e-02
-2.105328440666198730e-02
-1.316602341830730438e-02
0.000000000000000000e+00
-6.217623502016067505e-02
2.714573591947555542e-02
3.329050913453102112e-02
-2.713232487440109253e-02
-2.003288455307483673e-02
-3.750905022025108337e-02
1.416813023388385773e-02
-2.703573368489742279e-02
-0.000000000000000000e+00
-0.000000000000000000e+00
4.338012635707855225e-02
0.000000000000000000e+00
2.552287839353084564e-02
-0.000000000000000000e+00
0.000000000000000000e+00
-0.000000000000000000e+00
-0.000000000000000000e+00
-0.000000000000000000e+00
-3.279470652341842651e-02
0.000000000000000000e+00
-1.664267107844352722e-02
-1.799321919679641724e-02
-0.000000000000000000e+00
-0.000000000000000000e+00
-3.373850882053375244e-02
0.000000000000000000e+00
-1.382208336144685745e-02
-2.450392395257949829e-02
0.000000000000000000e+00
-0.000000000000000000e+00
1.685884408652782440e-02
3.070678561925888062e-02
1.992160268127918243e-02
4.869966581463813782e-02
0.000000000000000000e+00
-2.284767106175422668e-02
-1.677766256034374237e-02
2.020242810249328613e-02
-3.962913155555725098e-02
-3.213854879140853882e-02
7.240182161331176758e-02
-1.787293143570423126e-02
2.297855168581008911e-02
2.825563587248325348e-02
-4.442932456731796265e-02
-1.916531845927238464e-02
1.774336397647857666e-02
-2.087546139955520630e-02
-4.547077789902687073e-02
0.000000000000000000e+00
0.000000000000000000e+00
0.000000000000000000e+00
1.442262250930070877e-02
1.640490442514419556e-02
-2.471118606626987457e-02
2.853703498840332031e-02
-2.111031860113143921e-02
-1.415807381272315979e-02
-0.000000000000000000e+00
0.000000000000000000e+00
-0.000000000000000000e+00
1.219743117690086365e-02
-2.227960340678691864e-02
-3.028828650712966919e-02
4.158623889088630676e-02
-0.000000000000000000e+00
-5.515291541814804077e-02
-4.898361861705780029e-02
-4.440882429480552673e-02
2.686785906553268433e-02
-2.195742726325988770e-02
-3.583806380629539490e-02
-2.802570350468158722e-02
-1.554336212575435638e-02
-2.327800355851650238e-02
-6.821549683809280396e-02
-2.814267203211784363e-02
0.000000000000000000e+00
0.000000000000000000e+00
-5.004650354385375977e-02
-1.446563657373189926e-02
6.484474241733551025e-02
1.192983612418174744e-02
1.015229523181915283e-01
3.676413372159004211e-02
-0.000000000000000000e+00
1.293350476771593094e-02
0.000000000000000000e+00
-1.211261656135320663e-02
0.000000000000000000e+00
-2.622804790735244751e-02
-0.000000000000000000e+00
-1.784034632146358490e-02
-1.961114630103111267e-02
-0.000000000000000000e+00
2.041123621165752411e-02
-1.905526407063007355e-02
2.994599938392639160e-02
1.593436859548091888e-02
0.000000000000000000e+00
2.509020455181598663e-02
-0.000000000000000000e+00
-0.000000000000000000e+00
0.000000000000000000e+00
6.758639216423034668e-02
-0.000000000000000000e+00
7.354236394166946411e-02
1.279931068420410156e-01
-1.565762981772422791e-02
0.000000000000000000e+00
-1.951972022652626038e-02
-2.599200606346130371e-02
0.000000000000000000e+00
-0.000000000000000000e+00
-0.000000000000000000e+00
1.438382547348737717e-02
3.672541305422782898e-02
1.886958628892898560e-02
-1.265628822147846222e-02
-2.391524612903594971e-02
-3.113919124007225037e-02
-3.038300760090351105e-02
-9.941733628511428833e-02
-5.009971186518669128e-02
-9.294936805963516235e-02
-1.659878343343734741e-01
-1.085612326860427856e-01
-1.585344597697257996e-02
-8.189237117767333984e-02
-3.900270536541938782e-02
-2.167418040335178375e-02
-1.921490021049976349e-02
2.818380855023860931e-02
0.000000000000000000e+00
2.799732610583305359e-02
-0.000000000000000000e+00
2.393440343439579010e-02
1.438414677977561951e-02
-2.439150214195251465e-02
2.658585645258426666e-02
1.267693098634481430e-02
-0.000000000000000000e+00
-0.000000000000000000e+00
0.000000000000000000e+00
0.000000000000000000e+00
-1.596512272953987122e-02
2.664460800588130951e-02
0.000000000000000000e+00
2.271663397550582886e-02
3.872536122798919678e-02
1.732504181563854218e-02
-0.000000000000000000e+00
0.000000000000000000e+00
-0.000000000000000000e+00
0.000000000000000000e+00
-0.000000000000000000e+00
-4.425597563385963440e-02
1.695138029754161835e-02
-0.000000000000000000e+00
0.000000000000000000e+00
-0.000000000000000000e+00
-2.110821940004825592e-02
1.666038669645786285e-02
-3.076014481484889984e-02
-2.867657318711280823e-02
2.033101022243499756e-02
2.084397710859775543e-02
0.000000000000000000e+00
-0.000000000000000000e+00
0.000000000000000000e+00
1.776861958205699921e-02
-2.407469227910041809e-02
-4.678329080343246460e-02
-2.719645388424396515e-02
-3.501954674720764160e-02
-0.000000000000000000e+00
-1.192810200154781342e-02
-2.836758457124233246e-02
0.000000000000000000e+00
0.000000000000000000e+00
-2.683917246758937836e-02
0.000000000000000000e+00
1.504710037261247635e-02
-0.000000000000000000e+00
-0.000000000000000000e+00
-2.457935921847820282e-02
0.000000000000000000e+00
-2.558266371488571167e-02
-5.176679417490959167e-02
-4.358738288283348083e-02
3.169420734047889709e-02
-0.000000000000000000e+00
-0.000000000000000000e+00
1.378569658845663071e-02
-0.000000000000000000e+00
1.466703880578279495e-02
-0.000000000000000000e+00
-3.601351007819175720e-02
1.228308770805597305e-02
-1.227565854787826538e-02
-0.000000000000000000e+00
2.017085067927837372e-02
1.718284748494625092e-02
-2.204151079058647156e-02
1.862332224845886230e-02
3.406579419970512390e-02
0.000000000000000000e+00
3.833690658211708069e-02
3.906332328915596008e-02
1.547201350331306458e-02
-0.000000000000000000e+00
3.720311075448989868e-02
0.000000000000000000e+00
-4.265896975994110107e-02
-0.000000000000000000e+00
-9.253604710102081299e-02
-0.000000000000000000e+00
-2.592710964381694794e-02
0.000000000000000000e+00
7.463189214468002319e-02
1.807633042335510254e-02
0.000000000000000000e+00
-1.375702116638422012e-02
-1.893929950892925262e-02
-3.273882344365119934e-02
-2.966597862541675568e-02
-2.060785144567489624e-02
-0.000000000000000000e+00
0.000000000000000000e+00
-1.207788381725549698e-02
-0.000000000000000000e+00
-1.699754223227500916e-02
-3.480455651879310608e-02
-4.919518157839775085e-02
-3.197261691093444824e-02
-2.102095820009708405e-02
-0.000000000000000000e+00
-0.000000000000000000e+00
0.000000000000000000e+00
3.707748278975486755e-02
-0.000000000000000000e+00
-1.865991950035095215e-02
-2.918813936412334442e-02
-2.473970688879489899e-02
1.315216720104217529e-02
-0.000000000000000000e+00
1.321237999945878983e-02
0.000000000000000000e+00
2.337412536144256592e-02
-4.182241484522819519e-02
1.242264732718467712e-02
3.485860303044319153e-02
-3.126606717705726624e-02
-0.000000000000000000e+00
1.939593069255352020e-02
-2.571257762610912323e-02
2.160585857927799225e-02
-0.000000000000000000e+00
-2.111218310892581940e-02
1.284732110798358917e-02
-3.519159555435180664e-02
-3.773373365402221680e-02
-0.000000000000000000e+00
-4.317119345068931580e-02
-3.114908933639526367e-02
-0.000000000000000000e+00
-0.000000000000000000e+00
-1.436522509902715683e-02
1.267675310373306274e-02
3.854908421635627747e-02
1.317561231553554535e-02
-1.526838168501853943e-02
-0.000000000000000000e+00
0.000000000000000000e+00
-0.000000000000000000e+00
-5.616143718361854553e-02
-3.266026079654693604e-02
3.035670705139636993e-02
-2.824713662266731262e-02
-4.603442549705505371e-02
1.574128121137619019e-02
0.000000000000000000e+00
-6.186294928193092346e-02
-4.402713105082511902e-02
-5.618684366345405579e-02
7.338410615921020508e-02
-3.251286596059799194e-02
-6.265709549188613892e-02
1.410675942897796631e-01
-4.029367119073867798e-02
0.000000000000000000e+00
8.157453685998916626e-02
-1.251813676208257675e-02
0.000000000000000000e+00
-2.831652946770191193e-02
-1.426073629409074783e-02
2.111444063484668732e-02
1.408433634787797928e-02
-3.329051285982131958e-02
-3.250671550631523132e-02
-2.200528606772422791e-02
-0.000000000000000000e+00
-0.000000000000000000e+00
0.000000000000000000e+00
2.281672134995460510e-02
3.142885491251945496e-02
0.000000000000000000e+00
-3.094023279845714569e-02
-3.944546356797218323e-02
-0.000000000000000000e+00
2.386330254375934601e-02
3.033830039203166962e-02
-0.000000000000000000e+00
-1.437685638666152954e-02
-1.002183556556701660e-01
-0.000000000000000000e+00
0.000000000000000000e+00
-7.128120958805084229e-02
-0.000000000000000000e+00
-0.000000000000000000e+00
-0.000000000000000000e+00
-1.990349031984806061e-02
-0.000000000000000000e+00
-1.816873997449874878e-02
0.000000000000000000e+00
-2.682379819452762604e-02
-1.266459003090858459e-02
-1.201374270021915436e-02
0.000000000000000000e+00
-2.029575780034065247e-02
-2.435324899852275848e-02
1.374638453125953674e-02
-1.356275659054517746e-02
-1.757860369980335236e-02
0.000000000000000000e+00
-2.355622313916683197e-02
-0.000000000000000000e+00
-0.000000000000000000e+00
1.846423558890819550e-02
1.680992729961872101e-02
-2.394085563719272614e-02
2.683795429766178131e-02
-0.000000000000000000e+00
-0.000000000000000000e+00
0.000000000000000000e+00
-0.000000000000000000e+00
-2.975269034504890442e-02
-3.209292888641357422e-02
1.481443550437688828e-02
-2.747151441872119904e-02
1.511808019131422043e-02
1.689979247748851776e-02
-2.343842759728431702e-02
0.000000000000000000e+00
-0.000000000000000000e+00
4.031363129615783691e-02
2.533503435552120209e-02
2.231497876346111298e-02
-0.000000000000000000e+00
-0.000000000000000000e+00
0.000000000000000000e+00
-0.000000000000000000e+00
-2.271420694887638092e-02
-0.000000000000000000e+00
-3.394401445984840393e-02
2.874806709587574005e-02
-0.000000000000000000e+00
-3.207112476229667664e-02
2.303743734955787659e-02
1.337450277060270309e-02
-6.432135403156280518e-02
-2.968309074640274048e-02
-1.864960044622421265e-02
1.638469658792018890e-02
-0.000000000000000000e+00
0.000000000000000000e+00
-1.313670352101325989e-02
-8.728192746639251709e-02
0.000000000000000000e+00
4.157752171158790588e-02
-0.000000000000000000e+00
4.357597976922988892e-02
0.000000000000000000e+00
3.043017722666263580e-02
-0.000000000000000000e+00
2.388521656394004822e-02
4.869770631194114685e-02
-0.000000000000000000e+00
-0.000000000000000000e+00
2.393257245421409607e-02
-2.940490469336509705e-02
-2.652988396584987640e-02
1.395931933075189590e-02
0.000000000000000000e+00
-1.541902497410774231e-02
2.393232285976409912e-02
-3.364008292555809021e-02
-2.707424573600292206e-02
-0.000000000000000000e+00
-1.323218736797571182e-02
-0.000000000000000000e+00
-2.929822169244289398e-02
-1.779896020889282227e-02
-1.172981131821870804e-02
-5.317091941833496094e-02
-6.611483544111251831e-02
-0.000000000000000000e+00
-4.466036707162857056e-02
-3.525741770863533020e-02
6.010299548506736755e-02
1.502775400876998901e-02
-3.663468733429908752e-02
3.102223388850688934e-02
-3.196435049176216125e-02
-4.260355234146118164e-02
3.628500178456306458e-02
-1.373508851975202560e-02
-2.218184061348438263e-02
-3.157997503876686096e-02
-4.459509998559951782e-02
-1.692431606352329254e-02
-4.535995051264762878e-02
-0.000000000000000000e+00
-3.629111126065254211e-02
-0.000000000000000000e+00
-2.861604839563369751e-02
0.000000000000000000e+00
-2.906528301537036896e-02
-2.287459559738636017e-02
9.529995918273925781e-02
-6.590335816144943237e-02
-0.000000000000000000e+00
1.275045573711395264e-01
0.000000000000000000e+00
3.126437216997146606e-02
1.042587161064147949e-01
-4.847943037748336792e-02
-2.295592986047267914e-02
-2.375243790447711945e-02
-6.582164764404296875e-02
2.879121527075767517e-02
0.000000000000000000e+00
-3.408844769001007080e-02
-3.268419951200485229e-02
-3.774732351303100586e-02
-0.000000000000000000e+00
1.807914860546588898e-02
-2.793208695948123932e-02
-0.000000000000000000e+00
-1.951192878186702728e-02
-2.684172429144382477e-02
-2.421801351010799408e-02
3.156270459294319153e-02
3.921022266149520874e-02
0.000000000000000000e+00
1.599223911762237549e-02
-1.426561642438173294e-02
0.000000000000000000e+00
0.000000000000000000e+00
-5.818198621273040771e-02
2.140899375081062317e-02
-3.048779815435409546e-02
-0.000000000000000000e+00
-0.000000000000000000e+00
2.201867662370204926e-02
1.460661832243204117e-02
-3.541982918977737427e-02
2.648602426052093506e-02
0.000000000000000000e+00
0.000000000000000000e+00
3.132284805178642273e-02
1.448181644082069397e-02
3.079993277788162231e-02
4.397843778133392334e-02
1.250013150274753571e-02
1.480934862047433853e-02
7.098799198865890503e-02
-0.000000000000000000e+00
0.000000000000000000e+00
-3.369151055812835693e-02
0.000000000000000000e+00
-0.000000000000000000e+00
-0.000000000000000000e+00
1.442523114383220673e-02
5.307688191533088684e-02
4.820600152015686035e-02
3.243615105748176575e-02
-0.000000000000000000e+00
1.334811747074127197e-02
0.000000000000000000e+00
-1.336433459073305130e-02
2.213268727064132690e-02
2.618704922497272491e-02
-4.579085856676101685e-02
-2.545873261988162994e-02
-2.345683798193931580e-02
-4.610256105661392212e-02
-1.403500325977802277e-02
1.441556122153997421e-02
-6.595489382743835449e-02
0.000000000000000000e+00
-1.366409752517938614e-02
-4.519237205386161804e-02
1.666193306446075439e-01
-1.666015572845935822e-02
-4.882105439901351929e-02
-0.000000000000000000e+00
-6.202409416437149048e-02
0.000000000000000000e+00
1.599269732832908630e-02
-1.227134745568037033e-02
-2.397008053958415985e-02
-1.306811720132827759e-02
-7.973311841487884521e-02
0.000000000000000000e+00
1.863717846572399139e-02
-4.050221666693687439e-02
-0.000000000000000000e+00
-1.301346626132726669e-02
-4.269855469465255737e-02
0.000000000000000000e+00
3.918757662177085876e-02
-2.888130769133567810e-02
-4.356994852423667908e-02
0.000000000000000000e+00
-1.545189879834651947e-02
-1.814842224121093750e-02
1.994846947491168976e-02
-2.144523710012435913e-02
-5.298220738768577576e-02
6.165821105241775513e-02
-2.585020661354064941e-02
-2.541401796042919159e-02
0.000000000000000000e+00
-4.195256531238555908e-02
-1.475138589739799500e-02
0.000000000000000000e+00
1.318416185677051544e-02
0.000000000000000000e+00
1.266724802553653717e-02
-3.006973676383495331e-02
-0.000000000000000000e+00
1.876536756753921509e-02
2.270039170980453491e-02
-0.000000000000000000e+00
-1.339258719235658646e-02
-2.805570326745510101e-02
-2.316378615796566010e-02
-4.340394213795661926e-02
-4.999651759862899780e-02
-2.152489684522151947e-02
-5.290320143103599548e-02
-4.635284096002578735e-02
-3.504686802625656128e-02
-1.724324189126491547e-02
-5.972622334957122803e-02
-2.317305281758308411e-02
-0.000000000000000000e+00
-6.140102073550224304e-02
-1.502971630543470383e-02
0.000000000000000000e+00
-3.643819317221641541e-02
4.714025557041168213e-02
0.000000000000000000e+00
-7.836233079433441162e-02
6.844176352024078369e-02
3.376523405313491821e-02
-7.925262302160263062e-02
6.503853946924209595e-02
4.044104367494583130e-02
-6.151995435357093811e-02
1.830847375094890594e-02
-0.000000000000000000e+00
-2.245748229324817657e-02
-0.000000000000000000e+00
0.000000000000000000e+00
-1.418076921254396439e-02
-1.331662852317094803e-02
-3.479526564478874207e-02
-2.318191900849342346e-02
0.000000000000000000e+00
2.018087729811668396e-02
1.491134054958820343e-02
2.454147301614284515e-02
3.809825330972671509e-02
1.757168583571910858e-02
2.642013505101203918e-02
4.513223469257354736e-02
4.012131690979003906e-02
-0.000000000000000000e+00
2.889286167919635773e-02
-0.000000000000000000e+00
0.000000000000000000e+00
3.256332874298095703e-02
-0.000000000000000000e+00
-3.146689385175704956e-02
-0.000000000000000000e+00
2.819456905126571655e-02
-0.000000000000000000e+00
2.767168171703815460e-02
-2.246264927089214325e-02
-0.000000000000000000e+00
8.555211871862411499e-02
1.198093220591545105e-02
-5.529920384287834167e-02
-1.269111409783363342e-02
-5.441907420754432678e-02
3.613189607858657837e-02
2.519882097840309143e-02
-7.485869526863098145e-02
7.966745644807815552e-02
6.545636057853698730e-02
-6.771121174097061157e-02
4.549985378980636597e-02
1.287395507097244263e-02
-7.580144703388214111e-02
-1.670971512794494629e-02
-3.003537841141223907e-02
-3.218962997198104858e-02
-1.833930797874927521e-02
-4.213018342852592468e-02
-1.714415661990642548e-02
-0.000000000000000000e+00
-1.260012481361627579e-02
-2.714553102850914001e-02
-0.000000000000000000e+00
-2.637382224202156067e-02
2.526556700468063354e-02
-0.000000000000000000e+00
-0.000000000000000000e+00
-0.000000000000000000e+00
2.597042359411716461e-02
2.620716392993927002e-02
2.122090198099613190e-02
-2.240096963942050934e-02
-2.556805871427059174e-02
-3.143337741494178772e-02
-0.000000000000000000e+00
1.674139499664306641e-02
1.270002871751785278e-02
-2.697743661701679230e-02
-2.504918724298477173e-02
-2.236785925924777985e-02
-2.392805740237236023e-02
-0.000000000000000000e+00
-3.004121594130992889e-02
4.332068935036659241e-02
4.363090917468070984e-02
2.859013341367244720e-02
0.000000000000000000e+00
0.000000000000000000e+00
0.000000000000000000e+00
-0.000000000000000000e+00
-2.350167743861675262e-02
-0.000000000000000000e+00
0.000000000000000000e+00
-0.000000000000000000e+00
-0.000000000000000000e+00
-0.000000000000000000e+00
0.000000000000000000e+00
-1.193027943372726440e-02
0.000000000000000000e+00
-0.000000000000000000e+00
0.000000000000000000e+00
0.000000000000000000e+00
0.000000000000000000e+00
3.080733865499496460e-02
-0.000000000000000000e+00
1.705791614949703217e-02
-0.000000000000000000e+00
-1.504011545330286026e-02
1.807159185409545898e-02
-2.064558491110801697e-02
1.560895703732967377e-02
5.808323994278907776e-02
-2.388338558375835419e-02
1.442664302885532379e-02
-0.000000000000000000e+00
-0.000000000000000000e+00
-1.685399934649467468e-02
-3.764474391937255859e-02
-0.000000000000000000e+00
1.546156406402587891e-02
-3.566708415746688843e-02
5.901240184903144836e-02
-5.153325572609901428e-02
-4.938494041562080383e-02
3.162886947393417358e-02
-2.098903059959411621e-02
-3.058342263102531433e-02
-0.000000000000000000e+00
-2.087396010756492615e-02
-0.000000000000000000e+00
-1.431680098176002502e-02
-3.399466350674629211e-02
-2.290809154510498047e-02
0.000000000000000000e+00
-0.000000000000000000e+00
