0.000000000000000000e+00 0.000000000000000000e+00 0.000000000000000000e+00 0.000000000000000000e+00 0.000000000000000000e+00 -0.000000000000000000e+00 0.000000000000000000e+00 -4.885140433907508850e-02 -0.000000000000000000e+00 -4.943621158599853516e-02 0.000000000000000000e+00 -2.412251010537147522e-02 0.000000000000000000e+00 -0.000000000000000000e+00 0.000000000000000000e+00 -4.868739098310470581e-02 5.802045390009880066e-02 0.000000000000000000e+00 -0.000000000000000000e+00 2.846026048064231873e-02 2.738604508340358734e-02 -0.000000000000000000e+00 -2.883374691009521484e-02 3.408657759428024292e-02 0.000000000000000000e+00 2.098336070775985718e-02 0.000000000000000000e+00 -3.085584752261638641e-02 6.486098468303680420e-02 -0.000000000000000000e+00 -0.000000000000000000e+00 -0.000000000000000000e+00 0.000000000000000000e+00 0.000000000000000000e+00 2.581206150352954865e-02 -0.000000000000000000e+00 7.456712424755096436e-02 -0.000000000000000000e+00 4.767697304487228394e-02 -3.424788266420364380e-02 -0.000000000000000000e+00 0.000000000000000000e+00 -0.000000000000000000e+00 -0.000000000000000000e+00 4.613536596298217773e-02 -2.979302220046520233e-02 -0.000000000000000000e+00 -0.000000000000000000e+00 -0.000000000000000000e+00 -0.000000000000000000e+00 -0.000000000000000000e+00 0.000000000000000000e+00 3.442657738924026489e-02 -2.512831613421440125e-02 -2.541854418814182281e-02 4.050844907760620117e-02 -2.190235443413257599e-02 0.000000000000000000e+00 0.000000000000000000e+00 -4.356512427330017090e-02 -6.044918671250343323e-02 3.017024323344230652e-02 -0.000000000000000000e+00 -4.874512180685997009e-02 -0.000000000000000000e+00 -0.000000000000000000e+00 -0.000000000000000000e+00 -0.000000000000000000e+00 2.919656410813331604e-02 2.518770284950733185e-02 -4.082326963543891907e-02 -0.000000000000000000e+00 4.751828685402870178e-02 2.471554279327392578e-02 -2.144605852663516998e-02 -0.000000000000000000e+00 5.461461469531059265e-02 0.000000000000000000e+00 0.000000000000000000e+00 -0.000000000000000000e+00 0.000000000000000000e+00 -4.280655831098556519e-02 0.000000000000000000e+00 4.390854015946388245e-02 0.000000000000000000e+00 -2.422238327562808990e-02 5.951275303959846497e-02 -0.000000000000000000e+00 -0.000000000000000000e+00 -3.246312588453292847e-02 -0.000000000000000000e+00 4.013150185346603394e-02 1.897313259541988373e-02 -3.517306596040725708e-02 0.000000000000000000e+00 -8.999034017324447632e-02 -3.219230845570564270e-02 -0.000000000000000000e+00 2.661608159542083740e-02 -0.000000000000000000e+00 -3.182842582464218140e-02 -0.000000000000000000e+00 -3.342125564813613892e-02 -0.000000000000000000e+00 -0.000000000000000000e+00 -0.000000000000000000e+00 -3.123694472014904022e-02 0.000000000000000000e+00 -1.992283575236797333e-02 0.000000000000000000e+00 3.306976705789566040e-02 0.000000000000000000e+00 -0.000000000000000000e+00 -0.000000000000000000e+00 -2.048869431018829346e-02 -3.616155683994293213e-02 -0.000000000000000000e+00 -5.842399224638938904e-02 3.209238499402999878e-02 0.000000000000000000e+00 -4.863214492797851562e-02 2.650261856615543365e-02 0.000000000000000000e+00 2.034495957195758820e-02 2.122087590396404266e-02 8.784500509500503540e-02 -3.356002271175384521e-02 2.596293017268180847e-02 0.000000000000000000e+00 0.000000000000000000e+00 9.355069696903228760e-02 -4.279392585158348083e-02 -1.986203715205192566e-02 -0.000000000000000000e+00 7.590134441852569580e-02 0.000000000000000000e+00 -0.000000000000000000e+00 -6.729975342750549316e-02 -3.086460195481777191e-02 0.000000000000000000e+00 -0.000000000000000000e+00 -5.206393077969551086e-02 0.000000000000000000e+00 -0.000000000000000000e+00 3.068332560360431671e-02 -0.000000000000000000e+00 4.277571290731430054e-02 -0.000000000000000000e+00 -0.000000000000000000e+00 3.195682913064956665e-02 -0.000000000000000000e+00 -2.616257593035697937e-02 -0.000000000000000000e+00 -0.000000000000000000e+00 0.000000000000000000e+00 2.345173247158527374e-02 0.000000000000000000e+00 0.000000000000000000e+00 -4.055523872375488281e-02 -0.000000000000000000e+00 0.000000000000000000e+00 -2.374409325420856476e-02 2.133337780833244324e-02 -0.000000000000000000e+00 -2.060086280107498169e-02 0.000000000000000000e+00 -2.392117120325565338e-02 0.000000000000000000e+00 0.000000000000000000e+00 0.000000000000000000e+00 -2.102936245501041412e-02 -2.158262580633163452e-02 0.000000000000000000e+00 -0.000000000000000000e+00 0.000000000000000000e+00 -3.054212220013141632e-02 -2.327407337725162506e-02 3.600913286209106445e-02 -2.233225293457508087e-02 -0.000000000000000000e+00 0.000000000000000000e+00 0.000000000000000000e+00 2.762608043849468231e-02 3.840116411447525024e-02 2.271337248384952545e-02 -5.123551189899444580e-02 -0.000000000000000000e+00 0.000000000000000000e+00 1.906812563538551331e-02 -0.000000000000000000e+00 0.000000000000000000e+00 -0.000000000000000000e+00 -2.593952976167201996e-02 -0.000000000000000000e+00 0.000000000000000000e+00 0.000000000000000000e+00 3.857173398137092590e-02 -5.154826864600181580e-02 0.000000000000000000e+00 -0.000000000000000000e+00 0.000000000000000000e+00 2.040913328528404236e-02 -3.783730417490005493e-02 6.235510855913162231e-02 -0.000000000000000000e+00 5.486245080828666687e-02 -0.000000000000000000e+00 0.000000000000000000e+00 0.000000000000000000e+00 -0.000000000000000000e+00 -2.434040233492851257e-02 0.000000000000000000e+00 -0.000000000000000000e+00 -2.944360114634037018e-02 0.000000000000000000e+00 0.000000000000000000e+00 -0.000000000000000000e+00 8.974001556634902954e-02 -0.000000000000000000e+00 0.000000000000000000e+00 -1.941694132983684540e-02 2.493189834058284760e-02 0.000000000000000000e+00 0.000000000000000000e+00 0.000000000000000000e+00 0.000000000000000000e+00 0.000000000000000000e+00 -0.000000000000000000e+00 0.000000000000000000e+00 -2.450302988290786743e-02 -5.890952423214912415e-02 -0.000000000000000000e+00 -0.000000000000000000e+00 0.000000000000000000e+00 -3.794935718178749084e-02 7.220540940761566162e-02 0.000000000000000000e+00 -0.000000000000000000e+00 0.000000000000000000e+00 0.000000000000000000e+00 0.000000000000000000e+00 0.000000000000000000e+00 -2.156601287424564362e-02 -7.621526718139648438e-02 -0.000000000000000000e+00 -2.306039445102214813e-02 -2.501804567873477936e-02 -0.000000000000000000e+00 -0.000000000000000000e+00 -0.000000000000000000e+00 -3.056199476122856140e-02 -0.000000000000000000e+00 -0.000000000000000000e+00 0.000000000000000000e+00 -2.744985371828079224e-02 0.000000000000000000e+00
-2.712282352149486542e-02 -0.000000000000000000e+00 5.429064109921455383e-02 -0.000000000000000000e+00 4.510236531496047974e-02 6.573572754859924316e-02 -0.000000000000000000e+00 -0.000000000000000000e+00 0.000000000000000000e+00 0.000000000000000000e+00 -2.902285568416118622e-02 9.272963553667068481e-02 2.124618552625179291e-02 3.614249080419540405e-02 0.000000000000000000e+00 -1.939254626631736755e-02 -0.000000000000000000e+00 0.000000000000000000e+00 -3.311411663889884949e-02 -1.976472511887550354e-02 0.000000000000000000e+00 -0.000000000000000000e+00 0.000000000000000000e+00 0.000000000000000000e+00 0.000000000000000000e+00 2.997823245823383331e-02 -0.000000000000000000e+00 -0.000000000000000000e+00 4.108831286430358887e-02 0.000000000000000000e+00 -5.645242705941200256e-02 3.053594939410686493e-02 -3.583435714244842529e-02 -2.199251018464565277e-02 0.000000000000000000e+00 -0.000000000000000000e+00 0.000000000000000000e+00 -8.826453983783721924e-02 0.000000000000000000e+00 0.000000000000000000e+00 0.000000000000000000e+00 3.161702305078506470e-02 -5.784717202186584473e-02 -2.045835554599761963e-02 -3.740572184324264526e-02 -9.424099326133728027e-02 0.000000000000000000e+00 -2.446365915238857269e-02 5.381128937005996704e-02 0.000000000000000000e+00 0.000000000000000000e+00 -0.000000000000000000e+00 -5.591358244419097900e-02 -2.120766788721084595e-02 7.266510277986526489e-02 2.345301024615764618e-02 0.000000000000000000e+00 2.576126903295516968e-02 0.000000000000000000e+00 2.604375965893268585e-02 -5.318131297826766968e-02 -2.582096122205257416e-02 -4.334906488656997681e-02 5.217041447758674622e-02 4.970761388540267944e-02 -2.243031561374664307e-02 -0.000000000000000000e+00 0.000000000000000000e+00 -0.000000000000000000e+00 -3.646602854132652283e-02 4.107131808996200562e-02 -0.000000000000000000e+00 5.838028341531753540e-02 -0.000000000000000000e+00 0.000000000000000000e+00 -5.178881436586380005e-02 -0.000000000000000000e+00 3.801649436354637146e-02 4.961580410599708557e-02 0.000000000000000000e+00 0.000000000000000000e+00 3.855310380458831787e-02 -0.000000000000000000e+00 2.616159804165363312e-02 -0.000000000000000000e+00 -1.959640532732009888e-02 -2.701231278479099274e-02 0.000000000000000000e+00 0.000000000000000000e+00 -0.000000000000000000e+00 -2.127904444932937622e-02 -2.504593878984451294e-02 -0.000000000000000000e+00 -0.000000000000000000e+00 -2.169532142579555511e-02 -0.000000000000000000e+00 2.101974375545978546e-02 -1.028005778789520264e-01 5.457133427262306213e-02 -0.000000000000000000e+00 0.000000000000000000e+00 -3.097867779433727264e-02 7.329105585813522339e-02 -0.000000000000000000e+00 0.000000000000000000e+00 2.065039612352848053e-02 -6.175843998789787292e-02 0.000000000000000000e+00 0.000000000000000000e+00 -6.931013613939285278e-02 0.000000000000000000e+00 5.858308076858520508e-02 -3.242285177111625671e-02 -0.000000000000000000e+00 0.000000000000000000e+00 -0.000000000000000000e+00 -4.607636854052543640e-02 -2.530634030699729919e-02 2.566575445234775543e-02 2.150769531726837158e-02 -5.069378763437271118e-02 -4.558051377534866333e-02 -4.090145602822303772e-02 0.000000000000000000e+00 -6.925326585769653320e-02 -4.909719899296760559e-02 0.000000000000000000e+00 0.000000000000000000e+00 -0.000000000000000000e+00 -5.923672020435333252e-02 -0.000000000000000000e+00 0.000000000000000000e+00 0.000000000000000000e+00 0.000000000000000000e+00 0.000000000000000000e+00 2.613214217126369476e-02 -5.263669043779373169e-02 -0.000000000000000000e+00 -2.962637506425380707e-02 0.000000000000000000e+00 -4.369870573282241821e-02 -2.327648736536502838e-02 5.506709218025207520e-02 -0.000000000000000000e+00 -0.000000000000000000e+00 2.960287593305110931e-02 2.150550857186317444e-02 0.000000000000000000e+00 2.201223932206630707e-02 -0.000000000000000000e+00 -0.000000000000000000e+00 7.797129452228546143e-02 -3.134698793292045593e-02 0.000000000000000000e+00 -5.055697262287139893e-02 2.360377460718154907e-02 -2.789304219186306000e-02 -2.799092605710029602e-02 0.000000000000000000e+00 -8.629485219717025757e-02 -0.000000000000000000e+00 0.000000000000000000e+00 6.066750735044479370e-02 -2.807036601006984711e-02 2.245740219950675964e-02 -2.850157953798770905e-02 -2.030119486153125763e-02 -0.000000000000000000e+00 -0.000000000000000000e+00 -0.000000000000000000e+00 -1.909225061535835266e-02 1.326221376657485962e-01 -1.970811933279037476e-02 -2.287817001342773438e-02 -3.402287140488624573e-02 -0.000000000000000000e+00 -5.731394141912460327e-02 0.000000000000000000e+00 0.000000000000000000e+00 -1.910932175815105438e-02 0.000000000000000000e+00 -0.000000000000000000e+00 -0.000000000000000000e+00 -0.000000000000000000e+00 0.000000000000000000e+00 -9.563697129487991333e-02 -1.991865038871765137e-02 -9.764344245195388794e-02 -2.509736642241477966e-02 4.621638357639312744e-02 7.271423190832138062e-02 -3.067487664520740509e-02 2.200256660580635071e-02 2.504061348736286163e-02 0.000000000000000000e+00 -0.000000000000000000e+00 -0.000000000000000000e+00 -0.000000000000000000e+00 0.000000000000000000e+00 0.000000000000000000e+00 3.442205488681793213e-02 0.000000000000000000e+00 0.000000000000000000e+00 1.978750154376029968e-02 0.000000000000000000e+00 -2.438447251915931702e-02 6.371201574802398682e-02 -2.078793570399284363e-02 2.342494763433933258e-02 0.000000000000000000e+00 3.514014557003974915e-02 -2.300066128373146057e-02 -6.533577293157577515e-02 2.915978245437145233e-02 -0.000000000000000000e+00 0.000000000000000000e+00 -2.655800804495811462e-02 8.348628878593444824e-02 -2.100134082138538361e-02 0.000000000000000000e+00 -1.107267513871192932e-01 -6.509210169315338135e-02 2.254166826605796814e-02 3.518234938383102417e-02 0.000000000000000000e+00 0.000000000000000000e+00 3.251591324806213379e-02 2.149606496095657349e-02 2.273002639412879944e-02 0.000000000000000000e+00 -0.000000000000000000e+00 -0.000000000000000000e+00 0.000000000000000000e+00 4.269928112626075745e-02 0.000000000000000000e+00 -5.147369205951690674e-02 3.520552814006805420e-02 -4.031223058700561523e-02 0.000000000000000000e+00 0.000000000000000000e+00 2.554239146411418915e-02 -0.000000000000000000e+00 0.000000000000000000e+00 2.703403681516647339e-02 0.000000000000000000e+00 2.476664632558822632e-02 -0.000000000000000000e+00 0.000000000000000000e+00 -0.000000000000000000e+00 0.000000000000000000e+00 -0.000000000000000000e+00 0.000000000000000000e+00 0.000000000000000000e+00 -2.063065581023693085e-02 -3.079309500753879547e-02 0.000000000000000000e+00
-5.231544375419616699e-02 -3.529375791549682617e-02 3.942345455288887024e-02 -0.000000000000000000e+00 0.000000000000000000e+00 7.362606376409530640e-02 2.888955734670162201e-02 -0.000000000000000000e+00 -3.470277413725852966e-02 -5.925557389855384827e-02 2.510563097894191742e-02 3.624572604894638062e-02 3.409952670335769653e-02 0.000000000000000000e+00 0.000000000000000000e+00 -2.760764956474304199e-02 0.000000000000000000e+00 5.966152995824813843e-02 4.627572745084762573e-02 2.368634380400180817e-02 -3.441285714507102966e-02 3.531922772526741028e-02 0.000000000000000000e+00 -0.000000000000000000e+00 -0.000000000000000000e+00 -0.000000000000000000e+00 -3.456249833106994629e-02 -0.000000000000000000e+00 5.476889759302139282e-02 2.032428048551082611e-02 -3.598667681217193604e-02 0.000000000000000000e+00 3.164838254451751709e-02 2.004718780517578125e-02 -6.965601444244384766e-02 -3.621403127908706665e-02 -0.000000000000000000e+00 -2.969099953770637512e-02 -3.394883498549461365e-02 2.227497287094593048e-02 -4.430088400840759277e-02 0.000000000000000000e+00 -6.258919090032577515e-02 5.737482011318206787e-02 -0.000000000000000000e+00 2.354992926120758057e-02 -0.000000000000000000e+00 0.000000000000000000e+00 0.000000000000000000e+00 0.000000000000000000e+00 0.000000000000000000e+00 -0.000000000000000000e+00 -0.000000000000000000e+00 -0.000000000000000000e+00 3.242636099457740784e-02 4.337625950574874878e-02 6.405016034841537476e-02 -5.570068955421447754e-02 7.825580984354019165e-02 -6.097022071480751038e-02 -6.286848336458206177e-02 -4.326380789279937744e-02 0.000000000000000000e+00 3.083272837102413177e-02 -0.000000000000000000e+00 -7.865914702415466309e-02 -0.000000000000000000e+00 -2.260675095021724701e-02 3.611474111676216125e-02 -5.887017771601676941e-02 0.000000000000000000e+00 3.759251534938812256e-02 -2.636850997805595398e-02 0.000000000000000000e+00 0.000000000000000000e+00 -3.420927375555038452e-02 2.264425903558731079e-02 2.999928593635559082e-02 -2.236623503267765045e-02 -4.343901202082633972e-02 6.566692888736724854e-02 0.000000000000000000e+00 -1.882903277873992920e-02 0.000000000000000000e+00 -0.000000000000000000e+00 0.000000000000000000e+00 2.427292242646217346e-02 -0.000000000000000000e+00 -0.000000000000000000e+00 9.974362701177597046e-02 -0.000000000000000000e+00 0.000000000000000000e+00 -4.023764282464981079e-02 8.044607192277908325e-02 -3.440096601843833923e-02 -3.069642931222915649e-02 0.000000000000000000e+00 0.000000000000000000e+00 -0.000000000000000000e+00 -2.991532348096370697e-02 0.000000000000000000e+00 6.528598070144653320e-02 2.732739411294460297e-02 0.000000000000000000e+00 6.111929938197135925e-02 -2.625425346195697784e-02 -0.000000000000000000e+00 -2.005609124898910522e-02 -0.000000000000000000e+00 -0.000000000000000000e+00 -4.398585483431816101e-02 -0.000000000000000000e+00 -2.643786557018756866e-02 -0.000000000000000000e+00 0.000000000000000000e+00 0.000000000000000000e+00 -5.724313482642173767e-02 0.000000000000000000e+00 -3.851962834596633911e-02 3.788586705923080444e-02 0.000000000000000000e+00 4.415486380457878113e-02 7.501590996980667114e-02 6.332825124263763428e-02 5.811068415641784668e-02 -5.053007230162620544e-02 0.000000000000000000e+00 0.000000000000000000e+00 -4.603839293122291565e-02 -2.280086092650890350e-02 4.150201752781867981e-02 -0.000000000000000000e+00 -4.800016060471534729e-02 2.653297968208789825e-02 -0.000000000000000000e+00 0.000000000000000000e+00 -0.000000000000000000e+00 -3.022765368223190308e-02 -4.597811773419380188e-02 4.877513647079467773e-02 -0.000000000000000000e+00 -0.000000000000000000e+00 0.000000000000000000e+00 -2.506310120224952698e-02 -2.330396138131618500e-02 -0.000000000000000000e+00 -0.000000000000000000e+00 1.957348734140396118e-02 -5.199331417679786682e-02 -3.924851492047309875e-02 -3.264884278178215027e-02 -8.430126309394836426e-02 2.807581052184104919e-02 -5.304086208343505859e-02 4.581407457590103149e-02 -3.736577555537223816e-02 3.498869761824607849e-02 6.499769538640975952e-02 -0.000000000000000000e+00 -3.203910216689109802e-02 2.040180750191211700e-02 -0.000000000000000000e+00 0.000000000000000000e+00 0.000000000000000000e+00 3.279507532715797424e-02 -3.369633853435516357e-02 -0.000000000000000000e+00 0.000000000000000000e+00 4.528385028243064880e-02 0.000000000000000000e+00 -0.000000000000000000e+00 -0.000000000000000000e+00 2.443293668329715729e-02 -0.000000000000000000e+00 -2.586132101714611053e-02 -0.000000000000000000e+00 -0.000000000000000000e+00 0.000000000000000000e+00 -2.752877026796340942e-02 -5.018028616905212402e-02 4.828144237399101257e-02 0.000000000000000000e+00 -4.382751137018203735e-02 0.000000000000000000e+00 -5.332398042082786560e-02 -1.875410415232181549e-02 6.001739203929901123e-02 6.973414868116378784e-02 -0.000000000000000000e+00 0.000000000000000000e+00 -3.279383853077888489e-02 0.000000000000000000e+00 0.000000000000000000e+00 -5.319237709045410156e-02 -2.984156459569931030e-02 0.000000000000000000e+00 2.862301096320152283e-02 0.000000000000000000e+00 3.911383077502250671e-02 0.000000000000000000e+00 0.000000000000000000e+00 0.000000000000000000e+00 2.938941121101379395e-02 -0.000000000000000000e+00 0.000000000000000000e+00 0.000000000000000000e+00 3.973998501896858215e-02 -4.134921357035636902e-02 0.000000000000000000e+00 -2.351526170969009399e-02 4.286625608801841736e-02 -5.330536141991615295e-02 -0.000000000000000000e+00 0.000000000000000000e+00 -0.000000000000000000e+00 -1.973935961723327637e-02 4.801654070615768433e-02 -4.075992852449417114e-02 -4.761710017919540405e-02 4.539530724287033081e-02 1.908149011433124542e-02 0.000000000000000000e+00 -0.000000000000000000e+00 -4.203934967517852783e-02 -4.934998974204063416e-02 4.536022245883941650e-02 3.925239294767379761e-02 -2.971030585467815399e-02 0.000000000000000000e+00 -0.000000000000000000e+00 -0.000000000000000000e+00 -1.864333637058734894e-02 -0.000000000000000000e+00 4.406656697392463684e-02 5.465374141931533813e-02 3.866429254412651062e-02 0.000000000000000000e+00 -0.000000000000000000e+00 -4.589727148413658142e-02 0.000000000000000000e+00 -0.000000000000000000e+00 0.000000000000000000e+00 -4.095199704170227051e-02 -0.000000000000000000e+00 -3.142281249165534973e-02 -0.000000000000000000e+00 -2.521015517413616180e-02 3.533080965280532837e-02 2.730371244251728058e-02 2.623077295720577240e-02 -3.143898397684097290e-02 -3.756335377693176270e-02 -2.523838542401790619e-02 -3.816051036119461060e-02 -2.638505026698112488e-02 -4.427228122949600220e-02
-0.000000000000000000e+00 -7.174908369779586792e-02 -0.000000000000000000e+00 5.882501229643821716e-02 -0.000000000000000000e+00 2.798793613910675049e-01 2.644509449601173401e-02 2.044458128511905670e-02 0.000000000000000000e+00 0.000000000000000000e+00 -2.275602892041206360e-02 -0.000000000000000000e+00 -0.000000000000000000e+00 -0.000000000000000000e+00 2.049565315246582031e-02 -1.923619024455547333e-02 -0.000000000000000000e+00 0.000000000000000000e+00 -0.000000000000000000e+00 -0.000000000000000000e+00 -0.000000000000000000e+00 -0.000000000000000000e+00 0.000000000000000000e+00 -2.641212940216064453e-02 -2.172078564763069153e-02 0.000000000000000000e+00 2.052916586399078369e-02 0.000000000000000000e+00 -2.606735564768314362e-02 -3.466348350048065186e-02 3.983393311500549316e-02 -2.698658220469951630e-02 7.463537901639938354e-02 7.980985194444656372e-02 0.000000000000000000e+00 -0.000000000000000000e+00 -0.000000000000000000e+00 3.539256379008293152e-02 -2.464394830167293549e-02 6.610491126775741577e-02 2.327439375221729279e-02 -2.749467268586158752e-02 3.981324285268783569e-02 -8.109526336193084717e-02 -6.337022036314010620e-02 0.000000000000000000e+00 -0.000000000000000000e+00 0.000000000000000000e+00 -0.000000000000000000e+00 -0.000000000000000000e+00 -3.375076130032539368e-02 0.000000000000000000e+00 3.371506556868553162e-02 5.291281640529632568e-02 -2.381259016692638397e-02 -0.000000000000000000e+00 -0.000000000000000000e+00 -0.000000000000000000e+00 -0.000000000000000000e+00 -6.170953065156936646e-02 0.000000000000000000e+00 -7.890054583549499512e-02 -0.000000000000000000e+00 -0.000000000000000000e+00 0.000000000000000000e+00 2.512318640947341919e-02 3.609055653214454651e-02 -0.000000000000000000e+00 -0.000000000000000000e+00 -0.000000000000000000e+00 7.180567830801010132e-02 -6.242113932967185974e-02 3.307450562715530396e-02 0.000000000000000000e+00 -0.000000000000000000e+00 2.127215638756752014e-02 -0.000000000000000000e+00 1.980085857212543488e-02 -2.564177103340625763e-02 -0.000000000000000000e+00 4.700430482625961304e-02 -8.832174539566040039e-02 -2.921565063297748566e-02 -0.000000000000000000e+00 0.000000000000000000e+00 -0.000000000000000000e+00 -0.000000000000000000e+00 0.000000000000000000e+00 -0.000000000000000000e+00 0.000000000000000000e+00 5.719844624400138855e-02 -0.000000000000000000e+00 0.000000000000000000e+00 0.000000000000000000e+00 5.839369818568229675e-02 -8.052822947502136230e-02 -0.000000000000000000e+00 2.020517550408840179e-02 3.777806460857391357e-02 0.000000000000000000e+00 0.000000000000000000e+00 4.395365342497825623e-02 -0.000000000000000000e+00 3.176245838403701782e-02 2.068199403584003448e-02 -0.000000000000000000e+00 7.888446003198623657e-02 0.000000000000000000e+00 -0.000000000000000000e+00 0.000000000000000000e+00 -0.000000000000000000e+00 -7.419092208147048950e-02 0.000000000000000000e+00 -0.000000000000000000e+00 0.000000000000000000e+00 0.000000000000000000e+00 -0.000000000000000000e+00 0.000000000000000000e+00 -0.000000000000000000e+00 0.000000000000000000e+00 0.000000000000000000e+00 -0.000000000000000000e+00 -0.000000000000000000e+00 -4.188781976699829102e-02 0.000000000000000000e+00 0.000000000000000000e+00 -0.000000000000000000e+00 2.540426515042781830e-02 0.000000000000000000e+00 -0.000000000000000000e+00 -0.000000000000000000e+00 -2.969732508063316345e-02 1.890224777162075043e-02 2.619295939803123474e-02 2.343687042593955994e-02 0.000000000000000000e+00 -4.921625554561614990e-02 -3.376448899507522583e-02 -0.000000000000000000e+00 -0.000000000000000000e+00 -8.144489675760269165e-02 0.000000000000000000e+00 2.077318727970123291e-02 2.869821526110172272e-02 -4.437080398201942444e-02 0.000000000000000000e+00 0.000000000000000000e+00 -3.506784886121749878e-02 -0.000000000000000000e+00 -0.000000000000000000e+00 -0.000000000000000000e+00 -5.936696380376815796e-02 1.260746568441390991e-01 -0.000000000000000000e+00 0.000000000000000000e+00 0.000000000000000000e+00 -0.000000000000000000e+00 6.651873886585235596e-02 -2.684156410396099091e-02 -0.000000000000000000e+00 0.000000000000000000e+00 -0.000000000000000000e+00 1.973734050989151001e-02 2.269162051379680634e-02 0.000000000000000000e+00 0.000000000000000000e+00 -0.000000000000000000e+00 3.008121438324451447e-02 0.000000000000000000e+00 -4.622390493750572205e-02 -0.000000000000000000e+00 -0.000000000000000000e+00 0.000000000000000000e+00 -2.265232615172863007e-02 -0.000000000000000000e+00 -0.000000000000000000e+00 -0.000000000000000000e+00 2.107064612209796906e-02 -0.000000000000000000e+00 2.234359830617904663e-02 -2.470550872385501862e-02 2.931962907314300537e-02 1.971859857439994812e-02 -2.393645420670509338e-02 -2.874757908284664154e-02 4.545156285166740417e-02 3.606234863400459290e-02 0.000000000000000000e+00 -0.000000000000000000e+00 -0.000000000000000000e+00 0.000000000000000000e+00 -4.708105325698852539e-02 -0.000000000000000000e+00 1.310555487871170044e-01 -4.771100357174873352e-02 3.677764907479286194e-02 0.000000000000000000e+00 -0.000000000000000000e+00 -0.000000000000000000e+00 -0.000000000000000000e+00 -0.000000000000000000e+00 0.000000000000000000e+00 9.760438650846481323e-02 -0.000000000000000000e+00 0.000000000000000000e+00 2.503306604921817780e-02 0.000000000000000000e+00 0.000000000000000000e+00 -7.434161752462387085e-02 -2.202770672738552094e-02 -0.000000000000000000e+00 -3.122537955641746521e-02 0.000000000000000000e+00 0.000000000000000000e+00 0.000000000000000000e+00 -0.000000000000000000e+00 0.000000000000000000e+00 -1.011199131608009338e-01 -3.865354135632514954e-02 -0.000000000000000000e+00 2.639613114297389984e-02 5.027436092495918274e-02 -4.418182373046875000e-02 -0.000000000000000000e+00 0.000000000000000000e+00 -0.000000000000000000e+00 0.000000000000000000e+00 -2.138769999146461487e-02 1.933747343719005585e-02 0.000000000000000000e+00 -0.000000000000000000e+00 5.374957248568534851e-02 -3.597344085574150085e-02 -0.000000000000000000e+00 -0.000000000000000000e+00 -5.271267518401145935e-02 0.000000000000000000e+00 3.631786257028579712e-02 -7.479445636272430420e-02 -6.013368442654609680e-02 7.568898051977157593e-02 0.000000000000000000e+00 0.000000000000000000e+00 -2.327522821724414825e-02 0.000000000000000000e+00 0.000000000000000000e+00 -0.000000000000000000e+00 2.421821840107440948e-02 -0.000000000000000000e+00 3.190496191382408142e-02 0.000000000000000000e+00 -4.933216050267219543e-02 -0.000000000000000000e+00 1.910291053354740143e-02 -0.000000000000000000e+00 2.759259194135665894e-02
3.347996249794960022e-02 2.448235824704170227e-02 -4.015138000249862671e-02 -0.000000000000000000e+00 -3.090699017047882080e-02 -3.512781113386154175e-02 2.206071093678474426e-02 0.000000000000000000e+00 -1.931097917258739471e-02 -0.000000000000000000e+00 -2.578285895287990570e-02 0.000000000000000000e+00 -0.000000000000000000e+00 -3.043006733059883118e-02 4.417736083269119263e-02 -3.565510734915733337e-02 -0.000000000000000000e+00 -0.000000000000000000e+00 3.535797819495201111e-02 3.173767775297164917e-02 -0.000000000000000000e+00 -2.257742919027805328e-02 -0.000000000000000000e+00 -0.000000000000000000e+00 -3.079442307353019714e-02 2.818230725824832916e-02 -0.000000000000000000e+00 -0.000000000000000000e+00 0.000000000000000000e+00 0.000000000000000000e+00 -0.000000000000000000e+00 0.000000000000000000e+00 -3.693420067429542542e-02 -0.000000000000000000e+00 0.000000000000000000e+00 -0.000000000000000000e+00 -3.023769892752170563e-02 0.000000000000000000e+00 -3.425607085227966309e-02 -3.133889287710189819e-02 0.000000000000000000e+00 0.000000000000000000e+00 -0.000000000000000000e+00 1.938225701451301575e-02 1.995041035115718842e-02 -0.000000000000000000e+00 0.000000000000000000e+00 -6.716431677341461182e-02 -2.157715149223804474e-02 -0.000000000000000000e+00 -4.046319797635078430e-02 3.766867518424987793e-02 -0.000000000000000000e+00 -0.000000000000000000e+00 -0.000000000000000000e+00 -0.000000000000000000e+00 0.000000000000000000e+00 3.050087392330169678e-02 0.000000000000000000e+00 -0.000000000000000000e+00 -5.350952595472335815e-02 -0.000000000000000000e+00 0.000000000000000000e+00 -0.000000000000000000e+00 -2.211857587099075317e-02 -0.000000000000000000e+00 0.000000000000000000e+00 -0.000000000000000000e+00 0.000000000000000000e+00 -0.000000000000000000e+00 0.000000000000000000e+00 -0.000000000000000000e+00 -0.000000000000000000e+00 -0.000000000000000000e+00 -0.000000000000000000e+00 -0.000000000000000000e+00 0.000000000000000000e+00 0.000000000000000000e+00 7.246079295873641968e-02 0.000000000000000000e+00 0.000000000000000000e+00 0.000000000000000000e+00 4.124498367309570312e-02 1.979945786297321320e-02 -0.000000000000000000e+00 5.135656520724296570e-02 2.646929025650024414e-02 0.000000000000000000e+00 -0.000000000000000000e+00 1.929585635662078857e-02 -0.000000000000000000e+00 1.974142901599407196e-02 -2.888560108840465546e-02 -0.000000000000000000e+00 3.072400949895381927e-02 3.117303736507892609e-02 4.962290078401565552e-02 -0.000000000000000000e+00 -0.000000000000000000e+00 -3.458002209663391113e-02 -0.000000000000000000e+00 -0.000000000000000000e+00 4.877735674381256104e-02 0.000000000000000000e+00 -0.000000000000000000e+00 0.000000000000000000e+00 -4.755702987313270569e-02 -2.445779368281364441e-02 -3.000594303011894226e-02 0.000000000000000000e+00 3.126525506377220154e-02 6.534174084663391113e-02 -2.040007151663303375e-02 -2.920992113649845123e-02 0.000000000000000000e+00 5.375243350863456726e-02 -1.916338689625263214e-02 -2.348616905510425568e-02 -0.000000000000000000e+00 3.896344080567359924e-02 -0.000000000000000000e+00 -0.000000000000000000e+00 -1.905057951807975769e-02 2.169175259768962860e-02 0.000000000000000000e+00 0.000000000000000000e+00 0.000000000000000000e+00 3.321591019630432129e-02 -2.984178625047206879e-02 2.406800165772438049e-02 -0.000000000000000000e+00 0.000000000000000000e+00 -0.000000000000000000e+00 -0.000000000000000000e+00 5.692267417907714844e-02 3.103378415107727051e-02 0.000000000000000000e+00 -1.996269077062606812e-02 4.443646222352981567e-02 0.000000000000000000e+00 -3.631597757339477539e-02 -0.000000000000000000e+00 0.000000000000000000e+00 0.000000000000000000e+00 -0.000000000000000000e+00 0.000000000000000000e+00 0.000000000000000000e+00 3.332002088427543640e-02 0.000000000000000000e+00 2.949329093098640442e-02 -0.000000000000000000e+00 -2.383174933493137360e-02 3.644961491227149963e-02 0.000000000000000000e+00 0.000000000000000000e+00 4.092744737863540649e-02 4.159838333725929260e-02 3.466026112437248230e-02 -0.000000000000000000e+00 0.000000000000000000e+00 -0.000000000000000000e+00 -0.000000000000000000e+00 -0.000000000000000000e+00 0.000000000000000000e+00 0.000000000000000000e+00 2.566661313176155090e-02 -0.000000000000000000e+00 3.417735174298286438e-02 0.000000000000000000e+00 -0.000000000000000000e+00 -0.000000000000000000e+00 3.315177559852600098e-02 -0.000000000000000000e+00 0.000000000000000000e+00 -0.000000000000000000e+00 4.068326577544212341e-02 0.000000000000000000e+00 5.380516499280929565e-02 -0.000000000000000000e+00 0.000000000000000000e+00 -0.000000000000000000e+00 0.000000000000000000e+00 2.778251655399799347e-02 3.002567775547504425e-02 3.060045465826988220e-02 0.000000000000000000e+00 0.000000000000000000e+00 -3.129003942012786865e-02 4.814223945140838623e-02 -0.000000000000000000e+00 7.550082355737686157e-02 0.000000000000000000e+00 -1.892515644431114197e-02 -3.657597303390502930e-02 3.771749138832092285e-02 0.000000000000000000e+00 -2.585808187723159790e-02 2.934635803103446960e-02 4.242271557450294495e-02 0.000000000000000000e+00 0.000000000000000000e+00 0.000000000000000000e+00 -0.000000000000000000e+00 0.000000000000000000e+00 -0.000000000000000000e+00 -2.361582964658737183e-02 0.000000000000000000e+00 0.000000000000000000e+00 6.708608567714691162e-02 -0.000000000000000000e+00 0.000000000000000000e+00 4.056968167424201965e-02 -4.384413734078407288e-02 -0.000000000000000000e+00 -0.000000000000000000e+00 3.966090828180313110e-02 -0.000000000000000000e+00 0.000000000000000000e+00 4.231550917029380798e-02 1.917376182973384857e-02 -4.298979789018630981e-02 -0.000000000000000000e+00 -3.871367871761322021e-02 -2.084217593073844910e-02 0.000000000000000000e+00 0.000000000000000000e+00 2.059544250369071960e-02 -0.000000000000000000e+00 0.000000000000000000e+00 -2.435916475951671600e-02 3.272424638271331787e-02 -3.633281961083412170e-02 3.612851351499557495e-02 0.000000000000000000e+00 8.147026598453521729e-02 -1.910802721977233887e-02 0.000000000000000000e+00 -4.105398058891296387e-02 -2.546908520162105560e-02 3.940944001078605652e-02 -6.534378975629806519e-02 0.000000000000000000e+00 -0.000000000000000000e+00 2.487735264003276825e-02 -0.000000000000000000e+00 0.000000000000000000e+00 0.000000000000000000e+00 -5.736405402421951294e-02 -0.000000000000000000e+00 0.000000000000000000e+00 -0.000000000000000000e+00 0.000000000000000000e+00 -3.502294048666954041e-02 -0.000000000000000000e+00 -0.000000000000000000e+00 2.044929563999176025e-02
-0.000000000000000000e+00 -0.000000000000000000e+00 2.975955046713352203e-02 2.626793645322322845e-02 0.000000000000000000e+00 -0.000000000000000000e+00 0.000000000000000000e+00 -2.635262534022331238e-02 -0.000000000000000000e+00 6.957910954952239990e-02 3.682499006390571594e-02 -0.000000000000000000e+00 -2.305967546999454498e-02 4.911581799387931824e-02 -0.000000000000000000e+00 -2.568850480020046234e-02 4.275728762149810791e-02 -0.000000000000000000e+00 0.000000000000000000e+00 2.092761173844337463e-02 0.000000000000000000e+00 -2.250695414841175079e-02 -0.000000000000000000e+00 3.716504201292991638e-02 0.000000000000000000e+00 -0.000000000000000000e+00 -0.000000000000000000e+00 -4.646015167236328125e-02 -9.181109815835952759e-02 0.000000000000000000e+00 -2.563668414950370789e-02 2.467316575348377228e-02 0.000000000000000000e+00 -3.717924654483795166e-02 0.000000000000000000e+00 -0.000000000000000000e+00 -2.441849745810031891e-02 0.000000000000000000e+00 0.000000000000000000e+00 -0.000000000000000000e+00 0.000000000000000000e+00 0.000000000000000000e+00 -2.191355824470520020e-02 -2.638031356036663055e-02 -0.000000000000000000e+00 3.499131277203559875e-02 0.000000000000000000e+00 -4.492692649364471436e-02 -6.057210266590118408e-02 -2.585688419640064240e-02 1.969282515347003937e-02 2.112877741456031799e-02 3.818432986736297607e-02 3.598086535930633545e-02 -2.107929252088069916e-02 -5.062956735491752625e-02 0.000000000000000000e+00 0.000000000000000000e+00 3.186146914958953857e-02 -2.531735785305500031e-02 -0.000000000000000000e+00 5.820034816861152649e-02 0.000000000000000000e+00 -0.000000000000000000e+00 3.778471052646636963e-02 2.786920778453350067e-02 0.000000000000000000e+00 0.000000000000000000e+00 3.836009278893470764e-02 0.000000000000000000e+00 5.570473149418830872e-02 0.000000000000000000e+00 0.000000000000000000e+00 2.235106192529201508e-02 0.000000000000000000e+00 -0.000000000000000000e+00 -0.000000000000000000e+00 -0.000000000000000000e+00 -0.000000000000000000e+00 -3.990333154797554016e-02 1.951661519706249237e-02 3.199353441596031189e-02 -0.000000000000000000e+00 -0.000000000000000000e+00 0.000000000000000000e+00 -1.897686719894409180e-02 0.000000000000000000e+00 -0.000000000000000000e+00 1.912216655910015106e-02 -1.085153669118881226e-01 -0.000000000000000000e+00 -2.046207338571548462e-02 3.401339799165725708e-02 -0.000000000000000000e+00 -8.684364706277847290e-02 3.234717622399330139e-02 -0.000000000000000000e+00 -0.000000000000000000e+00 -0.000000000000000000e+00 -0.000000000000000000e+00 -0.000000000000000000e+00 0.000000000000000000e+00 2.787068858742713928e-02 0.000000000000000000e+00 0.000000000000000000e+00 0.000000000000000000e+00 -4.331400990486145020e-02 0.000000000000000000e+00 0.000000000000000000e+00 -5.655406787991523743e-02 2.689328789710998535e-02 2.431256696581840515e-02 -3.756476566195487976e-02 -2.370643056929111481e-02 -0.000000000000000000e+00 4.199398308992385864e-02 -0.000000000000000000e+00 -2.181024290621280670e-02 6.356707960367202759e-02 0.000000000000000000e+00 -3.903688117861747742e-02 0.000000000000000000e+00 2.278963103890419006e-02 3.301984816789627075e-02 3.637260571122169495e-02 -4.372068494558334351e-02 0.000000000000000000e+00 -2.639489434659481049e-02 0.000000000000000000e+00 2.629472687840461731e-02 -4.613484069705009460e-02 -0.000000000000000000e+00 -0.000000000000000000e+00 -0.000000000000000000e+00 -2.352529950439929962e-02 2.174958772957324982e-02 3.414808213710784912e-02 -4.957535862922668457e-02 0.000000000000000000e+00 -0.000000000000000000e+00 3.489597886800765991e-02 0.000000000000000000e+00 -0.000000000000000000e+00 -2.979088202118873596e-02 4.047438502311706543e-02 -2.586550638079643250e-02 -3.068415261805057526e-02 1.931957527995109558e-02 -3.984923660755157471e-02 -0.000000000000000000e+00 2.383805252611637115e-02 0.000000000000000000e+00 2.555459178984165192e-02 -2.781005576252937317e-02 -5.592350289225578308e-02 -0.000000000000000000e+00 -6.427229940891265869e-02 -4.688498005270957947e-02 0.000000000000000000e+00 -3.924527764320373535e-02 -0.000000000000000000e+00 -3.095781989395618439e-02 -8.528915047645568848e-02 0.000000000000000000e+00 -0.000000000000000000e+00 -3.992158174514770508e-02 0.000000000000000000e+00 -0.000000000000000000e+00 2.797995880246162415e-02 1.963659189641475677e-02 -2.781609632074832916e-02 -3.789159283041954041e-02 -0.000000000000000000e+00 -2.908141911029815674e-02 -0.000000000000000000e+00 0.000000000000000000e+00 -0.000000000000000000e+00 5.204052850604057312e-02 -3.509037196636199951e-02 2.073192596435546875e-02 -0.000000000000000000e+00 -4.406001046299934387e-02 -5.742296949028968811e-02 -0.000000000000000000e+00 -0.000000000000000000e+00 3.072514571249485016e-02 5.561908707022666931e-02 2.609466202557086945e-02 2.353478409349918365e-02 4.110997915267944336e-02 -2.527127787470817566e-02 -0.000000000000000000e+00 -2.175582759082317352e-02 -5.977842211723327637e-02 -2.683743089437484741e-02 0.000000000000000000e+00 -1.991852372884750366e-02 8.092928677797317505e-02 -0.000000000000000000e+00 -0.000000000000000000e+00 0.000000000000000000e+00 -0.000000000000000000e+00 0.000000000000000000e+00 -4.487785324454307556e-02 1.962307654321193695e-02 -3.251442685723304749e-02 3.583061695098876953e-02 -6.403975933790206909e-02 0.000000000000000000e+00 -0.000000000000000000e+00 -2.489299699664115906e-02 -2.721033059060573578e-02 2.088422141969203949e-02 -2.987550944089889526e-02 -2.996433340013027191e-02 0.000000000000000000e+00 0.000000000000000000e+00 0.000000000000000000e+00 0.000000000000000000e+00 -2.302155084908008575e-02 0.000000000000000000e+00 -2.397457510232925415e-02 -3.511301055550575256e-02 4.752858728170394897e-02 -0.000000000000000000e+00 -0.000000000000000000e+00 2.708475105464458466e-02 -2.128184586763381958e-02 3.023203834891319275e-02 5.795586481690406799e-02 0.000000000000000000e+00 2.772936783730983734e-02 3.512249514460563660e-02 -0.000000000000000000e+00 6.140210479497909546e-02 -2.587785199284553528e-02 4.818322882056236267e-02 -3.147072345018386841e-02 -0.000000000000000000e+00 -0.000000000000000000e+00 0.000000000000000000e+00 -0.000000000000000000e+00 2.032527141273021698e-02 4.919212311506271362e-02 0.000000000000000000e+00 -0.000000000000000000e+00 5.813429504632949829e-02 -3.291950747370719910e-02 -2.215928025543689728e-02 -2.025781571865081787e-02 -3.533497080206871033e-02 -0.000000000000000000e+00 -2.324072085320949554e-02 0.000000000000000000e+00 -0.000000000000000000e+00 -0.000000000000000000e+00
0.000000000000000000e+00 8.599134534597396851e-02 0.000000000000000000e+00 -5.482265353202819824e-02 -0.000000000000000000e+00 -1.369802802801132202e-01 3.888453170657157898e-02 0.000000000000000000e+00 -2.031953446567058563e-02 5.611263588070869446e-02 2.189987525343894958e-02 4.478181526064872742e-02 -0.000000000000000000e+00 2.363173104822635651e-02 -0.000000000000000000e+00 2.596031501889228821e-02 -2.228087745606899261e-02 -3.671584650874137878e-02 -0.000000000000000000e+00 0.000000000000000000e+00 -0.000000000000000000e+00 -3.365064039826393127e-02 0.000000000000000000e+00 -0.000000000000000000e+00 3.595483303070068359e-02 2.655458264052867889e-02 0.000000000000000000e+00 -0.000000000000000000e+00 -0.000000000000000000e+00 -0.000000000000000000e+00 1.938674226403236389e-02 -1.993845961987972260e-02 4.352303966879844666e-02 -8.895448595285415649e-02 8.508580923080444336e-02 3.300350531935691833e-02 0.000000000000000000e+00 -8.784234523773193359e-02 0.000000000000000000e+00 -4.916971549391746521e-02 1.902603730559349060e-02 -3.090054914355278015e-02 -1.249462738633155823e-01 4.942178726196289062e-02 0.000000000000000000e+00 -2.253263071179389954e-02 0.000000000000000000e+00 0.000000000000000000e+00 4.090911522507667542e-02 0.000000000000000000e+00 0.000000000000000000e+00 -0.000000000000000000e+00 -4.995265603065490723e-02 0.000000000000000000e+00 0.000000000000000000e+00 -2.425363101065158844e-02 0.000000000000000000e+00 4.195580258965492249e-02 0.000000000000000000e+00 0.000000000000000000e+00 6.197666004300117493e-02 -1.144582256674766541e-01 -3.620468080043792725e-02 0.000000000000000000e+00 0.000000000000000000e+00 5.845193192362785339e-02 -2.064048685133457184e-02 -2.262118645012378693e-02 1.289044767618179321e-01 7.831698656082153320e-02 -7.073760777711868286e-02 8.640251308679580688e-02 -2.052638307213783264e-02 -2.607621066272258759e-02 -0.000000000000000000e+00 -0.000000000000000000e+00 -0.000000000000000000e+00 -0.000000000000000000e+00 7.252643257379531860e-02 0.000000000000000000e+00 -0.000000000000000000e+00 -0.000000000000000000e+00 -2.737854979932308197e-02 5.720635876059532166e-02 -0.000000000000000000e+00 6.607157737016677856e-02 -0.000000000000000000e+00 -3.387951850891113281e-02 -4.482036083936691284e-02 -0.000000000000000000e+00 -1.294116377830505371e-01 2.335752546787261963e-02 5.644161254167556763e-02 -8.164096623659133911e-02 -0.000000000000000000e+00 -4.917114973068237305e-02 0.000000000000000000e+00 -0.000000000000000000e+00 5.591817945241928101e-02 -2.125938236713409424e-02 0.000000000000000000e+00 0.000000000000000000e+00 0.000000000000000000e+00 -4.431868717074394226e-02 0.000000000000000000e+00 -2.459059096872806549e-02 -2.124638669192790985e-02 2.382482588291168213e-02 -1.908316835761070251e-02 -0.000000000000000000e+00 -0.000000000000000000e+00 -1.027076914906501770e-01 4.458555951714515686e-02 0.000000000000000000e+00 -0.000000000000000000e+00 -0.000000000000000000e+00 -2.491516992449760437e-02 -0.000000000000000000e+00 -0.000000000000000000e+00 0.000000000000000000e+00 2.520728297531604767e-02 3.072828240692615509e-02 0.000000000000000000e+00 -0.000000000000000000e+00 -0.000000000000000000e+00 3.965567797422409058e-02 -3.529671207070350647e-02 -3.611625730991363525e-02 5.046321451663970947e-02 -3.408992663025856018e-02 -2.564251422882080078e-02 0.000000000000000000e+00 -1.242579966783523560e-01 2.136971987783908844e-02 -1.905116811394691467e-02 0.000000000000000000e+00 -3.849859535694122314e-02 -2.564093843102455139e-02 -0.000000000000000000e+00 2.812545746564865112e-02 -5.590415373444557190e-02 5.162467062473297119e-02 0.000000000000000000e+00 1.058550328016281128e-01 -2.408612519502639771e-02 0.000000000000000000e+00 0.000000000000000000e+00 -3.851442039012908936e-02 0.000000000000000000e+00 -0.000000000000000000e+00 -0.000000000000000000e+00 -0.000000000000000000e+00 -2.876337245106697083e-02 0.000000000000000000e+00 4.707313701510429382e-02 0.000000000000000000e+00 -5.412921682000160217e-02 -3.613917529582977295e-02 -0.000000000000000000e+00 5.143809691071510315e-02 0.000000000000000000e+00 3.949274495244026184e-02 -3.887243196368217468e-02 -3.551989793777465820e-02 -0.000000000000000000e+00 -0.000000000000000000e+00 -2.201442420482635498e-02 -0.000000000000000000e+00 -0.000000000000000000e+00 -3.839936852455139160e-02 0.000000000000000000e+00 6.710079312324523926e-02 -0.000000000000000000e+00 -3.015380725264549255e-02 3.918451815843582153e-02 -3.111331723630428314e-02 0.000000000000000000e+00 -2.151377126574516296e-02 0.000000000000000000e+00 -0.000000000000000000e+00 2.267062105238437653e-02 4.394101724028587341e-02 0.000000000000000000e+00 -0.000000000000000000e+00 -0.000000000000000000e+00 -6.237762048840522766e-02 -3.035865724086761475e-02 0.000000000000000000e+00 -4.349229484796524048e-02 -4.918057098984718323e-02 7.749626040458679199e-02 3.842808678746223450e-02 3.514199331402778625e-02 -2.162304706871509552e-02 0.000000000000000000e+00 3.504534810781478882e-02 -4.891290143132209778e-02 -0.000000000000000000e+00 -0.000000000000000000e+00 -0.000000000000000000e+00 3.918724507093429565e-02 6.572530418634414673e-02 -1.159915402531623840e-01 0.000000000000000000e+00 2.559950388967990875e-02 -0.000000000000000000e+00 7.855120301246643066e-02 -0.000000000000000000e+00 3.814590349793434143e-02 -0.000000000000000000e+00 -8.350376784801483154e-02 -0.000000000000000000e+00 0.000000000000000000e+00 0.000000000000000000e+00 -2.724446170032024384e-02 2.144979313015937805e-02 -0.000000000000000000e+00 5.345886200666427612e-02 -4.870650917291641235e-02 4.467175900936126709e-02 -2.169345133006572723e-02 -4.208977892994880676e-02 -0.000000000000000000e+00 2.042702771723270416e-02 -3.419753164052963257e-02 0.000000000000000000e+00 0.000000000000000000e+00 -0.000000000000000000e+00 0.000000000000000000e+00 -0.000000000000000000e+00 -0.000000000000000000e+00 -5.628889799118041992e-02 2.803914807736873627e-02 0.000000000000000000e+00 2.813082188367843628e-02 -1.321737617254257202e-01 -3.629859909415245056e-02 0.000000000000000000e+00 -8.108827471733093262e-02 0.000000000000000000e+00 -0.000000000000000000e+00 3.716011345386505127e-02 -0.000000000000000000e+00 -4.312176629900932312e-02 1.403581947088241577e-01 -3.380585834383964539e-02 0.000000000000000000e+00 0.000000000000000000e+00 2.191082388162612915e-02 -2.603640221059322357e-02 3.015362657606601715e-02 1.949334889650344849e-02 -3.811483085155487061e-02 0.000000000000000000e+00 0.000000000000000000e+00 -0.000000000000000000e+00
3.137688711285591125e-02 6.969284266233444214e-02 -2.295420132577419281e-02 0.000000000000000000e+00 -5.412981659173965454e-02 -0.000000000000000000e+00 0.000000000000000000e+00 0.000000000000000000e+00 0.000000000000000000e+00 -3.175612539052963257e-02 2.873201854526996613e-02 6.259878724813461304e-02 -0.000000000000000000e+00 -0.000000000000000000e+00 -0.000000000000000000e+00 3.633555024862289429e-02 0.000000000000000000e+00 0.000000000000000000e+00 0.000000000000000000e+00 2.643744088709354401e-02 -0.000000000000000000e+00 -3.613406419754028320e-02 -0.000000000000000000e+00 -0.000000000000000000e+00 4.931399226188659668e-02 0.000000000000000000e+00 5.250649526715278625e-02 2.849991060793399811e-02 6.100000068545341492e-02 0.000000000000000000e+00 -0.000000000000000000e+00 2.468284964561462402e-02 9.955217689275741577e-02 -9.147234261035919189e-02 -7.232092320919036865e-02 2.725148573517799377e-02 -0.000000000000000000e+00 -6.262459605932235718e-02 -0.000000000000000000e+00 -6.264797598123550415e-02 -0.000000000000000000e+00 -2.190083451569080353e-02 4.063593968749046326e-02 -4.040599986910820007e-02 -0.000000000000000000e+00 -8.659655600786209106e-02 -6.009021028876304626e-02 -2.534515410661697388e-02 0.000000000000000000e+00 0.000000000000000000e+00 2.026400528848171234e-02 5.261278897523880005e-02 0.000000000000000000e+00 -0.000000000000000000e+00 -2.485356479883193970e-02 2.905559167265892029e-02 -2.645214088261127472e-02 1.316595971584320068e-01 -5.019021034240722656e-02 -2.968195825815200806e-02 -3.764933720231056213e-02 2.039573155343532562e-02 3.593379259109497070e-02 -2.143861725926399231e-02 -0.000000000000000000e+00 4.428662359714508057e-02 1.905342563986778259e-02 3.112596832215785980e-02 1.620434969663619995e-01 0.000000000000000000e+00 5.776244774460792542e-02 -7.774294912815093994e-02 -9.664965420961380005e-02 2.233911305665969849e-02 -3.162798658013343811e-02 3.080017119646072388e-02 -0.000000000000000000e+00 -3.931637853384017944e-02 0.000000000000000000e+00 -5.502461269497871399e-02 -0.000000000000000000e+00 -2.118034660816192627e-02 -0.000000000000000000e+00 -0.000000000000000000e+00 0.000000000000000000e+00 -3.657736256718635559e-02 4.893114417791366577e-02 2.515790425240993500e-02 -0.000000000000000000e+00 -4.148656129837036133e-02 -6.590743362903594971e-02 2.720689028501510620e-02 -0.000000000000000000e+00 -0.000000000000000000e+00 -2.699697762727737427e-02 1.991633698344230652e-02 2.462712861597537994e-02 4.620696231722831726e-02 4.280433803796768188e-02 2.560708299279212952e-02 -2.111157588660717010e-02 -0.000000000000000000e+00 -4.840699583292007446e-02 2.700484544038772583e-02 1.375208646059036255e-01 -2.149509079754352570e-02 -1.128075048327445984e-01 2.045490592718124390e-02 -2.195851691067218781e-02 -0.000000000000000000e+00 -6.370889395475387573e-02 -4.006736725568771362e-02 -2.059717476367950439e-02 -0.000000000000000000e+00 -2.435274794697761536e-02 -7.815696299076080322e-02 0.000000000000000000e+00 -0.000000000000000000e+00 -0.000000000000000000e+00 2.415175922214984894e-02 1.984563283622264862e-02 -2.983076870441436768e-02 -4.139867052435874939e-02 0.000000000000000000e+00 0.000000000000000000e+00 0.000000000000000000e+00 -0.000000000000000000e+00 0.000000000000000000e+00 -0.000000000000000000e+00 -3.473336249589920044e-02 2.050987780094146729e-01 4.394200816750526428e-02 7.737179100513458252e-02 -2.176407724618911743e-02 -5.252339318394660950e-02 -0.000000000000000000e+00 0.000000000000000000e+00 -0.000000000000000000e+00 2.806665562093257904e-02 -0.000000000000000000e+00 0.000000000000000000e+00 0.000000000000000000e+00 0.000000000000000000e+00 0.000000000000000000e+00 0.000000000000000000e+00 -0.000000000000000000e+00 3.325200825929641724e-02 -3.542614728212356567e-02 -0.000000000000000000e+00 0.000000000000000000e+00 0.000000000000000000e+00 -4.715367034077644348e-02 -8.781145513057708740e-02 -2.317730337381362915e-02 -3.690043091773986816e-02 0.000000000000000000e+00 0.000000000000000000e+00 4.718742892146110535e-02 -5.781924724578857422e-02 -9.596326947212219238e-02 -0.000000000000000000e+00 7.136159390211105347e-02 -4.884969070553779602e-02 -0.000000000000000000e+00 -0.000000000000000000e+00 2.239318192005157471e-02 2.037465572357177734e-02 -0.000000000000000000e+00 -1.954495161771774292e-02 -3.183917701244354248e-02 -0.000000000000000000e+00 6.334310770034790039e-02 0.000000000000000000e+00 -0.000000000000000000e+00 -0.000000000000000000e+00 -0.000000000000000000e+00 3.211608529090881348e-02 -0.000000000000000000e+00 -2.319497801363468170e-02 0.000000000000000000e+00 -2.676560916006565094e-02 2.526367828249931335e-02 0.000000000000000000e+00 1.994683034718036652e-02 -0.000000000000000000e+00 -4.859944060444831848e-02 0.000000000000000000e+00 2.152392826974391937e-02 5.292563885450363159e-02 -0.000000000000000000e+00 -0.000000000000000000e+00 -1.083137318491935730e-01 0.000000000000000000e+00 6.785946339368820190e-02 7.029298692941665649e-02 3.049825690686702728e-02 -0.000000000000000000e+00 -4.720655456185340881e-02 -0.000000000000000000e+00 -0.000000000000000000e+00 -0.000000000000000000e+00 -3.821206837892532349e-02 -6.961572915315628052e-02 0.000000000000000000e+00 -2.563144080340862274e-02 -0.000000000000000000e+00 0.000000000000000000e+00 -0.000000000000000000e+00 2.268089726567268372e-02 -0.000000000000000000e+00 -5.354244261980056763e-02 -0.000000000000000000e+00 -0.000000000000000000e+00 -0.000000000000000000e+00 2.674665488302707672e-02 -3.367359191179275513e-02 0.000000000000000000e+00 -0.000000000000000000e+00 0.000000000000000000e+00 -0.000000000000000000e+00 -0.000000000000000000e+00 3.209456056356430054e-02 0.000000000000000000e+00 2.056197822093963623e-02 0.000000000000000000e+00 -2.027909271419048309e-02 -0.000000000000000000e+00 -0.000000000000000000e+00 -0.000000000000000000e+00 0.000000000000000000e+00 -5.119444802403450012e-02 -0.000000000000000000e+00 0.000000000000000000e+00 0.000000000000000000e+00 -0.000000000000000000e+00 5.708085000514984131e-02 -1.933588832616806030e-02 -2.352257631719112396e-02 -0.000000000000000000e+00 2.384698949754238129e-02 7.563102245330810547e-02 -0.000000000000000000e+00 -0.000000000000000000e+00 -1.079805344343185425e-01 5.654881522059440613e-02 0.000000000000000000e+00 5.338363349437713623e-02 -0.000000000000000000e+00 0.000000000000000000e+00 7.027648389339447021e-02 -0.000000000000000000e+00 -3.142658993601799011e-02 -3.070487268269062042e-02 -3.423434495925903320e-02 -0.000000000000000000e+00 -0.000000000000000000e+00
-0.000000000000000000e+00 -0.000000000000000000e+00 -2.820038981735706329e-02 -0.000000000000000000e+00 0.000000000000000000e+00 -0.000000000000000000e+00 -4.615956172347068787e-02 -2.704338170588016510e-02 -4.542301222681999207e-02 -3.953003138303756714e-02 -4.030529782176017761e-02 3.278608247637748718e-02 -0.000000000000000000e+00 0.000000000000000000e+00 0.000000000000000000e+00 -7.639149576425552368e-02 -2.364862337708473206e-02 -0.000000000000000000e+00 -0.000000000000000000e+00 2.879264205694198608e-02 -3.670338541269302368e-02 5.199657008051872253e-02 -4.631754010915756226e-02 -2.139997109770774841e-02 -0.000000000000000000e+00 0.000000000000000000e+00 0.000000000000000000e+00 -3.887046128511428833e-02 0.000000000000000000e+00 -0.000000000000000000e+00 -0.000000000000000000e+00 -0.000000000000000000e+00 2.009169198572635651e-02 3.734842687845230103e-02 -0.000000000000000000e+00 -2.531502768397331238e-02 -0.000000000000000000e+00 2.093742974102497101e-02 -2.709929831326007843e-02 -0.000000000000000000e+00 0.000000000000000000e+00 -0.000000000000000000e+00 -2.000988647341728210e-02 -0.000000000000000000e+00 -0.000000000000000000e+00 2.524476870894432068e-02 -3.008752502501010895e-02 1.868931017816066742e-02 -0.000000000000000000e+00 1.951530016958713531e-02 -0.000000000000000000e+00 -0.000000000000000000e+00 6.203932315111160278e-02 4.483613744378089905e-02 -3.883712738752365112e-02 2.875067479908466339e-02 0.000000000000000000e+00 -0.000000000000000000e+00 -3.210229054093360901e-02 -0.000000000000000000e+00 0.000000000000000000e+00 -6.508064270019531250e-02 0.000000000000000000e+00 0.000000000000000000e+00 -0.000000000000000000e+00 0.000000000000000000e+00 0.000000000000000000e+00 0.000000000000000000e+00 -2.534388191998004913e-02 3.499402478337287903e-02 4.647185280919075012e-02 0.000000000000000000e+00 0.000000000000000000e+00 -0.000000000000000000e+00 -2.300888113677501678e-02 0.000000000000000000e+00 3.215948864817619324e-02 0.000000000000000000e+00 0.000000000000000000e+00 -0.000000000000000000e+00 -0.000000000000000000e+00 -4.265804216265678406e-02 0.000000000000000000e+00 0.000000000000000000e+00 -0.000000000000000000e+00 -0.000000000000000000e+00 -0.000000000000000000e+00 -0.000000000000000000e+00 -0.000000000000000000e+00 5.065670982003211975e-02 -3.626093268394470215e-02 0.000000000000000000e+00 -0.000000000000000000e+00 0.000000000000000000e+00 0.000000000000000000e+00 0.000000000000000000e+00 -0.000000000000000000e+00 4.893115162849426270e-02 2.905250526964664459e-02 -3.950942307710647583e-02 -0.000000000000000000e+00 2.952595427632331848e-02 -0.000000000000000000e+00 2.699743770062923431e-02 0.000000000000000000e+00 0.000000000000000000e+00 -3.144529461860656738e-02 -2.984036132693290710e-02 -4.117478430271148682e-02 0.000000000000000000e+00 5.149142816662788391e-02 0.000000000000000000e+00 -5.327949300408363342e-02 0.000000000000000000e+00 0.000000000000000000e+00 1.907701790332794189e-02 0.000000000000000000e+00 0.000000000000000000e+00 0.000000000000000000e+00 4.660653695464134216e-02 0.000000000000000000e+00 -0.000000000000000000e+00 1.906433887779712677e-02 -0.000000000000000000e+00 2.751939930021762848e-02 0.000000000000000000e+00 3.228661790490150452e-02 0.000000000000000000e+00 -2.724647521972656250e-02 2.167129889130592346e-02 2.856024913489818573e-02 6.404528766870498657e-02 0.000000000000000000e+00 0.000000000000000000e+00 -0.000000000000000000e+00 2.106673642992973328e-02 -7.005377858877182007e-02 -3.461729362607002258e-02 -2.433536387979984283e-02 0.000000000000000000e+00 1.962020061910152435e-02 0.000000000000000000e+00 -0.000000000000000000e+00 -2.049678005278110504e-02 4.865524545311927795e-02 0.000000000000000000e+00 4.646513983607292175e-02 -1.919554360210895538e-02 -0.000000000000000000e+00 -0.000000000000000000e+00 -0.000000000000000000e+00 -2.467215247452259064e-02 0.000000000000000000e+00 2.583811059594154358e-02 3.617014735937118530e-02 -0.000000000000000000e+00 0.000000000000000000e+00 -0.000000000000000000e+00 -0.000000000000000000e+00 2.293641492724418640e-02 -1.908636838197708130e-02 0.000000000000000000e+00 -0.000000000000000000e+00 6.359482556581497192e-02 0.000000000000000000e+00 0.000000000000000000e+00 0.000000000000000000e+00 0.000000000000000000e+00 0.000000000000000000e+00 -5.612777918577194214e-02 -3.860877081751823425e-02 -0.000000000000000000e+00 0.000000000000000000e+00 0.000000000000000000e+00 0.000000000000000000e+00 0.000000000000000000e+00 0.000000000000000000e+00 -2.978540025651454926e-02 0.000000000000000000e+00 -0.000000000000000000e+00 0.000000000000000000e+00 -7.729724049568176270e-02 0.000000000000000000e+00 -0.000000000000000000e+00 -0.000000000000000000e+00 0.000000000000000000e+00 -0.000000000000000000e+00 6.225616484880447388e-02 4.866259917616844177e-02 0.000000000000000000e+00 -2.362372167408466339e-02 0.000000000000000000e+00 -2.661073207855224609e-02 -1.960770785808563232e-02 0.000000000000000000e+00 2.015274204313755035e-02 0.000000000000000000e+00 0.000000000000000000e+00 -4.596650227904319763e-02 -0.000000000000000000e+00 -0.000000000000000000e+00 -3.826559334993362427e-02 0.000000000000000000e+00 0.000000000000000000e+00 0.000000000000000000e+00 2.102499641478061676e-02 -5.378298833966255188e-02 2.856795862317085266e-02 0.000000000000000000e+00 -2.184600010514259338e-02 -2.831281162798404694e-02 0.000000000000000000e+00 4.805729910731315613e-02 3.719355911016464233e-02 -2.059652470052242279e-02 -3.333807364106178284e-02 0.000000000000000000e+00 -2.458885870873928070e-02 -0.000000000000000000e+00 -0.000000000000000000e+00 6.631745398044586182e-02 -0.000000000000000000e+00 -4.137494042515754700e-02 -0.000000000000000000e+00 -0.000000000000000000e+00 0.000000000000000000e+00 0.000000000000000000e+00 -0.000000000000000000e+00 0.000000000000000000e+00 -0.000000000000000000e+00 -0.000000000000000000e+00 6.605337560176849365e-02 0.000000000000000000e+00 3.750706836581230164e-02 -0.000000000000000000e+00 -3.377791121602058411e-02 0.000000000000000000e+00 -0.000000000000000000e+00 0.000000000000000000e+00 -4.747842252254486084e-02 2.548287063837051392e-02 0.000000000000000000e+00 1.907769963145256042e-02 -0.000000000000000000e+00 0.000000000000000000e+00 2.404769323766231537e-02 -0.000000000000000000e+00 -0.000000000000000000e+00 -0.000000000000000000e+00 0.000000000000000000e+00 0.000000000000000000e+00 -3.434508666396141052e-02 3.195949271321296692e-02 -0.000000000000000000e+00 -0.000000000000000000e+00 -3.166063874959945679e-02
2.089660242199897766e-02 2.878714911639690399e-02 -0.000000000000000000e+00 -2.167611755430698395e-02 -3.980013728141784668e-02 0.000000000000000000e+00 2.057504467666149139e-02 -0.000000000000000000e+00 4.139585793018341064e-02 -0.000000000000000000e+00 6.671567261219024658e-02 3.050965070724487305e-02 -0.000000000000000000e+00 2.283947728574275970e-02 -2.848867326974868774e-02 -0.000000000000000000e+00 -2.108074724674224854e-02 -0.000000000000000000e+00 3.926470875740051270e-02 -0.000000000000000000e+00 -2.698976919054985046e-02 -2.819981612265110016e-02 -3.528825193643569946e-02 -0.000000000000000000e+00 0.000000000000000000e+00 -0.000000000000000000e+00 -2.968936599791049957e-02 -3.209006413817405701e-02 -4.961219802498817444e-02 -0.000000000000000000e+00 -0.000000000000000000e+00 -0.000000000000000000e+00 2.622480876743793488e-02 0.000000000000000000e+00 0.000000000000000000e+00 -0.000000000000000000e+00 -4.059629887342453003e-02 0.000000000000000000e+00 -3.435971587896347046e-02 0.000000000000000000e+00 -0.000000000000000000e+00 -0.000000000000000000e+00 -4.125073179602622986e-02 -0.000000000000000000e+00 -0.000000000000000000e+00 0.000000000000000000e+00 -0.000000000000000000e+00 -0.000000000000000000e+00 -0.000000000000000000e+00 3.055638633668422699e-02 0.000000000000000000e+00 0.000000000000000000e+00 -5.239149928092956543e-02 0.000000000000000000e+00 -3.387588262557983398e-02 4.389805719256401062e-02 0.000000000000000000e+00 -0.000000000000000000e+00 -0.000000000000000000e+00 -2.029702998697757721e-02 -0.000000000000000000e+00 3.496801853179931641e-02 0.000000000000000000e+00 0.000000000000000000e+00 -3.848196566104888916e-02 -0.000000000000000000e+00 -0.000000000000000000e+00 1.890192925930023193e-02 0.000000000000000000e+00 -2.169641852378845215e-02 -2.625083364546298981e-02 0.000000000000000000e+00 -3.821358084678649902e-02 -0.000000000000000000e+00 2.078966051340103149e-02 -0.000000000000000000e+00 3.341555967926979065e-02 0.000000000000000000e+00 -3.213809803128242493e-02 2.911269478499889374e-02 2.467651851475238800e-02 -2.609588205814361572e-02 -0.000000000000000000e+00 5.173612758517265320e-02 -0.000000000000000000e+00 -4.399617016315460205e-02 -0.000000000000000000e+00 0.000000000000000000e+00 -2.428293786942958832e-02 -6.731417775154113770e-02 2.611388452351093292e-02 -0.000000000000000000e+00 -0.000000000000000000e+00 -0.000000000000000000e+00 -2.152554132044315338e-02 2.477127872407436371e-02 -0.000000000000000000e+00 -3.095710091292858124e-02 0.000000000000000000e+00 -3.515700250864028931e-02 0.000000000000000000e+00 -0.000000000000000000e+00 0.000000000000000000e+00 3.996691852807998657e-02 -4.259433597326278687e-02 -0.000000000000000000e+00 3.979017585515975952e-02 0.000000000000000000e+00 0.000000000000000000e+00 1.966123282909393311e-02 0.000000000000000000e+00 -0.000000000000000000e+00 -2.873812429606914520e-02 0.000000000000000000e+00 0.000000000000000000e+00 3.666448965668678284e-02 2.929691970348358154e-02 -0.000000000000000000e+00 -0.000000000000000000e+00 0.000000000000000000e+00 5.533277615904808044e-02 -0.000000000000000000e+00 8.079104125499725342e-02 -0.000000000000000000e+00 2.826900966465473175e-02 0.000000000000000000e+00 -0.000000000000000000e+00 -0.000000000000000000e+00 6.932371854782104492e-02 -3.934215754270553589e-02 0.000000000000000000e+00 0.000000000000000000e+00 -3.778631985187530518e-02 -0.000000000000000000e+00 -0.000000000000000000e+00 -0.000000000000000000e+00 -3.538076579570770264e-02 -0.000000000000000000e+00 -0.000000000000000000e+00 -0.000000000000000000e+00 0.000000000000000000e+00 0.000000000000000000e+00 0.000000000000000000e+00 -0.000000000000000000e+00 3.601718693971633911e-02 -0.000000000000000000e+00 2.369352057576179504e-02 0.000000000000000000e+00 -0.000000000000000000e+00 -0.000000000000000000e+00 -3.383822366595268250e-02 -3.349764645099639893e-02 -2.932867035269737244e-02 0.000000000000000000e+00 -2.153912186622619629e-02 -3.023169003427028656e-02 -2.879124693572521210e-02 2.397822774946689606e-02 -3.767224773764610291e-02 -3.496718034148216248e-02 -0.000000000000000000e+00 -3.044893592596054077e-02 0.000000000000000000e+00 0.000000000000000000e+00 0.000000000000000000e+00 0.000000000000000000e+00 -0.000000000000000000e+00 4.173376783728599548e-02 -0.000000000000000000e+00 -6.290119886398315430e-02 -0.000000000000000000e+00 -0.000000000000000000e+00 -0.000000000000000000e+00 -3.158109635114669800e-02 -0.000000000000000000e+00 -0.000000000000000000e+00 0.000000000000000000e+00 -2.596012316644191742e-02 -0.000000000000000000e+00 0.000000000000000000e+00 4.127600416541099548e-02 -3.387381136417388916e-02 -0.000000000000000000e+00 -2.943831309676170349e-02 -0.000000000000000000e+00 -5.003007501363754272e-02 6.854789704084396362e-02 2.107753418385982513e-02 -0.000000000000000000e+00 2.117491327226161957e-02 -2.860816940665245056e-02 -2.132599428296089172e-02 0.000000000000000000e+00 -0.000000000000000000e+00 0.000000000000000000e+00 0.000000000000000000e+00 0.000000000000000000e+00 -2.092512324452400208e-02 -0.000000000000000000e+00 2.057236060500144958e-02 2.607104182243347168e-02 0.000000000000000000e+00 -0.000000000000000000e+00 -0.000000000000000000e+00 0.000000000000000000e+00 0.000000000000000000e+00 2.527024038136005402e-02 0.000000000000000000e+00 0.000000000000000000e+00 -0.000000000000000000e+00 2.598200179636478424e-02 -0.000000000000000000e+00 0.000000000000000000e+00 4.058120027184486389e-02 0.000000000000000000e+00 0.000000000000000000e+00 0.000000000000000000e+00 -0.000000000000000000e+00 -2.648441866040229797e-02 0.000000000000000000e+00 0.000000000000000000e+00 0.000000000000000000e+00 -0.000000000000000000e+00 -0.000000000000000000e+00 -0.000000000000000000e+00 -0.000000000000000000e+00 3.675855323672294617e-02 0.000000000000000000e+00 -2.282705903053283691e-02 5.106624960899353027e-02 0.000000000000000000e+00 -2.576639689505100250e-02 5.902234837412834167e-02 -0.000000000000000000e+00 -0.000000000000000000e+00 5.409475788474082947e-02 3.972810879349708557e-02 0.000000000000000000e+00 -3.076864406466484070e-02 -2.032844349741935730e-02 -0.000000000000000000e+00 -0.000000000000000000e+00 -0.000000000000000000e+00 9.892258048057556152e-02 -1.947868056595325470e-02 1.995566301047801971e-02 -0.000000000000000000e+00 -2.745849639177322388e-02 -2.003558166325092316e-02 -0.000000000000000000e+00 2.892556786537170410e-02 -0.000000000000000000e+00 -6.674624979496002197e-02 -0.000000000000000000e+00 0.000000000000000000e+00 0.000000000000000000e+00
0.000000000000000000e+00 -0.000000000000000000e+00 2.496455609798431396e-02 -0.000000000000000000e+00 -0.000000000000000000e+00 0.000000000000000000e+00 0.000000000000000000e+00 0.000000000000000000e+00 6.137553229928016663e-02 0.000000000000000000e+00 0.000000000000000000e+00 2.458155155181884766e-02 -1.907305233180522919e-02 -0.000000000000000000e+00 -0.000000000000000000e+00 -0.000000000000000000e+00 0.000000000000000000e+00 -0.000000000000000000e+00 -2.918131835758686066e-02 -0.000000000000000000e+00 0.000000000000000000e+00 2.214021235704421997e-02 0.000000000000000000e+00 -0.000000000000000000e+00 0.000000000000000000e+00 0.000000000000000000e+00 -0.000000000000000000e+00 -4.325999319553375244e-02 -0.000000000000000000e+00 3.255718201398849487e-02 -0.000000000000000000e+00 2.853677049279212952e-02 0.000000000000000000e+00 3.386264294385910034e-02 0.000000000000000000e+00 0.000000000000000000e+00 -0.000000000000000000e+00 -0.000000000000000000e+00 0.000000000000000000e+00 -0.000000000000000000e+00 0.000000000000000000e+00 -0.000000000000000000e+00 -0.000000000000000000e+00 0.000000000000000000e+00 0.000000000000000000e+00 -5.521221086382865906e-02 3.255205228924751282e-02 -0.000000000000000000e+00 -2.515149675309658051e-02 -0.000000000000000000e+00 -0.000000000000000000e+00 -0.000000000000000000e+00 -0.000000000000000000e+00 -2.074362337589263916e-02 -0.000000000000000000e+00 3.679717704653739929e-02 0.000000000000000000e+00 -0.000000000000000000e+00 0.000000000000000000e+00 -1.917819492518901825e-02 -0.000000000000000000e+00 2.050724998116493225e-02 -0.000000000000000000e+00 -0.000000000000000000e+00 0.000000000000000000e+00 0.000000000000000000e+00 0.000000000000000000e+00 -4.886568337678909302e-02 0.000000000000000000e+00 -0.000000000000000000e+00 -0.000000000000000000e+00 0.000000000000000000e+00 -0.000000000000000000e+00 -0.000000000000000000e+00 0.000000000000000000e+00 0.000000000000000000e+00 -0.000000000000000000e+00 -5.511539056897163391e-02 -0.000000000000000000e+00 0.000000000000000000e+00 -0.000000000000000000e+00 -2.238198183476924896e-02 -0.000000000000000000e+00 0.000000000000000000e+00 -0.000000000000000000e+00 -0.000000000000000000e+00 0.000000000000000000e+00 -2.774183824658393860e-02 1.940167322754859924e-02 -2.560548484325408936e-02 -2.228524535894393921e-02 -0.000000000000000000e+00 -0.000000000000000000e+00 -0.000000000000000000e+00 -0.000000000000000000e+00 -0.000000000000000000e+00 -0.000000000000000000e+00 0.000000000000000000e+00 0.000000000000000000e+00 0.000000000000000000e+00 6.064651533961296082e-02 3.792399540543556213e-02 2.873159945011138916e-02 0.000000000000000000e+00 2.781854756176471710e-02 -0.000000000000000000e+00 0.000000000000000000e+00 0.000000000000000000e+00 -5.608175322413444519e-02 -2.101042680442333221e-02 2.790976502001285553e-02 0.000000000000000000e+00 2.785473503172397614e-02 -2.099741622805595398e-02 0.000000000000000000e+00 -0.000000000000000000e+00 0.000000000000000000e+00 2.046289108693599701e-02 0.000000000000000000e+00 -0.000000000000000000e+00 -3.386995941400527954e-02 0.000000000000000000e+00 -0.000000000000000000e+00 0.000000000000000000e+00 -6.354754418134689331e-02 -0.000000000000000000e+00 -0.000000000000000000e+00 -0.000000000000000000e+00 -0.000000000000000000e+00 -3.503965958952903748e-02 3.964721783995628357e-02 -0.000000000000000000e+00 -0.000000000000000000e+00 -0.000000000000000000e+00 2.189224585890769958e-02 0.000000000000000000e+00 0.000000000000000000e+00 2.095024287700653076e-02 0.000000000000000000e+00 0.000000000000000000e+00 -0.000000000000000000e+00 0.000000000000000000e+00 1.969104446470737457e-02 0.000000000000000000e+00 -2.215373516082763672e-02 0.000000000000000000e+00 0.000000000000000000e+00 0.000000000000000000e+00 -2.026206068694591522e-02 2.866193652153015137e-02 -0.000000000000000000e+00 -1.932022161781787872e-02 -0.000000000000000000e+00 2.234865166246891022e-02 -5.349422991275787354e-02 -0.000000000000000000e+00 -0.000000000000000000e+00 -0.000000000000000000e+00 0.000000000000000000e+00 -2.660797350108623505e-02 -0.000000000000000000e+00 -0.000000000000000000e+00 -1.881908811628818512e-02 -2.783848159015178680e-02 0.000000000000000000e+00 0.000000000000000000e+00 -0.000000000000000000e+00 0.000000000000000000e+00 -0.000000000000000000e+00 0.000000000000000000e+00 -0.000000000000000000e+00 -2.807363308966159821e-02 0.000000000000000000e+00 -0.000000000000000000e+00 0.000000000000000000e+00 0.000000000000000000e+00 0.000000000000000000e+00 -0.000000000000000000e+00 0.000000000000000000e+00 0.000000000000000000e+00 -3.075439482927322388e-02 -0.000000000000000000e+00 -0.000000000000000000e+00 -0.000000000000000000e+00 0.000000000000000000e+00 0.000000000000000000e+00 0.000000000000000000e+00 -2.503849007189273834e-02 -0.000000000000000000e+00 -0.000000000000000000e+00 -2.557976543903350830e-02 -0.000000000000000000e+00 -0.000000000000000000e+00 -2.314087003469467163e-02 0.000000000000000000e+00 0.000000000000000000e+00 -0.000000000000000000e+00 -0.000000000000000000e+00 -0.000000000000000000e+00 -2.186738885939121246e-02 -2.689713612198829651e-02 0.000000000000000000e+00 0.000000000000000000e+00 0.000000000000000000e+00 0.000000000000000000e+00 -3.426123410463333130e-02 2.608318068087100983e-02 3.601940721273422241e-02 -0.000000000000000000e+00 -0.000000000000000000e+00 0.000000000000000000e+00 -0.000000000000000000e+00 3.119749389588832855e-02 -0.000000000000000000e+00 -0.000000000000000000e+00 3.220854699611663818e-02 -0.000000000000000000e+00 0.000000000000000000e+00 0.000000000000000000e+00 -0.000000000000000000e+00 2.052124775946140289e-02 -2.153024822473526001e-02 -0.000000000000000000e+00 -0.000000000000000000e+00 -2.909691631793975830e-02 2.051434107124805450e-02 0.000000000000000000e+00 -0.000000000000000000e+00 0.000000000000000000e+00 -0.000000000000000000e+00 -0.000000000000000000e+00 -0.000000000000000000e+00 -0.000000000000000000e+00 -0.000000000000000000e+00 0.000000000000000000e+00 0.000000000000000000e+00 3.000142052769660950e-02 -0.000000000000000000e+00 -3.092172183096408844e-02 -0.000000000000000000e+00 -0.000000000000000000e+00 -0.000000000000000000e+00 0.000000000000000000e+00 -0.000000000000000000e+00 -0.000000000000000000e+00 -0.000000000000000000e+00 1.970303058624267578e-02 -0.000000000000000000e+00 0.000000000000000000e+00 0.000000000000000000e+00 0.000000000000000000e+00 0.000000000000000000e+00 -2.030647732317447662e-02 -2.446554414927959442e-02 0.000000000000000000e+00 0.000000000000000000e+00
0.000000000000000000e+00 4.152451083064079285e-02 -2.104058116674423218e-02 -4.038386419415473938e-02 0.000000000000000000e+00 0.000000000000000000e+00 0.000000000000000000e+00 0.000000000000000000e+00 0.000000000000000000e+00 3.141891956329345703e-02 -4.525943100452423096e-02 0.000000000000000000e+00 0.000000000000000000e+00 3.053620830178260803e-02 -3.610877320170402527e-02 -0.000000000000000000e+00 -0.000000000000000000e+00 -0.000000000000000000e+00 6.619621813297271729e-02 0.000000000000000000e+00 -0.000000000000000000e+00 4.818126186728477478e-02 0.000000000000000000e+00 -0.000000000000000000e+00 -0.000000000000000000e+00 -0.000000000000000000e+00 -0.000000000000000000e+00 -3.149712830781936646e-02 2.755795232951641083e-02 0.000000000000000000e+00 0.000000000000000000e+00 -0.000000000000000000e+00 -2.202247641980648041e-02 -4.878872632980346680e-02 5.190910771489143372e-02 3.561914712190628052e-02 -0.000000000000000000e+00 -2.619103714823722839e-02 -0.000000000000000000e+00 -0.000000000000000000e+00 -0.000000000000000000e+00 -0.000000000000000000e+00 2.534317038953304291e-02 2.684877440333366394e-02 -0.000000000000000000e+00 -3.579925745725631714e-02 -5.433687195181846619e-02 -0.000000000000000000e+00 5.055118352174758911e-02 0.000000000000000000e+00 2.204569615423679352e-02 2.308193966746330261e-02 -7.187224179506301880e-02 -5.903847143054008484e-02 0.000000000000000000e+00 -0.000000000000000000e+00 -3.939256072044372559e-02 0.000000000000000000e+00 0.000000000000000000e+00 7.798309624195098877e-02 0.000000000000000000e+00 3.108478523790836334e-02 -0.000000000000000000e+00 4.500231519341468811e-02 2.443627826869487762e-02 0.000000000000000000e+00 -2.550750970840454102e-02 2.949452213943004608e-02 3.283685073256492615e-02 -0.000000000000000000e+00 3.702452778816223145e-02 0.000000000000000000e+00 -3.044255450367927551e-02 -2.446963824331760406e-02 -1.991881616413593292e-02 2.944891527295112610e-02 -0.000000000000000000e+00 0.000000000000000000e+00 2.406106330454349518e-02 -0.000000000000000000e+00 -0.000000000000000000e+00 0.000000000000000000e+00 0.000000000000000000e+00 0.000000000000000000e+00 -0.000000000000000000e+00 -4.668127745389938354e-02 -2.159034460783004761e-02 0.000000000000000000e+00 -4.277545213699340820e-02 8.156026899814605713e-02 2.194306626915931702e-02 2.040522173047065735e-02 2.077538147568702698e-02 -0.000000000000000000e+00 1.963808387517929077e-02 -2.650482766330242157e-02 -2.279077470302581787e-02 4.704881086945533752e-02 -0.000000000000000000e+00 6.409624218940734863e-02 0.000000000000000000e+00 4.364466294646263123e-02 0.000000000000000000e+00 0.000000000000000000e+00 0.000000000000000000e+00 -0.000000000000000000e+00 -2.381580322980880737e-02 0.000000000000000000e+00 -2.149243839085102081e-02 0.000000000000000000e+00 -0.000000000000000000e+00 -0.000000000000000000e+00 -7.624826580286026001e-02 -1.901911944150924683e-02 -0.000000000000000000e+00 2.616352960467338562e-02 0.000000000000000000e+00 -0.000000000000000000e+00 0.000000000000000000e+00 0.000000000000000000e+00 2.714554965496063232e-02 0.000000000000000000e+00 0.000000000000000000e+00 -2.880508452653884888e-02 -0.000000000000000000e+00 -0.000000000000000000e+00 2.675596438348293304e-02 0.000000000000000000e+00 -0.000000000000000000e+00 0.000000000000000000e+00 -3.045662678778171539e-02 -2.132489532232284546e-02 -2.237001806497573853e-02 -0.000000000000000000e+00 3.862539306282997131e-02 -1.871461421251296997e-02 -2.352844178676605225e-02 0.000000000000000000e+00 -3.813406080007553101e-02 -1.865247264504432678e-02 -3.679186850786209106e-02 4.702334478497505188e-02 -3.985439985990524292e-02 -0.000000000000000000e+00 -2.965485304594039917e-02 -0.000000000000000000e+00 5.124862119555473328e-02 -4.567366093397140503e-02 3.706811368465423584e-02 -0.000000000000000000e+00 -3.050965443253517151e-02 0.000000000000000000e+00 -0.000000000000000000e+00 0.000000000000000000e+00 -0.000000000000000000e+00 -3.062703087925910950e-02 -3.990400955080986023e-02 -0.000000000000000000e+00 -0.000000000000000000e+00 2.057183347642421722e-02 0.000000000000000000e+00 0.000000000000000000e+00 0.000000000000000000e+00 2.325769700109958649e-02 0.000000000000000000e+00 -3.587061539292335510e-02 -2.925680950284004211e-02 -4.493517056107521057e-02 3.754044324159622192e-02 -0.000000000000000000e+00 -3.847825154662132263e-02 -2.125482819974422455e-02 0.000000000000000000e+00 0.000000000000000000e+00 -0.000000000000000000e+00 -0.000000000000000000e+00 -0.000000000000000000e+00 -2.855852246284484863e-02 -2.579540573060512543e-02 0.000000000000000000e+00 -0.000000000000000000e+00 -0.000000000000000000e+00 -5.298484116792678833e-02 2.642673067748546600e-02 -0.000000000000000000e+00 2.647988870739936829e-02 1.979074813425540924e-02 0.000000000000000000e+00 0.000000000000000000e+00 -0.000000000000000000e+00 5.752660334110260010e-02 -0.000000000000000000e+00 -5.426070466637611389e-02 -0.000000000000000000e+00 4.487415403127670288e-02 -3.302743285894393921e-02 -0.000000000000000000e+00 -8.960762619972229004e-02 -0.000000000000000000e+00 0.000000000000000000e+00 -2.505435422062873840e-02 0.000000000000000000e+00 -0.000000000000000000e+00 -0.000000000000000000e+00 0.000000000000000000e+00 6.275847554206848145e-02 0.000000000000000000e+00 0.000000000000000000e+00 6.533191353082656860e-02 -2.986697852611541748e-02 2.071564644575119019e-02 -2.455951273441314697e-02 2.533873729407787323e-02 -0.000000000000000000e+00 -0.000000000000000000e+00 -0.000000000000000000e+00 0.000000000000000000e+00 -0.000000000000000000e+00 -0.000000000000000000e+00 0.000000000000000000e+00 2.289294824004173279e-02 -2.965325489640235901e-02 -0.000000000000000000e+00 4.097754508256912231e-02 3.375530615448951721e-02 2.969754487276077271e-02 -0.000000000000000000e+00 0.000000000000000000e+00 -3.377055376768112183e-02 -4.203537851572036743e-02 -3.126272559165954590e-02 -3.219462931156158447e-02 -0.000000000000000000e+00 3.885683789849281311e-02 0.000000000000000000e+00 -0.000000000000000000e+00 -0.000000000000000000e+00 -1.878083311021327972e-02 -2.430204302072525024e-02 -1.892350614070892334e-02 -0.000000000000000000e+00 -0.000000000000000000e+00 0.000000000000000000e+00 -0.000000000000000000e+00 3.175894916057586670e-02 0.000000000000000000e+00 -2.503014169633388519e-02 3.069256246089935303e-02 -0.000000000000000000e+00 -0.000000000000000000e+00 -0.000000000000000000e+00 -2.322547137737274170e-02 2.284810505807399750e-02 -1.886156760156154633e-02 3.710697218775749207e-02 -0.000000000000000000e+00
6.560325622558593750e-02 -2.777991630136966705e-02 -2.559598907828330994e-02 -2.200987935066223145e-02 -2.199021354317665100e-02 -7.090995460748672485e-02 -3.792114928364753723e-02 2.145739458501338959e-02 6.564441323280334473e-02 -3.421953693032264709e-02 5.782087892293930054e-02 0.000000000000000000e+00 -0.000000000000000000e+00 -0.000000000000000000e+00 -0.000000000000000000e+00 0.000000000000000000e+00 -2.468290552496910095e-02 -0.000000000000000000e+00 0.000000000000000000e+00 2.455366589128971100e-02 -3.227777779102325439e-02 -3.958472236990928650e-02 -0.000000000000000000e+00 -5.686549842357635498e-02 0.000000000000000000e+00 -5.592968687415122986e-02 -3.321738541126251221e-02 0.000000000000000000e+00 -3.196481615304946899e-02 -0.000000000000000000e+00 0.000000000000000000e+00 7.735110819339752197e-02 2.486442402005195618e-02 -3.253779932856559753e-02 3.789010271430015564e-02 -2.714110910892486572e-02 -3.623341768980026245e-02 -3.757005557417869568e-02 4.692866280674934387e-02 -2.518212795257568359e-02 -3.283523023128509521e-02 0.000000000000000000e+00 0.000000000000000000e+00 1.057886853814125061e-01 0.000000000000000000e+00 0.000000000000000000e+00 -4.952955618500709534e-02 0.000000000000000000e+00 2.375716716051101685e-02 0.000000000000000000e+00 0.000000000000000000e+00 2.391466312110424042e-02 -4.317187890410423279e-02 -0.000000000000000000e+00 -2.419700101017951965e-02 -3.740447759628295898e-02 -2.029311470687389374e-02 -0.000000000000000000e+00 -3.663164749741554260e-02 -0.000000000000000000e+00 2.059372887015342712e-02 6.613555550575256348e-02 5.374702811241149902e-02 5.429689958691596985e-02 -0.000000000000000000e+00 3.531532362103462219e-02 0.000000000000000000e+00 -0.000000000000000000e+00 -4.361982271075248718e-02 -0.000000000000000000e+00 -1.211777329444885254e-01 0.000000000000000000e+00 4.145848378539085388e-02 -1.106627061963081360e-01 -2.549409307539463043e-02 2.155838906764984131e-02 0.000000000000000000e+00 2.029397152364253998e-02 0.000000000000000000e+00 1.120295599102973938e-01 0.000000000000000000e+00 -0.000000000000000000e+00 -5.605351552367210388e-02 -2.991926111280918121e-02 -3.078082948923110962e-02 -2.741390094161033630e-02 0.000000000000000000e+00 4.147885367274284363e-02 0.000000000000000000e+00 -0.000000000000000000e+00 6.138063222169876099e-02 0.000000000000000000e+00 0.000000000000000000e+00 -6.657242029905319214e-02 2.564408630132675171e-02 9.534588456153869629e-02 2.962618879973888397e-02 -0.000000000000000000e+00 -0.000000000000000000e+00 -0.000000000000000000e+00 3.530899435281753540e-02 0.000000000000000000e+00 -0.000000000000000000e+00 0.000000000000000000e+00 -4.240744933485984802e-02 -2.263388223946094513e-02 9.558019042015075684e-02 -2.352437563240528107e-02 -0.000000000000000000e+00 0.000000000000000000e+00 -2.963585965335369110e-02 2.944107726216316223e-02 -2.254992164671421051e-02 1.925504580140113831e-02 -4.237174242734909058e-02 -3.715547546744346619e-02 5.966076627373695374e-02 -0.000000000000000000e+00 0.000000000000000000e+00 -2.098557353019714355e-02 -0.000000000000000000e+00 2.363129518926143646e-02 0.000000000000000000e+00 2.205154486000537872e-02 0.000000000000000000e+00 0.000000000000000000e+00 0.000000000000000000e+00 0.000000000000000000e+00 2.398423850536346436e-02 4.380557686090469360e-02 0.000000000000000000e+00 0.000000000000000000e+00 -0.000000000000000000e+00 0.000000000000000000e+00 0.000000000000000000e+00 -2.421179413795471191e-02 -6.420912593603134155e-02 2.491547539830207825e-02 -0.000000000000000000e+00 -2.701445296406745911e-02 8.540245145559310913e-02 0.000000000000000000e+00 4.122778400778770447e-02 -4.659829661250114441e-02 -0.000000000000000000e+00 2.063303813338279724e-02 -3.934464976191520691e-02 -3.156182914972305298e-02 0.000000000000000000e+00 -0.000000000000000000e+00 0.000000000000000000e+00 -4.771692678332328796e-02 0.000000000000000000e+00 0.000000000000000000e+00 -3.653263673186302185e-02 0.000000000000000000e+00 2.086441405117511749e-02 4.521802067756652832e-02 -3.938965499401092529e-02 -0.000000000000000000e+00 -0.000000000000000000e+00 -0.000000000000000000e+00 0.000000000000000000e+00 -2.596227079629898071e-02 0.000000000000000000e+00 4.719505831599235535e-02 -0.000000000000000000e+00 -2.513242326676845551e-02 -0.000000000000000000e+00 0.000000000000000000e+00 4.270780086517333984e-02 -0.000000000000000000e+00 -0.000000000000000000e+00 -0.000000000000000000e+00 0.000000000000000000e+00 1.866081729531288147e-02 -0.000000000000000000e+00 0.000000000000000000e+00 2.073193527758121490e-02 -0.000000000000000000e+00 1.870716549456119537e-02 0.000000000000000000e+00 -0.000000000000000000e+00 -0.000000000000000000e+00 -3.902720659971237183e-02 -0.000000000000000000e+00 4.418920353055000305e-02 3.176051750779151917e-02 3.934914991259574890e-02 0.000000000000000000e+00 -0.000000000000000000e+00 7.604778558015823364e-02 3.500281274318695068e-02 -3.664893656969070435e-02 -0.000000000000000000e+00 0.000000000000000000e+00 -0.000000000000000000e+00 3.568795323371887207e-02 -2.498821914196014404e-02 -0.000000000000000000e+00 -3.481286019086837769e-02 -0.000000000000000000e+00 -2.195726893842220306e-02 -3.149889037013053894e-02 -0.000000000000000000e+00 2.048950269818305969e-02 7.354579120874404907e-02 -0.000000000000000000e+00 -7.456397265195846558e-02 0.000000000000000000e+00 5.145350471138954163e-02 -3.600728884339332581e-02 0.000000000000000000e+00 0.000000000000000000e+00 -0.000000000000000000e+00 2.875127643346786499e-02 0.000000000000000000e+00 -1.337376087903976440e-01 0.000000000000000000e+00 0.000000000000000000e+00 -4.715768247842788696e-02 -0.000000000000000000e+00 3.183598071336746216e-02 -1.924525760114192963e-02 0.000000000000000000e+00 3.475658595561981201e-02 0.000000000000000000e+00 2.192498929798603058e-02 2.054000645875930786e-02 3.784979879856109619e-02 0.000000000000000000e+00 -0.000000000000000000e+00 7.721882313489913940e-02 0.000000000000000000e+00 -0.000000000000000000e+00 -3.987817838788032532e-02 0.000000000000000000e+00 0.000000000000000000e+00 -0.000000000000000000e+00 -0.000000000000000000e+00 -0.000000000000000000e+00 0.000000000000000000e+00 -3.041112609207630157e-02 1.814306974411010742e-01 -6.676936149597167969e-02 2.601649239659309387e-02 0.000000000000000000e+00 -0.000000000000000000e+00 -0.000000000000000000e+00 -0.000000000000000000e+00 -0.000000000000000000e+00 0.000000000000000000e+00 0.000000000000000000e+00 -0.000000000000000000e+00 -0.000000000000000000e+00 8.385694772005081177e-02
-0.000000000000000000e+00 -3.849361836910247803e-02 0.000000000000000000e+00 -2.617486752569675446e-02 0.000000000000000000e+00 -0.000000000000000000e+00 0.000000000000000000e+00 -3.151604160666465759e-02 0.000000000000000000e+00 -0.000000000000000000e+00 0.000000000000000000e+00 -6.004736945033073425e-02 -0.000000000000000000e+00 1.985539495944976807e-02 -0.000000000000000000e+00 -0.000000000000000000e+00 -3.997379168868064880e-02 -2.933239378035068512e-02 3.122708573937416077e-02 2.925355359911918640e-02 0.000000000000000000e+00 -0.000000000000000000e+00 3.314730152487754822e-02 0.000000000000000000e+00 0.000000000000000000e+00 0.000000000000000000e+00 3.008164092898368835e-02 -2.024590037763118744e-02 -0.000000000000000000e+00 -2.769691497087478638e-02 -0.000000000000000000e+00 -0.000000000000000000e+00 -0.000000000000000000e+00 -0.000000000000000000e+00 0.000000000000000000e+00 -0.000000000000000000e+00 0.000000000000000000e+00 0.000000000000000000e+00 -3.756091743707656860e-02 -2.456481754779815674e-02 -0.000000000000000000e+00 3.391007706522941589e-02 -0.000000000000000000e+00 -0.000000000000000000e+00 3.255713358521461487e-02 0.000000000000000000e+00 -0.000000000000000000e+00 -0.000000000000000000e+00 0.000000000000000000e+00 -0.000000000000000000e+00 0.000000000000000000e+00 0.000000000000000000e+00 -0.000000000000000000e+00 -0.000000000000000000e+00 -3.451257944107055664e-02 -4.642331972718238831e-02 0.000000000000000000e+00 -0.000000000000000000e+00 -0.000000000000000000e+00 -0.000000000000000000e+00 0.000000000000000000e+00 -4.536315798759460449e-02 -1.937108673155307770e-02 -2.650228329002857208e-02 0.000000000000000000e+00 -0.000000000000000000e+00 -0.000000000000000000e+00 0.000000000000000000e+00 -0.000000000000000000e+00 0.000000000000000000e+00 -0.000000000000000000e+00 0.000000000000000000e+00 -0.000000000000000000e+00 -0.000000000000000000e+00 -0.000000000000000000e+00 -0.000000000000000000e+00 2.290660515427589417e-02 0.000000000000000000e+00 -0.000000000000000000e+00 -0.000000000000000000e+00 0.000000000000000000e+00 0.000000000000000000e+00 2.157505229115486145e-02 -0.000000000000000000e+00 0.000000000000000000e+00 0.000000000000000000e+00 -0.000000000000000000e+00 0.000000000000000000e+00 2.122615277767181396e-02 3.123494051396846771e-02 -3.097441792488098145e-02 0.000000000000000000e+00 -0.000000000000000000e+00 0.000000000000000000e+00 0.000000000000000000e+00 0.000000000000000000e+00 0.000000000000000000e+00 -0.000000000000000000e+00 0.000000000000000000e+00 -0.000000000000000000e+00 -0.000000000000000000e+00 -2.612859196960926056e-02 0.000000000000000000e+00 0.000000000000000000e+00 0.000000000000000000e+00 -0.000000000000000000e+00 -0.000000000000000000e+00 -0.000000000000000000e+00 -5.559195578098297119e-02 0.000000000000000000e+00 -0.000000000000000000e+00 -0.000000000000000000e+00 0.000000000000000000e+00 -0.000000000000000000e+00 2.988803572952747345e-02 -1.870444044470787048e-02 2.571078017354011536e-02 0.000000000000000000e+00 -2.921354584395885468e-02 -4.812077432870864868e-02 -0.000000000000000000e+00 -0.000000000000000000e+00 -0.000000000000000000e+00 0.000000000000000000e+00 -0.000000000000000000e+00 -3.137502819299697876e-02 -2.564106509089469910e-02 0.000000000000000000e+00 -0.000000000000000000e+00 -5.856966972351074219e-02 -2.179923281073570251e-02 0.000000000000000000e+00 -0.000000000000000000e+00 0.000000000000000000e+00 0.000000000000000000e+00 0.000000000000000000e+00 2.995833940804004669e-02 -0.000000000000000000e+00 3.009551763534545898e-02 -0.000000000000000000e+00 -0.000000000000000000e+00 -0.000000000000000000e+00 -1.929775811731815338e-02 -2.015560306608676910e-02 0.000000000000000000e+00 0.000000000000000000e+00 2.073352783918380737e-02 -0.000000000000000000e+00 -0.000000000000000000e+00 -0.000000000000000000e+00 -0.000000000000000000e+00 -3.188949823379516602e-02 2.423893287777900696e-02 0.000000000000000000e+00 -0.000000000000000000e+00 -1.889037527143955231e-02 -3.245417773723602295e-02 1.975091174244880676e-02 5.588992312550544739e-02 0.000000000000000000e+00 2.670943364500999451e-02 -0.000000000000000000e+00 2.530203945934772491e-02 5.440471321344375610e-02 -0.000000000000000000e+00 -2.754322066903114319e-02 0.000000000000000000e+00 -0.000000000000000000e+00 -0.000000000000000000e+00 -0.000000000000000000e+00 -0.000000000000000000e+00 -2.715787850320339203e-02 -2.426469512283802032e-02 -0.000000000000000000e+00 0.000000000000000000e+00 1.971160992980003357e-02 0.000000000000000000e+00 -2.215105295181274414e-02 0.000000000000000000e+00 0.000000000000000000e+00 -0.000000000000000000e+00 -4.563942179083824158e-02 -2.168565429747104645e-02 -0.000000000000000000e+00 -0.000000000000000000e+00 0.000000000000000000e+00 -0.000000000000000000e+00 0.000000000000000000e+00 -0.000000000000000000e+00 -3.107111342251300812e-02 0.000000000000000000e+00 0.000000000000000000e+00 0.000000000000000000e+00 0.000000000000000000e+00 0.000000000000000000e+00 -0.000000000000000000e+00 -4.220265895128250122e-02 0.000000000000000000e+00 -2.460812963545322418e-02 3.790759295225143433e-02 -6.436613202095031738e-02 0.000000000000000000e+00 0.000000000000000000e+00 -2.708464302122592926e-02 0.000000000000000000e+00 0.000000000000000000e+00 -2.328053675591945648e-02 -0.000000000000000000e+00 0.000000000000000000e+00 -0.000000000000000000e+00 0.000000000000000000e+00 0.000000000000000000e+00 -2.304549515247344971e-02 -0.000000000000000000e+00 0.000000000000000000e+00 -0.000000000000000000e+00 4.439363628625869751e-02 -0.000000000000000000e+00 -0.000000000000000000e+00 0.000000000000000000e+00 -4.617402702569961548e-02 0.000000000000000000e+00 0.000000000000000000e+00 -0.000000000000000000e+00 -0.000000000000000000e+00 2.706869505345821381e-02 -1.869865134358406067e-02 0.000000000000000000e+00 -0.000000000000000000e+00 3.258900716900825500e-02 3.517206013202667236e-02 -0.000000000000000000e+00 -0.000000000000000000e+00 -0.000000000000000000e+00 -0.000000000000000000e+00 -2.077545784413814545e-02 0.000000000000000000e+00 3.326996415853500366e-02 -2.172616869211196899e-02 0.000000000000000000e+00 -0.000000000000000000e+00 -0.000000000000000000e+00 -0.000000000000000000e+00 -2.694513276219367981e-02 -0.000000000000000000e+00 1.917429454624652863e-02 -0.000000000000000000e+00 -0.000000000000000000e+00 0.000000000000000000e+00 0.000000000000000000e+00 2.252597361803054810e-02 -0.000000000000000000e+00 2.752979472279548645e-02 -0.000000000000000000e+00 4.454176500439643860e-02 0.000000000000000000e+00
-0.000000000000000000e+00 -5.005393549799919128e-02 -0.000000000000000000e+00 -3.258965909481048584e-02 4.369919374585151672e-02 -5.502597987651824951e-02 0.000000000000000000e+00 -0.000000000000000000e+00 -2.128442190587520599e-02 2.594693936407566071e-02 0.000000000000000000e+00 0.000000000000000000e+00 -0.000000000000000000e+00 -6.316434592008590698e-02 -0.000000000000000000e+00 -7.450352609157562256e-02 0.000000000000000000e+00 0.000000000000000000e+00 0.000000000000000000e+00 4.640977457165718079e-02 -2.126326225697994232e-02 -0.000000000000000000e+00 0.000000000000000000e+00 0.000000000000000000e+00 -2.735026925802230835e-02 -0.000000000000000000e+00 -0.000000000000000000e+00 -0.000000000000000000e+00 -0.000000000000000000e+00 -0.000000000000000000e+00 -0.000000000000000000e+00 2.214079163968563080e-02 4.742880910634994507e-02 -6.040967628359794617e-02 5.763740837574005127e-02 0.000000000000000000e+00 -4.608484357595443726e-02 -0.000000000000000000e+00 -2.209602668881416321e-02 0.000000000000000000e+00 2.020374312996864319e-02 1.993665657937526703e-02 0.000000000000000000e+00 -6.464659422636032104e-02 -3.037852048873901367e-02 4.132546484470367432e-02 0.000000000000000000e+00 0.000000000000000000e+00 0.000000000000000000e+00 -0.000000000000000000e+00 -2.791239880025386810e-02 0.000000000000000000e+00 0.000000000000000000e+00 -0.000000000000000000e+00 0.000000000000000000e+00 -2.034607529640197754e-02 -4.452837631106376648e-02 4.809127002954483032e-02 0.000000000000000000e+00 -0.000000000000000000e+00 -0.000000000000000000e+00 3.000138700008392334e-02 -2.851583994925022125e-02 -0.000000000000000000e+00 -3.448902815580368042e-02 -0.000000000000000000e+00 0.000000000000000000e+00 -5.425069853663444519e-02 -2.323028445243835449e-02 -2.161199599504470825e-02 -0.000000000000000000e+00 7.566616684198379517e-02 1.191964074969291687e-01 4.324260726571083069e-02 0.000000000000000000e+00 0.000000000000000000e+00 -0.000000000000000000e+00 0.000000000000000000e+00 -2.442329190671443939e-02 3.252518922090530396e-02 2.711229771375656128e-02 9.561081230640411377e-02 -2.829928509891033173e-02 3.821361064910888672e-02 -0.000000000000000000e+00 0.000000000000000000e+00 0.000000000000000000e+00 -2.594037353992462158e-02 0.000000000000000000e+00 -6.965811550617218018e-02 0.000000000000000000e+00 -2.465603686869144440e-02 2.670053578913211823e-02 -3.018667176365852356e-02 -3.086901642382144928e-02 0.000000000000000000e+00 -0.000000000000000000e+00 -0.000000000000000000e+00 -1.955545321106910706e-02 2.839471213519573212e-02 -2.588540315628051758e-02 -4.781508445739746094e-02 -0.000000000000000000e+00 -5.477066338062286377e-02 -1.208202540874481201e-01 -0.000000000000000000e+00 5.989970266819000244e-02 -0.000000000000000000e+00 -0.000000000000000000e+00 0.000000000000000000e+00 3.591758385300636292e-02 1.005594506859779358e-01 0.000000000000000000e+00 2.001343108713626862e-02 -0.000000000000000000e+00 -0.000000000000000000e+00 -3.526857122778892517e-02 0.000000000000000000e+00 0.000000000000000000e+00 -0.000000000000000000e+00 -0.000000000000000000e+00 -0.000000000000000000e+00 0.000000000000000000e+00 4.498901218175888062e-02 -3.388803452253341675e-02 3.467585891485214233e-02 -0.000000000000000000e+00 -0.000000000000000000e+00 -0.000000000000000000e+00 0.000000000000000000e+00 -0.000000000000000000e+00 0.000000000000000000e+00 -7.935927808284759521e-02 -4.039188101887702942e-02 1.954235322773456573e-02 -2.320631034672260284e-02 -6.719230115413665771e-02 0.000000000000000000e+00 3.065601177513599396e-02 -0.000000000000000000e+00 4.694646224379539490e-02 -2.677948027849197388e-02 -4.055393487215042114e-02 -5.153157189488410950e-02 0.000000000000000000e+00 3.233117237687110901e-02 -0.000000000000000000e+00 -2.864484861493110657e-02 -0.000000000000000000e+00 -0.000000000000000000e+00 3.313773497939109802e-02 0.000000000000000000e+00 -0.000000000000000000e+00 0.000000000000000000e+00 -0.000000000000000000e+00 -0.000000000000000000e+00 3.702412173151969910e-02 -6.815082579851150513e-02 -3.644680231809616089e-02 8.460820466279983521e-02 0.000000000000000000e+00 0.000000000000000000e+00 -0.000000000000000000e+00 3.282300382852554321e-02 -0.000000000000000000e+00 2.106184139847755432e-02 -2.774244733154773712e-02 -0.000000000000000000e+00 5.027016997337341309e-02 -0.000000000000000000e+00 -2.124846912920475006e-02 -0.000000000000000000e+00 4.272310808300971985e-02 0.000000000000000000e+00 -4.049513489007949829e-02 -0.000000000000000000e+00 -0.000000000000000000e+00 4.010567441582679749e-02 0.000000000000000000e+00 0.000000000000000000e+00 -0.000000000000000000e+00 0.000000000000000000e+00 -2.625923231244087219e-02 2.276829443871974945e-02 0.000000000000000000e+00 -3.185142576694488525e-02 2.674840763211250305e-02 -3.525573387742042542e-02 -0.000000000000000000e+00 3.364780545234680176e-02 -0.000000000000000000e+00 8.981011807918548584e-02 3.535610437393188477e-02 -1.867729425430297852e-02 -8.122276514768600464e-02 -3.431409224867820740e-02 -0.000000000000000000e+00 -0.000000000000000000e+00 0.000000000000000000e+00 0.000000000000000000e+00 -2.317029982805252075e-02 0.000000000000000000e+00 -0.000000000000000000e+00 -0.000000000000000000e+00 0.000000000000000000e+00 -0.000000000000000000e+00 -2.352404035627841949e-02 0.000000000000000000e+00 0.000000000000000000e+00 0.000000000000000000e+00 2.422451227903366089e-02 2.672451920807361603e-02 0.000000000000000000e+00 -4.514081776142120361e-02 -0.000000000000000000e+00 0.000000000000000000e+00 2.787557803094387054e-02 3.049685619771480560e-02 -5.729473382234573364e-02 -1.910742558538913727e-02 -2.040979079902172089e-02 3.636855259537696838e-02 -5.460639297962188721e-02 -2.371820993721485138e-02 -2.319921925663948059e-02 -0.000000000000000000e+00 0.000000000000000000e+00 -0.000000000000000000e+00 2.625955082476139069e-02 3.276767209172248840e-02 0.000000000000000000e+00 -2.359335869550704956e-02 2.063008584082126617e-02 -3.762364387512207031e-02 -1.893958449363708496e-02 -5.224308371543884277e-02 1.078026071190834045e-01 4.073553159832954407e-02 3.865725174546241760e-02 0.000000000000000000e+00 -0.000000000000000000e+00 -5.475278198719024658e-02 -4.788514599204063416e-02 -2.573113329708576202e-02 4.890037700533866882e-02 -5.540781840682029724e-02 -0.000000000000000000e+00 -0.000000000000000000e+00 0.000000000000000000e+00 2.970006875693798065e-02 2.396283671259880066e-02 -2.929581142961978912e-02 -0.000000000000000000e+00 -1.989505998790264130e-02 2.071187458932399750e-02 2.454696595668792725e-02
